{"learner":{"attributes":{},"feature_names":["month","day_of_week","is_weekend","day_of_year","lag_1","lag_2","lag_3","lag_7","lag_14","lag_21","lag_30","roll_3_mean","roll_7_mean","roll_3_std","roll_14_mean","roll_30_mean","roll_14_std","om_temperature","om_wind_speed","om_precipitation","om_aerosol_optical_depth","rolling_3day_precip","aod_volatility_index","latitude","longitude"],"feature_types":["int","int","i","int","float","float","float","float","float","float","float","float","float","float","float","float","float","float","float","float","float","float","float","float","float"],"gradient_booster":{"model":{"gbtree_model_param":{"num_parallel_tree":"1","num_trees":"1000"},"iteration_indptr":[0,1,2,3,4,5,6,7,8,9,10,11,12,13,14,15,16,17,18,19,20,21,22,23,24,25,26,27,28,29,30,31,32,33,34,35,36,37,38,39,40,41,42,43,44,45,46,47,48,49,50,51,52,53,54,55,56,57,58,59,60,61,62,63,64,65,66,67,68,69,70,71,72,73,74,75,76,77,78,79,80,81,82,83,84,85,86,87,88,89,90,91,92,93,94,95,96,97,98,99,100,101,102,103,104,105,106,107,108,109,110,111,112,113,114,115,116,117,118,119,120,121,122,123,124,125,126,127,128,129,130,131,132,133,134,135,136,137,138,139,140,141,142,143,144,145,146,147,148,149,150,151,152,153,154,155,156,157,158,159,160,161,162,163,164,165,166,167,168,169,170,171,172,173,174,175,176,177,178,179,180,181,182,183,184,185,186,187,188,189,190,191,192,193,194,195,196,197,198,199,200,201,202,203,204,205,206,207,208,209,210,211,212,213,214,215,216,217,218,219,220,221,222,223,224,225,226,227,228,229,230,231,232,233,234,235,236,237,238,239,240,241,242,243,244,245,246,247,248,249,250,251,252,253,254,255,256,257,258,259,260,261,262,263,264,265,266,267,268,269,270,271,272,273,274,275,276,277,278,279,280,281,282,283,284,285,286,287,288,289,290,291,292,293,294,295,296,297,298,299,300,301,302,303,304,305,306,307,308,309,310,311,312,313,314,315,316,317,318,319,320,321,322,323,324,325,326,327,328,329,330,331,332,333,334,335,336,337,338,339,340,341,342,343,344,345,346,347,348,349,350,351,352,353,354,355,356,357,358,359,360,361,362,363,364,365,366,367,368,369,370,371,372,373,374,375,376,377,378,379,380,381,382,383,384,385,386,387,388,389,390,391,392,393,394,395,396,397,398,399,400,401,402,403,404,405,406,407,408,409,410,411,412,413,414,415,416,417,418,419,420,421,422,423,424,425,426,427,428,429,430,431,432,433,434,435,436,437,438,439,440,441,442,443,444,445,446,447,448,449,450,451,452,453,454,455,456,457,458,459,460,461,462,463,464,465,466,467,468,469,470,471,472,473,474,475,476,477,478,479,480,481,482,483,484,485,486,487,488,489,490,491,492,493,494,495,496,497,498,499,500,501,502,503,504,505,506,507,508,509,510,511,512,513,514,515,516,517,518,519,520,521,522,523,524,525,526,527,528,529,530,531,532,533,534,535,536,537,538,539,540,541,542,543,544,545,546,547,548,549,550,551,552,553,554,555,556,557,558,559,560,561,562,563,564,565,566,567,568,569,570,571,572,573,574,575,576,577,578,579,580,581,582,583,584,585,586,587,588,589,590,591,592,593,594,595,596,597,598,599,600,601,602,603,604,605,606,607,608,609,610,611,612,613,614,615,616,617,618,619,620,621,622,623,624,625,626,627,628,629,630,631,632,633,634,635,636,637,638,639,640,641,642,643,644,645,646,647,648,649,650,651,652,653,654,655,656,657,658,659,660,661,662,663,664,665,666,667,668,669,670,671,672,673,674,675,676,677,678,679,680,681,682,683,684,685,686,687,688,689,690,691,692,693,694,695,696,697,698,699,700,701,702,703,704,705,706,707,708,709,710,711,712,713,714,715,716,717,718,719,720,721,722,723,724,725,726,727,728,729,730,731,732,733,734,735,736,737,738,739,740,741,742,743,744,745,746,747,748,749,750,751,752,753,754,755,756,757,758,759,760,761,762,763,764,765,766,767,768,769,770,771,772,773,774,775,776,777,778,779,780,781,782,783,784,785,786,787,788,789,790,791,792,793,794,795,796,797,798,799,800,801,802,803,804,805,806,807,808,809,810,811,812,813,814,815,816,817,818,819,820,821,822,823,824,825,826,827,828,829,830,831,832,833,834,835,836,837,838,839,840,841,842,843,844,845,846,847,848,849,850,851,852,853,854,855,856,857,858,859,860,861,862,863,864,865,866,867,868,869,870,871,872,873,874,875,876,877,878,879,880,881,882,883,884,885,886,887,888,889,890,891,892,893,894,895,896,897,898,899,900,901,902,903,904,905,906,907,908,909,910,911,912,913,914,915,916,917,918,919,920,921,922,923,924,925,926,927,928,929,930,931,932,933,934,935,936,937,938,939,940,941,942,943,944,945,946,947,948,949,950,951,952,953,954,955,956,957,958,959,960,961,962,963,964,965,966,967,968,969,970,971,972,973,974,975,976,977,978,979,980,981,982,983,984,985,986,987,988,989,990,991,992,993,994,995,996,997,998,999,1000],"tree_info":[0,0,0,0,0,0,0,0,0,0,0,0,0,0,0,0,0,0,0,0,0,0,0,0,0,0,0,0,0,0,0,0,0,0,0,0,0,0,0,0,0,0,0,0,0,0,0,0,0,0,0,0,0,0,0,0,0,0,0,0,0,0,0,0,0,0,0,0,0,0,0,0,0,0,0,0,0,0,0,0,0,0,0,0,0,0,0,0,0,0,0,0,0,0,0,0,0,0,0,0,0,0,0,0,0,0,0,0,0,0,0,0,0,0,0,0,0,0,0,0,0,0,0,0,0,0,0,0,0,0,0,0,0,0,0,0,0,0,0,0,0,0,0,0,0,0,0,0,0,0,0,0,0,0,0,0,0,0,0,0,0,0,0,0,0,0,0,0,0,0,0,0,0,0,0,0,0,0,0,0,0,0,0,0,0,0,0,0,0,0,0,0,0,0,0,0,0,0,0,0,0,0,0,0,0,0,0,0,0,0,0,0,0,0,0,0,0,0,0,0,0,0,0,0,0,0,0,0,0,0,0,0,0,0,0,0,0,0,0,0,0,0,0,0,0,0,0,0,0,0,0,0,0,0,0,0,0,0,0,0,0,0,0,0,0,0,0,0,0,0,0,0,0,0,0,0,0,0,0,0,0,0,0,0,0,0,0,0,0,0,0,0,0,0,0,0,0,0,0,0,0,0,0,0,0,0,0,0,0,0,0,0,0,0,0,0,0,0,0,0,0,0,0,0,0,0,0,0,0,0,0,0,0,0,0,0,0,0,0,0,0,0,0,0,0,0,0,0,0,0,0,0,0,0,0,0,0,0,0,0,0,0,0,0,0,0,0,0,0,0,0,0,0,0,0,0,0,0,0,0,0,0,0,0,0,0,0,0,0,0,0,0,0,0,0,0,0,0,0,0,0,0,0,0,0,0,0,0,0,0,0,0,0,0,0,0,0,0,0,0,0,0,0,0,0,0,0,0,0,0,0,0,0,0,0,0,0,0,0,0,0,0,0,0,0,0,0,0,0,0,0,0,0,0,0,0,0,0,0,0,0,0,0,0,0,0,0,0,0,0,0,0,0,0,0,0,0,0,0,0,0,0,0,0,0,0,0,0,0,0,0,0,0,0,0,0,0,0,0,0,0,0,0,0,0,0,0,0,0,0,0,0,0,0,0,0,0,0,0,0,0,0,0,0,0,0,0,0,0,0,0,0,0,0,0,0,0,0,0,0,0,0,0,0,0,0,0,0,0,0,0,0,0,0,0,0,0,0,0,0,0,0,0,0,0,0,0,0,0,0,0,0,0,0,0,0,0,0,0,0,0,0,0,0,0,0,0,0,0,0,0,0,0,0,0,0,0,0,0,0,0,0,0,0,0,0,0,0,0,0,0,0,0,0,0,0,0,0,0,0,0,0,0,0,0,0,0,0,0,0,0,0,0,0,0,0,0,0,0,0,0,0,0,0,0,0,0,0,0,0,0,0,0,0,0,0,0,0,0,0,0,0,0,0,0,0,0,0,0,0,0,0,0,0,0,0,0,0,0,0,0,0,0,0,0,0,0,0,0,0,0,0,0,0,0,0,0,0,0,0,0,0,0,0,0,0,0,0,0,0,0,0,0,0,0,0,0,0,0,0,0,0,0,0,0,0,0,0,0,0,0,0,0,0,0,0,0,0,0,0,0,0,0,0,0,0,0,0,0,0,0,0,0,0,0,0,0,0,0,0,0,0,0,0,0,0,0,0,0,0,0,0,0,0,0,0,0,0,0,0,0,0,0,0,0,0,0,0,0,0,0,0,0,0,0,0,0,0,0,0,0,0,0,0,0,0,0,0,0,0,0,0,0,0,0,0,0,0,0,0,0,0,0,0,0,0,0,0,0,0,0,0,0,0,0,0,0,0,0,0,0,0,0,0,0,0,0,0,0,0,0,0,0,0,0,0,0,0,0,0,0,0,0,0,0,0,0,0,0,0,0,0,0,0,0,0,0,0,0,0,0,0,0,0,0,0,0,0,0,0,0,0,0,0,0,0,0,0,0,0,0,0,0,0,0,0,0,0,0,0,0,0,0,0,0,0,0,0,0,0,0,0,0,0,0,0,0,0,0,0,0,0,0,0,0,0,0,0,0,0,0,0,0,0,0,0,0,0,0,0,0,0,0,0,0,0,0,0,0,0,0,0,0,0,0,0,0,0,0,0,0,0,0,0,0,0,0,0,0,0,0,0,0,0,0,0,0,0,0,0,0,0,0,0,0,0,0,0,0,0],"trees":[{"base_weights":[-6.746596E-2,-1.0487035E1,3.456833E1,3.4129515E0,-1.5709326E1,1.0604421E1,4.845703E1,-1.0876932E1,1.3715145E1,-2.2593279E1,-1.0436372E1,4.591121E0,3.5861526E1,3.9253532E1,7.528304E1,-1.519422E0,-5.572608E-1,7.585785E-1,2.7099972E0,-2.3401446E0,3.1234396E-1,-1.5687995E0,-4.2517585E-1,1.8031754E0,-3.273406E-1,9.247183E0,3.0231497E0,2.2716827E0,4.7230186E0,9.368031E0,2.5652869E0],"categories":[],"categories_nodes":[],"categories_segments":[],"categories_sizes":[],"default_left":[0,0,0,0,0,1,0,0,0,0,0,0,0,0,0,0,0,0,0,0,0,0,0,0,0,0,0,0,0,0,0],"id":0,"left_children":[1,3,5,7,9,11,13,15,17,19,21,23,25,27,29,-1,-1,-1,-1,-1,-1,-1,-1,-1,-1,-1,-1,-1,-1,-1,-1],"loss_changes":[3.8903965E6,6.016051E5,8.2922525E5,3.3344875E5,2.18428E5,1.389561E5,3.86642E5,2.1876422E4,1.0811856E5,6.1157375E4,1.1187747E5,7.897976E4,5.2363484E4,1.5718838E5,3.7183575E5,0E0,0E0,0E0,0E0,0E0,0E0,0E0,0E0,0E0,0E0,0E0,0E0,0E0,0E0,0E0,0E0],"parents":[2147483647,0,0,1,1,2,2,3,3,4,4,5,5,6,6,7,7,8,8,9,9,10,10,11,11,12,12,13,13,14,14],"right_children":[2,4,6,8,10,12,14,16,18,20,22,24,26,28,30,-1,-1,-1,-1,-1,-1,-1,-1,-1,-1,-1,-1,-1,-1,-1,-1],"split_conditions":[9.25E1,5E1,2.794E2,1.8530085E1,2.17653E1,1.5911293E2,2.85E2,4.25E1,9E1,2.94E2,4.6E1,5.6E1,2.5251013E1,2.5586561E1,3.48E2,-1.519422E0,-5.572608E-1,7.585785E-1,2.7099972E0,-2.3401446E0,3.1234396E-1,-1.5687995E0,-4.2517585E-1,1.8031754E0,-3.273406E-1,9.247183E0,3.0231497E0,2.2716827E0,4.7230186E0,9.368031E0,2.5652869E0],"split_indices":[4,3,10,23,23,15,3,4,6,3,6,3,23,23,3,0,0,0,0,0,0,0,0,0,0,0,0,0,0,0,0],"split_type":[0,0,0,0,0,0,0,0,0,0,0,0,0,0,0,0,0,0,0,0,0,0,0,0,0,0,0,0,0,0,0],"sum_hessian":[1.0778E4,8.286E3,2.492E3,2.263E3,6.023E3,9.15E2,1.577E3,9.48E2,1.315E3,2.611E3,3.412E3,7.4E2,1.75E2,1.176E3,4.01E2,5.17E2,4.31E2,9.07E2,4.08E2,2.522E3,8.9E1,1.831E3,1.581E3,2.72E2,4.68E2,1.4E1,1.61E2,3.92E2,7.84E2,2.9E2,1.11E2],"tree_param":{"num_deleted":"0","num_feature":"25","num_nodes":"31","size_leaf_vector":"1"}},{"base_weights":[-1.3859741E-1,-9.797014E0,3.1063835E1,-1.6517742E1,-1.0732168E-1,5.6680386E1,2.0010798E1,-2.1781197E1,-1.2744422E1,1.0319612E1,-7.299152E0,4.1170574E1,1.0174114E2,8.035966E0,3.0615824E1,-1.3569708E0,-2.4003158E0,7.55634E-2,-1.4248383E0,3.600729E-1,2.2536795E0,-1.0669085E0,2.1596508E0,4.687779E0,-8.5393E-1,5.655573E0,1.2241344E1,2.1175225E0,-2.960571E-1,2.1954143E0,3.907702E0],"categories":[],"categories_nodes":[],"categories_segments":[],"categories_sizes":[],"default_left":[0,0,1,0,0,0,1,0,0,1,0,0,0,0,1,0,0,0,0,0,0,0,0,0,0,0,0,0,0,0,0],"id":1,"left_children":[1,3,5,7,9,11,13,15,17,19,21,23,25,27,29,-1,-1,-1,-1,-1,-1,-1,-1,-1,-1,-1,-1,-1,-1,-1,-1],"loss_changes":[3.2677155E6,5.3920675E5,7.2455525E5,9.6821375E4,2.5443712E5,5.3534975E5,2.2732619E5,3.8345938E4,6.024997E4,1.1424536E5,1.9906616E5,1.6971981E5,1.8070525E5,1.2285219E5,6.936781E4,0E0,0E0,0E0,0E0,0E0,0E0,0E0,0E0,0E0,0E0,0E0,0E0,0E0,0E0,0E0,0E0],"parents":[2147483647,0,0,1,1,2,2,3,3,4,4,5,5,6,6,7,7,8,8,9,9,10,10,11,11,12,12,13,13,14,14],"right_children":[2,4,6,8,10,12,14,16,18,20,22,24,26,28,30,-1,-1,-1,-1,-1,-1,-1,-1,-1,-1,-1,-1,-1,-1,-1,-1],"split_conditions":[9.056333E1,5.1097584E1,3E0,1.7585705E1,5.5E1,2.44E2,1.154125E2,4.3E1,4.2E1,7.7375E1,2.12E2,4.1E1,2.5586561E1,5.7E1,4.6539017E1,-1.3569708E0,-2.4003158E0,7.55634E-2,-1.4248383E0,3.600729E-1,2.2536795E0,-1.0669085E0,2.1596508E0,4.687779E0,-8.5393E-1,5.655573E0,1.2241344E1,2.1175225E0,-2.960571E-1,2.1954143E0,3.907702E0],"split_indices":[4,11,8,23,3,3,6,3,3,5,3,3,23,3,16,0,0,0,0,0,0,0,0,0,0,0,0,0,0,0,0],"split_type":[0,0,0,0,0,0,0,0,0,0,0,0,0,0,0,0,0,0,0,0,0,0,0,0,0,0,0,0,0,0,0],"sum_hessian":[1.0841E4,8.279E3,2.562E3,4.888E3,3.391E3,7.71E2,1.791E3,2.039E3,2.849E3,1.384E3,2.007E3,5.75E2,1.96E2,8.42E2,9.49E2,4.54E2,1.585E3,2.96E2,2.553E3,8.97E2,4.87E2,1.796E3,2.11E2,5.14E2,6.1E1,6.4E1,1.32E2,3.82E2,4.6E2,4.78E2,4.71E2],"tree_param":{"num_deleted":"0","num_feature":"25","num_nodes":"31","size_leaf_vector":"1"}},{"base_weights":[1.9661067E-1,-1.0784172E1,2.0587797E1,-1.4249985E1,-2.1798518E0,3.4324229E0,3.1602655E1,-6.324758E0,-1.5889546E1,5.3852572E0,-7.450307E0,-2.781041E0,2.090696E1,2.0305567E1,4.4230293E1,-1.5145516E0,-3.0653113E-1,-1.825898E0,-7.9106104E-1,1.8503189E-1,1.9762369E0,-9.46929E-1,3.2439415E0,1.08378E0,-7.636092E-1,1.4031085E0,4.9790406E0,3.3956704E0,1.262234E0,3.663222E0,6.1680274E0],"categories":[],"categories_nodes":[],"categories_segments":[],"categories_sizes":[],"default_left":[0,0,0,0,0,1,1,0,0,0,0,0,0,0,0,0,0,0,0,0,0,0,0,0,0,0,0,0,0,0,0],"id":2,"left_children":[1,3,5,7,9,11,13,15,17,19,21,23,25,27,29,-1,-1,-1,-1,-1,-1,-1,-1,-1,-1,-1,-1,-1,-1,-1,-1],"loss_changes":[2.4424218E6,2.113995E5,7.21356E5,6.557075E4,8.125851E4,1.6227278E5,3.30776E5,2.4991527E4,8.128825E4,4.2656566E4,9.933223E4,7.375918E4,7.703491E4,1.2892994E5,1.4231675E5,0E0,0E0,0E0,0E0,0E0,0E0,0E0,0E0,0E0,0E0,0E0,0E0,0E0,0E0,0E0,0E0],"parents":[2147483647,0,0,1,1,2,2,3,3,4,4,5,5,6,6,7,7,8,8,9,9,10,10,11,11,12,12,13,13,14,14],"right_children":[2,4,6,8,10,12,14,16,18,20,22,24,26,28,30,-1,-1,-1,-1,-1,-1,-1,-1,-1,-1,-1,-1,-1,-1,-1,-1],"split_conditions":[7.759615E1,5.2210255E1,2.6369232E2,4.5E1,5.6E1,1.3164412E2,1.15844925E2,3.4714287E1,2.04E2,1.07296875E2,2.51E2,5.6E1,1.7975829E2,1.5E1,9E0,-1.5145516E0,-3.0653113E-1,-1.825898E0,-7.9106104E-1,1.8503189E-1,1.9762369E0,-9.46929E-1,3.2439415E0,1.08378E0,-7.636092E-1,1.4031085E0,4.9790406E0,3.3956704E0,1.262234E0,3.663222E0,6.1680274E0],"split_indices":[11,11,10,3,3,15,11,8,3,7,3,3,12,3,0,0,0,0,0,0,0,0,0,0,0,0,0,0,0,0,0],"split_type":[0,0,0,0,0,0,0,0,0,0,0,0,0,0,0,0,0,0,0,0,0,0,0,0,0,0,0,0,0,0,0],"sum_hessian":[1.0906E4,7.089E3,3.817E3,5.053E3,2.036E3,1.493E3,2.324E3,8.67E2,4.186E3,8.36E2,1.2E3,1.102E3,3.91E2,1.228E3,1.096E3,2.31E2,6.36E2,3.199E3,9.87E2,6.73E2,1.63E2,1.142E3,5.8E1,2.9E2,8.12E2,3.18E2,7.3E1,4.36E2,7.92E2,7.74E2,3.22E2],"tree_param":{"num_deleted":"0","num_feature":"25","num_nodes":"31","size_leaf_vector":"1"}},{"base_weights":[-1.8847106E-1,2.1091574E1,-8.777777E0,-1.2109774E0,3.1873825E1,-1.1942994E1,3.7432587E0,-1.779609E1,2.7709174E0,2.528039E1,4.966645E1,-1.6875645E1,-8.742778E0,1.2256117E1,-4.645028E0,-2.2200494E0,-8.6277616E-1,-1.9526559E-1,1.3729215E0,1.3241181E0,2.965161E0,4.368809E0,1.1909865E1,-1.7237918E0,8.061172E0,-2.6561588E-1,-1.0487479E0,1.4846909E-1,1.9300548E0,-6.5967846E-1,1.2635691E-1],"categories":[],"categories_nodes":[],"categories_segments":[],"categories_sizes":[],"default_left":[0,0,1,0,0,0,0,0,0,0,1,1,0,0,0,0,0,0,0,0,0,0,0,0,0,0,0,0,0,0,0],"id":3,"left_children":[1,3,5,7,9,11,13,15,17,19,21,23,25,27,29,-1,-1,-1,-1,-1,-1,-1,-1,-1,-1,-1,-1,-1,-1,-1,-1],"loss_changes":[1.9913992E6,7.5343675E5,3.076667E5,6.754237E4,2.465125E5,9.7659625E4,1.11953734E5,7.942617E3,4.3037613E4,8.278106E4,2.2560375E5,1.0546469E5,4.0856656E4,5.966532E4,9.259836E3,0E0,0E0,0E0,0E0,0E0,0E0,0E0,0E0,0E0,0E0,0E0,0E0,0E0,0E0,0E0,0E0],"parents":[2147483647,0,0,1,1,2,2,3,3,4,4,5,5,6,6,7,7,8,8,9,9,10,10,11,11,12,12,13,13,14,14],"right_children":[2,4,6,8,10,12,14,16,18,20,22,24,26,28,30,-1,-1,-1,-1,-1,-1,-1,-1,-1,-1,-1,-1,-1,-1,-1,-1],"split_conditions":[2.1E1,7.6333336E1,7.3E1,3.094721E1,2.34E2,1.7585705E1,2.57E1,3.791E1,8.2E1,1.2106989E2,2.4814528E2,6.92638E1,2.53E1,9.681192E1,3.39E2,-2.2200494E0,-8.6277616E-1,-1.9526559E-1,1.3729215E0,1.3241181E0,2.965161E0,4.368809E0,1.1909865E1,-1.7237918E0,8.061172E0,-2.6561588E-1,-1.0487479E0,1.4846909E-1,1.9300548E0,-6.5967846E-1,1.2635691E-1],"split_indices":[17,11,6,11,7,23,17,7,7,14,11,13,17,12,10,0,0,0,0,0,0,0,0,0,0,0,0,0,0,0,0],"split_type":[0,0,0,0,0,0,0,0,0,0,0,0,0,0,0,0,0,0,0,0,0,0,0,0,0,0,0,0,0,0,0],"sum_hessian":[1.0893E4,3.132E3,7.761E3,1.021E3,2.111E3,6.195E3,1.566E3,1.97E2,8.24E2,1.542E3,5.69E2,2.436E3,3.759E3,7.77E2,7.89E2,1.31E2,6.6E1,5.77E2,2.47E2,4.22E2,1.12E3,5.27E2,4.2E1,2.426E3,1E1,8.56E2,2.903E3,3.1E2,4.67E2,5.91E2,1.98E2],"tree_param":{"num_deleted":"0","num_feature":"25","num_nodes":"31","size_leaf_vector":"1"}},{"base_weights":[2.362E-1,-6.722899E0,2.59053E1,-1.21131115E1,5.955248E-1,7.434435E0,3.589924E1,-1.5518298E1,-8.202569E0,-8.294016E0,6.0742965E0,1.7940521E1,-4.1387856E-2,2.7860699E1,5.7860577E1,-7.052812E-2,-1.6479495E0,-9.794533E-1,5.317354E-1,-1.3716809E0,-3.7744874E-1,1.7933102E0,1.5767859E-1,2.393872E0,-2.3564273E-1,-1.1257235E-1,3.5828128E0,8.62655E-1,3.2619245E0,5.218141E0,1.28100395E1],"categories":[],"categories_nodes":[],"categories_segments":[],"categories_sizes":[],"default_left":[0,0,0,0,0,0,0,0,0,0,0,0,1,0,1,0,0,0,0,0,0,0,0,0,0,0,0,0,0,0,0],"id":4,"left_children":[1,3,5,7,9,11,13,15,17,19,21,23,25,27,29,-1,-1,-1,-1,-1,-1,-1,-1,-1,-1,-1,-1,-1,-1,-1,-1],"loss_changes":[1.936386E6,3.3641856E5,4.2652062E5,6.526825E4,1.762606E5,6.3855086E4,2.6319362E5,4.0098062E4,5.068725E4,3.4014773E4,1.1998464E5,4.19345E4,1.8717178E4,1.0316569E5,1.4809838E5,0E0,0E0,0E0,0E0,0E0,0E0,0E0,0E0,0E0,0E0,0E0,0E0,0E0,0E0,0E0,0E0],"parents":[2147483647,0,0,1,1,2,2,3,3,4,4,5,5,6,6,7,7,8,8,9,9,10,10,11,11,12,12,13,13,14,14],"right_children":[2,4,6,8,10,12,14,16,18,20,22,24,26,28,30,-1,-1,-1,-1,-1,-1,-1,-1,-1,-1,-1,-1,-1,-1,-1,-1],"split_conditions":[9.6795E1,4.6333332E1,2.794E2,3.7572098E1,1.0455556E2,2.08E1,2.057E2,7.2677765E1,8E0,2.3002657E1,1.88E1,8.614017E1,2.6192307E2,2.3540436E1,4.225E-1,-7.052812E-2,-1.6479495E0,-9.794533E-1,5.317354E-1,-1.3716809E0,-3.7744874E-1,1.7933102E0,1.5767859E-1,2.393872E0,-2.3564273E-1,-1.1257235E-1,3.5828128E0,8.62655E-1,3.2619245E0,5.218141E0,1.28100395E1],"split_indices":[4,4,10,12,10,17,6,24,0,23,17,24,9,23,20,0,0,0,0,0,0,0,0,0,0,0,0,0,0,0,0],"split_type":[0,0,0,0,0,0,0,0,0,0,0,0,0,0,0,0,0,0,0,0,0,0,0,0,0,0,0,0,0,0,0],"sum_hessian":[1.0838E4,8.527E3,2.311E3,4.91E3,3.617E3,8.12E2,1.499E3,2.623E3,2.287E3,1.379E3,2.238E3,3.37E2,4.75E2,1.099E3,4E2,1.71E2,2.452E3,2.041E3,2.46E2,6.21E2,7.58E2,6.11E2,1.627E3,2.59E2,7.8E1,4.62E2,1.3E1,2.24E2,8.75E2,3.73E2,2.7E1],"tree_param":{"num_deleted":"0","num_feature":"25","num_nodes":"31","size_leaf_vector":"1"}},{"base_weights":[2.4017139E-1,-7.9595647E0,1.568587E1,-1.1979464E1,-2.8527832E0,2.6827738E1,7.284115E-1,-1.3217301E1,-2.3175738E0,7.645769E0,-5.7524834E0,2.0518097E1,5.121199E1,7.9459248E0,-6.6983004E0,1.0630068E-1,-1.4059585E0,-5.884986E-1,1.1832396E0,2.4260957E0,3.2519397E-1,-7.119428E-1,8.20128E-1,3.7877512E0,1.6365297E0,3.6672258E0,1.1393867E1,6.425218E-1,1.1666444E1,2.2077526E-1,-9.747405E-1],"categories":[],"categories_nodes":[],"categories_segments":[],"categories_sizes":[],"default_left":[0,0,0,1,0,0,0,0,0,0,0,0,1,0,0,0,0,0,0,0,0,0,0,0,0,0,0,0,0,0,0],"id":5,"left_children":[1,3,5,7,9,11,13,15,17,19,21,23,25,27,29,-1,-1,-1,-1,-1,-1,-1,-1,-1,-1,-1,-1,-1,-1,-1,-1],"loss_changes":[1.3816302E6,1.4625366E5,6.3043256E5,4.7653312E4,9.563393E4,3.3250875E5,8.667468E4,4.5590688E4,2.3233375E4,4.9716195E4,4.8173688E4,1.22697625E5,4.0037125E5,1.3296311E5,2.1985828E4,0E0,0E0,0E0,0E0,0E0,0E0,0E0,0E0,0E0,0E0,0E0,0E0,0E0,0E0,0E0,0E0],"parents":[2147483647,0,0,1,1,2,2,3,3,4,4,5,5,6,6,7,7,8,8,9,9,10,10,11,11,12,12,13,13,14,14],"right_children":[2,4,6,8,10,12,14,16,18,20,22,24,26,28,30,-1,-1,-1,-1,-1,-1,-1,-1,-1,-1,-1,-1,-1,-1,-1,-1],"split_conditions":[7.33085E1,4.943651E1,2.2E1,1.9110344E1,2.1E1,2.75E2,7.745367E1,7.282204E1,1.95E2,1E1,2E2,1.1E1,1.5916666E-1,7.740057E1,2.41E1,1.0630068E-1,-1.4059585E0,-5.884986E-1,1.1832396E0,2.4260957E0,3.2519397E-1,-7.119428E-1,8.20128E-1,3.7877512E0,1.6365297E0,3.6672258E0,1.1393867E1,6.425218E-1,1.1666444E1,2.2077526E-1,-9.747405E-1],"split_indices":[5,12,17,16,17,3,24,24,3,3,3,3,20,24,17,0,0,0,0,0,0,0,0,0,0,0,0,0,0,0,0],"split_type":[0,0,0,0,0,0,0,0,0,0,0,0,0,0,0,0,0,0,0,0,0,0,0,0,0,0,0,0,0,0,0],"sum_hessian":[1.0907E4,7.125E3,3.782E3,3.986E3,3.139E3,2.167E3,1.615E3,3.533E3,4.53E2,6.79E2,2.46E3,1.723E3,4.44E2,8.19E2,7.96E2,2.1E2,3.323E3,3.62E2,9.1E1,1.4E2,5.39E2,2.237E3,2.23E2,3.24E2,1.399E3,3.63E2,8.1E1,8.09E2,1E1,2.05E2,5.91E2],"tree_param":{"num_deleted":"0","num_feature":"25","num_nodes":"31","size_leaf_vector":"1"}},{"base_weights":[1.2956066E-1,-7.4214106E0,1.3466207E1,-9.979063E0,-6.9045097E-1,2.317271E1,1.9875659E-1,-1.3894967E1,-7.159195E0,-1.7055643E0,4.882785E1,7.8069024E0,2.8390953E1,4.692872E0,-1.00457115E1,-4.0032452E-1,-1.5152057E0,4.4725883E-1,-8.748397E-1,3.839627E-1,-6.224623E-1,1.0548609E1,2.4656053E-1,-9.5431167E-1,1.2171134E0,5.924415E-1,3.1470444E0,-1.1081227E0,8.3176255E-1,-1.2231184E0,5.685032E-1],"categories":[],"categories_nodes":[],"categories_segments":[],"categories_sizes":[],"default_left":[0,0,0,0,0,0,0,0,0,0,0,1,0,0,1,0,0,0,0,0,0,0,0,0,0,0,0,0,0,0,0],"id":6,"left_children":[1,3,5,7,9,11,13,15,17,19,21,23,25,27,29,-1,-1,-1,-1,-1,-1,-1,-1,-1,-1,-1,-1,-1,-1,-1,-1],"loss_changes":[1.0819698E6,1.1809119E5,5.00179E5,5.4791938E4,9.508732E4,1.7962775E5,7.564454E4,2.7097531E4,5.4856E4,4.6872992E4,1.00333E5,4.389871E4,1.2058525E5,6.62336E4,1.7736379E4,0E0,0E0,0E0,0E0,0E0,0E0,0E0,0E0,0E0,0E0,0E0,0E0,0E0,0E0,0E0,0E0],"parents":[2147483647,0,0,1,1,2,2,3,3,4,4,5,5,6,6,7,7,8,8,9,9,10,10,11,11,12,12,13,13,14,14],"right_children":[2,4,6,8,10,12,14,16,18,20,22,24,26,28,30,-1,-1,-1,-1,-1,-1,-1,-1,-1,-1,-1,-1,-1,-1,-1,-1],"split_conditions":[7.6333336E1,5.2210255E1,2.2E1,1.7585705E1,2.75E2,1.149532E2,2.81E1,1.8E1,4.7E1,5.8E1,3.12E2,7.0950264E1,2.4792402E1,1.857304E1,5.6736343E1,-4.0032452E-1,-1.5152057E0,4.4725883E-1,-8.748397E-1,3.839627E-1,-6.224623E-1,1.0548609E1,2.4656053E-1,-9.5431167E-1,1.2171134E0,5.924415E-1,3.1470444E0,-1.1081227E0,8.3176255E-1,-1.2231184E0,5.685032E-1],"split_indices":[11,11,17,23,3,8,17,3,3,3,3,14,23,23,16,0,0,0,0,0,0,0,0,0,0,0,0,0,0,0,0],"split_type":[0,0,0,0,0,0,0,0,0,0,0,0,0,0,0,0,0,0,0,0,0,0,0,0,0,0,0,0,0,0,0],"sum_hessian":[1.0742E4,6.859E3,3.883E3,4.97E3,1.889E3,2.242E3,1.641E3,2.079E3,2.891E3,1.852E3,3.7E1,5.69E2,1.673E3,1.141E3,5E2,2.46E2,1.833E3,3.54E2,2.537E3,8.33E2,1.019E3,1.6E1,2.1E1,1.15E2,4.54E2,2.1E2,1.463E3,2.14E2,9.27E2,4.38E2,6.2E1],"tree_param":{"num_deleted":"0","num_feature":"25","num_nodes":"31","size_leaf_vector":"1"}},{"base_weights":[1.1865838E-1,-5.168697E0,1.887919E1,1.3442237E0,-8.366895E0,3.56634E1,1.1385517E1,-2.9620578E0,1.2400067E1,-1.0397845E1,8.190005E-1,2.929709E1,1.0093256E2,7.668811E0,3.238096E1,-6.919199E-1,3.348945E-1,1.803451E0,-7.7789295E-1,-1.3579702E0,-3.9537922E-1,-3.05825E-1,1.9227433E0,2.212263E0,5.4195704E0,1.662706E1,6.9719334E0,-3.359631E-1,1.2081519E0,3.640925E0,-4.0007854E0],"categories":[],"categories_nodes":[],"categories_segments":[],"categories_sizes":[],"default_left":[0,0,1,0,0,1,1,1,0,1,0,0,0,1,1,0,0,0,0,0,0,0,0,0,0,0,0,0,0,0,0],"id":7,"left_children":[1,3,5,7,9,11,13,15,17,19,21,23,25,27,29,-1,-1,-1,-1,-1,-1,-1,-1,-1,-1,-1,-1,-1,-1,-1,-1],"loss_changes":[1.0764474E6,1.7635472E5,2.9969394E5,1.3281984E5,1.0593784E5,3.028683E5,1.28585625E5,5.0662992E4,9.0427266E4,9.678459E4,7.408387E4,1.1834931E5,1.21033E5,6.92628E4,7.677869E4,0E0,0E0,0E0,0E0,0E0,0E0,0E0,0E0,0E0,0E0,0E0,0E0,0E0,0E0,0E0,0E0],"parents":[2147483647,0,0,1,1,2,2,3,3,4,4,5,5,6,6,7,7,8,8,9,9,10,10,11,11,12,12,13,13,14,14],"right_children":[2,4,6,8,10,12,14,16,18,20,22,24,26,28,30,-1,-1,-1,-1,-1,-1,-1,-1,-1,-1,-1,-1,-1,-1,-1,-1],"split_conditions":[9.564737E1,3E0,3E0,2.5586561E1,8E0,2.3713333E2,1.8537044E2,5.5134575E1,3.0349388E1,5.054522E1,4.177778E1,8E0,8.1125E-1,9.912612E1,4.5375E-1,-6.919199E-1,3.348945E-1,1.803451E0,-7.7789295E-1,-1.3579702E0,-3.9537922E-1,-3.05825E-1,1.9227433E0,2.212263E0,5.4195704E0,1.662706E1,6.9719334E0,-3.359631E-1,1.2081519E0,3.640925E0,-4.0007854E0],"split_indices":[4,0,8,23,0,11,14,11,23,14,4,0,20,14,20,0,0,0,0,0,0,0,0,0,0,0,0,0,0,0,0],"split_type":[0,0,0,0,0,0,0,0,0,0,0,0,0,0,0,0,0,0,0,0,0,0,0,0,0,0,0,0,0,0,0],"sum_hessian":[1.085E4,8.465E3,2.385E3,2.788E3,5.677E3,7.35E2,1.65E3,2.007E3,7.81E2,4.649E3,1.028E3,6.71E2,6.4E1,1.403E3,2.47E2,1.231E3,7.76E2,6.09E2,1.72E2,3.09E3,1.559E3,8.5E2,1.78E2,5.25E2,1.46E2,1.9E1,4.5E1,4.04E2,9.99E2,2.34E2,1.3E1],"tree_param":{"num_deleted":"0","num_feature":"25","num_nodes":"31","size_leaf_vector":"1"}},{"base_weights":[-1.0648897E-1,-5.9486423E0,1.2561555E1,-1.0790325E1,-3.0145266E0,1.8684221E1,-8.97109E-1,-1.1177721E1,8.750809E0,-1.8304595E0,-1.5924091E1,1.1340555E1,3.3749817E1,5.2694287E0,-8.0086155E0,-7.507534E-1,-1.3462878E0,-3.4827065E-1,1.3209724E0,-1.6729261E0,1.0491239E0,-3.2969384E0,1.2795762E0,2.2563653E0,5.392145E0,1.396301E0,-1.0246543E-1,-1.1003289E0,3.52767E-2],"categories":[],"categories_nodes":[],"categories_segments":[],"categories_sizes":[],"default_left":[0,0,0,1,0,0,0,0,0,0,1,0,0,0,1,0,0,0,0,0,0,0,0,0,0,0,0,0,0],"id":8,"left_children":[1,3,5,7,9,11,13,15,-1,17,19,21,23,25,27,-1,-1,-1,-1,-1,-1,-1,-1,-1,-1,-1,-1,-1,-1],"loss_changes":[7.97962E5,1.0479397E5,2.8043388E5,1.0740431E5,7.022434E4,2.5839656E5,4.6746047E4,2.3543406E4,0E0,1.0603867E5,9.136234E3,1.0609545E5,1.7208631E5,3.14965E4,1.2596818E4,0E0,0E0,0E0,0E0,0E0,0E0,0E0,0E0,0E0,0E0,0E0,0E0,0E0,0E0],"parents":[2147483647,0,0,1,1,2,2,3,3,4,4,5,5,6,6,7,7,9,9,10,10,11,11,12,12,13,13,14,14],"right_children":[2,4,6,8,10,12,14,16,-1,18,20,22,24,26,28,-1,-1,-1,-1,-1,-1,-1,-1,-1,-1,-1,-1,-1,-1],"split_conditions":[7.471429E1,1.8501793E1,2.37E1,1.3565218E2,8.810973E1,9.91E2,7.7482E1,2.48E1,8.750809E0,8.4744675E1,3.599382E1,7.35E-1,1.6171873E2,2.61E1,1.08190636E2,-7.507534E-1,-1.3462878E0,-3.4827065E-1,1.3209724E0,-1.6729261E0,1.0491239E0,-3.2969384E0,1.2795762E0,2.2563653E0,5.392145E0,1.396301E0,-1.0246543E-1,-1.1003289E0,3.52767E-2],"split_indices":[4,23,17,8,24,8,24,17,0,24,13,20,5,17,15,0,0,0,0,0,0,0,0,0,0,0,0,0,0],"split_type":[0,0,0,0,0,0,0,0,0,0,0,0,0,0,0,0,0,0,0,0,0,0,0,0,0,0,0,0,0],"sum_hessian":[1.078E4,7.378E3,3.402E3,2.783E3,4.595E3,2.338E3,1.064E3,2.773E3,1E1,4.21E3,3.85E2,1.573E3,7.65E2,5.7E2,4.94E2,1.088E3,1.685E3,3.792E3,4.18E2,3.73E2,1.2E1,5.1E1,1.522E3,4.97E2,2.68E2,2.38E2,3.32E2,3.62E2,1.32E2],"tree_param":{"num_deleted":"0","num_feature":"25","num_nodes":"29","size_leaf_vector":"1"}},{"base_weights":[1.0725891E-1,-3.537544E0,1.9963823E1,-6.673118E0,3.702701E0,1.44240675E1,4.2750618E1,-8.941199E0,-3.4429474E0,1.0524741E1,-1.0654125E0,-2.6935472E0,1.6249353E1,8.548118E1,3.622227E1,-1.0513979E0,-2.8622255E-1,-9.3717396E-2,-6.5018284E-1,4.829379E-1,1.6935588E0,-4.0341923E-1,1.4164865E0,3.4465148E0,-7.7390337E-1,1.2754688E0,2.6896203E0,4.356806E-1,1.2395125E1,3.2681074E0,9.158587E0],"categories":[],"categories_nodes":[],"categories_segments":[],"categories_sizes":[],"default_left":[0,0,0,1,0,1,0,0,0,1,0,0,0,0,1,0,0,0,0,0,0,0,0,0,0,0,0,0,0,0,0],"id":9,"left_children":[1,3,5,7,9,11,13,15,17,19,21,23,25,27,29,-1,-1,-1,-1,-1,-1,-1,-1,-1,-1,-1,-1,-1,-1,-1,-1],"loss_changes":[7.886496E5,2.0904502E5,2.1271762E5,4.7040625E4,9.053737E4,4.2567562E4,8.89605E4,3.7015375E4,2.0474006E4,4.2044875E4,7.489737E4,2.5279697E4,4.5189688E4,1.3548184E5,5.158772E4,0E0,0E0,0E0,0E0,0E0,0E0,0E0,0E0,0E0,0E0,0E0,0E0,0E0,0E0,0E0,0E0],"parents":[2147483647,0,0,1,1,2,2,3,3,4,4,5,5,6,6,7,7,8,8,9,9,10,10,11,11,12,12,13,13,14,14],"right_children":[2,4,6,8,10,12,14,16,18,20,22,24,26,28,30,-1,-1,-1,-1,-1,-1,-1,-1,-1,-1,-1,-1,-1,-1,-1,-1],"split_conditions":[1.189135E2,7.903333E1,2.7580554E2,4.343511E1,4.4E1,6.9333336E1,6.304167E-1,2.12E2,7.6E1,7.694603E1,2E2,7.352174E1,4.6644812E2,2.94E2,2.6705832E2,-1.0513979E0,-2.8622255E-1,-9.3717396E-2,-6.5018284E-1,4.829379E-1,1.6935588E0,-4.0341923E-1,1.4164865E0,3.4465148E0,-7.7390337E-1,1.2754688E0,2.6896203E0,4.356806E-1,1.2395125E1,3.2681074E0,9.158587E0],"split_indices":[4,7,7,12,3,6,20,3,3,11,3,11,16,3,11,0,0,0,0,0,0,0,0,0,0,0,0,0,0,0,0],"split_type":[0,0,0,0,0,0,0,0,0,0,0,0,0,0,0,0,0,0,0,0,0,0,0,0,0,0,0,0,0,0,0],"sum_hessian":[1.0895E4,9.206E3,1.689E3,6.424E3,2.782E3,1.36E3,3.29E2,3.773E3,2.651E3,1.144E3,1.638E3,1.31E2,1.229E3,4.2E1,2.87E2,2.978E3,7.95E2,1.465E3,1.186E3,6.11E2,5.33E2,1.371E3,2.67E2,1.5E1,1.16E2,9.33E2,2.96E2,1.4E1,2.8E1,2.72E2,1.5E1],"tree_param":{"num_deleted":"0","num_feature":"25","num_nodes":"31","size_leaf_vector":"1"}},{"base_weights":[-4.4649383E-3,-3.1431837E0,1.662855E1,-7.260609E0,1.7010192E0,3.4358105E1,9.277466E0,-9.929196E0,-3.9742951E0,1.1635085E1,-1.0760478E0,9.5743065E1,2.5966555E1,1.0892928E1,-4.0961006E1,-1.2042557E0,-4.3420196E-1,-7.582075E-1,-9.167408E-4,6.0323584E-1,2.2562358E0,1.3009436E-1,-6.979673E-1,7.551143E0,1.3738746E1,1.8508574E0,4.7927485E0,1.3426566E0,-4.8242223E-1,-2.079527E0,-4.8159432E0],"categories":[],"categories_nodes":[],"categories_segments":[],"categories_sizes":[],"default_left":[1,0,1,0,0,0,1,0,1,0,0,0,0,0,0,0,0,0,0,0,0,0,0,0,0,0,0,0,0,0,0],"id":10,"left_children":[1,3,5,7,9,11,13,15,17,19,21,23,25,27,29,-1,-1,-1,-1,-1,-1,-1,-1,-1,-1,-1,-1,-1,-1,-1,-1],"loss_changes":[5.6367206E5,1.8117862E5,2.2306934E5,4.302033E4,1.15163016E5,2.561015E5,9.889131E4,3.2609281E4,3.1784828E4,5.5932812E4,4.6139805E4,3.9982438E4,7.156094E4,4.8026875E4,4.63966E3,0E0,0E0,0E0,0E0,0E0,0E0,0E0,0E0,0E0,0E0,0E0,0E0,0E0,0E0,0E0,0E0],"parents":[2147483647,0,0,1,1,2,2,3,3,4,4,5,5,6,6,7,7,8,8,9,9,10,10,11,11,12,12,13,13,14,14],"right_children":[2,4,6,8,10,12,14,16,18,20,22,24,26,28,30,-1,-1,-1,-1,-1,-1,-1,-1,-1,-1,-1,-1,-1,-1,-1,-1],"split_conditions":[1.1645361E2,7.0066666E1,3E0,2.208815E1,1.85E1,9.004167E-1,2.7708334E-1,1.4282375E2,2.0666794E1,2.057E2,2.83E1,3.0233334E2,2.0486089E2,2.55E1,7.705107E1,-1.2042557E0,-4.3420196E-1,-7.582075E-1,-9.167408E-4,6.0323584E-1,2.2562358E0,1.3009436E-1,-6.979673E-1,7.551143E0,1.3738746E1,1.8508574E0,4.7927485E0,1.3426566E0,-4.8242223E-1,-2.079527E0,-4.8159432E0],"split_indices":[5,8,8,23,17,20,20,10,15,7,17,5,5,17,24,0,0,0,0,0,0,0,0,0,0,0,0,0,0,0,0],"split_type":[0,0,0,0,0,0,0,0,0,0,0,0,0,0,0,0,0,0,0,0,0,0,0,0,0,0,0,0,0,0,0],"sum_hessian":[1.0795E4,9.082E3,1.713E3,4.909E3,4.173E3,5.01E2,1.212E3,2.708E3,2.201E3,9.11E2,3.262E3,5.9E1,4.42E2,1.175E3,3.7E1,1.949E3,7.59E2,1.147E3,1.054E3,6.06E2,3.05E2,2.328E3,9.34E2,4.2E1,1.7E1,3.33E2,1.09E2,1.009E3,1.66E2,1.1E1,2.6E1],"tree_param":{"num_deleted":"0","num_feature":"25","num_nodes":"31","size_leaf_vector":"1"}},{"base_weights":[-1.2777819E-2,-4.138336E0,9.736222E0,-6.0483193E0,1.6148775E0,1.7631208E1,1.6521062E0,-8.658245E0,-3.735368E0,4.073079E0,-5.5162096E0,1.217892E1,2.7047497E1,4.6409864E0,-9.485919E0,6.4472395E-1,-9.272182E-1,-6.96632E-1,-1.759975E-1,8.2288146E-1,4.0699787E-2,-2.178042E0,-4.2248005E-1,9.804999E-1,2.9935296E0,2.029761E0,8.101791E0,-3.4430054E-1,8.74925E-1,-1.1516156E0,1.8128707E0],"categories":[],"categories_nodes":[],"categories_segments":[],"categories_sizes":[],"default_left":[0,1,0,0,0,0,0,0,1,0,0,0,1,1,1,0,0,0,0,0,0,0,0,0,0,0,0,0,0,0,0],"id":11,"left_children":[1,3,5,7,9,11,13,15,17,19,21,23,25,27,29,-1,-1,-1,-1,-1,-1,-1,-1,-1,-1,-1,-1,-1,-1,-1,-1],"loss_changes":[4.3662916E5,8.383036E4,2.0599472E5,3.4539453E4,3.3363867E4,8.3509375E4,5.3175227E4,2.667725E4,1.9482254E4,2.1727854E4,1.0070942E4,4.2908594E4,2.1475912E5,4.2303844E4,1.9677768E4,0E0,0E0,0E0,0E0,0E0,0E0,0E0,0E0,0E0,0E0,0E0,0E0,0E0,0E0,0E0,0E0],"parents":[2147483647,0,0,1,1,2,2,3,3,4,4,5,5,6,6,7,7,8,8,9,9,10,10,11,11,12,12,13,13,14,14],"right_children":[2,4,6,8,10,12,14,16,18,20,22,24,26,28,30,-1,-1,-1,-1,-1,-1,-1,-1,-1,-1,-1,-1,-1,-1,-1,-1],"split_conditions":[1.04818184E2,6.425E1,2.05E1,6.1760666E1,2.73E1,2.7580554E2,2.89E1,7.2677765E1,3.1737637E1,7.732196E1,7.28682E1,1.95E1,2.3377777E2,4.4640907E1,1.7733333E2,6.4472395E-1,-9.272182E-1,-6.96632E-1,-1.759975E-1,8.2288146E-1,4.0699787E-2,-2.178042E0,-4.2248005E-1,9.804999E-1,2.9935296E0,2.029761E0,8.101791E0,-3.4430054E-1,8.74925E-1,-1.1516156E0,1.8128707E0],"split_indices":[7,12,17,10,17,7,17,24,12,24,24,17,5,5,10,0,0,0,0,0,0,0,0,0,0,0,0,0,0,0,0],"split_type":[0,0,0,0,0,0,0,0,0,0,0,0,0,0,0,0,0,0,0,0,0,0,0,0,0,0,0,0,0,0,0],"sum_hessian":[1.0854E4,7.627E3,3.227E3,5.726E3,1.901E3,1.632E3,1.595E3,2.689E3,3.037E3,1.414E3,4.87E2,1.035E3,5.97E2,1.258E3,3.37E2,1.11E2,2.578E3,1.142E3,1.895E3,6.59E2,7.55E2,3.4E1,4.53E2,9.17E2,1.18E2,5.33E2,6.4E1,4.26E2,8.32E2,3.14E2,2.3E1],"tree_param":{"num_deleted":"0","num_feature":"25","num_nodes":"31","size_leaf_vector":"1"}},{"base_weights":[-1.1050835E-1,-4.1450434E0,8.52725E0,3.1439328E-1,-6.045069E0,9.2801607E-1,1.5069735E1,-4.9899974E0,3.8557699E0,-8.447344E0,4.230835E-1,-1.9376346E0,6.1741223E0,2.4396933E1,8.990702E0,-1.1158957E0,-2.767788E-1,3.3052927E-1,5.34515E0,-1.18489E0,-4.3909702E-1,-3.2144375E-2,7.968788E0,3.499602E-2,-6.308111E-1,6.2937055E0,4.7966474E-1,4.914103E-1,3.8537552E0,1.1992967E0,-5.549212E-1],"categories":[],"categories_nodes":[],"categories_segments":[],"categories_sizes":[],"default_left":[0,0,0,0,0,1,1,1,1,0,1,0,0,0,0,0,0,0,0,0,0,0,0,0,0,0,0,0,0,0,0],"id":12,"left_children":[1,3,5,7,9,11,13,15,17,19,21,23,25,27,29,-1,-1,-1,-1,-1,-1,-1,-1,-1,-1,-1,-1,-1,-1,-1,-1],"loss_changes":[3.7665216E5,6.2422812E4,1.7106517E5,4.1383473E4,8.027434E4,2.3960342E4,1.0461959E5,1.2088754E4,3.511779E4,5.245797E4,8.315825E4,1.0380902E4,4.3263383E4,2.0278316E5,4.9924875E4,0E0,0E0,0E0,0E0,0E0,0E0,0E0,0E0,0E0,0E0,0E0,0E0,0E0,0E0,0E0,0E0],"parents":[2147483647,0,0,1,1,2,2,3,3,4,4,5,5,6,6,7,7,8,8,9,9,10,10,11,11,12,12,13,13,14,14],"right_children":[2,4,6,8,10,12,14,16,18,20,22,24,26,28,30,-1,-1,-1,-1,-1,-1,-1,-1,-1,-1,-1,-1,-1,-1,-1,-1],"split_conditions":[7.471429E1,5.8E1,1.19375E2,1.7528543E1,1.96E2,9.696354E1,3E0,2.4071667E1,2.136E2,2.310844E1,1.5206386E2,7.8E1,3.894154E1,2.5586561E1,2.2457495E2,-1.1158957E0,-2.767788E-1,3.3052927E-1,5.34515E0,-1.18489E0,-4.3909702E-1,-3.2144375E-2,7.968788E0,3.499602E-2,-6.308111E-1,6.2937055E0,4.7966474E-1,4.914103E-1,3.8537552E0,1.1992967E0,-5.549212E-1],"split_indices":[4,3,12,23,3,14,8,11,6,23,14,3,6,23,14,0,0,0,0,0,0,0,0,0,0,0,0,0,0,0,0],"split_type":[0,0,0,0,0,0,0,0,0,0,0,0,0,0,0,0,0,0,0,0,0,0,0,0,0,0,0,0,0,0,0],"sum_hessian":[1.0806E4,7.366E3,3.44E3,2.201E3,5.165E3,1.592E3,1.848E3,8.81E2,1.32E3,3.766E3,1.399E3,1.03E3,5.62E2,7.28E2,1.12E3,2.3E2,6.51E2,1.307E3,1.3E1,2.029E3,1.737E3,1.387E3,1.2E1,6.78E2,3.52E2,1.2E1,5.5E2,3.09E2,4.19E2,9.26E2,1.94E2],"tree_param":{"num_deleted":"0","num_feature":"25","num_nodes":"31","size_leaf_vector":"1"}},{"base_weights":[3.9779082E-2,-2.367036E0,1.3082265E1,3.257748E0,-4.7030644E0,2.7194635E1,6.7948594E0,9.139719E-2,1.0327499E1,-6.2789073E0,1.262692E0,2.338717E1,9.3125984E1,1.0941652E1,-4.0282536E0,1.6698822E0,-1.9749492E-1,-3.9049882E-1,1.9579936E0,-8.4999824E-1,-6.338644E-3,1.4044806E-2,3.8767805E0,8.053635E0,2.0817022E0,4.6653113E0,1.1979505E1,3.3564115E0,7.663442E-1,3.7147832E0,-5.4400855E-1],"categories":[],"categories_nodes":[],"categories_segments":[],"categories_sizes":[],"default_left":[0,0,1,0,0,1,0,0,0,1,0,0,0,0,0,0,0,0,0,0,0,0,0,0,0,0,0,0,0,0,0],"id":13,"left_children":[1,3,5,7,9,11,13,15,17,19,21,23,25,27,29,-1,-1,-1,-1,-1,-1,-1,-1,-1,-1,-1,-1,-1,-1,-1,-1],"loss_changes":[3.3952303E5,1.1999351E5,1.4932562E5,5.99917E4,6.0663766E4,1.2810728E5,5.242045E4,6.4125395E4,1.103685E5,7.161831E4,5.699564E4,6.847881E4,2.958389E4,6.2098523E4,1.9425875E4,0E0,0E0,0E0,0E0,0E0,0E0,0E0,0E0,0E0,0E0,0E0,0E0,0E0,0E0,0E0,0E0],"parents":[2147483647,0,0,1,1,2,2,3,3,4,4,5,5,6,6,7,7,8,8,9,9,10,10,11,11,12,12,13,13,14,14],"right_children":[2,4,6,8,10,12,14,16,18,20,22,24,26,28,30,-1,-1,-1,-1,-1,-1,-1,-1,-1,-1,-1,-1,-1,-1,-1,-1],"split_conditions":[1.189135E2,5E1,3E0,2.5586561E1,2.01E2,3.0233334E2,2.24E1,7.3340225E1,7.68865E1,2.1241117E1,3.09028E1,7.3E0,2E0,7.708478E1,3.0899376E1,1.6698822E0,-1.9749492E-1,-3.9049882E-1,1.9579936E0,-8.4999824E-1,-6.338644E-3,1.4044806E-2,3.8767805E0,8.053635E0,2.0817022E0,4.6653113E0,1.1979505E1,3.3564115E0,7.663442E-1,3.7147832E0,-5.4400855E-1],"split_indices":[4,3,8,23,3,5,17,24,24,16,23,18,0,24,7,0,0,0,0,0,0,0,0,0,0,0,0,0,0,0,0],"split_type":[0,0,0,0,0,0,0,0,0,0,0,0,0,0,0,0,0,0,0,0,0,0,0,0,0,0,0,0,0,0,0],"sum_hessian":[1.0814E4,9.13E3,1.684E3,2.679E3,6.451E3,5.18E2,1.166E3,1.851E3,8.28E2,5.103E3,1.348E3,4.91E2,2.7E1,8.43E2,3.23E2,2.04E2,1.647E3,3.28E2,5E2,3.743E3,1.36E3,1.31E3,3.8E1,1.9E1,4.72E2,1.1E1,1.6E1,1.04E2,7.39E2,1E1,3.13E2],"tree_param":{"num_deleted":"0","num_feature":"25","num_nodes":"31","size_leaf_vector":"1"}},{"base_weights":[-1.9066194E-1,-2.3282645E0,1.1588788E1,-6.766149E0,-2.7106923E-1,6.7931747E0,2.1504303E1,-1.00188875E1,-5.120233E0,3.4144488E-1,-1.5557382E1,8.630701E0,-8.606784E0,1.905334E1,8.746207E0,-4.2046723E-1,-1.237243E0,-6.5781E-1,-1.2456915E-1,1.0352665E0,-5.2430198E-2,-1.9579737E0,-5.0140095E-1,3.316674E-2,1.2742821E0,-1.05362935E-2,-1.8571528E0,2.1290674E0,-2.8074145E0],"categories":[],"categories_nodes":[],"categories_segments":[],"categories_sizes":[],"default_left":[0,0,0,0,0,0,1,0,0,0,0,1,0,0,0,0,0,0,0,0,0,0,0,0,0,0,0,0,0],"id":14,"left_children":[1,3,5,7,9,11,13,15,17,19,21,23,25,27,-1,-1,-1,-1,-1,-1,-1,-1,-1,-1,-1,-1,-1,-1,-1],"loss_changes":[2.7229597E5,8.356136E4,7.8836125E4,1.54691875E4,5.857139E4,3.1796152E4,8.628361E4,1.35209375E4,1.1072547E4,5.2507098E4,1.0314359E4,3.4640727E4,1.0244758E4,5.8153688E4,0E0,0E0,0E0,0E0,0E0,0E0,0E0,0E0,0E0,0E0,0E0,0E0,0E0,0E0,0E0],"parents":[2147483647,0,0,1,1,2,2,3,3,4,4,5,5,6,6,7,7,8,8,9,9,10,10,11,11,12,12,13,13],"right_children":[2,4,6,8,10,12,14,16,18,20,22,24,26,28,-1,-1,-1,-1,-1,-1,-1,-1,-1,-1,-1,-1,-1,-1,-1],"split_conditions":[1.189135E2,1.8501793E1,3.41E2,7.66073E1,9.189426E1,8.7454185E1,2.6917056E2,4.2E1,1.57E2,1.3E1,9.409899E1,1.2071429E2,4.494536E1,3.45E2,8.746207E0,-4.2046723E-1,-1.237243E0,-6.5781E-1,-1.2456915E-1,1.0352665E0,-5.2430198E-2,-1.9579737E0,-5.0140095E-1,3.316674E-2,1.2742821E0,-1.05362935E-2,-1.8571528E0,2.1290674E0,-2.8074145E0],"split_indices":[4,23,8,24,24,24,12,3,3,3,24,12,16,3,0,0,0,0,0,0,0,0,0,0,0,0,0,0,0],"split_type":[0,0,0,0,0,0,0,0,0,0,0,0,0,0,0,0,0,0,0,0,0,0,0,0,0,0,0,0,0],"sum_hessian":[1.0812E4,9.152E3,1.66E3,2.898E3,6.254E3,1.12E3,5.4E2,9.72E2,1.926E3,6.014E3,2.4E2,1.001E3,1.19E2,5.22E2,1.8E1,2.86E2,6.86E2,1.391E3,5.35E2,4.77E2,5.537E3,1.72E2,6.8E1,3.35E2,6.66E2,6.5E1,5.4E1,4.98E2,2.4E1],"tree_param":{"num_deleted":"0","num_feature":"25","num_nodes":"29","size_leaf_vector":"1"}},{"base_weights":[9.864932E-2,-2.31308E0,9.615777E0,-6.361901E0,-4.5472863E-1,3.0365046E1,7.6060038E0,-6.87285E0,5.495033E0,-1.0537215E0,8.961439E0,3.836168E1,-8.629652E0,7.0860915E0,7.190768E0,-8.954325E-1,-4.2484668E-1,-1.04774445E-1,4.2731066E0,-3.50646E-1,1.1503126E-2,3.0496998E0,6.113426E-1,4.1847444E0,-1.5713797E0,-3.2700503E0,9.91784E-1,-9.303237E-2,9.663706E-1],"categories":[],"categories_nodes":[],"categories_segments":[],"categories_sizes":[],"default_left":[0,0,0,1,1,0,1,0,0,1,0,1,0,0,0,0,0,0,0,0,0,0,0,0,0,0,0,0,0],"id":15,"left_children":[1,3,5,7,9,11,13,15,17,19,21,23,25,27,-1,-1,-1,-1,-1,-1,-1,-1,-1,-1,-1,-1,-1,-1,-1],"loss_changes":[2.5112517E5,6.567525E4,9.2012375E4,1.6673828E4,3.3760508E4,6.1137188E4,6.72772E4,1.4508852E4,2.7975057E4,1.6237141E4,2.1699096E4,3.2817297E4,1.5630443E4,4.208636E4,0E0,0E0,0E0,0E0,0E0,0E0,0E0,0E0,0E0,0E0,0E0,0E0,0E0,0E0,0E0],"parents":[2147483647,0,0,1,1,2,2,3,3,4,4,5,5,6,6,7,7,8,8,9,9,10,10,11,11,12,12,13,13],"right_children":[2,4,6,8,10,12,14,16,18,20,22,24,26,28,-1,-1,-1,-1,-1,-1,-1,-1,-1,-1,-1,-1,-1,-1,-1],"split_conditions":[1.17E2,3.9E1,8.9E0,2.702821E1,1.194556E2,1E-1,2.072296E2,5.4E0,3E0,4.0682594E1,1.22589294E2,6.551198E1,8.1E0,1.2653333E2,7.190768E0,-8.954325E-1,-4.2484668E-1,-1.04774445E-1,4.2731066E0,-3.50646E-1,1.1503126E-2,3.0496998E0,6.113426E-1,4.1847444E0,-1.5713797E0,-3.2700503E0,9.91784E-1,-9.303237E-2,9.663706E-1],"split_indices":[6,8,18,16,14,21,15,21,19,11,14,16,18,9,0,0,0,0,0,0,0,0,0,0,0,0,0,0,0],"split_type":[0,0,0,0,0,0,0,0,0,0,0,0,0,0,0,0,0,0,0,0,0,0,0,0,0,0,0,0,0],"sum_hessian":[1.0939E4,8.728E3,2.211E3,2.745E3,5.983E3,1.94E2,2.017E3,2.632E3,1.13E2,5.626E3,3.57E2,1.61E2,3.3E1,2.002E3,1.5E1,1.45E3,1.182E3,9.7E1,1.6E1,1.808E3,3.818E3,4E1,3.17E2,1.51E2,1E1,1.4E1,1.9E1,4.93E2,1.509E3],"tree_param":{"num_deleted":"0","num_feature":"25","num_nodes":"29","size_leaf_vector":"1"}},{"base_weights":[-7.0882626E-2,-1.8589668E0,1.0257046E1,2.2372663E0,-4.0447803E0,3.6533756E0,1.685609E1,1.9583174E0,5.0849633E0,-4.723092E0,6.890001E0,1.30689125E1,-1.1964004E0,1.0743518E1,3.254528E1,2.7792228E-2,8.220146E-1,-6.237105E-1,-9.9703595E-2,1.3196203E-1,3.3434577E0,2.5854707E0,6.351491E-2,-2.740053E-1,1.8648155E0,1.4178717E0,-5.2240556E-1,4.6345325E0,-1.3788884E0],"categories":[],"categories_nodes":[],"categories_segments":[],"categories_sizes":[],"default_left":[1,0,0,1,0,0,0,1,0,1,0,0,0,0,1,0,0,0,0,0,0,0,0,0,0,0,0,0,0],"id":16,"left_children":[1,3,5,7,9,11,13,15,-1,17,19,21,23,25,27,-1,-1,-1,-1,-1,-1,-1,-1,-1,-1,-1,-1,-1,-1],"loss_changes":[1.977105E5,8.1719625E4,6.879155E4,4.3161594E4,4.4172234E4,3.6135266E4,7.541239E4,3.3401797E4,0E0,3.2131023E4,5.1638152E4,4.311055E4,1.6260337E4,3.1940445E4,1.441811E5,0E0,0E0,0E0,0E0,0E0,0E0,0E0,0E0,0E0,0E0,0E0,0E0,0E0,0E0],"parents":[2147483647,0,0,1,1,2,2,3,3,4,4,5,5,6,6,7,7,9,9,10,10,11,11,12,12,13,13,14,14],"right_children":[2,4,6,8,10,12,14,16,-1,18,20,22,24,26,28,-1,-1,-1,-1,-1,-1,-1,-1,-1,-1,-1,-1,-1,-1],"split_conditions":[1.1876E2,3E0,2.6192307E2,2.7565E2,1E1,7.73197E1,7E0,2.3501438E1,5.0849633E0,1.77898E1,1.6412857E2,3E0,8.623418E1,2E0,1.7331114E2,2.7792228E-2,8.220146E-1,-6.237105E-1,-9.9703595E-2,1.3196203E-1,3.3434577E0,2.5854707E0,6.351491E-2,-2.740053E-1,1.8648155E0,1.4178717E0,-5.2240556E-1,4.6345325E0,-1.3788884E0],"split_indices":[6,0,9,5,0,24,0,16,0,16,5,0,13,0,14,0,0,0,0,0,0,0,0,0,0,0,0,0,0],"split_type":[0,0,0,0,0,0,0,0,0,0,0,0,0,0,0,0,0,0,0,0,0,0,0,0,0,0,0,0,0],"sum_hessian":[1.0704E4,9.125E3,1.579E3,3.175E3,5.95E3,7.9E2,7.89E2,3.158E3,1.7E1,5.603E3,3.47E2,2.68E2,5.22E2,5.69E2,2.2E2,2.494E3,6.64E2,3.962E3,1.641E3,2.88E2,5.9E1,1.31E2,1.37E2,4.85E2,3.7E1,4.67E2,1.02E2,1.69E2,5.1E1],"tree_param":{"num_deleted":"0","num_feature":"25","num_nodes":"29","size_leaf_vector":"1"}},{"base_weights":[2.9122669E-1,-2.4877687E0,6.2977E0,-4.0128207E0,5.121769E-1,3.8919024E0,2.0864439E1,-5.0103545E0,8.190218E-2,3.0396622E-1,4.6902933E0,7.4975214E0,-2.4720297E0,1.8122871E1,1.2596168E1,1.1099639E-1,-6.083222E-1,8.2149106E-1,-3.378283E-1,2.9891044E-1,-2.52495E-1,4.5262414E-1,2.2989857E0,-3.2916656E-1,4.8425035E0,-3.0676898E-1,2.9476995E0],"categories":[],"categories_nodes":[],"categories_segments":[],"categories_sizes":[],"default_left":[0,1,0,0,0,0,0,0,0,0,0,0,1,0,0,0,0,0,0,0,0,0,0,0,0,0,0],"id":17,"left_children":[1,3,5,7,9,11,13,15,17,19,-1,21,23,25,-1,-1,-1,-1,-1,-1,-1,-1,-1,-1,-1,-1,-1],"loss_changes":[1.7915378E5,3.3573938E4,1.188953E5,1.987211E4,2.3986156E4,6.6905875E4,1.370134E5,2.634154E4,2.7105203E4,1.888615E4,0E0,8.554262E4,4.511633E4,1.1450809E5,0E0,0E0,0E0,0E0,0E0,0E0,0E0,0E0,0E0,0E0,0E0,0E0,0E0],"parents":[2147483647,0,0,1,1,2,2,3,3,4,4,5,5,6,6,7,7,8,8,9,9,11,11,12,12,13,13],"right_children":[2,4,6,8,10,12,14,16,18,20,-1,22,24,26,-1,-1,-1,-1,-1,-1,-1,-1,-1,-1,-1,-1,-1],"split_conditions":[9.775E1,5.1924038E1,2.64E2,2.04E2,1.7932976E2,5.5E1,2.8964949E1,2.2E1,7.708478E1,7.732196E1,4.6902933E0,2.8684677E1,1.8537044E2,1.73E1,1.2596168E1,1.1099639E-1,-6.083222E-1,8.2149106E-1,-3.378283E-1,2.9891044E-1,-2.52495E-1,4.5262414E-1,2.2989857E0,-3.2916656E-1,4.8425035E0,-3.0676898E-1,2.9476995E0],"split_indices":[7,14,3,3,14,3,23,3,24,24,0,23,14,17,0,0,0,0,0,0,0,0,0,0,0,0,0],"split_type":[0,0,0,0,0,0,0,0,0,0,0,0,0,0,0,0,0,0,0,0,0,0,0,0,0,0,0],"sum_hessian":[1.0731E4,7.337E3,3.394E3,4.864E3,2.473E3,2.914E3,4.8E2,3.911E3,9.53E2,2.463E3,1E1,1.86E3,1.054E3,4.69E2,1.1E1,5.95E2,3.316E3,2.84E2,6.69E2,1.263E3,1.2E3,1.565E3,2.95E2,1.038E3,1.6E1,1.65E2,3.04E2],"tree_param":{"num_deleted":"0","num_feature":"25","num_nodes":"27","size_leaf_vector":"1"}},{"base_weights":[1.964904E-1,-8.444196E-1,1.5601672E1,-3.9309275E0,3.5702584E0,3.8951573E-1,2.4125135E1,-4.755003E0,5.2287965E0,1.393816E1,6.082699E-1,1.1780284E1,-1.7959717E1,3.1719082E1,-2.256255E1,-4.9879947E-1,8.2709086E-1,-2.038552E-1,9.795203E-1,5.012732E-1,2.0627728E0,3.4717283E0,-1.6808245E-2,-5.452198E-1,3.0146422E0,-1.1708013E0,-3.9083827E0,2.921079E0,9.594476E0,-1.1531975E0,-2.8191195E0],"categories":[],"categories_nodes":[],"categories_segments":[],"categories_sizes":[],"default_left":[0,0,0,1,0,0,0,0,0,0,0,0,0,0,0,0,0,0,0,0,0,0,0,0,0,0,0,0,0,0,0],"id":18,"left_children":[1,3,5,7,9,11,13,15,17,19,21,23,25,27,29,-1,-1,-1,-1,-1,-1,-1,-1,-1,-1,-1,-1,-1,-1,-1,-1],"loss_changes":[1.7354834E5,1.3815381E5,8.8807875E4,4.5065586E4,1.28112E5,5.18375E4,1.5636039E5,1.8238477E4,1.6551656E4,5.584333E4,8.6418945E4,4.899788E4,1.2082295E4,5.53875E4,3.586789E3,0E0,0E0,0E0,0E0,0E0,0E0,0E0,0E0,0E0,0E0,0E0,0E0,0E0,0E0,0E0,0E0],"parents":[2147483647,0,0,1,1,2,2,3,3,4,4,5,5,6,6,7,7,8,8,9,9,10,10,11,11,12,12,13,13,14,14],"right_children":[2,4,6,8,10,12,14,16,18,20,22,24,26,28,30,-1,-1,-1,-1,-1,-1,-1,-1,-1,-1,-1,-1,-1,-1,-1,-1],"split_conditions":[1E1,2.5586561E1,3.39E2,1.038E2,2.6E1,2.5562609E1,3.52E2,6.34E1,1.254E2,2.8234892E1,2.5599485E1,4.52E1,2.719412E1,2.8953588E1,9.66875E1,-4.9879947E-1,8.2709086E-1,-2.038552E-1,9.795203E-1,5.012732E-1,2.0627728E0,3.4717283E0,-1.6808245E-2,-5.452198E-1,3.0146422E0,-1.1708013E0,-3.9083827E0,2.921079E0,9.594476E0,-1.1531975E0,-2.8191195E0],"split_indices":[0,23,9,7,3,23,3,21,9,23,23,9,23,23,5,0,0,0,0,0,0,0,0,0,0,0,0,0,0,0,0],"split_type":[0,0,0,0,0,0,0,0,0,0,0,0,0,0,0,0,0,0,0,0,0,0,0,0,0,0,0,0,0,0,0],"sum_hessian":[1.0821E4,1.0137E4,6.84E2,5.966E3,4.171E3,2.46E2,4.38E2,5.474E3,4.92E2,9.26E2,3.245E3,1.52E2,9.4E1,3.77E2,6.1E1,5.37E3,1.04E2,1.91E2,3.01E2,4.01E2,5.25E2,7.1E1,3.174E3,7.9E1,7.3E1,7.4E1,2E1,3.65E2,1.2E1,2.2E1,3.9E1],"tree_param":{"num_deleted":"0","num_feature":"25","num_nodes":"31","size_leaf_vector":"1"}},{"base_weights":[-1.2970401E-1,-1.5528922E0,7.912963E0,-3.29764E0,1.429974E0,3.509807E1,6.522294E0,-3.7843087E0,9.252078E0,1.8858807E1,-2.2181687E-1,2.0835907E1,8.95676E0,2.5649323E0,1.2085655E1,-4.8310095E-1,-2.6809229E-2,-8.1305623E-1,2.2041914E0,5.253498E-1,2.7944622E0,2.8802524E0,-9.100032E-2,-9.1630965E-2,4.11244E0,1.8132195E-1,2.7583244E0,6.234323E-1,3.1428034E0],"categories":[],"categories_nodes":[],"categories_segments":[],"categories_sizes":[],"default_left":[1,0,0,0,0,0,0,1,0,0,0,0,0,1,0,0,0,0,0,0,0,0,0,0,0,0,0,0,0],"id":19,"left_children":[1,3,5,7,9,11,13,15,17,19,21,23,-1,25,27,-1,-1,-1,-1,-1,-1,-1,-1,-1,-1,-1,-1,-1,-1],"loss_changes":[1.2394061E5,4.7884734E4,6.1318406E4,3.5489363E4,9.777091E4,5.9931508E4,3.4094156E4,2.0970328E4,4.8880125E4,3.6614734E4,6.2625203E4,2.8534043E4,0E0,1.6910145E4,7.2862586E4,0E0,0E0,0E0,0E0,0E0,0E0,0E0,0E0,0E0,0E0,0E0,0E0,0E0,0E0],"parents":[2147483647,0,0,1,1,2,2,3,3,4,4,5,5,6,6,7,7,8,8,9,9,10,10,11,11,13,13,14,14],"right_children":[2,4,6,8,10,12,14,16,18,20,22,24,-1,26,28,-1,-1,-1,-1,-1,-1,-1,-1,-1,-1,-1,-1,-1,-1],"split_conditions":[1.1876E2,2.5586561E1,8.3E0,2.75E2,1.2E1,2.2621562E2,1.63E2,6.0827587E1,7.441E1,2.8234892E1,2.5599485E1,5.3E1,8.95676E0,2.6369232E2,2.8656755E1,-4.8310095E-1,-2.6809229E-2,-8.1305623E-1,2.2041914E0,5.253498E-1,2.7944622E0,2.8802524E0,-9.100032E-2,-9.1630965E-2,4.11244E0,1.8132195E-1,2.7583244E0,6.234323E-1,3.1428034E0],"split_indices":[6,23,18,3,3,5,7,7,8,23,23,3,0,10,23,0,0,0,0,0,0,0,0,0,0,0,0,0,0],"split_type":[0,0,0,0,0,0,0,0,0,0,0,0,0,0,0,0,0,0,0,0,0,0,0,0,0,0,0,0,0],"sum_hessian":[1.0826E4,9.199E3,1.627E3,5.804E3,3.395E3,7.8E1,1.549E3,5.588E3,2.16E2,2.93E2,3.102E3,6.3E1,1.5E1,9.06E2,6.43E2,4.286E3,1.302E3,9.2E1,1.24E2,1.19E2,1.74E2,7.1E1,3.031E3,3.1E1,3.2E1,8.81E2,2.5E1,4.96E2,1.47E2],"tree_param":{"num_deleted":"0","num_feature":"25","num_nodes":"29","size_leaf_vector":"1"}},{"base_weights":[5.948079E-2,-7.9380965E-1,1.2681346E1,2.9792147E0,-2.8134983E0,4.3550916E0,2.5637775E1,1.4918371E0,1.2661431E1,-4.4290485E0,2.7106875E-1,-5.7800374E0,6.030992E0,1.17824745E1,4.724E1,2.0366481E-1,-1.2131132E0,3.8502038E0,-1.7476987E-2,-5.7208157E-1,-7.974104E-2,-3.5089906E-2,1.9723889E0,3.3729792E-1,8.552059E0,6.6466875E0,6.579527E-1,-4.9816694E-2,5.5686073E0],"categories":[],"categories_nodes":[],"categories_segments":[],"categories_sizes":[],"default_left":[0,0,0,0,1,0,0,0,0,0,0,0,0,1,0,0,0,0,0,0,0,0,0,0,0,0,0,0,0],"id":20,"left_children":[1,3,5,7,9,11,13,15,17,19,21,-1,23,25,27,-1,-1,-1,-1,-1,-1,-1,-1,-1,-1,-1,-1,-1,-1],"loss_changes":[1.16165766E5,7.699662E4,7.356938E4,5.0716227E4,3.279612E4,4.396133E4,7.935791E4,2.3152066E4,1.565786E5,2.0623516E4,2.757334E4,0E0,8.562814E4,4.6209008E4,4.315261E4,0E0,0E0,0E0,0E0,0E0,0E0,0E0,0E0,0E0,0E0,0E0,0E0,0E0,0E0],"parents":[2147483647,0,0,1,1,2,2,3,3,4,4,5,5,6,6,7,7,8,8,9,9,10,10,12,12,13,13,14,14],"right_children":[2,4,6,8,10,12,14,16,18,20,22,-1,24,26,28,-1,-1,-1,-1,-1,-1,-1,-1,-1,-1,-1,-1,-1,-1],"split_conditions":[2.75E2,4.9E1,1.6171873E2,2.8684677E1,4.9470684E1,1.22E1,1.95E1,2.8591824E1,2.883526E1,1.96E2,1.89E2,-5.7800374E0,2.8953588E1,4.65E1,2.206047E1,2.0366481E-1,-1.2131132E0,3.8502038E0,-1.7476987E-2,-5.7208157E-1,-7.974104E-2,-3.5089906E-2,1.9723889E0,3.3729792E-1,8.552059E0,6.6466875E0,6.579527E-1,-4.9816694E-2,5.5686073E0],"split_indices":[3,3,5,23,15,17,17,23,23,3,3,0,23,6,23,0,0,0,0,0,0,0,0,0,0,0,0,0,0],"split_type":[0,0,0,0,0,0,0,0,0,0,0,0,0,0,0,0,0,0,0,0,0,0,0,0,0,0,0,0,0],"sum_hessian":[1.0784E4,1.0102E4,6.82E2,3.522E3,6.58E3,4.16E2,2.66E2,3.054E3,4.68E2,4.318E3,2.262E3,1E1,4.06E2,1.63E2,1.03E2,2.936E3,1.18E2,1.54E2,3.14E2,3.168E3,1.15E3,2.193E3,6.9E1,3.94E2,1.2E1,1.3E1,1.5E2,1.6E1,8.7E1],"tree_param":{"num_deleted":"0","num_feature":"25","num_nodes":"29","size_leaf_vector":"1"}},{"base_weights":[8.318017E-2,-6.7134875E-1,1.247992E1,-2.700055E0,1.2856187E0,5.832507E0,3.3313915E1,-3.5788844E0,4.4165832E-1,5.8577955E-1,1.0766112E1,2.5997713E-1,2.6044037E1,-6.576513E0,4.418739E1,-4.9719906E-1,-1.3290682E-1,-5.5750635E-2,1.932554E0,-5.6403965E-1,1.6041873E-1,2.0084286E0,-5.986592E-1,5.474828E-1,-1.7355734E0,6.876089E-1,5.653943E0,9.9459124E-1,-2.4695082E0,5.1667686E0,-4.6080554E-1],"categories":[],"categories_nodes":[],"categories_segments":[],"categories_sizes":[],"default_left":[0,0,0,1,0,0,0,0,0,1,0,0,1,0,0,0,0,0,0,0,0,0,0,0,0,0,0,0,0,0,0],"id":21,"left_children":[1,3,5,7,9,11,13,15,17,19,21,23,25,27,29,-1,-1,-1,-1,-1,-1,-1,-1,-1,-1,-1,-1,-1,-1,-1,-1],"loss_changes":[1.0124346E5,4.0510523E4,8.5809336E4,1.3834344E4,3.4454953E4,5.315429E4,6.5352734E4,1.2420656E4,2.083128E4,3.1014244E4,5.6454098E4,3.4476293E4,5.961333E4,1.0210398E4,4.4609094E4,0E0,0E0,0E0,0E0,0E0,0E0,0E0,0E0,0E0,0E0,0E0,0E0,0E0,0E0,0E0,0E0],"parents":[2147483647,0,0,1,1,2,2,3,3,4,4,5,5,6,6,7,7,8,8,9,9,10,10,11,11,12,12,13,13,14,14],"right_children":[2,4,6,8,10,12,14,16,18,20,22,24,26,28,30,-1,-1,-1,-1,-1,-1,-1,-1,-1,-1,-1,-1,-1,-1,-1,-1],"split_conditions":[1.79E2,6.95E1,2.7580554E2,4.9211746E1,2.75E2,2.8684677E1,1.595E2,1.57E2,1.81E2,2.4E1,3.48E2,2.84275E1,1.9064523E2,2.0383333E2,6.9E0,-4.9719906E-1,-1.3290682E-1,-5.5750635E-2,1.932554E0,-5.6403965E-1,1.6041873E-1,2.0084286E0,-5.986592E-1,5.474828E-1,-1.7355734E0,6.876089E-1,5.653943E0,9.9459124E-1,-2.4695082E0,5.1667686E0,-4.6080554E-1],"split_indices":[4,8,7,15,3,23,6,3,3,5,3,23,14,4,19,0,0,0,0,0,0,0,0,0,0,0,0,0,0,0,0],"split_type":[0,0,0,0,0,0,0,0,0,0,0,0,0,0,0,0,0,0,0,0,0,0,0,0,0,0,0,0,0,0,0],"sum_hessian":[1.0822E4,1.0202E4,6.2E2,5.009E3,5.193E3,4.71E2,1.49E2,3.914E3,1.095E3,4.837E3,3.56E2,3.7E2,1.01E2,3.2E1,1.17E2,2.4E3,1.514E3,1.041E3,5.4E1,6.81E2,4.156E3,2.28E2,1.28E2,2.86E2,8.4E1,6.3E1,3.8E1,1.7E1,1.5E1,1.01E2,1.6E1],"tree_param":{"num_deleted":"0","num_feature":"25","num_nodes":"31","size_leaf_vector":"1"}},{"base_weights":[4.528957E-2,-7.344145E-1,9.527812E0,-3.3393831E0,1.05923E0,4.725324E1,6.739176E0,-3.4831643E0,2.8912709E0,-1.2381116E0,3.3964157E0,3.1188517E1,9.757134E0,-2.410704E0,9.76669E0,-4.7707492E-1,-3.7786122E-2,2.7610222E-1,-2.7199867E-1,2.4378063E-1,1.2888513E0,-1.2516848E0,4.423821E0,1.6995113E0,-1.2155575E0,1.8043685E-1,1.6000926E0],"categories":[],"categories_nodes":[],"categories_segments":[],"categories_sizes":[],"default_left":[0,0,1,1,0,0,0,0,0,0,0,0,0,0,0,0,0,0,0,0,0,0,0,0,0,0,0],"id":22,"left_children":[1,3,5,7,9,11,13,15,-1,17,19,21,-1,23,25,-1,-1,-1,-1,-1,-1,-1,-1,-1,-1,-1,-1],"loss_changes":[7.940645E4,4.6372312E4,8.552677E4,1.8940477E4,3.1565031E4,4.2589E4,2.1104305E4,1.6359879E4,0E0,1.7770246E4,2.634646E4,2.605105E4,0E0,3.646779E4,2.865004E4,0E0,0E0,0E0,0E0,0E0,0E0,0E0,0E0,0E0,0E0,0E0,0E0],"parents":[2147483647,0,0,1,1,2,2,3,3,4,4,5,5,6,6,7,7,9,9,10,10,11,11,13,13,14,14],"right_children":[2,4,6,8,10,12,14,16,-1,18,20,22,-1,24,26,-1,-1,-1,-1,-1,-1,-1,-1,-1,-1,-1,-1],"split_conditions":[1.6333333E2,3.876125E1,1.9E1,1.2106989E2,2.2048889E2,6E0,1.149532E2,1.96E2,2.8912709E0,5.8E1,2.53E2,1.9285966E2,9.757134E0,1.3086852E2,1.66E1,-4.7707492E-1,-3.7786122E-2,2.7610222E-1,-2.7199867E-1,2.4378063E-1,1.2888513E0,-1.2516848E0,4.423821E0,1.6995113E0,-1.2155575E0,1.8043685E-1,1.6000926E0],"split_indices":[4,4,6,14,10,0,8,3,0,3,3,4,0,14,17,0,0,0,0,0,0,0,0,0,0,0,0],"split_type":[0,0,0,0,0,0,0,0,0,0,0,0,0,0,0,0,0,0,0,0,0,0,0,0,0,0,0],"sum_hessian":[1.0738E4,9.923E3,8.15E2,4.046E3,5.877E3,5.5E1,7.6E2,4.029E3,1.7E1,2.964E3,2.913E3,4.3E1,1.2E1,1.89E2,5.71E2,2.834E3,1.195E3,8.04E2,2.16E3,2.651E3,2.62E2,1E1,3.3E1,6.3E1,1.26E2,2.53E2,3.18E2],"tree_param":{"num_deleted":"0","num_feature":"25","num_nodes":"27","size_leaf_vector":"1"}},{"base_weights":[5.523176E-2,-6.173297E-2,6.350155E0,-3.6046794E-1,2.2404404E1,-2.5089512E0,1.6041315E0,9.757153E0,5.258572E1,2.097288E-1,-4.1435567E-1,7.0679724E-1,1.426408E-2,-2.4891245E0,3.43548E0,9.867633E0,3.4802988E0],"categories":[],"categories_nodes":[],"categories_segments":[],"categories_sizes":[],"default_left":[1,0,0,0,0,0,0,0,0,0,0,0,0,0,0,0,0],"id":23,"left_children":[1,3,-1,5,7,9,11,13,15,-1,-1,-1,-1,-1,-1,-1,-1],"loss_changes":[8.135287E4,7.313572E4,0E0,4.5395684E4,5.4071547E4,3.9185812E4,4.5091516E4,8.8586914E4,3.0984617E4,0E0,0E0,0E0,0E0,0E0,0E0,0E0,0E0],"parents":[2147483647,0,0,1,1,3,3,4,4,5,5,6,6,7,7,8,8],"right_children":[2,4,-1,6,8,10,12,14,16,-1,-1,-1,-1,-1,-1,-1,-1],"split_conditions":[2.072296E2,2.7507693E2,6.350155E0,2.3540436E1,2.860909E1,7.454175E1,2E0,7.745367E1,3.9671116E1,2.097288E-1,-4.1435567E-1,7.0679724E-1,1.426408E-2,-2.4891245E0,3.43548E0,9.867633E0,3.4802988E0],"split_indices":[15,4,0,23,23,24,0,24,13,0,0,0,0,0,0,0,0],"split_type":[0,0,0,0,0,0,0,0,0,0,0,0,0,0,0,0,0],"sum_hessian":[1.0914E4,1.0895E4,1.9E1,1.0753E4,1.42E2,5.136E3,5.617E3,1.01E2,4.1E1,1.354E3,3.782E3,1.179E3,4.438E3,4.2E1,5.9E1,1E1,3.1E1],"tree_param":{"num_deleted":"0","num_feature":"25","num_nodes":"17","size_leaf_vector":"1"}},{"base_weights":[-7.183148E-2,-1.7474264E-1,5.815685E0,-2.337165E0,1.7704792E0,-9.718925E0,-2.0409389E0,1.3696911E0,2.2647348E1,-1.062444E0,5.8101946E-1,-7.2590226E-1,-1.6764857E-1,-9.804729E-3,5.193582E-1,1.6852821E-1,5.2386894E0],"categories":[],"categories_nodes":[],"categories_segments":[],"categories_sizes":[],"default_left":[1,0,0,0,1,0,0,0,0,0,0,0,0,0,0,0,0],"id":24,"left_children":[1,3,-1,5,7,9,11,13,15,-1,-1,-1,-1,-1,-1,-1,-1],"loss_changes":[6.5090367E4,4.5416336E4,0E0,1.1160611E4,4.752814E4,2.9770176E3,9.208365E3,3.1498938E4,6.709746E4,0E0,0E0,0E0,0E0,0E0,0E0,0E0,0E0],"parents":[2147483647,0,0,1,1,3,3,4,4,5,5,6,6,7,7,8,8],"right_children":[2,4,-1,6,8,10,12,14,16,-1,-1,-1,-1,-1,-1,-1,-1],"split_conditions":[2.072296E2,6.95E1,5.815685E0,1.811111E1,2.7565E2,2.7307774E1,9.7E0,2.8341925E1,2.7580554E2,-1.062444E0,5.8101946E-1,-7.2590226E-1,-1.6764857E-1,-9.804729E-3,5.193582E-1,1.6852821E-1,5.2386894E0],"split_indices":[15,8,0,15,5,23,18,23,7,0,0,0,0,0,0,0,0],"split_type":[0,0,0,0,0,0,0,0,0,0,0,0,0,0,0,0,0],"sum_hessian":[1.0813E4,1.0795E4,1.8E1,5.112E3,5.683E3,1.96E2,4.916E3,5.577E3,1.06E2,1.85E2,1.1E1,3.12E2,4.604E3,4.037E3,1.54E3,6.3E1,4.3E1],"tree_param":{"num_deleted":"0","num_feature":"25","num_nodes":"17","size_leaf_vector":"1"}},{"base_weights":[9.152048E-3,-5.386822E-1,8.241305E0,2.4754505E0,-2.5056605E0,4.2804955E1,5.6964493E0,2.9244188E1,2.1080344E0,-5.4129815E0,-9.093841E-1,-2.9370966E0,9.477687E1,-4.6958895E0,1.2136803E1,1.5599415E0,4.5368195E0,6.458489E-1,8.564021E-2,-7.289191E-1,-1.5250823E-1,1.3845074E-1,-3.3248797E-1,1.4042892E1,1.4610665E0,2.987376E-1,-4.4443507E0,1.5431547E-1,1.9714763E0],"categories":[],"categories_nodes":[],"categories_segments":[],"categories_sizes":[],"default_left":[0,0,0,0,1,0,0,0,0,0,0,0,1,1,0,0,0,0,0,0,0,0,0,0,0,0,0,0,0],"id":25,"left_children":[1,3,5,7,9,11,13,15,17,19,21,-1,23,25,27,-1,-1,-1,-1,-1,-1,-1,-1,-1,-1,-1,-1,-1,-1],"loss_changes":[4.864323E4,5.9963492E4,5.895291E4,3.9220414E4,2.8397309E4,1.7564944E5,4.2089246E4,1.125134E4,2.1527348E4,1.6047984E4,2.2089168E4,0E0,9.79735E4,7.42112E4,3.144629E4,0E0,0E0,0E0,0E0,0E0,0E0,0E0,0E0,0E0,0E0,0E0,0E0,0E0,0E0],"parents":[2147483647,0,0,1,1,2,2,3,3,4,4,5,5,6,6,7,7,8,8,9,9,10,10,12,12,13,13,14,14],"right_children":[2,4,6,8,10,12,14,16,18,20,22,-1,24,26,28,-1,-1,-1,-1,-1,-1,-1,-1,-1,-1,-1,-1,-1,-1],"split_conditions":[2.75E2,5.6E1,7.4853E1,7.283622E1,1.8716537E1,1.278118E2,8.4002396E1,4E0,1.2E1,1.96E2,7.732196E1,-2.9370966E0,7.8564064E1,5.736115E1,9.91E2,1.5599415E0,4.5368195E0,6.458489E-1,8.564021E-2,-7.289191E-1,-1.5250823E-1,1.3845074E-1,-3.3248797E-1,1.4042892E1,1.4610665E0,2.987376E-1,-4.4443507E0,1.5431547E-1,1.9714763E0],"split_indices":[3,3,24,24,14,14,24,1,3,3,24,0,12,14,9,0,0,0,0,0,0,0,0,0,0,0,0,0,0],"split_type":[0,0,0,0,0,0,0,0,0,0,0,0,0,0,0,0,0,0,0,0,0,0,0,0,0,0,0,0,0],"sum_hessian":[1.0784E4,1.0112E4,6.72E2,3.993E3,6.119E3,4.5E1,6.27E2,5.3E1,3.94E3,2.168E3,3.951E3,1.9E1,2.6E1,2.4E2,3.87E2,3E1,2.3E1,8.73E2,3.067E3,1.453E3,7.15E2,2.03E3,1.921E3,1.6E1,1E1,2.02E2,3.8E1,1.63E2,2.24E2],"tree_param":{"num_deleted":"0","num_feature":"25","num_nodes":"29","size_leaf_vector":"1"}},{"base_weights":[-1.6695425E-1,-2.4453359E0,1.2933306E0,-2.6740737E0,1.5773155E1,-1.9892789E0,2.901364E0,-4.609124E0,-3.3652672E-1,2.8982935E1,-1.3072066E0,-1.3989446E0,-1.7833471E1,2.9226906E1,2.5413206E0,-8.4138036E-1,-2.7294213E-1,-5.2419037E-2,2.9020004E0,9.5264244E-1,5.528886E0,-1.16257556E-1,-1.701963E0,1.6823936E-1,-3.2374864E0,1.0532348E0,1.0917387E1,1.8759182E-1,1.1024536E0],"categories":[],"categories_nodes":[],"categories_segments":[],"categories_sizes":[],"default_left":[0,1,0,0,0,0,0,1,1,0,0,1,1,0,1,0,0,0,0,0,0,0,0,0,0,0,0,0,0],"id":26,"left_children":[1,3,5,7,9,11,13,15,17,19,-1,21,23,25,27,-1,-1,-1,-1,-1,-1,-1,-1,-1,-1,-1,-1,-1,-1],"loss_changes":[3.5622945E4,1.7469658E4,3.4448285E4,1.868408E4,2.0233172E4,2.0047385E4,4.144086E4,1.6191465E4,1.049687E4,1.8021824E4,0E0,7.4962856E3,2.2124172E4,8.732324E4,2.4214537E4,0E0,0E0,0E0,0E0,0E0,0E0,0E0,0E0,0E0,0E0,0E0,0E0,0E0,0E0],"parents":[2147483647,0,0,1,1,2,2,3,3,4,4,5,5,6,6,7,7,8,8,9,9,11,11,12,12,13,13,14,14],"right_children":[2,4,6,8,10,12,14,16,18,20,-1,22,24,26,28,-1,-1,-1,-1,-1,-1,-1,-1,-1,-1,-1,-1,-1,-1],"split_conditions":[4.0203335E1,5.6736343E1,6.85E1,5.4E0,9.4954254E1,1E1,2.2541666E-1,1.760866E1,7.357068E1,6.623579E1,-1.3072066E0,7.357068E1,7.33085E1,2.1125E-1,2.19375E2,-8.4138036E-1,-2.7294213E-1,-5.2419037E-2,2.9020004E0,9.5264244E-1,5.528886E0,-1.16257556E-1,-1.701963E0,1.6823936E-1,-3.2374864E0,1.0532348E0,1.0917387E1,1.8759182E-1,1.1024536E0],"split_indices":[4,16,8,21,12,0,20,12,13,12,0,13,5,20,6,0,0,0,0,0,0,0,0,0,0,0,0,0,0],"split_type":[0,0,0,0,0,0,0,0,0,0,0,0,0,0,0,0,0,0,0,0,0,0,0,0,0,0,0,0,0],"sum_hessian":[1.0705E4,4.181E3,6.524E3,4.13E3,5.1E1,2.145E3,4.379E3,2.259E3,1.871E3,3.5E1,1.6E1,2.069E3,7.6E1,5.8E1,4.321E3,7.38E2,1.521E3,1.86E3,1.1E1,2.1E1,1.4E1,2.04E3,2.9E1,3.3E1,4.3E1,4.8E1,1E1,4.013E3,3.08E2],"tree_param":{"num_deleted":"0","num_feature":"25","num_nodes":"29","size_leaf_vector":"1"}},{"base_weights":[-3.5846376E-1,-2.537686E0,9.285238E-1,-4.391108E0,-7.4301267E-1,-2.1802504E0,2.8166673E0,-8.368041E0,-2.688463E0,-6.9755454E0,-7.182721E-4,-1.513497E0,-1.5530239E1,6.199747E0,-4.374198E-1,-8.837251E-1,6.5294725E-1,-1.8883196E0,-2.413201E-1,-4.5412856E-1,-1.1530558E0,-3.8060716E-1,1.0716311E-1,-1.2304876E-2,-6.072167E-1,-2.2326138E0,-6.40863E-1,6.654043E-1,-1.84211E0,4.840279E-1,-2.5121722E-1],"categories":[],"categories_nodes":[],"categories_segments":[],"categories_sizes":[],"default_left":[0,0,0,1,0,0,1,1,0,0,0,0,0,1,0,0,0,0,0,0,0,0,0,0,0,0,0,0,0,0,0],"id":27,"left_children":[1,3,5,7,9,11,13,15,17,19,21,23,25,27,29,-1,-1,-1,-1,-1,-1,-1,-1,-1,-1,-1,-1,-1,-1,-1,-1],"loss_changes":[3.029799E4,1.333848E4,3.9873906E4,1.3337285E4,9.433173E3,2.2825746E4,4.652605E4,4.532633E3,5.9163125E3,2.3599824E3,7.5073286E3,1.5586395E4,7.5021465E3,2.4839578E4,2.3825936E4,0E0,0E0,0E0,0E0,0E0,0E0,0E0,0E0,0E0,0E0,0E0,0E0,0E0,0E0,0E0,0E0],"parents":[2147483647,0,0,1,1,2,2,3,3,4,4,5,5,6,6,7,7,8,8,9,9,10,10,11,11,12,12,13,13,14,14],"right_children":[2,4,6,8,10,12,14,16,18,20,22,24,26,28,30,-1,-1,-1,-1,-1,-1,-1,-1,-1,-1,-1,-1,-1,-1,-1,-1],"split_conditions":[3.876125E1,4.4E0,2.3540436E1,1.8E1,7.75E0,2.310797E1,2.3666666E1,4.2791668E-1,1.12E1,4.414E1,1.7E1,2.78E1,2.23E1,3.0403333E2,2.5859655E1,-8.837251E-1,6.5294725E-1,-1.8883196E0,-2.413201E-1,-4.5412856E-1,-1.1530558E0,-3.8060716E-1,1.0716311E-1,-1.2304876E-2,-6.072167E-1,-2.2326138E0,-6.40863E-1,6.654043E-1,-1.84211E0,4.840279E-1,-2.5121722E-1],"split_indices":[4,21,23,6,6,23,10,20,17,9,8,17,17,8,23,0,0,0,0,0,0,0,0,0,0,0,0,0,0,0,0],"split_type":[0,0,0,0,0,0,0,0,0,0,0,0,0,0,0,0,0,0,0,0,0,0,0,0,0,0,0,0,0,0,0],"sum_hessian":[1.0801E4,4.01E3,6.791E3,1.972E3,2.038E3,2.566E3,4.225E3,5.9E2,1.382E3,2.16E2,1.822E3,2.445E3,1.21E2,2.071E3,2.154E3,5.71E2,1.9E1,2.1E1,1.361E3,1.43E2,7.3E1,4E2,1.422E3,1.877E3,5.68E2,6.8E1,5.3E1,2.032E3,3.9E1,6.08E2,1.546E3],"tree_param":{"num_deleted":"0","num_feature":"25","num_nodes":"31","size_leaf_vector":"1"}},{"base_weights":[-1.1416785E-1,-5.324634E-1,9.328259E0,-3.0247873E-1,-1.1282056E1,4.5538454E0,4.5816147E1,-1.8772808E0,1.2483538E0,-8.833482E0,-2.4667028E1,2.5083532E1,-4.7409024E0,8.917542E0,2.44797E1,-2.006764E-1,5.5853534E0,5.5297E-2,1.5007482E0,-1.2011915E0,3.763595E-2,-3.1690457E0,-1.5987397E0,1.6808095E0,7.6838717E0,-3.8516688E0,-8.280654E-2,5.8022885E0,-1.2044928E-1],"categories":[],"categories_nodes":[],"categories_segments":[],"categories_sizes":[],"default_left":[1,0,0,0,0,1,0,1,0,0,0,0,0,0,0,0,0,0,0,0,0,0,0,0,0,0,0,0,0],"id":28,"left_children":[1,3,5,7,9,11,13,15,17,19,21,23,25,-1,27,-1,-1,-1,-1,-1,-1,-1,-1,-1,-1,-1,-1,-1,-1],"loss_changes":[4.273704E4,2.5611477E4,7.975295E4,2.4779014E4,6.894086E3,7.778195E4,4.727368E4,4.042023E4,4.8964027E4,5.509092E3,1.5234961E3,5.296007E4,3.7252824E4,0E0,3.2190885E4,0E0,0E0,0E0,0E0,0E0,0E0,0E0,0E0,0E0,0E0,0E0,0E0,0E0,0E0],"parents":[2147483647,0,0,1,1,2,2,3,3,4,4,5,5,6,6,7,7,8,8,9,9,10,10,11,11,12,12,14,14],"right_children":[2,4,6,8,10,12,14,16,18,20,22,24,26,-1,28,-1,-1,-1,-1,-1,-1,-1,-1,-1,-1,-1,-1,-1,-1],"split_conditions":[1.99625E2,9.189426E1,2.8757294E1,2.3540436E1,7.5E1,2.1153847E1,1.05E1,2.29E2,1.99625E2,9.409899E1,2E-1,8.6590324E1,9.3083334E-1,8.917542E0,2.3E1,-2.006764E-1,5.5853534E0,5.5297E-2,1.5007482E0,-1.2011915E0,3.763595E-2,-3.1690457E0,-1.5987397E0,1.6808095E0,7.6838717E0,-3.8516688E0,-8.280654E-2,5.8022885E0,-1.2044928E-1],"split_indices":[6,24,23,23,6,8,18,8,6,24,19,24,20,0,3,0,0,0,0,0,0,0,0,0,0,0,0,0,0],"split_type":[0,0,0,0,0,0,0,0,0,0,0,0,0,0,0,0,0,0,0,0,0,0,0,0,0,0,0,0,0],"sum_hessian":[1.0818E4,1.036E4,4.58E2,1.0144E4,2.16E2,4.06E2,5.2E1,5.033E3,5.111E3,1.84E2,3.2E1,1.26E2,2.8E2,1.6E1,3.6E1,5.022E3,1.1E1,4.868E3,2.43E2,1.36E2,4.8E1,1.6E1,1.6E1,1.1E2,1.6E1,2.8E1,2.52E2,1.5E1,2.1E1],"tree_param":{"num_deleted":"0","num_feature":"25","num_nodes":"29","size_leaf_vector":"1"}},{"base_weights":[2.8226286E-1,1.913349E-1,4.6828266E1,5.836053E0,-3.854792E-1,1.6197265E0,7.2819033E0,-3.016278E-1,2.3055508E1,-1.1048074E0,2.6072972E0,-2.828853E-1,1.057991E0,5.5668664E0,1.6636074E0,-4.1773522E-1,5.6660056E-2,-3.6212467E-2,9.9596643E-1],"categories":[],"categories_nodes":[],"categories_segments":[],"categories_sizes":[],"default_left":[1,0,0,0,0,0,0,1,0,1,0,0,0,0,0,0,0,0,0],"id":29,"left_children":[1,3,5,7,9,-1,-1,11,13,15,17,-1,-1,-1,-1,-1,-1,-1,-1],"loss_changes":[4.5585965E4,3.5013516E4,1.5692035E4,1.053774E5,2.1007639E4,0E0,0E0,2.0452875E4,5.3704375E4,4.069887E4,4.1550977E4,0E0,0E0,0E0,0E0,0E0,0E0,0E0,0E0],"parents":[2147483647,0,0,1,1,2,2,3,3,4,4,7,7,8,8,9,9,10,10],"right_children":[2,4,6,8,10,-1,-1,12,14,16,18,-1,-1,-1,-1,-1,-1,-1,-1],"split_conditions":[2.072296E2,1.3E1,1.82E1,2.8234892E1,1.96E2,1.6197265E0,7.2819033E0,1.2E2,2.847272E1,3.3142857E1,9.91E2,-2.828853E-1,1.057991E0,5.5668664E0,1.6636074E0,-4.1773522E-1,5.6660056E-2,-3.6212467E-2,9.9596643E-1],"split_indices":[15,3,17,23,3,0,0,5,23,14,8,0,0,0,0,0,0,0,0],"split_type":[0,0,0,0,0,0,0,0,0,0,0,0,0,0,0,0,0,0,0],"sum_hessian":[1.0772E4,1.0752E4,2E1,9.96E2,9.756E3,1E1,1E1,7.35E2,2.61E2,7.866E3,1.89E3,5.97E2,1.38E2,4.1E1,2.2E2,2.763E3,5.103E3,1.349E3,5.41E2],"tree_param":{"num_deleted":"0","num_feature":"25","num_nodes":"19","size_leaf_vector":"1"}},{"base_weights":[4.8590012E-2,2.353908E0,-1.121611E0,3.12817E0,-1.1328851E1,-1.8969898E0,6.263783E0,1.9745973E0,2.1434286E1,-2.524777E0,-1.6930405E1,-1.2107624E1,-1.6318141E0,1.147879E1,-7.884791E0,2.396481E-1,-4.576616E0,6.0142684E0,7.3255014E-1,1.5592016E0,-5.449057E-1,-9.828081E-1,-2.6038165E0,-1.6334042E-1,-1.8540624E0,-1.3966466E-1,-1.1690369E0,-6.4512277E-1,2.030884E0,-1.7835296E0,1.7163681E0],"categories":[],"categories_nodes":[],"categories_segments":[],"categories_sizes":[],"default_left":[0,0,0,0,0,0,0,0,0,0,0,0,1,0,1,0,0,0,0,0,0,0,0,0,0,0,0,0,0,0,0],"id":30,"left_children":[1,3,5,7,9,11,13,15,17,19,21,23,25,27,29,-1,-1,-1,-1,-1,-1,-1,-1,-1,-1,-1,-1,-1,-1,-1,-1],"loss_changes":[2.9140342E4,3.856597E4,4.1042098E4,7.2665016E4,9.573969E3,1.7539111E4,5.0338035E4,6.7238836E4,1.1146025E5,4.2129937E3,7.4878594E3,1.1149451E4,1.4628518E4,7.988076E4,4.665992E4,0E0,0E0,0E0,0E0,0E0,0E0,0E0,0E0,0E0,0E0,0E0,0E0,0E0,0E0,0E0,0E0],"parents":[2147483647,0,0,1,1,2,2,3,3,4,4,5,5,6,6,7,7,8,8,9,9,10,10,11,11,12,12,13,13,14,14],"right_children":[2,4,6,8,10,12,14,16,18,20,22,24,26,28,30,-1,-1,-1,-1,-1,-1,-1,-1,-1,-1,-1,-1,-1,-1,-1,-1],"split_conditions":[5E1,2.9966942E1,2.75E2,2.8757294E1,2.2E1,1.9E1,3.48E2,2.8725645E1,2.8802626E1,8.8E0,7.694603E1,3.9663715E1,1.59E2,1.216E2,3.14E0,2.396481E-1,-4.576616E0,6.0142684E0,7.3255014E-1,1.5592016E0,-5.449057E-1,-9.828081E-1,-2.6038165E0,-1.6334042E-1,-1.8540624E0,-1.3966466E-1,-1.1690369E0,-6.4512277E-1,2.030884E0,-1.7835296E0,1.7163681E0],"split_indices":[3,23,3,23,3,17,3,23,23,18,11,12,5,8,10,0,0,0,0,0,0,0,0,0,0,0,0,0,0,0,0],"split_type":[0,0,0,0,0,0,0,0,0,0,0,0,0,0,0,0,0,0,0,0,0,0,0,0,0,0,0,0,0,0,0],"sum_hessian":[1.08E4,3.636E3,7.164E3,3.442E3,1.94E2,6.484E3,6.8E2,3.239E3,2.03E2,7.6E1,1.18E2,1.63E2,6.321E3,4.97E2,1.83E2,3.211E3,2.8E1,5.3E1,1.5E2,1E1,6.6E1,6.8E1,5E1,6.3E1,1E2,6.182E3,1.39E2,1.65E2,3.32E2,1.31E2,5.2E1],"tree_param":{"num_deleted":"0","num_feature":"25","num_nodes":"31","size_leaf_vector":"1"}},{"base_weights":[-1.2735385E-1,-6.3972145E-1,6.339016E0,1.1051909E0,-2.3283756E0,1.84466E1,2.9614925E-1,-4.609003E-1,5.072653E0,-4.39497E0,1.3832037E0,6.208646E0,3.1703672E1,2.2582176E0,-3.3542828E1,-1.4331262E-1,9.6957636E-1,2.3762176E0,3.3097813E-1,-3.9677462E-1,-2.9954772E0,5.6381196E-1,-4.9371848E-1,-1.8265883E0,1.0238984E0,2.355987E0,5.8754163E0,1.6994953E0,-2.351124E-1,-5.310671E0,-1.1464849E0],"categories":[],"categories_nodes":[],"categories_segments":[],"categories_sizes":[],"default_left":[0,0,1,0,0,0,1,0,0,0,0,0,1,0,0,0,0,0,0,0,0,0,0,0,0,0,0,0,0,0,0],"id":31,"left_children":[1,3,5,7,9,11,13,15,17,19,21,23,25,27,29,-1,-1,-1,-1,-1,-1,-1,-1,-1,-1,-1,-1,-1,-1,-1,-1],"loss_changes":[3.5650324E4,2.9379709E4,5.7794504E4,3.0472887E4,3.8871633E4,4.2472133E4,3.513198E4,3.5106805E4,4.5530117E4,3.4175273E4,4.9227504E4,1.3994084E4,2.6271492E4,3.4247133E4,1.20299E4,0E0,0E0,0E0,0E0,0E0,0E0,0E0,0E0,0E0,0E0,0E0,0E0,0E0,0E0,0E0,0E0],"parents":[2147483647,0,0,1,1,2,2,3,3,4,4,5,5,6,6,7,7,8,8,9,9,10,10,11,11,12,12,13,13,14,14],"right_children":[2,4,6,8,10,12,14,16,18,20,22,24,26,28,30,-1,-1,-1,-1,-1,-1,-1,-1,-1,-1,-1,-1,-1,-1,-1,-1],"split_conditions":[1.6333333E2,7.758491E1,2.7958334E1,7.70027E1,8.4002396E1,2.3713333E2,2.5458333E-1,2.12E2,1E1,3.3E2,8.746683E1,1.2221408E2,2.9666665E-1,4.268565E1,2.7507693E2,-1.4331262E-1,9.6957636E-1,2.3762176E0,3.3097813E-1,-3.9677462E-1,-2.9954772E0,5.6381196E-1,-4.9371848E-1,-1.8265883E0,1.0238984E0,2.355987E0,5.8754163E0,1.6994953E0,-2.351124E-1,-5.310671E0,-1.1464849E0],"split_indices":[4,24,8,24,24,11,20,3,3,3,24,12,20,16,4,0,0,0,0,0,0,0,0,0,0,0,0,0,0,0,0],"split_type":[0,0,0,0,0,0,0,0,0,0,0,0,0,0,0,0,0,0,0,0,0,0,0,0,0,0,0,0,0,0,0],"sum_hessian":[1.0758E4,9.969E3,7.89E2,4.903E3,5.066E3,2.62E2,5.27E2,3.516E3,1.387E3,3.254E3,1.812E3,1.37E2,1.25E2,4.99E2,2.8E1,3.209E3,3.07E2,1.17E2,1.27E3,3.204E3,5E1,1.082E3,7.3E2,1.9E1,1.18E2,9.8E1,2.7E1,1.18E2,3.81E2,1.4E1,1.4E1],"tree_param":{"num_deleted":"0","num_feature":"25","num_nodes":"31","size_leaf_vector":"1"}},{"base_weights":[1.739777E-1,-5.4557604E-1,4.6881747E0,-3.911039E-1,-2.8022217E1,1.5872154E1,2.526725E0,-1.7388935E0,1.925277E0,-1.1621482E0,-3.7082584E1,4.612924E1,6.839833E0,5.9720325E0,-6.468357E0,-1.0550446E-1,-1.0798559E0,2.345265E0,1.3783827E-1,-1.7572302E0,-4.4573293E0,1.6719178E0,8.031763E0,1.1797421E-1,6.656381E0,5.016935E-2,1.1537211E0,-9.292083E-1,9.0975595E-1],"categories":[],"categories_nodes":[],"categories_segments":[],"categories_sizes":[],"default_left":[1,1,0,0,0,0,1,0,0,0,0,1,1,0,0,0,0,0,0,0,0,0,0,0,0,0,0,0,0],"id":32,"left_children":[1,3,5,7,9,11,13,15,17,-1,19,21,23,25,27,-1,-1,-1,-1,-1,-1,-1,-1,-1,-1,-1,-1,-1,-1],"loss_changes":[3.5037723E4,3.947872E4,3.580936E4,2.889116E4,7.2706484E3,6.5274496E4,3.859121E4,3.6175883E4,3.9794496E4,0E0,4.1371406E3,5.43696E4,6.304175E4,2.762679E4,1.5502804E4,0E0,0E0,0E0,0E0,0E0,0E0,0E0,0E0,0E0,0E0,0E0,0E0,0E0,0E0],"parents":[2147483647,0,0,1,1,2,2,3,3,4,4,5,5,6,6,7,7,8,8,10,10,11,11,12,12,13,13,14,14],"right_children":[2,4,6,8,10,12,14,16,18,-1,20,22,24,26,28,-1,-1,-1,-1,-1,-1,-1,-1,-1,-1,-1,-1,-1,-1],"split_conditions":[1.2080488E2,1.7248398E2,9.7E0,2.5586561E1,1.18E1,2.5425602E1,1.6171873E2,2.5251013E1,2.5599485E1,-1.1621482E0,2.5251013E1,1.43325E2,2.6917056E2,3.0554166E2,2.8757294E1,-1.0550446E-1,-1.0798559E0,2.345265E0,1.3783827E-1,-1.7572302E0,-4.4573293E0,1.6719178E0,8.031763E0,1.1797421E-1,6.656381E0,5.016935E-2,1.1537211E0,-9.292083E-1,9.0975595E-1],"split_indices":[7,12,18,23,18,23,5,23,23,0,23,5,12,10,23,0,0,0,0,0,0,0,0,0,0,0,0,0,0],"split_type":[0,0,0,0,0,0,0,0,0,0,0,0,0,0,0,0,0,0,0,0,0,0,0,0,0,0,0,0,0],"sum_hessian":[1.0785E4,9.303E3,1.482E3,9.252E3,5.1E1,2.39E2,1.243E3,5.849E3,3.403E3,1.9E1,3.2E1,5.4E1,1.85E2,8.99E2,3.44E2,5.444E3,4.05E2,8.2E1,3.321E3,1E1,2.2E1,3E1,2.4E1,1.7E2,1.5E1,4.56E2,4.43E2,2.91E2,5.3E1],"tree_param":{"num_deleted":"0","num_feature":"25","num_nodes":"29","size_leaf_vector":"1"}},{"base_weights":[3.2815203E-2,1.515201E0,-1.3769821E0,-1.1649716E-1,5.5286074E0,-3.1311703E0,2.1244934E0,-6.468885E-1,1.8489527E1,3.222051E1,3.4699802E0,-2.5928087E0,-1.9854307E1,7.0463295E0,-4.5057087E0,-2.9172626E-1,2.3866725E-1,-1.5752691E0,4.415476E0,8.045153E0,2.017523E0,8.263554E-2,1.9171209E0,-3.026328E-1,1.8619311E0,-1.0477512E0,-4.044258E0,1.5324221E0,3.4169644E-1,-1.6621841E0,-2.98262E-1],"categories":[],"categories_nodes":[],"categories_segments":[],"categories_sizes":[],"default_left":[0,0,0,0,0,0,0,1,0,0,0,1,0,1,1,0,0,0,0,0,0,0,0,0,0,0,0,0,0,0,0],"id":33,"left_children":[1,3,5,7,9,11,13,15,17,19,21,23,25,27,29,-1,-1,-1,-1,-1,-1,-1,-1,-1,-1,-1,-1,-1,-1,-1,-1],"loss_changes":[2.2397062E4,3.4210883E4,3.3746016E4,3.667334E4,8.286069E4,3.2899855E4,5.9880246E4,2.5113242E4,9.207233E4,6.1101023E4,5.844725E4,3.3781492E4,2.1659867E4,3.1705832E4,1.434384E4,0E0,0E0,0E0,0E0,0E0,0E0,0E0,0E0,0E0,0E0,0E0,0E0,0E0,0E0,0E0,0E0],"parents":[2147483647,0,0,1,1,2,2,3,3,4,4,5,5,6,6,7,7,8,8,9,9,10,10,11,11,12,12,13,13,14,14],"right_children":[2,4,6,8,10,12,14,16,18,20,22,24,26,28,30,-1,-1,-1,-1,-1,-1,-1,-1,-1,-1,-1,-1,-1,-1,-1,-1],"split_conditions":[7.758491E1,7.705107E1,8.4744675E1,1E1,7.707658E1,3.34E2,8.746683E1,4.85E1,1.278118E2,1.9E1,3.0286365E2,1.4970366E2,2.59E2,7.0636505E1,8.74E0,-2.9172626E-1,2.3866725E-1,-1.5752691E0,4.415476E0,8.045153E0,2.017523E0,8.263554E-2,1.9171209E0,-3.026328E-1,1.8619311E0,-1.0477512E0,-4.044258E0,1.5324221E0,3.4169644E-1,-1.6621841E0,-2.98262E-1],"split_indices":[24,24,24,0,24,3,24,7,14,3,7,14,7,11,11,0,0,0,0,0,0,0,0,0,0,0,0,0,0,0,0],"split_type":[0,0,0,0,0,0,0,0,0,0,0,0,0,0,0,0,0,0,0,0,0,0,0,0,0,0,0,0,0,0,0],"sum_hessian":[1.0715E4,5.223E3,5.492E3,3.714E3,1.509E3,3.659E3,1.833E3,3.612E3,1.02E2,1.07E2,1.402E3,3.546E3,1.13E2,1.052E3,7.81E2,2.064E3,1.548E3,4.4E1,5.8E1,2E1,8.7E1,1.202E3,2E2,3.474E3,7.2E1,7.9E1,3.4E1,3.17E2,7.35E2,8.5E1,6.96E2],"tree_param":{"num_deleted":"0","num_feature":"25","num_nodes":"31","size_leaf_vector":"1"}},{"base_weights":[-1.7134352E-1,3.1060404E-1,-6.187895E0,-4.6573445E-1,6.8312593E0,-5.263775E0,-1.762668E1,1.481354E0,-3.2663524E0,1.2896854E1,1.5171285E0,-5.7487946E0,2.4413493E0,-9.7856245E0,-2.9474173E1,-3.6005937E-2,5.970366E-1,-3.4491473E-1,3.0807083E0,2.7777889E0,9.391383E-1,-6.587173E-1,8.9170516E-1,-3.8079634E-1,-9.637164E-1,-1.5944761E0,4.503941E-1,-2.0305831E0,-3.7365913E0],"categories":[],"categories_nodes":[],"categories_segments":[],"categories_sizes":[],"default_left":[0,0,1,0,1,1,0,0,1,1,0,0,0,0,0,0,0,0,0,0,0,0,0,0,0,0,0,0,0],"id":34,"left_children":[1,3,5,7,9,11,13,15,17,19,21,23,-1,25,27,-1,-1,-1,-1,-1,-1,-1,-1,-1,-1,-1,-1,-1,-1],"loss_changes":[3.10834E4,5.0245875E4,8.311012E3,4.8373402E4,3.4018875E4,1.0786932E4,5.19249E3,4.354303E4,2.4701754E4,2.5361938E4,3.417736E4,5.4535527E3,0E0,3.369604E3,9.1658203E2,0E0,0E0,0E0,0E0,0E0,0E0,0E0,0E0,0E0,0E0,0E0,0E0,0E0,0E0],"parents":[2147483647,0,0,1,1,2,2,3,3,4,4,5,5,6,6,7,7,8,8,9,9,10,10,11,11,13,13,14,14],"right_children":[2,4,6,8,10,12,14,16,18,20,22,24,-1,26,28,-1,-1,-1,-1,-1,-1,-1,-1,-1,-1,-1,-1,-1,-1],"split_conditions":[8.746683E1,8.4744675E1,4.7731995E1,7.758491E1,8.936191E1,1.99875E2,1.5966258E2,7.705107E1,2.21875E2,2.9925E1,1.9444444E2,9.18985E1,2.4413493E0,1.3773912E2,1.7975829E2,-3.6005937E-2,5.970366E-1,-3.4491473E-1,3.0807083E0,2.7777889E0,9.391383E-1,-6.587173E-1,8.9170516E-1,-3.8079634E-1,-9.637164E-1,-1.5944761E0,4.503941E-1,-2.0305831E0,-3.7365913E0],"split_indices":[24,24,16,24,11,7,12,24,12,7,9,24,0,12,12,0,0,0,0,0,0,0,0,0,0,0,0,0,0],"split_type":[0,0,0,0,0,0,0,0,0,0,0,0,0,0,0,0,0,0,0,0,0,0,0,0,0,0,0,0,0],"sum_hessian":[1.0718E4,9.924E3,7.94E2,8.869E3,1.055E3,7.36E2,5.8E1,5.232E3,3.637E3,4.92E2,5.63E2,7.25E2,1.1E1,3.6E1,2.2E1,3.716E3,1.516E3,3.617E3,2E1,9.1E1,4.01E2,2.69E2,2.94E2,4.88E2,2.37E2,2.5E1,1.1E1,1.2E1,1E1],"tree_param":{"num_deleted":"0","num_feature":"25","num_nodes":"29","size_leaf_vector":"1"}},{"base_weights":[4.2188615E-2,-3.2779244E-1,5.4442763E0,1.656387E0,-1.2827268E0,4.6790356E1,1.8992083E0,1.9465678E0,-1.4923162E1,-9.949683E0,-8.8690054E-1,-1.5000267E1,1.0270609E2,-8.61191E0,9.103433E0,-1.0398233E-1,3.7205884E-1,-7.6415E-2,-2.2457507E0,-6.508498E-1,-2.3678927E0,-6.1980467E-2,-8.1404793E-1,-2.9890091E0,3.4676772E-1,1.7455267E1,4.0972233E0,-1.4964905E0,2.4316933E0,2.5894563E0,3.4813365E-1],"categories":[],"categories_nodes":[],"categories_segments":[],"categories_sizes":[],"default_left":[0,0,0,0,0,0,0,0,0,0,0,0,0,1,0,0,0,0,0,0,0,0,0,0,0,0,0,0,0,0,0],"id":35,"left_children":[1,3,5,7,9,11,13,15,17,19,21,23,25,27,29,-1,-1,-1,-1,-1,-1,-1,-1,-1,-1,-1,-1,-1,-1,-1,-1],"loss_changes":[2.1733322E4,1.928511E4,1.0207367E5,1.593925E4,2.3562883E4,1.9156938E5,4.876922E4,1.740895E4,6.139966E3,1.4006996E4,1.2661229E4,7.5993228E3,1.2238581E5,5.5908227E4,3.6112992E4,0E0,0E0,0E0,0E0,0E0,0E0,0E0,0E0,0E0,0E0,0E0,0E0,0E0,0E0,0E0,0E0],"parents":[2147483647,0,0,1,1,2,2,3,3,4,4,5,5,6,6,7,7,8,8,9,9,10,10,11,11,12,12,13,13,14,14],"right_children":[2,4,6,8,10,12,14,16,18,20,22,24,26,28,30,-1,-1,-1,-1,-1,-1,-1,-1,-1,-1,-1,-1,-1,-1,-1,-1],"split_conditions":[2.75E2,4.5E1,7.4853E1,2.3E1,1.93E1,1.2469417E2,8.4002396E1,7.705107E1,8.3395836E1,3.39E2,2.62E2,8.25E1,2.59E2,4.6625E-1,9.1E0,-1.0398233E-1,3.7205884E-1,-7.6415E-2,-2.2457507E0,-6.508498E-1,-2.3678927E0,-6.1980467E-2,-8.1404793E-1,-2.9890091E0,3.4676772E-1,1.7455267E1,4.0972233E0,-1.4964905E0,2.4316933E0,2.5894563E0,3.4813365E-1],"split_indices":[3,3,24,18,17,8,24,24,5,9,3,9,7,20,18,0,0,0,0,0,0,0,0,0,0,0,0,0,0,0,0],"split_type":[0,0,0,0,0,0,0,0,0,0,0,0,0,0,0,0,0,0,0,0,0,0,0,0,0,0,0,0,0,0,0],"sum_hessian":[1.0872E4,1.0176E4,6.96E2,3.306E3,6.87E3,5.4E1,6.42E2,3.25E3,5.6E1,2.99E2,6.571E3,2.6E1,2.8E1,2.61E2,3.81E2,1.217E3,2.033E3,2E1,3.6E1,2.41E2,5.8E1,6.342E3,2.29E2,1.4E1,1.2E1,1.2E1,1.6E1,2.19E2,4.2E1,9.4E1,2.87E2],"tree_param":{"num_deleted":"0","num_feature":"25","num_nodes":"31","size_leaf_vector":"1"}},{"base_weights":[-3.1550746E-2,-2.3981649E-1,1.5147815E1,9.807735E-1,-1.3886681E0,3.4721195E1,2.5830324E0,1.3325545E0,-1.5032514E1,-3.0309355E0,1.9119519E0,-1.8753822E0,4.942127E1,-3.8573663E0,3.7658641E0,3.2426976E-2,6.8315643E-1,-3.041404E0,-9.3909776E-1,-2.8939974E-1,-3.5099921E0,1.367224E0,-1.1966759E-1,3.014363E0,8.533158E0,1.0219235E0,-1.4618144E0],"categories":[],"categories_nodes":[],"categories_segments":[],"categories_sizes":[],"default_left":[0,0,1,1,0,0,1,1,0,1,0,0,1,0,0,0,0,0,0,0,0,0,0,0,0,0,0],"id":36,"left_children":[1,3,5,7,9,11,13,15,17,19,21,-1,23,25,-1,-1,-1,-1,-1,-1,-1,-1,-1,-1,-1,-1,-1],"loss_changes":[3.4101867E4,1.4922988E4,3.5816855E4,2.908719E4,2.9720977E4,4.5805406E4,2.0570918E4,2.8108582E4,9.356367E3,1.45811875E4,6.707003E4,0E0,2.8664375E4,1.1919116E4,0E0,0E0,0E0,0E0,0E0,0E0,0E0,0E0,0E0,0E0,0E0,0E0,0E0],"parents":[2147483647,0,0,1,1,2,2,3,3,4,4,5,5,6,6,7,7,8,8,9,9,10,10,12,12,13,13],"right_children":[2,4,6,8,10,12,14,16,18,20,22,-1,24,26,-1,-1,-1,-1,-1,-1,-1,-1,-1,-1,-1,-1,-1],"split_conditions":[2.7507693E2,7.758491E1,3.8486233E1,2.1844444E2,8.4744675E1,9.91E2,1.5266667E2,9.775E1,1.11E2,2.7565E2,8.53647E1,-1.8753822E0,1.9862045E1,4E0,3.7658641E0,3.2426976E-2,6.8315643E-1,-3.041404E0,-9.3909776E-1,-2.8939974E-1,-3.5099921E0,1.367224E0,-1.1966759E-1,3.014363E0,8.533158E0,1.0219235E0,-1.4618144E0],"split_indices":[4,24,13,5,24,9,10,7,7,5,24,0,13,1,0,0,0,0,0,0,0,0,0,0,0,0,0],"split_type":[0,0,0,0,0,0,0,0,0,0,0,0,0,0,0,0,0,0,0,0,0,0,0,0,0,0,0],"sum_hessian":[1.0785E4,1.064E4,1.45E2,5.159E3,5.481E3,5.6E1,8.9E1,5.049E3,1.1E2,3.66E3,1.821E3,1.2E1,4.4E1,7.6E1,1.3E1,4.272E3,7.77E2,2.8E1,8.2E1,3.647E3,1.3E1,3.79E2,1.442E3,3E1,1.4E1,3.3E1,4.3E1],"tree_param":{"num_deleted":"0","num_feature":"25","num_nodes":"27","size_leaf_vector":"1"}},{"base_weights":[3.1641655E-2,-5.2676296E-1,2.6037228E0,-6.027643E-1,2.6727116E1,3.8263578E0,-5.28801E0,-4.382231E-1,-1.2925697E1,4.0400305E0,8.309182E-1,2.538039E0,1.9003435E1,-1.1721145E1,7.7869287E0,-1.0430892E-1,4.15078E-1,-1.7257227E0,1.8403709E0,1.7717387E-1,2.481445E0,1.2907544E0,8.390756E0,-4.5673547E0,-8.9044195E-1,3.843522E0,-2.591141E-1],"categories":[],"categories_nodes":[],"categories_segments":[],"categories_sizes":[],"default_left":[1,1,1,0,0,1,1,0,1,0,0,1,1,0,0,0,0,0,0,0,0,0,0,0,0,0,0],"id":37,"left_children":[1,3,5,7,9,11,13,15,17,-1,-1,19,21,23,25,-1,-1,-1,-1,-1,-1,-1,-1,-1,-1,-1,-1],"loss_changes":[1.5701151E4,1.8620814E4,1.8835215E4,1.8157848E4,6.0248906E3,3.2976637E4,2.2128836E4,2.4823E4,1.66492E4,0E0,0E0,2.6412957E4,5.0945207E4,1.6288605E4,2.7951809E4,0E0,0E0,0E0,0E0,0E0,0E0,0E0,0E0,0E0,0E0,0E0,0E0],"parents":[2147483647,0,0,1,1,2,2,3,3,4,4,5,5,6,6,7,7,8,8,11,11,12,12,13,13,14,14],"right_children":[2,4,6,8,10,12,14,16,18,-1,-1,20,22,24,26,-1,-1,-1,-1,-1,-1,-1,-1,-1,-1,-1,-1],"split_conditions":[1.04818184E2,2.6705832E2,6.903228E1,3.3E2,5.4246227E1,1.9064523E2,1.4984E2,8E0,1.194556E2,4.0400305E0,8.309182E-1,2.3713333E2,2.415E2,3.325E-1,2E0,-1.0430892E-1,4.15078E-1,-1.7257227E0,1.8403709E0,1.7717387E-1,2.481445E0,1.2907544E0,8.390756E0,-4.5673547E0,-8.9044195E-1,3.843522E0,-2.591141E-1],"split_indices":[7,11,16,3,13,14,9,0,14,0,0,11,10,20,1,0,0,0,0,0,0,0,0,0,0,0,0],"split_type":[0,0,0,0,0,0,0,0,0,0,0,0,0,0,0,0,0,0,0,0,0,0,0,0,0,0,0],"sum_hessian":[1.093E4,8.981E3,1.949E3,8.957E3,2.4E1,1.688E3,2.61E2,8.84E3,1.17E2,1.3E1,1.1E1,1.557E3,1.31E2,1.75E2,8.6E1,7.808E3,1.032E3,1.03E2,1.4E1,1.507E3,5E1,1.21E2,1E1,1.2E1,1.63E2,2.1E1,6.5E1],"tree_param":{"num_deleted":"0","num_feature":"25","num_nodes":"27","size_leaf_vector":"1"}},{"base_weights":[1.5738437E-1,3.9397767E-1,-7.6233306E0,2.3543745E-1,1.512904E1,5.929941E0,-9.982473E0,1.8470955E-1,4.0624795E0,-7.1579423E0,2.9121767E1,-8.454107E0,-3.737696E0,2.6366625E-2,-2.566276E0,-1.7801244E0,1.087265E0,8.777948E-2,4.3037467E0,-1.7277378E-1,-1.5913805E0],"categories":[],"categories_nodes":[],"categories_segments":[],"categories_sizes":[],"default_left":[1,1,0,1,0,0,1,1,0,0,0,1,0,0,0,0,0,0,0,0,0],"id":38,"left_children":[1,3,5,7,9,-1,11,13,-1,15,17,19,-1,-1,-1,-1,-1,-1,-1,-1,-1],"loss_changes":[1.9961664E4,2.4579219E4,5.130887E4,2.1417617E4,3.5136285E4,0E0,1.2738201E4,2.1628516E4,0E0,8.721891E3,2.743859E4,1.4893781E4,0E0,0E0,0E0,0E0,0E0,0E0,0E0,0E0,0E0],"parents":[2147483647,0,0,1,1,2,2,3,3,4,4,6,6,7,7,9,9,10,10,11,11],"right_children":[2,4,6,8,10,-1,12,14,-1,16,18,20,-1,-1,-1,-1,-1,-1,-1,-1,-1],"split_conditions":[2.0995209E2,2.7565E2,3.2065E1,2.072296E2,1.4621167E2,5.929941E0,2.0232379E2,1.8988582E2,4.0624795E0,2.5717368E2,2.3443694E2,6.0261204E1,-3.737696E0,2.6366625E-2,-2.566276E0,-1.7801244E0,1.087265E0,8.777948E-2,4.3037467E0,-1.7277378E-1,-1.5913805E0],"split_indices":[8,5,5,15,8,0,15,15,0,4,12,16,0,0,0,0,0,0,0,0,0],"split_type":[0,0,0,0,0,0,0,0,0,0,0,0,0,0,0,0,0,0,0,0,0],"sum_hessian":[1.0841E4,1.0522E4,3.19E2,1.0411E4,1.11E2,1E1,3.09E2,1.0399E4,1.2E1,4.3E1,6.8E1,2.94E2,1.5E1,1.0368E4,3.1E1,2.7E1,1.6E1,2.3E1,4.5E1,1.56E2,1.38E2],"tree_param":{"num_deleted":"0","num_feature":"25","num_nodes":"21","size_leaf_vector":"1"}},{"base_weights":[-6.7237834E-3,3.5730803E-1,-3.762497E0,-1.3588497E-1,2.3080406E1,-1.36837635E1,-1.1452454E0,9.095897E-2,-2.279497E1,5.24976E1,8.7297E0,-2.6249716E1,-7.2019258E0,-2.4295151E0,4.832043E0,-1.9001989E-2,1.3825666E0,-1.0862794E0,-6.653347E0,4.0902224E0,1.0192597E1,3.258246E-1,3.2602165E0,-1.668496E0,-3.595423E0,-1.656684E-1,-1.3370253E0,-9.2596835E-1,2.6603296E-1],"categories":[],"categories_nodes":[],"categories_segments":[],"categories_sizes":[],"default_left":[0,0,0,0,0,0,0,0,0,0,1,0,0,0,0,0,0,0,0,0,0,0,0,0,0,0,0,0,0],"id":39,"left_children":[1,3,5,7,9,11,13,15,17,19,21,23,25,27,-1,-1,-1,-1,-1,-1,-1,-1,-1,-1,-1,-1,-1,-1,-1],"loss_changes":[1.4683932E4,1.0972963E5,2.4626488E4,4.9264562E4,8.7350484E4,1.5938141E4,4.8091266E4,3.6891832E4,4.898016E4,3.4517547E4,1.837064E4,5.6656875E3,4.528963E3,2.5748615E4,0E0,0E0,0E0,0E0,0E0,0E0,0E0,0E0,0E0,0E0,0E0,0E0,0E0,0E0,0E0],"parents":[2147483647,0,0,1,1,2,2,3,3,4,4,5,5,6,6,7,7,8,8,9,9,10,10,11,11,12,12,13,13],"right_children":[2,4,6,8,10,12,14,16,18,20,22,24,26,28,-1,-1,-1,-1,-1,-1,-1,-1,-1,-1,-1,-1,-1,-1,-1],"split_conditions":[2.883526E1,2.8757294E1,2.8964949E1,2.8725645E1,1.76E1,1.73E1,1E1,2.8684677E1,9.056333E1,2.6E0,2.265E2,9.564737E1,2.81E1,7.637376E1,4.832043E0,-1.9001989E-2,1.3825666E0,-1.0862794E0,-6.653347E0,4.0902224E0,1.0192597E1,3.258246E-1,3.2602165E0,-1.668496E0,-3.595423E0,-1.656684E-1,-1.3370253E0,-9.2596835E-1,2.6603296E-1],"split_indices":[23,23,23,23,17,17,0,23,4,21,10,4,17,24,0,0,0,0,0,0,0,0,0,0,0,0,0,0,0],"split_type":[0,0,0,0,0,0,0,0,0,0,0,0,0,0,0,0,0,0,0,0,0,0,0,0,0,0,0,0,0],"sum_hessian":[1.0738E4,9.79E3,9.48E2,9.583E3,2.07E2,1.97E2,7.51E2,9.489E3,9.4E1,6.7E1,1.4E2,6.6E1,1.31E2,7.33E2,1.8E1,9.3E3,1.89E2,7.5E1,1.9E1,5.6E1,1.1E1,1.15E2,2.5E1,3.5E1,3.1E1,7E1,6.1E1,3.12E2,4.21E2],"tree_param":{"num_deleted":"0","num_feature":"25","num_nodes":"29","size_leaf_vector":"1"}},{"base_weights":[3.5841888E-1,6.1632886E0,-6.5098046E-3,2.7116403E-1,2.0032919E1,-8.746642E-1,2.026548E0,1.4088601E0,-2.2081375E1,-7.191446E0,4.4633003E1,-7.090794E-1,-1.792922E1,-3.6721427E0,2.3069768E0,1.3817924E0,-3.3244915E-2,-1.6639471E0,-2.582134E0,3.3794275E-1,-4.295697E0,2.390389E0,1.0276612E1,-9.125992E-2,1.2573245E0,-2.7578042E0,1.1235756E0,1.3017075E-1,1.1202489E0],"categories":[],"categories_nodes":[],"categories_segments":[],"categories_sizes":[],"default_left":[0,0,1,1,0,0,0,0,0,1,0,1,1,0,0,0,0,0,0,0,0,0,0,0,0,0,0,0,0],"id":40,"left_children":[1,3,5,7,9,11,13,15,17,19,21,23,25,-1,27,-1,-1,-1,-1,-1,-1,-1,-1,-1,-1,-1,-1,-1,-1],"loss_changes":[2.3064781E4,5.2623273E4,1.808428E4,1.1551078E4,1.2890754E5,2.0263426E4,3.353628E4,9.391741E3,2.163379E1,3.5157035E4,1.19549516E5,1.9687715E4,2.000111E4,0E0,2.7209867E4,0E0,0E0,0E0,0E0,0E0,0E0,0E0,0E0,0E0,0E0,0E0,0E0,0E0,0E0],"parents":[2147483647,0,0,1,1,2,2,3,3,4,4,5,5,6,6,7,7,8,8,9,9,10,10,11,11,12,12,14,14],"right_children":[2,4,6,8,10,12,14,16,18,20,22,24,26,-1,28,-1,-1,-1,-1,-1,-1,-1,-1,-1,-1,-1,-1,-1,-1],"split_conditions":[4.9625E-1,2.75E2,2.1639502E1,7.76E1,3.41E2,3.45E2,1.4041667E0,3.7E1,1.139E2,1.2485744E2,2.8570173E1,2.057E2,8.4855E1,-3.6721427E0,1.89E2,1.3817924E0,-3.3244915E-2,-1.6639471E0,-2.582134E0,3.3794275E-1,-4.295697E0,2.390389E0,1.0276612E1,-9.125992E-2,1.2573245E0,-2.7578042E0,1.1235756E0,1.3017075E-1,1.1202489E0],"split_indices":[20,3,16,8,8,3,20,3,7,11,23,6,8,0,3,0,0,0,0,0,0,0,0,0,0,0,0,0,0],"split_type":[0,0,0,0,0,0,0,0,0,0,0,0,0,0,0,0,0,0,0,0,0,0,0,0,0,0,0,0,0],"sum_hessian":[1.0887E4,6.43E2,1.0244E4,4.52E2,1.91E2,7.179E3,3.065E3,4.31E2,2.1E1,9.1E1,1E2,7.111E3,6.8E1,2.1E1,3.044E3,5.2E1,3.79E2,1.1E1,1E1,7.1E1,2E1,7.5E1,2.5E1,7.003E3,1.08E2,5.1E1,1.7E1,2.739E3,3.05E2],"tree_param":{"num_deleted":"0","num_feature":"25","num_nodes":"29","size_leaf_vector":"1"}},{"base_weights":[-5.1258918E-2,-1.3388546E-1,6.84352E0,-2.0672673E-1,2.0541224E1,1.0049621E0,-1.2602237E0,-1.4480745E1,8.126348E0,-2.5941674E-2,4.9643692E-1,-1.1060383E-2,-6.2854314E-1,-5.116442E-1,-2.1362135E0],"categories":[],"categories_nodes":[],"categories_segments":[],"categories_sizes":[],"default_left":[1,1,0,0,0,0,0,0,0,0,0,0,0,0,0],"id":41,"left_children":[1,3,-1,5,7,9,11,13,-1,-1,-1,-1,-1,-1,-1],"loss_changes":[6.1574613E4,1.6300687E4,0E0,1.3767156E4,8.245856E4,2.5270152E4,3.3492805E4,1.5184302E3,0E0,0E0,0E0,0E0,0E0,0E0,0E0],"parents":[2147483647,0,0,1,1,3,3,4,4,5,5,6,6,7,7],"right_children":[2,4,-1,6,8,10,12,14,-1,-1,-1,-1,-1,-1,-1],"split_conditions":[2.072296E2,2.6917056E2,6.84352E0,7.7482E1,9.91E2,7.705107E1,2.6882101E1,1.48E1,8.126348E0,-2.5941674E-2,4.9643692E-1,-1.1060383E-2,-6.2854314E-1,-5.116442E-1,-2.1362135E0],"split_indices":[15,12,0,24,8,24,23,17,0,0,0,0,0,0,0],"split_type":[0,0,0,0,0,0,0,0,0,0,0,0,0,0,0],"sum_hessian":[1.0832E4,1.082E4,1.2E1,1.0783E4,3.7E1,5.015E3,5.768E3,2.4E1,1.3E1,3.806E3,1.209E3,4.7E3,1.068E3,1.1E1,1.3E1],"tree_param":{"num_deleted":"0","num_feature":"25","num_nodes":"15","size_leaf_vector":"1"}},{"base_weights":[-5.5204406E-2,-2.5309753E-1,9.11669E0,-3.3098087E-1,3.0162504E1,2.113659E0,3.677838E1,5.0807947E-1,-1.551302E0,5.8767343E0,9.673928E-1,-4.855183E0,1.7216425E1,-5.502022E-1,6.675258E1,4.2740893E-2,3.8113534E0,1.2099733E-1,-2.5934127E-1,6.1968946E-1,-1.5617746E0,2.8763475E0,-2.1434503E0,2.2732549E0,9.993818E0],"categories":[],"categories_nodes":[],"categories_segments":[],"categories_sizes":[],"default_left":[1,1,0,0,0,0,0,0,0,0,0,0,0,0,0,0,0,0,0,0,0,0,0,0,0],"id":42,"left_children":[1,3,5,7,9,11,13,15,17,-1,-1,19,21,-1,23,-1,-1,-1,-1,-1,-1,-1,-1,-1,-1],"loss_changes":[1.9594008E4,2.5041814E4,4.4089438E4,1.079396E4,1.5358021E4,1.934412E4,5.869828E4,1.8583436E4,1.2518196E4,0E0,0E0,1.5215148E4,2.684746E4,0E0,3.7573414E4,0E0,0E0,0E0,0E0,0E0,0E0,0E0,0E0,0E0,0E0],"parents":[2147483647,0,0,1,1,2,2,3,3,4,4,5,5,6,6,7,7,8,8,11,11,12,12,14,14],"right_children":[2,4,6,8,10,12,14,16,18,-1,-1,20,22,-1,24,-1,-1,-1,-1,-1,-1,-1,-1,-1,-1],"split_conditions":[1.9064523E2,2.4576018E2,1.95E1,1.4915779E1,2.5805713E2,2.8684677E1,1.4984E2,2.2621562E2,2E0,5.8767343E0,9.673928E-1,2.0940009E2,1.73E1,-5.502022E-1,1.5530667E2,4.2740893E-2,3.8113534E0,1.2099733E-1,-2.5934127E-1,6.1968946E-1,-1.5617746E0,2.8763475E0,-2.1434503E0,2.2732549E0,9.993818E0],"split_indices":[14,12,17,13,5,23,9,5,0,0,0,14,17,0,4,0,0,0,0,0,0,0,0,0,0],"split_type":[0,0,0,0,0,0,0,0,0,0,0,0,0,0,0,0,0,0,0,0,0,0,0,0,0],"sum_hessian":[1.0793E4,1.0566E4,2.27E2,1.054E4,2.6E1,1.82E2,4.5E1,6.246E3,4.294E3,1E1,1.6E1,1.25E2,5.7E1,1.9E1,2.6E1,6.234E3,1.2E1,1.184E3,3.11E3,6.2E1,6.3E1,4.4E1,1.3E1,1.2E1,1.4E1],"tree_param":{"num_deleted":"0","num_feature":"25","num_nodes":"25","size_leaf_vector":"1"}},{"base_weights":[1.838681E-1,3.954506E-2,1.1611821E1,-7.105995E-2,1.3216009E1,2.1016987E1,-4.797302E0,6.423218E-2,-1.0562187E1,5.5197935E0,5.2648396E0,2.7613892E1,-2.1870944E0,2.1947076E0,-2.9659023E0,-5.1620327E-2,2.263757E-1,-1.4414926E0,3.0638855E0,2.1491778E0,-6.4294183E-1,1.9796734E0,5.697105E0,-7.0346004E-1,1.9810449E0],"categories":[],"categories_nodes":[],"categories_segments":[],"categories_sizes":[],"default_left":[1,1,1,1,0,0,0,0,0,0,0,1,0,0,0,0,0,0,0,0,0,0,0,0,0],"id":43,"left_children":[1,3,5,7,9,11,13,15,17,-1,19,21,-1,23,-1,-1,-1,-1,-1,-1,-1,-1,-1,-1,-1],"loss_changes":[1.7853395E4,1.558182E4,2.0935447E4,1.5050226E4,2.9584941E4,2.499171E4,8.801669E3,1.34773545E4,2.2289715E4,0E0,1.4677814E4,1.6028738E4,0E0,6.696718E3,0E0,0E0,0E0,0E0,0E0,0E0,0E0,0E0,0E0,0E0,0E0],"parents":[2147483647,0,0,1,1,2,2,3,3,4,4,5,5,6,6,7,7,8,8,10,10,11,11,13,13],"right_children":[2,4,6,8,10,12,14,16,18,-1,20,22,-1,24,-1,-1,-1,-1,-1,-1,-1,-1,-1,-1,-1],"split_conditions":[2.7662827E2,2.7565E2,7.3838104E1,1.7272899E2,6E0,3.38E2,2.6917056E2,2.8234892E1,2.0955777E2,5.5197935E0,2.6146528E1,5.9076633E1,-2.1870944E0,2.4576018E2,-2.9659023E0,-5.1620327E-2,2.263757E-1,-1.4414926E0,3.0638855E0,2.1491778E0,-6.4294183E-1,1.9796734E0,5.697105E0,-7.0346004E-1,1.9810449E0],"split_indices":[6,5,16,15,3,3,12,23,12,0,23,16,0,12,0,0,0,0,0,0,0,0,0,0,0],"split_type":[0,0,0,0,0,0,0,0,0,0,0,0,0,0,0,0,0,0,0,0,0,0,0,0,0],"sum_hessian":[1.0824E4,1.069E4,1.34E2,1.0602E4,8.8E1,8.5E1,4.9E1,1.0468E4,1.34E2,1.3E1,7.5E1,7.4E1,1.1E1,3.9E1,1E1,8.284E3,2.184E3,1.23E2,1.1E1,3.1E1,4.4E1,6E1,1.4E1,2.6E1,1.3E1],"tree_param":{"num_deleted":"0","num_feature":"25","num_nodes":"25","size_leaf_vector":"1"}},{"base_weights":[1.1798715E-1,3.3575982E-1,-5.606307E0,7.437832E-2,9.018816E0,5.307866E0,-1.1610634E1,-3.6278963E-2,1.9830252E1,-4.5537577E0,2.6217613E1,1.9337851E0,4.5425534E0,-4.7149043E0,-2.1362371E1,1.537555E-1,-9.748942E-2,1.302088E-1,5.130015E0,-6.827236E-1,2.9855952E0,-1.554857E0,3.3846815E0,1.477374E0,-4.1668084E-1,-1.9391334E0,1.6018746E-2,2.7168757E-1,-2.6816466E0],"categories":[],"categories_nodes":[],"categories_segments":[],"categories_sizes":[],"default_left":[1,0,1,1,0,1,0,0,0,1,0,0,0,0,0,0,0,0,0,0,0,0,0,0,0,0,0,0,0],"id":44,"left_children":[1,3,5,7,9,11,13,15,17,19,21,23,-1,25,27,-1,-1,-1,-1,-1,-1,-1,-1,-1,-1,-1,-1,-1,-1],"loss_changes":[1.3639632E4,2.3920809E4,2.6340059E4,2.2371402E4,7.201643E4,1.9362627E4,1.731582E4,1.5165926E4,3.339121E4,1.3965445E4,4.476443E4,1.0562527E4,0E0,1.1013929E4,1.4430184E4,0E0,0E0,0E0,0E0,0E0,0E0,0E0,0E0,0E0,0E0,0E0,0E0,0E0,0E0],"parents":[2147483647,0,0,1,1,2,2,3,3,4,4,5,5,6,6,7,7,8,8,9,9,10,10,11,11,13,13,14,14],"right_children":[2,4,6,8,10,12,14,16,18,20,22,24,-1,26,28,-1,-1,-1,-1,-1,-1,-1,-1,-1,-1,-1,-1,-1,-1],"split_conditions":[1.9816667E2,3.3E2,1.256E2,1.8960869E2,1.86E1,8.623418E1,2.1666667E2,5.6E1,1.91409E2,2.7580554E2,9.044E1,5.3865425E1,4.5425534E0,1.04875E2,2E1,1.537555E-1,-9.748942E-2,1.302088E-1,5.130015E0,-6.827236E-1,2.9855952E0,-1.554857E0,3.3846815E0,1.477374E0,-4.1668084E-1,-1.9391334E0,1.6018746E-2,2.7168757E-1,-2.6816466E0],"split_indices":[8,3,7,8,17,13,9,3,9,7,5,16,0,9,3,0,0,0,0,0,0,0,0,0,0,0,0,0,0],"split_type":[0,0,0,0,0,0,0,0,0,0,0,0,0,0,0,0,0,0,0,0,0,0,0,0,0,0,0,0,0],"sum_hessian":[1.0939E4,1.0539E4,4E2,1.0232E4,3.07E2,1.42E2,2.58E2,1.0176E4,5.6E1,1.72E2,1.35E2,1.32E2,1E1,1.52E2,1.06E2,3.802E3,6.374E3,3.6E1,2E1,1.62E2,1E1,2.1E1,1.14E2,4.2E1,9E1,3.7E1,1.15E2,2E1,8.6E1],"tree_param":{"num_deleted":"0","num_feature":"25","num_nodes":"29","size_leaf_vector":"1"}},{"base_weights":[-2.27691E-2,-6.086305E-1,3.4973726E0,7.923589E-1,-1.7625756E0,1.3826812E1,1.3524635E0,7.3079743E0,-8.5470274E-2,-8.956864E0,-1.360024E0,4.057292E0,4.7702988E1,1.0252342E0,3.8635101E0,2.2022474E-1,1.9391495E0,-4.5501962E-1,9.283633E-2,-2.6459244E-1,-1.1718352E0,3.561195E0,-1.4699149E-1,-2.169479E0,7.552693E-1,7.389247E0,-7.6641953E-1,1.3946405E-3,1.1470643E0],"categories":[],"categories_nodes":[],"categories_segments":[],"categories_sizes":[],"default_left":[0,0,0,0,0,0,1,1,0,0,0,0,0,0,0,0,0,0,0,0,0,0,0,0,0,0,0,0,0],"id":45,"left_children":[1,3,5,7,9,11,13,15,17,19,21,23,25,27,-1,-1,-1,-1,-1,-1,-1,-1,-1,-1,-1,-1,-1,-1,-1],"loss_changes":[2.220089E4,1.4921596E4,3.4012465E4,2.3845625E4,1.4644841E4,8.7178305E4,1.5560047E4,3.0649873E4,1.677792E4,4.716039E3,2.0736965E4,1.8948418E4,8.721394E4,1.3403565E4,0E0,0E0,0E0,0E0,0E0,0E0,0E0,0E0,0E0,0E0,0E0,0E0,0E0,0E0,0E0],"parents":[2147483647,0,0,1,1,2,2,3,3,4,4,5,5,6,6,7,7,8,8,9,9,10,10,11,11,12,12,13,13],"right_children":[2,4,6,8,10,12,14,16,18,20,22,24,26,28,-1,-1,-1,-1,-1,-1,-1,-1,-1,-1,-1,-1,-1,-1,-1],"split_conditions":[8E0,3E0,7.4853E1,7.3892746E1,7.28682E1,8.191333E1,3.3525E2,9.333667E1,7.62344E1,9.37746E1,7.286895E1,3.325E-1,1.43E1,1.3844583E2,3.8635101E0,2.2022474E-1,1.9391495E0,-4.5501962E-1,9.283633E-2,-2.6459244E-1,-1.1718352E0,3.561195E0,-1.4699149E-1,-2.169479E0,7.552693E-1,7.389247E0,-7.6641953E-1,1.3946405E-3,1.1470643E0],"split_indices":[0,0,24,24,24,8,7,7,24,15,24,20,18,13,0,0,0,0,0,0,0,0,0,0,0,0,0,0,0],"split_type":[0,0,0,0,0,0,0,0,0,0,0,0,0,0,0,0,0,0,0,0,0,0,0,0,0,0,0,0,0],"sum_hessian":[1.0763E4,9.228E3,1.535E3,4.168E3,5.06E3,2.63E2,1.272E3,4.94E2,3.674E3,2.67E2,4.793E3,2.05E2,5.8E1,1.262E3,1E1,3.49E2,1.45E2,6.79E2,2.995E3,8.3E1,1.84E2,1.4E1,4.779E3,2.4E1,1.81E2,3.9E1,1.9E1,1.152E3,1.1E2],"tree_param":{"num_deleted":"0","num_feature":"25","num_nodes":"29","size_leaf_vector":"1"}},{"base_weights":[8.1090815E-2,2.3082381E-1,-7.650374E0,1.3025886E-1,3.0390844E1,1.668778E1,-1.0988171E1,-2.0668032E0,7.672289E-1,4.110219E1,1.3311617E0,-9.57921E-1,5.0826797E0,2.6771908E0,-1.6264673E1,-3.4929693E-1,1.7876351E-1,5.3815905E-2,8.38998E-1,2.260181E0,5.5529733E0,1.2846606E0,-1.8451742E0,-2.1609952E0,-3.005915E-1],"categories":[],"categories_nodes":[],"categories_segments":[],"categories_sizes":[],"default_left":[1,1,0,1,1,0,0,0,0,0,0,0,0,1,0,0,0,0,0,0,0,0,0,0,0],"id":46,"left_children":[1,3,5,7,9,11,13,15,17,19,-1,-1,-1,21,23,-1,-1,-1,-1,-1,-1,-1,-1,-1,-1],"loss_changes":[1.2430354E4,3.1943066E4,1.6755475E4,1.4694543E4,5.8319805E3,2.3088375E4,1.3022498E4,1.3142302E4,1.4131977E4,4.402207E3,0E0,0E0,0E0,1.1298391E4,9.298977E3,0E0,0E0,0E0,0E0,0E0,0E0,0E0,0E0,0E0,0E0],"parents":[2147483647,0,0,1,1,2,2,3,3,4,4,5,5,6,6,7,7,8,8,9,9,13,13,14,14],"right_children":[2,4,6,8,10,12,14,16,18,20,-1,-1,-1,22,24,-1,-1,-1,-1,-1,-1,-1,-1,-1,-1],"split_conditions":[2.255988E2,2.7565E2,8.4E0,1.5397514E1,1.4638383E2,2.6917056E2,2E0,2.663086E1,1.85125E2,2.8557055E1,1.3311617E0,-9.57921E-1,5.0826797E0,1.9800069E2,2.8656755E1,-3.4929693E-1,1.7876351E-1,5.3815905E-2,8.38998E-1,2.260181E0,5.5529733E0,1.2846606E0,-1.8451742E0,-2.1609952E0,-3.005915E-1],"split_indices":[11,5,18,12,11,12,1,23,11,23,0,0,0,14,23,0,0,0,0,0,0,0,0,0,0],"split_type":[0,0,0,0,0,0,0,0,0,0,0,0,0,0,0,0,0,0,0,0,0,0,0,0,0],"sum_hessian":[1.0735E4,1.0532E4,2.03E2,1.0498E4,3.4E1,2.4E1,1.79E2,2.359E3,8.139E3,2E1,1.4E1,1.4E1,1E1,5E1,1.29E2,1.718E3,6.41E2,7.906E3,2.33E2,1E1,1E1,3.4E1,1.6E1,9.1E1,3.8E1],"tree_param":{"num_deleted":"0","num_feature":"25","num_nodes":"25","size_leaf_vector":"1"}},{"base_weights":[-1.5575208E-1,-6.948368E-2,-1.9041832E1,-1.6308206E-1,2.2663738E1,5.4006946E-1,-2.9995083E1,-5.918306E0,5.839609E-2,5.9394236E0,4.4166727E0,-4.6651897E0,-2.1018888E1,-8.1142086E-1,1.4648242E0,8.897211E-1,-8.7649925E-3,-1.0268953E0,2.2886813E0,-6.6123986E-1,-3.4694192E0],"categories":[],"categories_nodes":[],"categories_segments":[],"categories_sizes":[],"default_left":[1,1,0,0,0,0,0,1,0,1,0,0,0,0,0,0,0,0,0,0,0],"id":47,"left_children":[1,3,5,7,9,-1,11,13,15,17,-1,-1,19,-1,-1,-1,-1,-1,-1,-1,-1],"loss_changes":[1.7557342E4,2.2832785E4,1.3293697E4,1.3621323E4,1.5699826E4,0E0,4.15999E3,1.8344215E4,1.3377183E4,7.440081E3,0E0,0E0,4.5391094E3,0E0,0E0,0E0,0E0,0E0,0E0,0E0,0E0],"parents":[2147483647,0,0,1,1,2,2,3,3,4,4,6,6,7,7,8,8,9,9,12,12],"right_children":[2,4,6,8,10,-1,12,14,16,18,-1,-1,20,-1,-1,-1,-1,-1,-1,-1,-1],"split_conditions":[3.39E2,3.0403333E2,6.92638E1,1.26E1,1.76E1,5.4006946E-1,1.0839281E2,1.4028194E2,1.34E1,7.76E1,4.4166727E0,-4.6651897E0,2.7E0,-8.1142086E-1,1.4648242E0,8.897211E-1,-8.7649925E-3,-1.0268953E0,2.2886813E0,-6.6123986E-1,-3.4694192E0],"split_indices":[6,6,13,17,17,0,13,14,17,8,0,0,21,0,0,0,0,0,0,0,0],"split_type":[0,0,0,0,0,0,0,0,0,0,0,0,0,0,0,0,0,0,0,0,0],"sum_hessian":[1.0776E4,1.0728E4,4.8E1,1.0685E4,4.3E1,1.5E1,3.3E1,3.95E2,1.029E4,2.5E1,1.8E1,1E1,2.3E1,3.57E2,3.8E1,1.66E2,1.0124E4,1.3E1,1.2E1,1.2E1,1.1E1],"tree_param":{"num_deleted":"0","num_feature":"25","num_nodes":"21","size_leaf_vector":"1"}},{"base_weights":[-7.027484E-2,-2.1350765E1,3.017086E-3,-3.3917365E0,-4.4518404E0,1.6194755E-1,-7.6003747E0,-1.1563379E0,4.4082287E-1,-2.5202635E-1,2.6547964E0,-9.369827E0,1.40448E0,-1.026136E-3,-1.2715833E0,1.8675662E0,1.0040915E-1,5.2813508E-2,-1.0741211E0,-1.5287027E0,8.144458E-1],"categories":[],"categories_nodes":[],"categories_segments":[],"categories_sizes":[],"default_left":[0,0,0,0,0,0,1,0,0,0,0,0,1,0,0,0,0,0,0,0,0],"id":48,"left_children":[1,3,5,7,-1,9,11,-1,-1,13,15,17,19,-1,-1,-1,-1,-1,-1,-1,-1],"loss_changes":[1.68135E4,1.5370199E4,1.2984394E4,1.465633E3,0E0,1.0862199E4,3.5185654E3,0E0,0E0,2.7315486E4,3.971781E4,2.5881104E3,4.326234E3,0E0,0E0,0E0,0E0,0E0,0E0,0E0,0E0],"parents":[2147483647,0,0,1,1,2,2,3,3,5,5,6,6,9,9,10,10,11,11,12,12],"right_children":[2,4,6,8,-1,10,12,-1,-1,14,16,18,20,-1,-1,-1,-1,-1,-1,-1,-1],"split_conditions":[6.3E0,6.45E1,9.189426E1,1.053E1,-4.4518404E0,8.499242E1,4.5E1,-1.1563379E0,4.4082287E-1,3.3E2,8.511366E1,1.8E1,3.7077778E1,-1.026136E-3,-1.2715833E0,1.8675662E0,1.0040915E-1,5.2813508E-2,-1.0741211E0,-1.5287027E0,8.144458E-1],"split_indices":[18,5,24,5,0,24,8,0,0,3,24,3,7,0,0,0,0,0,0,0,0],"split_type":[0,0,0,0,0,0,0,0,0,0,0,0,0,0,0,0,0,0,0,0,0],"sum_hessian":[1.0779E4,3.6E1,1.0743E4,2.1E1,1.5E1,1.0524E4,2.19E2,1E1,1.1E1,9.026E3,1.498E3,1.83E2,3.6E1,8.856E3,1.7E2,1.38E2,1.36E3,2.3E1,1.6E2,1E1,2.6E1],"tree_param":{"num_deleted":"0","num_feature":"25","num_nodes":"21","size_leaf_vector":"1"}},{"base_weights":[2.8347626E-1,2.3852712E-1,2.3290352E1,1.3363955E0,-4.631947E-1,-4.6923873E-1,4.896524E0,2.9696715E0,-7.186649E-1,-1.5938169E0,1.8227285E0,2.5612146E-1,2.8911514E0,-2.2394873E-1,5.3778505E-1,-1.2896052E-1,-1.0412067E0,-4.23828E0,2.121289E-1],"categories":[],"categories_nodes":[],"categories_segments":[],"categories_sizes":[],"default_left":[1,0,0,0,0,0,0,0,0,1,0,0,0,0,0,0,0,0,0],"id":49,"left_children":[1,3,5,7,9,-1,-1,11,13,15,17,-1,-1,-1,-1,-1,-1,-1,-1],"loss_changes":[1.1137293E4,8.286251E3,1.5454093E4,1.4079215E4,1.6962494E4,0E0,0E0,2.4135723E4,1.7413994E4,1.1609673E4,2.9755312E4,0E0,0E0,0E0,0E0,0E0,0E0,0E0,0E0],"parents":[2147483647,0,0,1,1,2,2,3,3,4,4,7,7,8,8,9,9,10,10],"right_children":[2,4,6,8,10,-1,-1,12,14,16,18,-1,-1,-1,-1,-1,-1,-1,-1],"split_conditions":[3.39E2,3E0,1.1163643E2,6.903228E1,7E0,-4.6923873E-1,4.896524E0,2.34625E2,4.9E0,1.43325E2,1.28E1,2.5612146E-1,2.8911514E0,-2.2394873E-1,5.3778505E-1,-1.2896052E-1,-1.0412067E0,-4.23828E0,2.121289E-1],"split_indices":[10,0,5,16,0,0,0,6,21,5,17,0,0,0,0,0,0,0,0],"split_type":[0,0,0,0,0,0,0,0,0,0,0,0,0,0,0,0,0,0,0],"sum_hessian":[1.0774E4,1.0754E4,2E1,4.193E3,6.561E3,1E1,1E1,2.336E3,1.857E3,4.39E3,2.171E3,2.302E3,3.4E1,1.486E3,3.71E2,4.248E3,1.42E2,1.4E1,2.157E3],"tree_param":{"num_deleted":"0","num_feature":"25","num_nodes":"19","size_leaf_vector":"1"}},{"base_weights":[-1.8399741E-1,2.3016483E-1,-3.3303607E0,1.20601065E-1,3.1747671E1,-2.9026766E0,-3.413302E0,5.8721915E-2,4.1841764E0,2.1979852E0,7.67095E0,3.3579564E0,-4.6358805E0,2.1699853E-2,-6.9080347E-1,2.8054826E0,-2.3876655E0,1.22019306E-1,5.3035383E0,-3.65368E0,-4.0423554E-1],"categories":[],"categories_nodes":[],"categories_segments":[],"categories_sizes":[],"default_left":[1,1,1,1,0,0,0,0,0,0,0,1,0,0,0,0,0,0,0,0,0],"id":50,"left_children":[1,3,5,7,9,11,-1,13,-1,15,-1,17,19,-1,-1,-1,-1,-1,-1,-1,-1],"loss_changes":[1.4048238E4,3.289459E4,1.649924E4,2.4616297E4,4.399667E4,1.3449046E4,0E0,1.0563652E4,0E0,1.4956175E4,0E0,2.8562908E4,1.7766512E4,0E0,0E0,0E0,0E0,0E0,0E0,0E0,0E0],"parents":[2147483647,0,0,1,1,2,2,3,3,4,4,5,5,7,7,9,9,11,11,12,12],"right_children":[2,4,6,8,10,12,-1,14,-1,16,-1,18,20,-1,-1,-1,-1,-1,-1,-1,-1],"split_conditions":[4.0952843E1,1.5911293E2,4.3833333E-1,2.6917056E2,1.5141667E2,9.288577E1,-3.413302E0,9.18985E1,4.1841764E0,1.3574489E2,7.67095E0,1.4981326E2,3.9375E-1,2.1699853E-2,-6.9080347E-1,2.8054826E0,-2.3876655E0,1.22019306E-1,5.3035383E0,-3.65368E0,-4.0423554E-1],"split_indices":[16,15,20,12,11,12,0,24,0,12,0,15,20,0,0,0,0,0,0,0,0],"split_type":[0,0,0,0,0,0,0,0,0,0,0,0,0,0,0,0,0,0,0,0,0],"sum_hessian":[1.0779E4,9.526E3,1.253E3,9.494E3,3.2E1,1.237E3,1.6E1,9.481E3,1.3E1,2E1,1.2E1,2.68E2,9.69E2,9.271E3,2.1E2,1E1,1E1,2.58E2,1E1,1.6E1,9.53E2],"tree_param":{"num_deleted":"0","num_feature":"25","num_nodes":"21","size_leaf_vector":"1"}},{"base_weights":[2.2379458E-1,-4.0197116E-1,3.207374E0,-1.9665389E-1,-1.0521726E1,2.4307907E0,3.609243E1,9.9890035E-1,-1.8968546E0,-8.890146E-1,-1.941185E1,1.0093935E0,1.6173372E1,-2.5249183E0,6.663249E1,1.6623026E-1,-4.1001055E-1,-9.248412E-1,-1.0915244E-1,1.189796E0,-5.1981956E-1,-1.0149014E0,-2.3186178E0,-1.536313E-1,8.930158E-1,3.6464093E0,1.0012742E0,2.7898793E0,9.584239E0],"categories":[],"categories_nodes":[],"categories_segments":[],"categories_sizes":[],"default_left":[0,0,0,0,0,1,0,1,0,0,0,0,0,0,0,0,0,0,0,0,0,0,0,0,0,0,0,0,0],"id":51,"left_children":[1,3,5,7,9,11,13,15,17,19,21,23,25,-1,27,-1,-1,-1,-1,-1,-1,-1,-1,-1,-1,-1,-1,-1,-1],"loss_changes":[2.010538E4,1.8494154E4,4.75917E4,1.7739078E4,1.5140314E4,3.5632617E4,8.238758E4,1.7587348E4,2.131152E4,4.8447793E3,3.0485352E3,3.363419E4,2.1022012E4,0E0,3.0474062E4,0E0,0E0,0E0,0E0,0E0,0E0,0E0,0E0,0E0,0E0,0E0,0E0,0E0,