{"learner":{"attributes":{"best_iteration":"95","best_score":"2.190698319549362","scikit_learn":"{\"_estimator_type\": \"regressor\"}"},"feature_names":["pm25_lag_7","pm25_rolling_mean_3d","pm25_rolling_std_3d","month","day_of_year","day_of_week","future_temp","future_wind","future_precip"],"feature_types":["float","float","float","int","int","int","float","float","float"],"gradient_booster":{"model":{"cats":{"enc":[],"feature_segments":[],"sorted_idx":[]},"gbtree_model_param":{"num_parallel_tree":"1","num_trees":"106"},"iteration_indptr":[0,1,2,3,4,5,6,7,8,9,10,11,12,13,14,15,16,17,18,19,20,21,22,23,24,25,26,27,28,29,30,31,32,33,34,35,36,37,38,39,40,41,42,43,44,45,46,47,48,49,50,51,52,53,54,55,56,57,58,59,60,61,62,63,64,65,66,67,68,69,70,71,72,73,74,75,76,77,78,79,80,81,82,83,84,85,86,87,88,89,90,91,92,93,94,95,96,97,98,99,100,101,102,103,104,105,106],"tree_info":[0,0,0,0,0,0,0,0,0,0,0,0,0,0,0,0,0,0,0,0,0,0,0,0,0,0,0,0,0,0,0,0,0,0,0,0,0,0,0,0,0,0,0,0,0,0,0,0,0,0,0,0,0,0,0,0,0,0,0,0,0,0,0,0,0,0,0,0,0,0,0,0,0,0,0,0,0,0,0,0,0,0,0,0,0,0,0,0,0,0,0,0,0,0,0,0,0,0,0,0,0,0,0,0,0,0],"trees":[{"base_weights":[6.5106954E-3,-5.4111814E-1,1.3460459E0,-5.28067E-2,-1.1931797E0,2.9874187E0,5.3559136E-1,1.1647774E0,-4.3353143E-1,-1.3388873E0,3.277684E-1,3.872525E0,3.1176338E-1,2.9430458E-1,2.8640547E0,1.9319414E0,1.21941194E-1,-7.520523E-1,3.9537993E-1,-2.1524813E0,-1.100965E0,-6.8657845E-2,1.3195131E0,4.7921386E0,2.3663259E0,-8.696105E-2,3.309671E0,8.207791E-1,-3.3621547E-1,2.4582045E0,4.4830146E0,6.1334945E-2,1.6716763E-1,-2.0007137E-2,3.8199913E-2,-6.468753E-2,-1.2687968E-2,-3.1068316E-3,5.6646496E-2,-9.842553E-2,-1.4754961E-1,-4.8916668E-2,-9.975075E-2,-7.310813E-2,2.9822707E-3,3.7109785E-2,1.2979156E-1,2.5559583E-1,-2.2537816E-2,9.454255E-2,3.3094454E-1,5.895817E-2,-3.7721615E-2,1.5127294E-1,1.1059064E0,3.1586282E-2,1.6915339E-1,-3.8357764E-2,6.9507672E-3,1.3186039E-1,-1.5099776E-2,1.6488571E-1,5.434008E-1],"categories":[],"categories_nodes":[],"categories_segments":[],"categories_sizes":[],"default_left":[0,0,0,0,0,0,0,0,0,0,0,0,0,0,0,0,0,0,0,0,0,0,0,0,0,0,0,0,0,0,0,0,0,0,0,0,0,0,0,0,0,0,0,0,0,0,0,0,0,0,0,0,0,0,0,0,0,0,0,0,0,0,0],"id":0,"left_children":[1,3,5,7,9,11,13,15,17,19,21,23,25,27,29,31,33,35,37,39,41,43,45,47,49,51,53,55,57,59,61,-1,-1,-1,-1,-1,-1,-1,-1,-1,-1,-1,-1,-1,-1,-1,-1,-1,-1,-1,-1,-1,-1,-1,-1,-1,-1,-1,-1,-1,-1,-1,-1],"loss_changes":[3.7964344E4,1.1696697E4,1.9976215E4,9.73814E3,3.48642E3,1.1754734E4,5.6483315E3,4.0030962E3,4.225499E3,2.7763574E3,5.4106995E2,5.155168E3,1.4765314E3,3.025029E3,6.0923975E2,2.8655996E3,7.116164E2,3.120267E3,1.4993223E3,4.7118262E2,1.2160264E3,1.7601776E2,2.8765173E2,3.8835469E3,2.8506196E3,9.228955E2,7.081941E2,2.403441E3,8.4939526E2,3.7481836E2,1.3869714E3,0E0,0E0,0E0,0E0,0E0,0E0,0E0,0E0,0E0,0E0,0E0,0E0,0E0,0E0,0E0,0E0,0E0,0E0,0E0,0E0,0E0,0E0,0E0,0E0,0E0,0E0,0E0,0E0,0E0,0E0,0E0,0E0],"parents":[2147483647,0,0,1,1,2,2,3,3,4,4,5,5,6,6,7,7,8,8,9,9,10,10,11,11,12,12,13,13,14,14,15,15,16,16,17,17,18,18,19,19,20,20,21,21,22,22,23,23,24,24,25,25,26,26,27,27,28,28,29,29,30,30],"right_children":[2,4,6,8,10,12,14,16,18,20,22,24,26,28,30,32,34,36,38,40,42,44,46,48,50,52,54,56,58,60,62,-1,-1,-1,-1,-1,-1,-1,-1,-1,-1,-1,-1,-1,-1,-1,-1,-1,-1,-1,-1,-1,-1,-1,-1,-1,-1,-1,-1,-1,-1,-1,-1],"split_conditions":[6.7328653E0,4E-1,1.52E1,1.37E1,2.31E1,1.67E1,2.34E1,1.48E1,1.98E1,3.3659585E0,5.2775693E0,1E-1,2.39E1,3E-1,2.61E1,5.097306E0,4.452403E0,4.3459725E0,2.44E2,1.08E1,1.45E1,2.4498053E0,2.49E1,2.58E2,1.600075E1,2E-1,2.164429E1,1.600075E1,1.9E2,3.59E2,3.51E2,6.1334945E-2,1.6716763E-1,-2.0007137E-2,3.8199913E-2,-6.468753E-2,-1.2687968E-2,-3.1068316E-3,5.6646496E-2,-9.842553E-2,-1.4754961E-1,-4.8916668E-2,-9.975075E-2,-7.310813E-2,2.9822707E-3,3.7109785E-2,1.2979156E-1,2.5559583E-1,-2.2537816E-2,9.454255E-2,3.3094454E-1,5.895817E-2,-3.7721615E-2,1.5127294E-1,1.1059064E0,3.1586282E-2,1.6915339E-1,-3.8357764E-2,6.9507672E-3,1.3186039E-1,-1.5099776E-2,1.6488571E-1,5.434008E-1],"split_indices":[1,8,7,7,6,6,6,6,6,1,1,8,6,8,6,1,1,1,4,8,8,1,6,4,0,8,1,0,4,4,4,0,0,0,0,0,0,0,0,0,0,0,0,0,0,0,0,0,0,0,0,0,0,0,0,0,0,0,0,0,0,0,0],"split_type":[0,0,0,0,0,0,0,0,0,0,0,0,0,0,0,0,0,0,0,0,0,0,0,0,0,0,0,0,0,0,0,0,0,0,0,0,0,0,0,0,0,0,0,0,0,0,0,0,0,0,0,0,0,0,0,0,0,0,0,0,0,0,0],"sum_hessian":[5.1751E4,3.6734E4,1.5017E4,2.1005E4,1.5729E4,4.963E3,1.0054E4,5.003E3,1.6002E4,1.4354E4,1.375E3,3.729E3,1.234E3,9.111E3,9.43E2,2.882E3,2.121E3,1.156E4,4.442E3,3.246E3,1.1108E4,9.83E2,3.92E2,2.314E3,1.415E3,1.09E3,1.44E2,4.965E3,4.146E3,7.56E2,1.87E2,1.923E3,9.59E2,1.17E3,9.51E2,5.538E3,6.022E3,2.742E3,1.7E3,2.641E3,6.05E2,9.77E3,1.338E3,8.2E1,9.01E2,2.71E2,1.21E2,2.181E3,1.33E2,1.274E3,1.41E2,3.76E2,7.14E2,1.43E2,1E0,4.625E3,3.4E2,2.174E3,1.972E3,7.1E2,4.6E1,1.59E2,2.8E1],"tree_param":{"num_deleted":"0","num_feature":"9","num_nodes":"63","size_leaf_vector":"1"}},{"base_weights":[-8.383214E-3,-5.7720554E-1,1.1391689E0,-1.7258298E-2,-1.0637892E0,2.6445436E0,4.3185377E-1,1.0505322E0,-3.997838E-1,-1.1878815E0,4.7645503E-1,3.49459E0,2.3512591E-1,1.854269E-1,2.4719965E0,1.7543973E0,9.6955225E-2,-9.506155E-1,1.0993398E-1,-1.8001002E0,-9.3866223E-1,1.4981733E-1,1.4009131E0,4.312924E0,2.1131015E0,-2.692996E-1,2.2055426E0,6.9673276E-1,-4.0958363E-1,2.0435073E0,3.6153393E0,3.5563078E-2,1.3459706E-1,-1.8966012E-2,3.780466E-2,-6.3155286E-2,-4.181617E-3,-1.1889258E-3,7.706553E-2,-8.0448456E-2,-1.2601711E-1,-3.678308E-2,-7.588461E-2,-5.361947E-2,1.4002109E-2,5.213312E-2,3.3179423E-1,2.3256996E-1,-2.4665607E-2,8.960743E-2,3.0410847E-1,2.5847554E-2,-6.0268503E-2,1.0326946E-1,1.0782589E0,2.1036565E-2,1.1364322E-1,-1.3108768E-2,-8.321796E-2,9.028785E-2,2.1509384E-1,1.4487444E-1,4.650393E-1],"categories":[],"categories_nodes":[],"categories_segments":[],"categories_sizes":[],"default_left":[0,0,0,0,0,0,0,0,0,0,0,0,0,0,0,0,0,0,0,0,0,0,0,0,0,0,0,0,0,0,0,0,0,0,0,0,0,0,0,0,0,0,0,0,0,0,0,0,0,0,0,0,0,0,0,0,0,0,0,0,0,0,0],"id":1,"left_children":[1,3,5,7,9,11,13,15,17,19,21,23,25,27,29,31,33,35,37,39,41,43,45,47,49,51,53,55,57,59,61,-1,-1,-1,-1,-1,-1,-1,-1,-1,-1,-1,-1,-1,-1,-1,-1,-1,-1,-1,-1,-1,-1,-1,-1,-1,-1,-1,-1,-1,-1,-1,-1],"loss_changes":[3.3926855E4,9.46801E3,1.8339596E4,6.60027E3,3.554289E3,1.1276113E4,5.8917246E3,2.8604395E3,3.3404102E3,2.6236953E3,4.1861264E2,4.5920977E3,1.4288691E3,3.1819475E3,6.1136816E2,2.3961064E3,5.688162E2,1.5490356E3,1.182845E3,6.8108203E2,1.4365576E3,1.6360017E2,6.719876E2,4.15875E3,1.9203076E3,8.433272E2,7.5046204E2,2.446001E3,8.93681E2,4.8674268E2,1.3729375E3,0E0,0E0,0E0,0E0,0E0,0E0,0E0,0E0,0E0,0E0,0E0,0E0,0E0,0E0,0E0,0E0,0E0,0E0,0E0,0E0,0E0,0E0,0E0,0E0,0E0,0E0,0E0,0E0,0E0,0E0,0E0,0E0],"parents":[2147483647,0,0,1,1,2,2,3,3,4,4,5,5,6,6,7,7,8,8,9,9,10,10,11,11,12,12,13,13,14,14,15,15,16,16,17,17,18,18,19,19,20,20,21,21,22,22,23,23,24,24,25,25,26,26,27,27,28,28,29,29,30,30],"right_children":[2,4,6,8,10,12,14,16,18,20,22,24,26,28,30,32,34,36,38,40,42,44,46,48,50,52,54,56,58,60,62,-1,-1,-1,-1,-1,-1,-1,-1,-1,-1,-1,-1,-1,-1,-1,-1,-1,-1,-1,-1,-1,-1,-1,-1,-1,-1,-1,-1,-1,-1,-1,-1],"split_conditions":[6.3642797E0,2E-1,1.51E1,1.37E1,2.33E1,1.68E1,2.32E1,1.46E1,4.325476E0,3.594861E0,5.2574267E0,1E-1,2.27E1,3E-1,2.54E1,4.1568193E0,4.4720836E0,1.97E1,2.41E1,7.9E0,5.8E0,2.5469277E0,3.53E2,2.58E2,1.6904207E1,1.4E0,2.164429E1,1.1324134E1,1.73E1,1.2159833E1,3.51E2,3.5563078E-2,1.3459706E-1,-1.8966012E-2,3.780466E-2,-6.3155286E-2,-4.181617E-3,-1.1889258E-3,7.706553E-2,-8.0448456E-2,-1.2601711E-1,-3.678308E-2,-7.588461E-2,-5.361947E-2,1.4002109E-2,5.213312E-2,3.3179423E-1,2.3256996E-1,-2.4665607E-2,8.960743E-2,3.0410847E-1,2.5847554E-2,-6.0268503E-2,1.0326946E-1,1.0782589E0,2.1036565E-2,1.1364322E-1,-1.3108768E-2,-8.321796E-2,9.028785E-2,2.1509384E-1,1.4487444E-1,4.650393E-1],"split_indices":[1,8,7,7,6,6,6,6,1,1,1,8,6,8,6,1,1,6,6,8,8,1,4,4,0,8,1,1,8,0,4,0,0,0,0,0,0,0,0,0,0,0,0,0,0,0,0,0,0,0,0,0,0,0,0,0,0,0,0,0,0,0,0],"split_type":[0,0,0,0,0,0,0,0,0,0,0,0,0,0,0,0,0,0,0,0,0,0,0,0,0,0,0,0,0,0,0,0,0,0,0,0,0,0,0,0,0,0,0,0,0,0,0,0,0,0,0,0,0,0,0,0,0,0,0,0,0,0,0],"sum_hessian":[5.1973E4,3.4749E4,1.7224E4,1.6157E4,1.8592E4,5.505E3,1.1719E4,4.261E3,1.1896E4,1.7206E4,1.386E3,4.069E3,1.436E3,1.0457E4,1.262E3,2.451E3,1.81E3,5.717E3,6.179E3,4.976E3,1.223E4,1.025E3,3.61E2,2.554E3,1.515E3,1.144E3,2.92E2,5.624E3,4.833E3,9.2E2,3.42E2,1.161E3,1.29E3,1.051E3,7.59E2,4.202E3,1.515E3,5.652E3,5.27E2,3.935E3,1.041E3,9.057E3,3.173E3,9.8E1,9.27E2,3.39E2,2.2E1,2.386E3,1.68E2,1.403E3,1.12E2,6.22E2,5.22E2,2.91E2,1E0,4.787E3,8.37E2,4.326E3,5.07E2,8.34E2,8.6E1,3.05E2,3.7E1],"tree_param":{"num_deleted":"0","num_feature":"9","num_nodes":"63","size_leaf_vector":"1"}},{"base_weights":[-1.3621885E-3,-5.282956E-1,1.1179029E0,-6.230463E-2,-1.0901585E0,2.558877E0,4.0923482E-1,8.7925243E-1,-4.40622E-1,-1.2199011E0,4.0166897E-1,3.3844724E0,2.3564655E-1,2.0029074E-1,2.3699226E0,1.1233998E-1,1.6383861E0,-7.775097E-1,2.6872277E-1,-1.9102747E0,-1.0064523E0,3.7713358E-3,1.429282E0,4.121924E0,1.8713657E0,-7.271258E-2,2.5773954E0,6.9163597E-1,-3.745617E-1,2.5402918E0,-3.0594698E-1,5.1689472E-2,-1.9869197E-2,1.22525804E-1,3.0364413E-2,-2.1150693E-2,-7.190006E-2,-6.605281E-3,4.1554287E-2,-8.756503E-2,-1.3212658E-1,-4.48468E-2,-9.467899E-2,-9.543099E-3,4.273522E-2,5.17294E-2,2.928866E-1,2.2085552E-1,-3.0695394E-2,7.5935006E-2,2.509013E-1,5.1265478E-2,-3.304017E-2,1.16979815E-1,1.0513023E0,2.6596079E-2,1.4163862E-1,-1.1845071E-2,-7.267935E-2,9.208472E-2,1.8741703E-1,-5.155083E-2,1.1818305E-2],"categories":[],"categories_nodes":[],"categories_segments":[],"categories_sizes":[],"default_left":[0,0,0,0,0,0,0,0,0,0,0,0,0,0,0,0,0,0,0,0,0,0,0,0,0,0,0,0,0,0,0,0,0,0,0,0,0,0,0,0,0,0,0,0,0,0,0,0,0,0,0,0,0,0,0,0,0,0,0,0,0,0,0],"id":2,"left_children":[1,3,5,7,9,11,13,15,17,19,21,23,25,27,29,31,33,35,37,39,41,43,45,47,49,51,53,55,57,59,61,-1,-1,-1,-1,-1,-1,-1,-1,-1,-1,-1,-1,-1,-1,-1,-1,-1,-1,-1,-1,-1,-1,-1,-1,-1,-1,-1,-1,-1,-1,-1,-1],"loss_changes":[3.0567611E4,9.226313E3,1.6940203E4,6.862366E3,3.0927031E3,1.0489008E4,4.5559214E3,3.2146646E3,3.2843665E3,2.1639668E3,5.229582E2,4.494711E3,1.0364004E3,2.8394563E3,4.8903076E2,1.2911046E3,2.3222568E3,2.1811226E3,9.9777905E2,3.9931445E2,1.0892539E3,1.5303033E2,6.179339E2,3.793961E3,1.4616465E3,8.201175E2,6.834496E2,1.8519724E3,6.878364E2,8.4294385E2,2.5802658E1,0E0,0E0,0E0,0E0,0E0,0E0,0E0,0E0,0E0,0E0,0E0,0E0,0E0,0E0,0E0,0E0,0E0,0E0,0E0,0E0,0E0,0E0,0E0,0E0,0E0,0E0,0E0,0E0,0E0,0E0,0E0,0E0],"parents":[2147483647,0,0,1,1,2,2,3,3,4,4,5,5,6,6,7,7,8,8,9,9,10,10,11,11,12,12,13,13,14,14,15,15,16,16,17,17,18,18,19,19,20,20,21,21,22,22,23,23,24,24,25,25,26,26,27,27,28,28,29,29,30,30],"right_children":[2,4,6,8,10,12,14,16,18,20,22,24,26,28,30,32,34,36,38,40,42,44,46,48,50,52,54,56,58,60,62,-1,-1,-1,-1,-1,-1,-1,-1,-1,-1,-1,-1,-1,-1,-1,-1,-1,-1,-1,-1,-1,-1,-1,-1,-1,-1,-1,-1,-1,-1,-1,-1],"split_conditions":[6.459181E0,3E-1,1.52E1,1.45E1,2.33E1,1.66E1,2.34E1,4.262347E0,1.9E1,3.3659585E0,5.2775693E0,2E-1,2.38E1,3E-1,3.58E2,1.22E1,1.48E1,2.06E1,9E0,1.08E1,1.5E1,3.31E2,3.53E2,2.58E2,1.600075E1,2E-1,1.8215046E1,1.5241177E1,1.6E1,7.3E1,7.593534E0,5.1689472E-2,-1.9869197E-2,1.22525804E-1,3.0364413E-2,-2.1150693E-2,-7.190006E-2,-6.605281E-3,4.1554287E-2,-8.756503E-2,-1.3212658E-1,-4.48468E-2,-9.467899E-2,-9.543099E-3,4.273522E-2,5.17294E-2,2.928866E-1,2.2085552E-1,-3.0695394E-2,7.5935006E-2,2.509013E-1,5.1265478E-2,-3.304017E-2,1.16979815E-1,1.0513023E0,2.6596079E-2,1.4163862E-1,-1.1845071E-2,-7.267935E-2,9.208472E-2,1.8741703E-1,-5.155083E-2,1.1818305E-2],"split_indices":[1,8,7,7,6,6,6,1,6,1,1,8,6,8,4,6,6,7,3,8,8,4,4,4,0,8,0,0,8,4,1,0,0,0,0,0,0,0,0,0,0,0,0,0,0,0,0,0,0,0,0,0,0,0,0,0,0,0,0,0,0,0,0],"split_type":[0,0,0,0,0,0,0,0,0,0,0,0,0,0,0,0,0,0,0,0,0,0,0,0,0,0,0,0,0,0,0,0,0,0,0,0,0,0,0,0,0,0,0,0,0,0,0,0,0,0,0,0,0,0,0,0,0,0,0,0,0,0,0],"sum_hessian":[5.1827E4,3.5238E4,1.6589E4,1.9263E4,1.5975E4,5.468E3,1.1121E4,5.521E3,1.3742E4,1.4697E4,1.278E3,4.034E3,1.434E3,1.0051E4,1.07E3,2.747E3,2.774E3,9.317E3,4.425E3,3.469E3,1.1228E4,9.22E2,3.56E2,2.711E3,1.323E3,1.268E3,1.66E2,5.419E3,4.632E3,1.006E3,6.4E1,9.78E2,1.769E3,1.551E3,1.223E3,6.064E3,3.253E3,2.584E3,1.841E3,2.853E3,6.16E2,9.996E3,1.232E3,7.51E2,1.71E2,3.28E2,2.8E1,2.552E3,1.59E2,1.191E3,1.32E2,4.42E2,8.26E2,1.65E2,1E0,5.044E3,3.75E2,4.109E3,5.23E2,6.39E2,3.67E2,2.7E1,3.7E1],"tree_param":{"num_deleted":"0","num_feature":"9","num_nodes":"63","size_leaf_vector":"1"}},{"base_weights":[8.769252E-3,-4.9785897E-1,1.0792227E0,8.732733E-2,-9.1346943E-1,2.7435534E0,5.1589197E-1,1.0905151E0,-2.8958428E-1,-1.0305487E0,4.9442935E-1,3.5002406E0,1.4084676E-1,3.2625294E-1,2.192253E0,2.8027898E-1,1.7786546E0,-8.22214E-1,1.6983281E-1,-1.4476801E0,-7.0876E-1,1.7849363E-1,1.517142E0,4.291324E0,1.7875603E0,9.1345894E-1,-7.3428774E-1,8.455936E-1,-2.9871815E-1,1.6614009E0,2.9748647E0,5.668629E-2,-1.39723485E-2,1.253702E-1,3.532006E-2,-5.6936104E-2,6.334649E-3,2.844656E-2,-1.3805359E-2,-6.243508E-2,-9.920975E-2,-2.0104345E-2,-5.4491896E-2,-9.755583E-2,1.3125007E-2,-2.143324E-2,9.880097E-2,2.2663124E-1,-2.0239351E-2,6.950091E-2,2.5553328E-1,1.4043677E-2,7.103917E-2,-5.13163E-2,1.0496391E-1,3.296199E-2,1.8306434E-1,-8.6516775E-3,-7.335023E-2,1.1601394E-1,4.1765887E-2,1.81243E-1,-7.0280456E-3],"categories":[],"categories_nodes":[],"categories_segments":[],"categories_sizes":[],"default_left":[0,0,0,0,0,0,0,0,0,0,0,0,0,0,0,0,0,0,0,0,0,0,0,0,0,0,0,0,0,0,0,0,0,0,0,0,0,0,0,0,0,0,0,0,0,0,0,0,0,0,0,0,0,0,0,0,0,0,0,0,0,0,0],"id":3,"left_children":[1,3,5,7,9,11,13,15,17,19,21,23,25,27,29,31,33,35,37,39,41,43,45,47,49,51,53,55,57,59,61,-1,-1,-1,-1,-1,-1,-1,-1,-1,-1,-1,-1,-1,-1,-1,-1,-1,-1,-1,-1,-1,-1,-1,-1,-1,-1,-1,-1,-1,-1,-1,-1],"loss_changes":[2.812698E4,8.561785E3,1.5619412E4,5.5283296E3,3.3934902E3,8.29674E3,3.956866E3,2.2258208E3,2.600803E3,2.5498438E3,5.1056848E2,4.4146367E3,6.430033E2,3.6306E3,5.2060254E2,8.768895E2,1.6852798E3,1.4784014E3,1.0158544E3,8.809199E2,1.2535376E3,2.168036E2,3.338938E2,2.5310781E3,1.3575664E3,1.6166855E2,3.712238E2,3.2030708E3,7.452306E2,4.095437E2,1.0332656E3,0E0,0E0,0E0,0E0,0E0,0E0,0E0,0E0,0E0,0E0,0E0,0E0,0E0,0E0,0E0,0E0,0E0,0E0,0E0,0E0,0E0,0E0,0E0,0E0,0E0,0E0,0E0,0E0,0E0,0E0,0E0,0E0],"parents":[2147483647,0,0,1,1,2,2,3,3,4,4,5,5,6,6,7,7,8,8,9,9,10,10,11,11,12,12,13,13,14,14,15,15,16,16,17,17,18,18,19,19,20,20,21,21,22,22,23,23,24,24,25,25,26,26,27,27,28,28,29,29,30,30],"right_children":[2,4,6,8,10,12,14,16,18,20,22,24,26,28,30,32,34,36,38,40,42,44,46,48,50,52,54,56,58,60,62,-1,-1,-1,-1,-1,-1,-1,-1,-1,-1,-1,-1,-1,-1,-1,-1,-1,-1,-1,-1,-1,-1,-1,-1,-1,-1,-1,-1,-1,-1,-1,-1],"split_conditions":[6.459181E0,1E-1,1.38E1,1.37E1,2.33E1,1.67E1,2.32E1,4.0918994E0,4.2833195E0,4.1766524E0,2.54E1,2E-1,9E-1,3E-1,7.3E1,1.22E1,1.46E1,1.98E1,1.98E1,4.9E0,2E0,2.1571944E0,3.3659585E0,2.58E2,1.600075E1,8.6E1,2.24E1,1.600075E1,1.79E1,4.3E1,3.55E2,5.668629E-2,-1.39723485E-2,1.253702E-1,3.532006E-2,-5.6936104E-2,6.334649E-3,2.844656E-2,-1.3805359E-2,-6.243508E-2,-9.920975E-2,-2.0104345E-2,-5.4491896E-2,-9.755583E-2,1.3125007E-2,-2.143324E-2,9.880097E-2,2.2663124E-1,-2.0239351E-2,6.950091E-2,2.5553328E-1,1.4043677E-2,7.103917E-2,-5.13163E-2,1.0496391E-1,3.296199E-2,1.8306434E-1,-8.6516775E-3,-7.335023E-2,1.1601394E-1,4.1765887E-2,1.81243E-1,-7.0280456E-3],"split_indices":[1,8,7,7,6,6,6,1,1,1,6,8,8,8,4,6,6,6,7,8,8,1,1,4,0,4,6,0,8,4,4,0,0,0,0,0,0,0,0,0,0,0,0,0,0,0,0,0,0,0,0,0,0,0,0,0,0,0,0,0,0,0,0],"split_type":[0,0,0,0,0,0,0,0,0,0,0,0,0,0,0,0,0,0,0,0,0,0,0,0,0,0,0,0,0,0,0,0,0,0,0,0,0,0,0,0,0,0,0,0,0,0,0,0,0,0,0,0,0,0,0,0,0,0,0,0,0,0,0],"sum_hessian":[5.1862E4,3.5202E4,1.666E4,1.4619E4,2.0583E4,4.212E3,1.2448E4,3.992E3,1.0627E4,1.9003E4,1.58E3,3.263E3,9.49E2,1.1184E4,1.264E3,1.834E3,2.158E3,4.921E3,5.706E3,8.274E3,1.0729E4,1.208E3,3.72E2,2.231E3,1.032E3,5.04E2,4.45E2,6.108E3,5.076E3,7.55E2,5.09E2,7.26E2,1.108E3,1.284E3,8.74E2,3.69E3,1.231E3,3.011E3,2.695E3,6.038E3,2.236E3,5.946E3,4.783E3,4.5E1,1.163E3,7.1E1,3.01E2,2.122E3,1.09E2,9.23E2,1.09E2,2.25E2,2.79E2,4.04E2,4.1E1,5.73E3,3.78E2,4.584E3,4.92E2,4.19E2,3.36E2,4.21E2,8.8E1],"tree_param":{"num_deleted":"0","num_feature":"9","num_nodes":"63","size_leaf_vector":"1"}},{"base_weights":[7.3115765E-3,-6.1722016E-1,8.220599E-1,-2.350665E-1,-1.1276699E0,1.9944437E0,2.0753273E-1,3.5837397E-1,-6.0901934E-1,-1.8826653E0,-9.529044E-1,4.3155994E0,1.3723862E0,6.833781E-3,2.0511131E0,1.205805E0,-5.926902E-3,-9.923077E-1,2.0637853E-1,-2.3996756E0,-1.6556445E0,-1.065819E0,8.828083E-2,3.7591212E0,7.392356E0,2.1250682E0,6.341915E-2,3.939224E-1,-4.4206735E-1,1.5853769E0,3.1591046E0,3.0358119E-2,9.2543975E-2,-2.6086343E-2,3.26706E-2,-3.8501512E-2,-8.772185E-2,-1.2958849E-2,4.1679513E-2,-1.0335236E-1,-1.4636421E-1,-8.9943506E-2,-3.437469E-2,-4.833631E-2,-9.071845E-2,5.249642E-4,1.4483349E-1,2.1604072E-1,7.484039E-2,3.9457628E-1,4.329784E-3,1.2490447E-1,1.4088812E-2,-1.1554158E-2,1.1268051E-1,5.7893978E-3,6.948115E-2,-3.3559754E-2,1.4997809E-2,6.975038E-2,1.955514E-1,1.2746225E-1,4.5131284E-1],"categories":[],"categories_nodes":[],"categories_segments":[],"categories_sizes":[],"default_left":[0,0,0,0,0,0,0,0,0,0,0,0,0,0,0,0,0,0,0,0,0,0,0,0,0,0,0,0,0,0,0,0,0,0,0,0,0,0,0,0,0,0,0,0,0,0,0,0,0,0,0,0,0,0,0,0,0,0,0,0,0,0,0],"id":4,"left_children":[1,3,5,7,9,11,13,15,17,19,21,23,25,27,29,31,33,35,37,39,41,43,45,47,49,51,53,55,57,59,61,-1,-1,-1,-1,-1,-1,-1,-1,-1,-1,-1,-1,-1,-1,-1,-1,-1,-1,-1,-1,-1,-1,-1,-1,-1,-1,-1,-1,-1,-1,-1,-1],"loss_changes":[2.6450322E4,5.739873E3,1.6250318E4,3.7348882E3,1.6604766E3,1.1194348E4,5.476055E3,2.0085385E3,3.2267913E3,2.7384668E2,1.2030205E3,2.7784238E3,6.0285244E3,2.319583E3,7.4478516E2,7.542229E2,1.5480764E3,1.1883745E3,9.6440607E2,1.2030762E2,2.2728174E2,6.8296387E2,2.188473E2,1.7598398E3,9.1101855E2,2.6705684E3,1.4421321E3,1.9849352E3,1.0510836E3,4.483452E2,1.5120112E3,0E0,0E0,0E0,0E0,0E0,0E0,0E0,0E0,0E0,0E0,0E0,0E0,0E0,0E0,0E0,0E0,0E0,0E0,0E0,0E0,0E0,0E0,0E0,0E0,0E0,0E0,0E0,0E0,0E0,0E0,0E0,0E0],"parents":[2147483647,0,0,1,1,2,2,3,3,4,4,5,5,6,6,7,7,8,8,9,9,10,10,11,11,12,12,13,13,14,14,15,15,16,16,17,17,18,18,19,19,20,20,21,21,22,22,23,23,24,24,25,25,26,26,27,27,28,28,29,29,30,30],"right_children":[2,4,6,8,10,12,14,16,18,20,22,24,26,28,30,32,34,36,38,40,42,44,46,48,50,52,54,56,58,60,62,-1,-1,-1,-1,-1,-1,-1,-1,-1,-1,-1,-1,-1,-1,-1,-1,-1,-1,-1,-1,-1,-1,-1,-1,-1,-1,-1,-1,-1,-1,-1,-1],"split_conditions":[5.6678057E0,4E-1,1.56E1,1.61E1,2.9929843E0,1.07E1,2.34E1,1.23E1,1.9E1,2.1571944E0,2.29E1,1.2780809E1,6E-1,3E-1,2.54E1,3.895486E0,4.262347E0,2.38E1,2.5E2,4.5E0,2.22E1,1.5E1,3.17E1,2.19E2,4.4E0,2.59E2,1.09178E1,9.548361E0,2.07E1,1.2159833E1,3.53E2,3.0358119E-2,9.2543975E-2,-2.6086343E-2,3.26706E-2,-3.8501512E-2,-8.772185E-2,-1.2958849E-2,4.1679513E-2,-1.0335236E-1,-1.4636421E-1,-8.9943506E-2,-3.437469E-2,-4.833631E-2,-9.071845E-2,5.249642E-4,1.4483349E-1,2.1604072E-1,7.484039E-2,3.9457628E-1,4.329784E-3,1.2490447E-1,1.4088812E-2,-1.1554158E-2,1.1268051E-1,5.7893978E-3,6.948115E-2,-3.3559754E-2,1.4997809E-2,6.975038E-2,1.955514E-1,1.2746225E-1,4.5131284E-1],"split_indices":[1,8,7,7,1,6,6,6,6,1,6,1,8,8,6,1,1,7,4,8,6,8,7,4,8,4,1,1,6,0,4,0,0,0,0,0,0,0,0,0,0,0,0,0,0,0,0,0,0,0,0,0,0,0,0,0,0,0,0,0,0,0,0],"split_type":[0,0,0,0,0,0,0,0,0,0,0,0,0,0,0,0,0,0,0,0,0,0,0,0,0,0,0,0,0,0,0,0,0,0,0,0,0,0,0,0,0,0,0,0,0,0,0,0,0,0,0,0,0,0,0,0,0,0,0,0,0,0,0],"sum_hessian":[5.198E4,2.9425E4,2.2555E4,1.6828E4,1.2597E4,7.756E3,1.4799E4,6.505E3,1.0323E4,2.366E3,1.0231E4,1.638E3,6.118E3,1.3347E4,1.452E3,1.955E3,4.55E3,7.022E3,3.301E3,7.19E2,1.647E3,9.23E3,1.001E3,1.389E3,2.49E2,3.884E3,2.234E3,7.167E3,6.18E3,1.024E3,4.28E2,1.015E3,9.4E2,2.553E3,1.997E3,5.438E3,1.584E3,1.895E3,1.406E3,4.44E2,2.75E2,1.434E3,2.13E2,8.153E3,1.077E3,9.75E2,2.6E1,1.112E3,2.77E2,2.33E2,1.6E1,3.23E3,6.54E2,1.97E3,2.64E2,5.603E3,1.564E3,4.722E3,1.458E3,9.48E2,7.6E1,3.89E2,3.9E1],"tree_param":{"num_deleted":"0","num_feature":"9","num_nodes":"63","size_leaf_vector":"1"}},{"base_weights":[-1.0556359E-2,-3.5799643E-1,1.3488413E0,1.3576149E-2,-9.532286E-1,2.7468822E0,6.0888755E-1,9.556061E-1,-2.8134918E-1,-1.0888374E0,1.003213E-1,3.3999531E0,1.574238E-1,4.138156E-1,2.6136668E0,3.2996726E-1,1.8768625E0,-4.349654E-1,1.0604098E0,-1.4783623E0,-7.8973925E-1,-4.3086913E-1,7.5196564E-1,4.830455E0,2.7526214E0,-2.5801688E-1,3.0414803E0,6.28161E-1,-8.1590676E-1,1.8149287E0,3.5759814E0,5.9315305E-2,-3.5787735E-3,1.3042484E-1,3.4400176E-2,-4.8134916E-2,-3.3087153E-3,-5.098017E-2,6.458521E-2,-1.01337194E-1,-6.43553E-2,-3.4546535E-2,-8.0238335E-2,-5.6809463E-2,-9.39629E-3,1.885936E-2,1.0702908E-1,2.0537777E-1,3.4672153E-1,2.8770012E-1,1.09218255E-1,2.7438292E-2,-3.3228036E-2,1.3155012E-1,1.0201365E0,2.006048E-2,7.482101E-2,6.752669E-5,-5.9508342E-2,1.05496265E-1,-9.871632E-3,3.060986E-1,1.3259582E-1],"categories":[],"categories_nodes":[],"categories_segments":[],"categories_sizes":[],"default_left":[0,0,0,0,0,0,0,0,0,0,0,0,0,0,0,0,0,0,0,0,0,0,0,0,0,0,0,0,0,0,0,0,0,0,0,0,0,0,0,0,0,0,0,0,0,0,0,0,0,0,0,0,0,0,0,0,0,0,0,0,0,0,0],"id":5,"left_children":[1,3,5,7,9,11,13,15,17,19,21,23,25,27,29,31,33,35,37,39,41,43,45,47,49,51,53,55,57,59,61,-1,-1,-1,-1,-1,-1,-1,-1,-1,-1,-1,-1,-1,-1,-1,-1,-1,-1,-1,-1,-1,-1,-1,-1,-1,-1,-1,-1,-1,-1,-1,-1],"loss_changes":[2.4532227E4,9.149455E3,1.0935943E4,7.076561E3,2.2716094E3,6.1871973E3,2.7032107E3,3.4996982E3,3.9986987E3,1.6399395E3,6.2823505E2,2.692504E3,8.850227E2,1.6618912E3,4.6468457E2,1.2441582E3,2.134458E3,3.3875476E3,9.601404E2,6.389512E2,6.407285E2,1.7113928E2,4.233376E2,1.3540703E3,3.422417E3,2.1224785E2,6.0907654E2,1.0571782E3,2.862929E2,2.0047314E2,6.354519E2,0E0,0E0,0E0,0E0,0E0,0E0,0E0,0E0,0E0,0E0,0E0,0E0,0E0,0E0,0E0,0E0,0E0,0E0,0E0,0E0,0E0,0E0,0E0,0E0,0E0,0E0,0E0,0E0,0E0,0E0,0E0,0E0],"parents":[2147483647,0,0,1,1,2,2,3,3,4,4,5,5,6,6,7,7,8,8,9,9,10,10,11,11,12,12,13,13,14,14,15,15,16,16,17,17,18,18,19,19,20,20,21,21,22,22,23,23,24,24,25,25,26,26,27,27,28,28,29,29,30,30],"right_children":[2,4,6,8,10,12,14,16,18,20,22,24,26,28,30,32,34,36,38,40,42,44,46,48,50,52,54,56,58,60,62,-1,-1,-1,-1,-1,-1,-1,-1,-1,-1,-1,-1,-1,-1,-1,-1,-1,-1,-1,-1,-1,-1,-1,-1,-1,-1,-1,-1,-1,-1,-1,-1],"split_conditions":[7.63975E0,6E-1,1.52E1,1.37E1,2.26E1,1.68E1,2.34E1,4.9925E0,2.34E1,4.452403E0,5.017E0,1.02E1,2.37E1,5.2E0,7.4E1,1.21E1,1.46E1,4.3459725E0,1.4E1,2.860486E0,1.73E1,3.174889E0,2.49E1,1.2409503E1,1.26E2,2E-1,2.164429E1,1.1800111E1,1.99E1,6.7E1,2E0,5.9315305E-2,-3.5787735E-3,1.3042484E-1,3.4400176E-2,-4.8134916E-2,-3.3087153E-3,-5.098017E-2,6.458521E-2,-1.01337194E-1,-6.43553E-2,-3.4546535E-2,-8.0238335E-2,-5.6809463E-2,-9.39629E-3,1.885936E-2,1.0702908E-1,2.0537777E-1,3.4672153E-1,2.8770012E-1,1.09218255E-1,2.7438292E-2,-3.3228036E-2,1.3155012E-1,1.0201365E0,2.006048E-2,7.482101E-2,6.752669E-5,-5.9508342E-2,1.05496265E-1,-9.871632E-3,3.060986E-1,1.3259582E-1],"split_indices":[1,8,7,7,6,6,6,1,6,1,1,6,6,8,4,6,6,1,4,1,8,1,6,1,4,8,1,1,7,4,5,0,0,0,0,0,0,0,0,0,0,0,0,0,0,0,0,0,0,0,0,0,0,0,0,0,0,0,0,0,0,0,0],"split_type":[0,0,0,0,0,0,0,0,0,0,0,0,0,0,0,0,0,0,0,0,0,0,0,0,0,0,0,0,0,0,0,0,0,0,0,0,0,0,0,0,0,0,0,0,0,0,0,0,0,0,0,0,0,0,0,0,0,0,0,0,0,0,0],"sum_hessian":[5.1939E4,4.1367E4,1.0572E4,2.5469E4,1.5898E4,3.658E3,6.914E3,6.072E3,1.9397E4,1.4085E4,1.813E3,2.921E3,7.37E2,6.302E3,6.12E2,3.617E3,2.455E3,1.7405E4,1.992E3,6.116E3,7.969E3,9.99E2,8.14E2,9.08E2,2.013E3,6.45E2,9.2E1,5.367E3,9.35E2,3.36E2,2.76E2,1.154E3,2.463E3,1.519E3,9.36E2,7.159E3,1.0246E4,1.99E2,1.793E3,1.579E3,4.537E3,7.109E3,8.6E2,2.55E2,7.44E2,6.42E2,1.72E2,6.78E2,2.3E2,3.19E2,1.694E3,2.16E2,4.29E2,9.1E1,1E0,4.256E3,1.111E3,2.94E2,6.41E2,2.93E2,4.3E1,7.2E1,2.04E2],"tree_param":{"num_deleted":"0","num_feature":"9","num_nodes":"63","size_leaf_vector":"1"}},{"base_weights":[8.1200255E-3,-3.245693E-1,1.3073957E0,2.0875669E-1,-7.045514E-1,2.6699855E0,5.8236134E-1,1.2178912E0,-1.1776013E-1,-8.1762874E-1,5.393123E-1,3.2760155E0,2.86209E-1,3.6479142E-1,2.0509152E0,1.8123682E0,2.246845E-1,-6.382704E-1,3.1720546E-1,-1.2124093E0,-5.284593E-1,2.3798363E-1,1.5767698E0,2.8581583E0,5.30754E0,-9.7696945E-2,2.9139621E0,8.0245125E-1,-3.3460063E-1,1.4859215E0,2.8557532E0,3.5738584E-2,1.2380624E-1,-1.3060875E-2,3.9093632E-2,-3.4174923E-2,2.0077753E-1,3.834971E-2,-3.6181365E-3,-5.344019E-2,-8.8524126E-2,-1.6078666E-2,-4.659338E-2,-6.0821302E-2,1.7088894E-2,3.8760763E-2,1.5463494E-1,1.7885925E-1,6.044973E-2,2.2650586E-1,3.7596926E-1,2.0044193E-2,-3.9694224E-2,1.2608568E-1,9.94633E-1,1.3130975E-1,2.898865E-2,-5.2239247E-2,2.22359E-2,8.857564E-2,-3.1826664E-2,1.745458E-1,1.292903E-2],"categories":[],"categories_nodes":[],"categories_segments":[],"categories_sizes":[],"default_left":[0,0,0,0,0,0,0,0,0,0,0,0,0,0,0,0,0,0,0,0,0,0,0,0,0,0,0,0,0,0,0,0,0,0,0,0,0,0,0,0,0,0,0,0,0,0,0,0,0,0,0,0,0,0,0,0,0,0,0,0,0,0,0],"id":6,"left_children":[1,3,5,7,9,11,13,15,17,19,21,23,25,27,29,31,33,35,37,39,41,43,45,47,49,51,53,55,57,59,61,-1,-1,-1,-1,-1,-1,-1,-1,-1,-1,-1,-1,-1,-1,-1,-1,-1,-1,-1,-1,-1,-1,-1,-1,-1,-1,-1,-1,-1,-1,-1,-1],"loss_changes":[2.24081E4,8.364098E3,1.0438832E4,5.658307E3,3.3903135E3,5.3008926E3,2.203573E3,2.478254E3,2.937795E3,2.521462E3,6.276698E2,2.4686738E3,7.518482E2,1.8399043E3,4.004646E2,1.9113672E3,4.2607642E2,1.2460701E3,1.2387095E3,7.466377E2,1.0641431E3,2.356104E2,5.468275E2,2.8759648E3,8.222666E2,2.2628409E2,5.8252386E2,1.4998586E3,1.2811708E3,3.1935876E2,6.0286084E2,0E0,0E0,0E0,0E0,0E0,0E0,0E0,0E0,0E0,0E0,0E0,0E0,0E0,0E0,0E0,0E0,0E0,0E0,0E0,0E0,0E0,0E0,0E0,0E0,0E0,0E0,0E0,0E0,0E0,0E0,0E0,0E0],"parents":[2147483647,0,0,1,1,2,2,3,3,4,4,5,5,6,6,7,7,8,8,9,9,10,10,11,11,12,12,13,13,14,14,15,15,16,16,17,17,18,18,19,19,20,20,21,21,22,22,23,23,24,24,25,25,26,26,27,27,28,28,29,29,30,30],"right_children":[2,4,6,8,10,12,14,16,18,20,22,24,26,28,30,32,34,36,38,40,42,44,46,48,50,52,54,56,58,60,62,-1,-1,-1,-1,-1,-1,-1,-1,-1,-1,-1,-1,-1,-1,-1,-1,-1,-1,-1,-1,-1,-1,-1,-1,-1,-1,-1,-1,-1,-1,-1,-1],"split_conditions":[7.63975E0,1E-1,1.52E1,1.33E1,2.32E1,1.68E1,2.27E1,1.49E1,4.551194E0,4.3898745E0,2.54E1,1.4645792E1,2.38E1,2.19E1,7.3E1,4.0918994E0,4.593818E0,2.83E1,1.88E1,6.9E0,3.4E0,2.591014E0,5.546053E0,2.19E2,1.41E1,1.3E0,1.618711E1,9.7E0,2.02E2,6.9E1,3.55E2,3.5738584E-2,1.2380624E-1,-1.3060875E-2,3.9093632E-2,-3.4174923E-2,2.0077753E-1,3.834971E-2,-3.6181365E-3,-5.344019E-2,-8.8524126E-2,-1.6078666E-2,-4.659338E-2,-6.0821302E-2,1.7088894E-2,3.8760763E-2,1.5463494E-1,1.7885925E-1,6.044973E-2,2.2650586E-1,3.7596926E-1,2.0044193E-2,-3.9694224E-2,1.2608568E-1,9.94633E-1,1.3130975E-1,2.898865E-2,-5.2239247E-2,2.22359E-2,8.857564E-2,-3.1826664E-2,1.745458E-1,1.292903E-2],"split_indices":[1,8,7,7,6,6,6,6,1,1,6,0,6,7,4,1,1,6,7,8,8,1,1,4,6,8,1,6,4,4,4,0,0,0,0,0,0,0,0,0,0,0,0,0,0,0,0,0,0,0,0,0,0,0,0,0,0,0,0,0,0,0,0],"split_type":[0,0,0,0,0,0,0,0,0,0,0,0,0,0,0,0,0,0,0,0,0,0,0,0,0,0,0,0,0,0,0,0,0,0,0,0,0,0,0,0,0,0,0,0,0,0,0,0,0,0,0,0,0,0,0,0,0,0,0,0,0,0,0],"sum_hessian":[5.1838E4,4.1271E4,1.0567E4,1.7171E4,2.41E4,3.669E3,6.898E3,4.197E3,1.2974E4,2.2092E4,2.008E3,2.925E3,7.44E2,6.009E3,8.89E2,2.625E3,1.572E3,5.906E3,7.068E3,9.339E3,1.2753E4,1.557E3,4.51E2,2.428E3,4.97E2,6.5E2,9.4E1,3.696E3,2.313E3,5.24E2,3.65E2,9.9E2,1.635E3,8.4E2,7.32E2,5.85E3,5.6E1,3.28E3,3.788E3,7.43E3,1.909E3,8.431E3,4.322E3,1.03E2,1.454E3,2.96E2,1.55E2,1.69E3,7.38E2,3.7E2,1.27E2,3.79E2,2.71E2,9.3E1,1E0,4.01E2,3.295E3,1.21E3,1.103E3,4.62E2,6.2E1,2.93E2,7.2E1],"tree_param":{"num_deleted":"0","num_feature":"9","num_nodes":"63","size_leaf_vector":"1"}},{"base_weights":[5.162176E-3,-4.8144358E-1,7.7698E-1,-1.8033865E-1,-9.646517E-1,2.143938E0,3.376395E-1,5.3339636E-1,-4.670961E-1,-1.1576477E0,-3.421379E-1,4.3028746E0,1.4743471E0,1.8095544E-1,1.7159176E0,1.3046945E0,7.5977035E-2,-7.6959455E-1,1.5210906E-1,-1.0485032E0,-1.9245188E0,-1.0981599E0,-1.3779199E-1,3.907787E0,8.986702E0,2.3970501E0,5.8251566E-1,6.19701E-1,-3.3220038E-1,1.3688482E0,2.667254E0,3.5878237E-2,1.0671951E-1,-1.9275235E-2,3.0972654E-2,-2.2086024E-2,-6.771364E-2,-1.2079566E-2,3.5371393E-2,-8.17818E-2,-4.6229016E-2,-1.1812618E-1,-6.768666E-2,-6.879914E-2,-2.3473604E-2,-1.6531602E-2,3.7452113E-2,2.20685E-1,8.871483E-2,1.917548E-1,5.0316423E-1,1.3615458E-1,-1.753229E-2,9.113538E-3,1.0968142E-1,2.17199E-2,1.357054E-1,-3.2574054E-2,8.320894E-4,7.491841E-2,-4.7018215E-2,1.0883234E-1,3.176284E-1],"categories":[],"categories_nodes":[],"categories_segments":[],"categories_sizes":[],"default_left":[0,0,0,0,0,0,0,0,0,0,0,0,0,0,0,0,0,0,0,0,0,0,0,0,0,0,0,0,0,0,0,0,0,0,0,0,0,0,0,0,0,0,0,0,0,0,0,0,0,0,0,0,0,0,0,0,0,0,0,0,0,0,0],"id":7,"left_children":[1,3,5,7,9,11,13,15,17,19,21,23,25,27,29,31,33,35,37,39,41,43,45,47,49,51,53,55,57,59,61,-1,-1,-1,-1,-1,-1,-1,-1,-1,-1,-1,-1,-1,-1,-1,-1,-1,-1,-1,-1,-1,-1,-1,-1,-1,-1,-1,-1,-1,-1,-1,-1],"loss_changes":[1.9475982E4,4.6273374E3,1.2041708E4,4.0109395E3,1.4665459E3,7.043867E3,3.2770105E3,1.9816157E3,2.618691E3,7.7806445E2,4.4647928E2,2.1003848E3,3.0630674E3,3.0684797E3,5.0779688E2,1.0170764E3,8.848255E2,1.799856E3,1.0034604E3,5.922754E2,2.8680908E2,1.0677228E2,3.896537E2,1.1427656E3,4.550122E2,1.6403818E3,1.2215713E3,2.8501917E3,6.9969104E2,3.4147363E2,7.328943E2,0E0,0E0,0E0,0E0,0E0,0E0,0E0,0E0,0E0,0E0,0E0,0E0,0E0,0E0,0E0,0E0,0E0,0E0,0E0,0E0,0E0,0E0,0E0,0E0,0E0,0E0,0E0,0E0,0E0,0E0,0E0,0E0],"parents":[2147483647,0,0,1,1,2,2,3,3,4,4,5,5,6,6,7,7,8,8,9,9,10,10,11,11,12,12,13,13,14,14,15,15,16,16,17,17,18,18,19,19,20,20,21,21,22,22,23,23,24,24,25,25,26,26,27,27,28,28,29,29,30,30],"right_children":[2,4,6,8,10,12,14,16,18,20,22,24,26,28,30,32,34,36,38,40,42,44,46,48,50,52,54,56,58,60,62,-1,-1,-1,-1,-1,-1,-1,-1,-1,-1,-1,-1,-1,-1,-1,-1,-1,-1,-1,-1,-1,-1,-1,-1,-1,-1,-1,-1,-1,-1,-1,-1],"split_conditions":[5.9645276E0,6E-1,1.38E1,1.45E1,2.09E1,1.05E1,2.32E1,1.28E1,1.9E1,1.5E1,3.339125E0,1.618711E1,1E-1,3E-1,2.54E1,4.325476E0,4.221527E0,2.06E1,9E0,2.9929843E0,1.88E2,2.34E1,2.41E1,2.19E2,1.58E2,2.62E2,1.1111174E1,1.4151792E1,1.9E2,3.59E2,3.51E2,3.5878237E-2,1.0671951E-1,-1.9275235E-2,3.0972654E-2,-2.2086024E-2,-6.771364E-2,-1.2079566E-2,3.5371393E-2,-8.17818E-2,-4.6229016E-2,-1.1812618E-1,-6.768666E-2,-6.879914E-2,-2.3473604E-2,-1.6531602E-2,3.7452113E-2,2.20685E-1,8.871483E-2,1.917548E-1,5.0316423E-1,1.3615458E-1,-1.753229E-2,9.113538E-3,1.0968142E-1,2.17199E-2,1.357054E-1,-3.2574054E-2,8.320894E-4,7.491841E-2,-4.7018215E-2,1.0883234E-1,3.176284E-1],"split_indices":[1,8,7,7,6,6,6,6,6,8,1,1,8,8,6,1,1,7,3,1,4,6,6,4,4,4,0,0,4,4,4,0,0,0,0,0,0,0,0,0,0,0,0,0,0,0,0,0,0,0,0,0,0,0,0,0,0,0,0,0,0,0,0],"split_type":[0,0,0,0,0,0,0,0,0,0,0,0,0,0,0,0,0,0,0,0,0,0,0,0,0,0,0,0,0,0,0,0,0,0,0,0,0,0,0,0,0,0,0,0,0,0,0,0,0,0,0,0,0,0,0,0,0,0,0,0,0,0,0],"sum_hessian":[5.1855E4,3.1804E4,2.0051E4,1.9595E4,1.2209E4,4.876E3,1.5175E4,5.616E3,1.3979E4,9.319E3,2.89E3,1.153E3,3.723E3,1.3627E4,1.548E3,2.09E3,3.526E3,9.391E3,4.588E3,8.16E3,1.159E3,6.14E2,2.276E3,1.065E3,8.8E1,1.829E3,1.894E3,7.346E3,6.281E3,1.136E3,4.12E2,1.225E3,8.65E2,1.907E3,1.619E3,6.018E3,3.373E3,2.685E3,1.903E3,1.42E3,6.74E3,6.54E2,5.05E2,4.25E2,1.89E2,1.87E3,4.06E2,8.6E2,2.05E2,1.6E1,7.2E1,1.635E3,1.94E2,1.518E3,3.76E2,6.75E3,5.96E2,3.279E3,3.002E3,1.076E3,6E1,3.65E2,4.7E1],"tree_param":{"num_deleted":"0","num_feature":"9","num_nodes":"63","size_leaf_vector":"1"}},{"base_weights":[-1.9021349E-3,-2.2254546E-1,1.5448824E0,2.8318116E-1,-5.857621E-1,3.126543E0,6.5929836E-1,1.257888E0,-4.4552535E-2,-7.1478695E-1,4.2309865E-1,3.9526625E0,1.6187153E0,1.257471E-1,1.242219E0,1.8273185E0,3.0431163E-1,-5.5515176E-1,3.7910137E-1,-1.1180922E0,-4.5762217E-1,-5.424681E-2,1.0141213E0,5.8600516E0,3.3082662E0,2.0244863E0,7.8063426E-3,7.005168E-1,-4.0731424E-1,1.8315064E0,5.3343743E-1,4.5246333E-2,1.2591569E-1,-6.031663E-3,4.771106E-2,-4.082972E-2,7.816443E-3,4.281089E-2,9.690564E-5,-1.6021036E-2,-6.061208E-2,2.9041925E-2,-2.6790386E-2,-3.861369E-2,6.4617842E-3,3.3184882E-2,1.364677E-1,2.6836494E-1,4.5679545E-1,1.8009128E-1,-1.8632608E-2,2.1207014E-1,8.331888E-2,-3.9011408E-2,1.2646608E-1,2.5135544E-1,1.8280482E-2,-4.8801325E-2,8.114093E-2,6.450689E-2,2.1941522E-1,-2.6769003E-2,8.247054E-2],"categories":[],"categories_nodes":[],"categories_segments":[],"categories_sizes":[],"default_left":[0,0,0,0,0,0,0,0,0,0,0,0,0,0,0,0,0,0,0,0,0,0,0,0,0,0,0,0,0,0,0,0,0,0,0,0,0,0,0,0,0,0,0,0,0,0,0,0,0,0,0,0,0,0,0,0,0,0,0,0,0,0,0],"id":8,"left_children":[1,3,5,7,9,11,13,15,17,19,21,23,25,27,29,31,33,35,37,39,41,43,45,47,49,51,53,55,57,59,61,-1,-1,-1,-1,-1,-1,-1,-1,-1,-1,-1,-1,-1,-1,-1,-1,-1,-1,-1,-1,-1,-1,-1,-1,-1,-1,-1,-1,-1,-1,-1,-1],"loss_changes":[1.7717953E4,8.34586E3,9.075833E3,6.0669414E3,3.4423389E3,2.8909727E3,1.292435E3,2.5944194E3,3.074945E3,2.4311055E3,8.461389E2,1.8267441E3,5.392539E2,6.6545264E2,8.285276E2,1.9047275E3,4.9391736E2,1.1991571E3,1.398036E3,6.8512695E2,1.1628267E3,2.187971E2,8.036063E2,5.611279E2,1.2169814E3,5.1611035E2,3.3380933E2,1.5123743E3,1.3027744E3,1.494779E3,1.077956E3,0E0,0E0,0E0,0E0,0E0,0E0,0E0,0E0,0E0,0E0,0E0,0E0,0E0,0E0,0E0,0E0,0E0,0E0,0E0,0E0,0E0,0E0,0E0,0E0,0E0,0E0,0E0,0E0,0E0,0E0,0E0,0E0],"parents":[2147483647,0,0,1,1,2,2,3,3,4,4,5,5,6,6,7,7,8,8,9,9,10,10,11,11,12,12,13,13,14,14,15,15,16,16,17,17,18,18,19,19,20,20,21,21,22,22,23,23,24,24,25,25,26,26,27,27,28,28,29,29,30,30],"right_children":[2,4,6,8,10,12,14,16,18,20,22,24,26,28,30,32,34,36,38,40,42,44,46,48,50,52,54,56,58,60,62,-1,-1,-1,-1,-1,-1,-1,-1,-1,-1,-1,-1,-1,-1,-1,-1,-1,-1,-1,-1,-1,-1,-1,-1,-1,-1,-1,-1,-1,-1,-1,-1],"split_conditions":[8.904468E0,1E-1,1.52E1,1.33E1,2.26E1,2E-1,2.02E2,1.46E1,4.7159305E0,4.3898745E0,5.2775693E0,9E0,1.75E1,2.06E1,2.64E2,1.2497185E0,5.080042E0,1.98E1,1.85E1,1.18E1,1.09E1,3.0856957E0,2.54E1,1.8215046E1,2.62E2,1.27E2,2.19E1,7.7E0,2.15E1,1.3689694E1,1.9E1,4.5246333E-2,1.2591569E-1,-6.031663E-3,4.771106E-2,-4.082972E-2,7.816443E-3,4.281089E-2,9.690564E-5,-1.6021036E-2,-6.061208E-2,2.9041925E-2,-2.6790386E-2,-3.861369E-2,6.4617842E-3,3.3184882E-2,1.364677E-1,2.6836494E-1,4.5679545E-1,1.8009128E-1,-1.8632608E-2,2.1207014E-1,8.331888E-2,-3.9011408E-2,1.2646608E-1,2.5135544E-1,1.8280482E-2,-4.8801325E-2,8.114093E-2,6.450689E-2,2.1941522E-1,-2.6769003E-2,8.247054E-2],"split_indices":[1,8,7,7,6,8,4,6,1,1,1,6,6,7,4,2,0,6,7,7,7,1,6,0,4,4,6,6,6,1,6,0,0,0,0,0,0,0,0,0,0,0,0,0,0,0,0,0,0,0,0,0,0,0,0,0,0,0,0,0,0,0,0],"split_type":[0,0,0,0,0,0,0,0,0,0,0,0,0,0,0,0,0,0,0,0,0,0,0,0,0,0,0,0,0,0,0,0,0,0,0,0,0,0,0,0,0,0,0,0,0,0,0,0,0,0,0,0,0,0,0,0,0,0,0,0,0,0,0],"sum_hessian":[5.1913E4,4.5433E4,6.48E3,1.8991E4,2.6442E4,2.325E3,4.155E3,4.778E3,1.4213E4,2.3444E4,2.998E3,1.501E3,8.24E2,2.17E3,1.985E3,2.991E3,1.787E3,6.445E3,7.768E3,9.127E3,1.4317E4,1.659E3,1.339E3,3.77E2,1.124E3,6.58E2,1.66E2,1.044E3,1.126E3,1.083E3,9.02E2,1.282E3,1.709E3,1.081E3,7.06E2,4.713E3,1.732E3,3.429E3,4.339E3,9.64E2,8.163E3,1.002E3,1.3315E4,3.37E2,1.322E3,1.113E3,2.26E2,3.3E2,4.7E1,1.041E3,8.3E1,9E1,5.68E2,1.27E2,3.9E1,7.4E1,9.7E2,8.8E2,2.46E2,8.95E2,1.88E2,4.61E2,4.41E2],"tree_param":{"num_deleted":"0","num_feature":"9","num_nodes":"63","size_leaf_vector":"1"}},{"base_weights":[-1.1732934E-2,-2.4176191E-1,1.3509955E0,6.914748E-2,-7.415193E-1,2.4631517E0,4.1709673E-1,8.788498E-1,-2.13837E-1,-9.0345997E-1,7.39497E-2,4.3313985E0,1.9614583E0,1.995262E-1,1.9324768E0,2.8505108E-1,1.6521214E0,-3.864958E-1,6.535668E-1,-1.4003212E0,-7.5813454E-1,-3.1247735E-1,8.5166854E-1,3.0705278E0,5.3169475E0,1.6160192E0,4.388087E0,4.2524323E-1,-9.404917E-1,1.5139018E0,3.0124686E0,5.000185E-2,-7.2483174E-3,1.1087916E-1,3.494484E-2,-4.1563965E-2,-5.0111953E-3,-4.9621142E-2,4.2626586E-2,-6.461358E-2,-1.08560696E-1,-3.4501594E-2,-8.76066E-2,-4.81936E-2,-5.487251E-3,3.2062415E-2,1.3347116E-1,1.672747E-1,-5.018887E-2,3.2668063E-1,2.3318194E-1,1.07123785E-1,1.2454739E-2,1.3966243E-1,3.959473E-1,8.963514E-3,5.6471568E-2,-7.942174E-2,-4.152158E-3,6.7952715E-2,2.1555643E-1,1.2076532E-1,4.1498587E-1],"categories":[],"categories_nodes":[],"categories_segments":[],"categories_sizes":[],"default_left":[0,0,0,0,0,0,0,0,0,0,0,0,0,0,0,0,0,0,0,0,0,0,0,0,0,0,0,0,0,0,0,0,0,0,0,0,0,0,0,0,0,0,0,0,0,0,0,0,0,0,0,0,0,0,0,0,0,0,0,0,0,0,0],"id":9,"left_children":[1,3,5,7,9,11,13,15,17,19,21,23,25,27,29,31,33,35,37,39,41,43,45,47,49,51,53,55,57,59,61,-1,-1,-1,-1,-1,-1,-1,-1,-1,-1,-1,-1,-1,-1,-1,-1,-1,-1,-1,-1,-1,-1,-1,-1,-1,-1,-1,-1,-1,-1,-1,-1],"loss_changes":[1.6283059E4,6.9055723E3,7.7908613E3,6.278209E3,2.2509873E3,3.2007754E3,1.3444692E3,3.2577827E3,3.0410789E3,1.0257881E3,8.492679E2,8.8335254E2,2.2570293E3,9.185229E2,2.2689282E2,1.2345823E3,1.6596855E3,2.1561064E3,1.1048293E3,2.6515283E2,7.437627E2,2.4922112E2,3.5706604E2,3.6185303E2,2.914463E2,1.7021011E3,1.8699468E3,5.157937E2,3.2765906E2,1.5483734E2,4.2829663E2,0E0,0E0,0E0,0E0,0E0,0E0,0E0,0E0,0E0,0E0,0E0,0E0,0E0,0E0,0E0,0E0,0E0,0E0,0E0,0E0,0E0,0E0,0E0,0E0,0E0,0E0,0E0,0E0,0E0,0E0,0E0,0E0],"parents":[2147483647,0,0,1,1,2,2,3,3,4,4,5,5,6,6,7,7,8,8,9,9,10,10,11,11,12,12,13,13,14,14,15,15,16,16,17,17,18,18,19,19,20,20,21,21,22,22,23,23,24,24,25,25,26,26,27,27,28,28,29,29,30,30],"right_children":[2,4,6,8,10,12,14,16,18,20,22,24,26,28,30,32,34,36,38,40,42,44,46,48,50,52,54,56,58,60,62,-1,-1,-1,-1,-1,-1,-1,-1,-1,-1,-1,-1,-1,-1,-1,-1,-1,-1,-1,-1,-1,-1,-1,-1,-1,-1,-1,-1,-1,-1,-1,-1],"split_conditions":[8.517764E0,6E-1,1.7E1,1.4E1,2.18E1,9.7E0,2.26E1,5.097306E0,2.22E1,3.594861E0,5.8185415E0,2.7044606E0,1.600075E1,5E0,6E-1,1.27E1,1.48E1,4.3459725E0,1.4E1,1.6E1,2.33E1,3.312389E0,2.54E1,9E0,7.1E0,9E-1,2.29E2,1.2090722E1,1.58E1,3.13E1,3.53E2,5.000185E-2,-7.2483174E-3,1.1087916E-1,3.494484E-2,-4.1563965E-2,-5.0111953E-3,-4.9621142E-2,4.2626586E-2,-6.461358E-2,-1.08560696E-1,-3.4501594E-2,-8.76066E-2,-4.81936E-2,-5.487251E-3,3.2062415E-2,1.3347116E-1,1.672747E-1,-5.018887E-2,3.2668063E-1,2.3318194E-1,1.07123785E-1,1.2454739E-2,1.3966243E-1,3.959473E-1,8.963514E-3,5.6471568E-2,-7.942174E-2,-4.152158E-3,6.7952715E-2,2.1555643E-1,1.2076532E-1,4.1498587E-1],"split_indices":[1,8,7,7,6,6,6,1,6,1,1,2,0,8,8,6,6,1,4,8,8,1,6,3,6,8,4,1,6,7,4,0,0,0,0,0,0,0,0,0,0,0,0,0,0,0,0,0,0,0,0,0,0,0,0,0,0,0,0,0,0,0,0],"split_type":[0,0,0,0,0,0,0,0,0,0,0,0,0,0,0,0,0,0,0,0,0,0,0,0,0,0,0,0,0,0,0,0,0,0,0,0,0,0,0,0,0,0,0,0,0,0,0,0,0,0,0,0,0,0,0,0,0,0,0,0,0,0,0],"sum_hessian":[5.1943E4,4.4442E4,7.501E3,2.7398E4,1.7044E4,3.423E3,4.078E3,7.095E3,2.0303E4,1.422E4,2.824E3,7.23E2,2.7E3,3.567E3,5.11E2,4.014E3,3.081E3,1.6933E4,3.37E3,3.216E3,1.1004E4,1.887E3,9.37E2,3.19E2,4.04E2,2.365E3,3.35E2,2.978E3,5.89E2,3.7E2,1.41E2,1.507E3,2.507E3,1.933E3,1.148E3,6.63E3,1.0303E4,3.63E2,3.007E3,2.823E3,3.93E2,1.03E4,7.04E2,4.47E2,1.44E3,8.41E2,9.6E1,2.99E2,2E1,1.38E2,2.66E2,1.707E3,6.58E2,2.32E2,1.03E2,2.208E3,7.7E2,3.35E2,2.54E2,3.52E2,1.8E1,1.28E2,1.3E1],"tree_param":{"num_deleted":"0","num_feature":"9","num_nodes":"63","size_leaf_vector":"1"}},{"base_weights":[2.2614012E-3,-3.8330477E-1,6.961929E-1,-1.4042413E-1,-8.7460893E-1,1.8900198E0,3.084848E-1,7.415516E-1,-3.1591973E-1,-1.057192E0,-3.4878832E-1,3.59396E0,1.2036456E0,8.15026E-1,-4.016299E-2,1.2585516E0,-1.9766107E-2,-4.1593632E-1,9.84383E-1,-9.4055223E-1,-1.7293131E0,-4.709082E-1,9.646847E-1,3.2853992E0,7.4797225E0,1.786541E0,4.0515892E-2,6.7067224E-1,3.1374104E0,-2.507017E-1,9.195189E-1,2.9128963E-2,1.0217041E-1,-1.4077096E-2,3.8071834E-2,-6.0943354E-2,-1.45375645E-2,4.2939954E-2,3.2900324E-1,-7.163123E-2,-3.986107E-2,-1.0190197E-1,-6.6257544E-2,-5.741903E-2,-1.5651813E-2,1.1991737E-1,2.6509693E-2,1.8189336E-1,3.0689416E-2,4.347518E-1,1.960022E-1,1.8321472E-1,6.795511E-2,2.9182622E-2,-3.806157E-2,2.6495889E-2,8.832674E-2,9.031891E-2,2.7736437E-1,1.2261803E-2,-2.8363043E-2,3.5690203E-2,1.3118882E-1],"categories":[],"categories_nodes":[],"categories_segments":[],"categories_sizes":[],"default_left":[0,0,0,0,0,0,0,0,0,0,0,0,0,0,0,0,0,0,0,0,0,0,0,0,0,0,0,0,0,0,0,0,0,0,0,0,0,0,0,0,0,0,0,0,0,0,0,0,0,0,0,0,0,0,0,0,0,0,0,0,0,0,0],"id":10,"left_children":[1,3,5,7,9,11,13,15,17,19,21,23,25,27,29,31,33,35,37,39,41,43,45,47,49,51,53,55,57,59,61,-1,-1,-1,-1,-1,-1,-1,-1,-1,-1,-1,-1,-1,-1,-1,-1,-1,-1,-1,-1,-1,-1,-1,-1,-1,-1,-1,-1,-1,-1,-1,-1],"loss_changes":[1.3861302E4,3.9738657E3,8.564111E3,3.44988E3,1.0573291E3,5.300709E3,2.4670203E3,1.4559562E3,2.4179434E3,6.3941797E2,4.56154E2,1.5365176E3,2.1932021E3,1.907115E3,1.6721957E3,1.1675923E3,3.0635086E2,1.7347341E3,9.2757153E2,4.904458E2,1.4802832E2,2.7772058E2,1.4947345E2,1.1352881E3,3.7689648E2,1.7246763E3,4.7117465E2,8.262937E2,1.0581184E3,1.0656548E3,5.201571E2,0E0,0E0,0E0,0E0,0E0,0E0,0E0,0E0,0E0,0E0,0E0,0E0,0E0,0E0,0E0,0E0,0E0,0E0,0E0,0E0,0E0,0E0,0E0,0E0,0E0,0E0,0E0,0E0,0E0,0E0,0E0,0E0],"parents":[2147483647,0,0,1,1,2,2,3,3,4,4,5,5,6,6,7,7,8,8,9,9,10,10,11,11,12,12,13,13,14,14,15,15,16,16,17,17,18,18,19,19,20,20,21,21,22,22,23,23,24,24,25,25,26,26,27,27,28,28,29,29,30,30],"right_children":[2,4,6,8,10,12,14,16,18,20,22,24,26,28,30,32,34,36,38,40,42,44,46,48,50,52,54,56,58,60,62,-1,-1,-1,-1,-1,-1,-1,-1,-1,-1,-1,-1,-1,-1,-1,-1,-1,-1,-1,-1,-1,-1,-1,-1,-1,-1,-1,-1,-1,-1,-1,-1],"split_conditions":[6.1819153E0,1E0,1.38E1,1.24E1,2.07E1,1.09E1,1E-1,1.53E1,2.4E1,1.5E1,2.49E1,1.618711E1,1.67E1,1.600075E1,2.19E1,4.325476E0,5.211043E0,2.788583E0,3.13E1,1.01E2,1.91E2,3.312389E0,1.54E1,2.28E2,2E-1,1.26E2,1.4E0,2.35E1,1.5E1,1.8E1,2.54E1,2.9128963E-2,1.0217041E-1,-1.4077096E-2,3.8071834E-2,-6.0943354E-2,-1.45375645E-2,4.2939954E-2,3.2900324E-1,-7.163123E-2,-3.986107E-2,-1.0190197E-1,-6.6257544E-2,-5.741903E-2,-1.5651813E-2,1.1991737E-1,2.6509693E-2,1.8189336E-1,3.0689416E-2,4.347518E-1,1.960022E-1,1.8321472E-1,6.795511E-2,2.9182622E-2,-3.806157E-2,2.6495889E-2,8.832674E-2,9.031891E-2,2.7736437E-1,1.2261803E-2,-2.8363043E-2,3.5690203E-2,1.3118882E-1],"split_indices":[1,8,7,7,6,6,8,6,6,8,6,1,6,0,6,1,0,1,7,4,4,1,7,4,8,4,8,6,6,7,6,0,0,0,0,0,0,0,0,0,0,0,0,0,0,0,0,0,0,0,0,0,0,0,0,0,0,0,0,0,0,0,0],"split_type":[0,0,0,0,0,0,0,0,0,0,0,0,0,0,0,0,0,0,0,0,0,0,0,0,0,0,0,0,0,0,0,0,0,0,0,0,0,0,0,0,0,0,0,0,0,0,0,0,0,0,0,0,0,0,0,0,0,0,0,0,0,0,0],"sum_hessian":[5.1805E4,3.3302E4,1.8503E4,2.2286E4,1.1016E4,4.535E3,1.3968E4,3.698E3,1.8588E4,8.176E3,2.84E3,1.301E3,3.234E3,5.694E3,8.274E3,2.202E3,1.496E3,1.7261E4,1.327E3,6.969E3,1.207E3,2.599E3,2.41E2,1.207E3,9.4E1,2.154E3,1.08E3,5.362E3,3.32E2,6.786E3,1.488E3,1.184E3,1.018E3,1.121E3,3.75E2,2.327E3,1.4934E4,1.299E3,2.8E1,1.57E3,5.399E3,6.82E2,5.25E2,4.9E2,2.109E3,5.5E1,1.86E2,1.066E3,1.41E2,6.9E1,2.5E1,3.98E2,1.756E3,6.44E2,4.36E2,4.753E3,6.09E2,2.15E2,1.17E2,2.644E3,4.142E3,1.329E3,1.59E2],"tree_param":{"num_deleted":"0","num_feature":"9","num_nodes":"63","size_leaf_vector":"1"}},{"base_weights":[-5.7913656E-3,-3.310809E-1,7.9305595E-1,7.878207E-2,-6.2045217E-1,1.582572E0,1.8792143E-1,4.2505258E-1,-4.573414E-1,-7.034293E-1,3.5544875E-1,3.3044863E0,1.1228174E0,-8.713073E-2,1.232733E0,-2.8271902E-1,7.3016465E-1,-1.033256E0,2.3724397E-1,-1.2871904E0,-5.7822317E-1,2.8472206E-1,3.6896548E0,2.2555597E0,4.019939E0,1.6471441E0,1.4021417E-1,3.045044E-1,-5.247113E-1,8.24163E-1,1.8406796E0,2.6580635E-1,-1.7589403E-2,6.43745E-2,1.2575713E-2,-4.084536E-2,-8.5544065E-2,-3.6457978E-4,6.70453E-2,-5.034373E-2,-8.087174E-2,-2.526964E-2,-6.7603126E-2,-5.517219E-3,3.75055E-2,1.17431335E-1,3.961023E-1,1.3153428E-1,1.2671453E-2,2.4380846E-1,1.330276E-1,9.837713E-2,-5.4046124E-2,-1.0918542E-2,9.404746E-2,9.169539E-3,1.0979863E-1,-5.610695E-2,3.879447E-3,3.1114915E-2,1.1177802E-1,1.6773723E-1,5.763225E-2],"categories":[],"categories_nodes":[],"categories_segments":[],"categories_sizes":[],"default_left":[0,0,0,0,0,0,0,0,0,0,0,0,0,0,0,0,0,0,0,0,0,0,0,0,0,0,0,0,0,0,0,0,0,0,0,0,0,0,0,0,0,0,0,0,0,0,0,0,0,0,0,0,0,0,0,0,0,0,0,0,0,0,0],"id":11,"left_children":[1,3,5,7,9,11,13,15,17,19,21,23,25,27,29,31,33,35,37,39,41,43,45,47,49,51,53,55,57,59,61,-1,-1,-1,-1,-1,-1,-1,-1,-1,-1,-1,-1,-1,-1,-1,-1,-1,-1,-1,-1,-1,-1,-1,-1,-1,-1,-1,-1,-1,-1,-1,-1],"loss_changes":[1.344057E4,4.3594043E3,7.1503857E3,2.824207E3,1.7449092E3,5.1373145E3,2.435346E3,1.9962289E3,2.3883757E3,1.4506133E3,3.9724493E2,1.0175586E3,2.6412256E3,1.1498942E3,4.371372E2,1.0788491E3,1.7227041E3,4.7711572E2,7.3058746E2,3.2293115E2,9.208989E2,3.0436963E2,1.800455E2,4.176687E2,9.321533E2,2.9241377E3,1.1146102E3,8.107787E2,1.140391E3,3.0004504E2,7.34719E2,0E0,0E0,0E0,0E0,0E0,0E0,0E0,0E0,0E0,0E0,0E0,0E0,0E0,0E0,0E0,0E0,0E0,0E0,0E0,0E0,0E0,0E0,0E0,0E0,0E0,0E0,0E0,0E0,0E0,0E0,0E0,0E0],"parents":[2147483647,0,0,1,1,2,2,3,3,4,4,5,5,6,6,7,7,8,8,9,9,10,10,11,11,12,12,13,13,14,14,15,15,16,16,17,17,18,18,19,19,20,20,21,21,22,22,23,23,24,24,25,25,26,26,27,27,28,28,29,29,30,30],"right_children":[2,4,6,8,10,12,14,16,18,20,22,24,26,28,30,32,34,36,38,40,42,44,46,48,50,52,54,56,58,60,62,-1,-1,-1,-1,-1,-1,-1,-1,-1,-1,-1,-1,-1,-1,-1,-1,-1,-1,-1,-1,-1,-1,-1,-1,-1,-1,-1,-1,-1,-1,-1,-1],"split_conditions":[6.7328653E0,1E-1,1.7E1,1.88E1,2.33E1,1.05E1,2.16E1,3.5732083E0,1.79E1,3.1444445E0,3.28E1,2.3961697E0,1.72E1,2.19E1,7.3E1,5.1E0,1.46E1,2.63E1,2.43E1,1.82E1,1.5E1,4.8E1,5.0553193E0,2.25E2,1.27E1,2.59E2,2.34E1,1.600075E1,2.04E2,2.54E1,2.99E2,2.6580635E-1,-1.7589403E-2,6.43745E-2,1.2575713E-2,-4.084536E-2,-8.5544065E-2,-3.6457978E-4,6.70453E-2,-5.034373E-2,-8.087174E-2,-2.526964E-2,-6.7603126E-2,-5.517219E-3,3.75055E-2,1.17431335E-1,3.961023E-1,1.3153428E-1,1.2671453E-2,2.4380846E-1,1.330276E-1,9.837713E-2,-5.4046124E-2,-1.0918542E-2,9.404746E-2,9.169539E-3,1.0979863E-1,-5.610695E-2,3.879447E-3,3.1114915E-2,1.1177802E-1,1.6773723E-1,5.763225E-2],"split_indices":[1,8,7,7,6,6,6,1,6,1,7,2,6,7,4,6,6,7,6,7,8,4,1,4,7,4,6,0,4,6,4,0,0,0,0,0,0,0,0,0,0,0,0,0,0,0,0,0,0,0,0,0,0,0,0,0,0,0,0,0,0,0,0],"split_type":[0,0,0,0,0,0,0,0,0,0,0,0,0,0,0,0,0,0,0,0,0,0,0,0,0,0,0,0,0,0,0,0,0,0,0,0,0,0,0,0,0,0,0,0,0,0,0,0,0,0,0,0,0,0,0,0,0,0,0,0,0,0,0],"sum_hessian":[5.1721E4,3.6755E4,1.4966E4,1.5211E4,2.1544E4,6.493E3,8.473E3,9.242E3,5.969E3,1.9856E4,1.688E3,1.367E3,5.126E3,6.708E3,1.765E3,2.784E3,6.458E3,3.263E3,2.706E3,3.505E3,1.6351E4,1.654E3,3.4E1,5.56E2,8.11E2,3.342E3,1.784E3,3.54E3,3.168E3,1.057E3,7.08E2,3.3E1,2.751E3,2.983E3,3.475E3,2.475E3,7.88E2,2.216E3,4.9E2,1.898E3,1.607E3,1.4946E4,1.405E3,8.95E2,7.59E2,2.7E1,7E0,4.68E2,8.8E1,4.96E2,3.15E2,2.991E3,3.51E2,1.48E3,3.04E2,3.328E3,2.12E2,1.59E3,1.578E3,9.26E2,1.31E2,2.2E2,4.88E2],"tree_param":{"num_deleted":"0","num_feature":"9","num_nodes":"63","size_leaf_vector":"1"}},{"base_weights":[3.5064863E-3,-2.4881516E-1,9.883476E-1,-6.048657E-3,-7.421553E-1,2.0232968E0,4.4568434E-1,4.7869602E-1,-3.3213115E-1,-9.122261E-1,-2.1346079E-1,2.4931488E0,1.5715326E-1,2.9412723E-1,1.9878718E0,9.9159044E-1,-8.455344E-2,-6.6592014E-1,2.9659465E-1,-1.2114258E0,-6.942088E-1,-3.3050874E-1,9.686937E-1,2.6750777E0,-1.3824971E0,-3.2791454E-1,1.350777E0,5.179487E-1,-6.001535E-1,1.3012401E0,2.8086765E0,6.2355846E-2,-6.263951E-2,-3.7614893E-2,3.8331088E-3,-1.807783E-2,-5.2718777E-2,-3.5082705E-3,3.9927684E-2,-4.2573184E-2,-7.297614E-2,-3.5656902E-3,-4.342673E-2,-4.430811E-2,-4.7921347E-3,-3.6468994E-2,6.4015865E-2,1.2520151E-1,7.469064E-1,-5.4264534E-2,-1.4438061E-1,4.389138E-2,-3.8175706E-2,3.1534847E-2,1.1154868E-1,1.7796585E-2,9.334678E-2,-6.457307E-2,2.8869072E-2,1.7968611E-1,5.298099E-2,2.6598394E-1,9.772395E-2],"categories":[],"categories_nodes":[],"categories_segments":[],"categories_sizes":[],"default_left":[0,0,0,0,0,0,0,0,0,0,0,0,0,0,0,0,0,0,0,0,0,0,0,0,0,0,0,0,0,0,0,0,0,0,0,0,0,0,0,0,0,0,0,0,0,0,0,0,0,0,0,0,0,0,0,0,0,0,0,0,0,0,0],"id":12,"left_children":[1,3,5,7,9,11,13,15,17,19,21,23,25,27,29,31,33,35,37,39,41,43,45,47,49,51,53,55,57,59,61,-1,-1,-1,-1,-1,-1,-1,-1,-1,-1,-1,-1,-1,-1,-1,-1,-1,-1,-1,-1,-1,-1,-1,-1,-1,-1,-1,-1,-1,-1,-1,-1],"loss_changes":[1.2890766E4,4.945752E3,5.941132E3,4.374972E3,1.2243638E3,3.1903252E3,1.6219656E3,3.2156907E3,3.4727798E3,6.712959E2,4.59151E2,2.0534023E3,4.2484146E2,1.2657175E3,3.4633472E2,3.3427666E3,5.71253E2,1.277585E3,1.0565973E3,3.8652246E2,6.474402E2,3.9344116E2,1.5915259E2,5.787539E3,5.546634E1,2.7483548E2,1.3296112E2,1.1045874E3,1.0313193E3,1.8452148E2,5.944624E2,0E0,0E0,0E0,0E0,0E0,0E0,0E0,0E0,0E0,0E0,0E0,0E0,0E0,0E0,0E0,0E0,0E0,0E0,0E0,0E0,0E0,0E0,0E0,0E0,0E0,0E0,0E0,0E0,0E0,0E0,0E0,0E0],"parents":[2147483647,0,0,1,1,2,2,3,3,4,4,5,5,6,6,7,7,8,8,9,9,10,10,11,11,12,12,13,13,14,14,15,15,16,16,17,17,18,18,19,19,20,20,21,21,22,22,23,23,24,24,25,25,26,26,27,27,28,28,29,29,30,30],"right_children":[2,4,6,8,10,12,14,16,18,20,22,24,26,28,30,32,34,36,38,40,42,44,46,48,50,52,54,56,58,60,62,-1,-1,-1,-1,-1,-1,-1,-1,-1,-1,-1,-1,-1,-1,-1,-1,-1,-1,-1,-1,-1,-1,-1,-1,-1,-1,-1,-1,-1,-1,-1,-1],"split_conditions":[7.63975E0,1E0,1.52E1,1.64E1,2.09E1,1.68E1,2.34E1,1.52E1,1.9E1,1.54E2,2.49E1,2.61E2,2.19E1,2.57E1,7.4E1,2.58E2,3.174889E0,2.07E1,2.42E2,3.6E0,1.47E1,4.1135E0,2.1E1,2.55E2,2.93E2,1.78E1,7.3E1,1.5241177E1,1.66E1,8.0108947E-1,2E0,6.2355846E-2,-6.263951E-2,-3.7614893E-2,3.8331088E-3,-1.807783E-2,-5.2718777E-2,-3.5082705E-3,3.9927684E-2,-4.2573184E-2,-7.297614E-2,-3.5656902E-3,-4.342673E-2,-4.430811E-2,-4.7921347E-3,-3.6468994E-2,6.4015865E-2,1.2520151E-1,7.469064E-1,-5.4264534E-2,-1.4438061E-1,4.389138E-2,-3.8175706E-2,3.1534847E-2,1.1154868E-1,1.7796585E-2,9.334678E-2,-6.457307E-2,2.8869072E-2,1.7968611E-1,5.298099E-2,2.6598394E-1,9.772395E-2],"split_indices":[1,8,7,7,6,6,6,6,6,4,6,4,6,7,4,4,1,7,4,8,7,1,4,4,4,6,4,0,6,2,5,0,0,0,0,0,0,0,0,0,0,0,0,0,0,0,0,0,0,0,0,0,0,0,0,0,0,0,0,0,0,0,0],"split_type":[0,0,0,0,0,0,0,0,0,0,0,0,0,0,0,0,0,0,0,0,0,0,0,0,0,0,0,0,0,0,0,0,0,0,0,0,0,0,0,0,0,0,0,0,0,0,0,0,0,0,0,0,0,0,0,0,0,0,0,0,0,0,0],"sum_hessian":[5.1873E4,4.1294E4,1.0579E4,2.7676E4,1.3618E4,3.638E3,6.941E3,1.113E4,1.6546E4,1.0303E4,3.315E3,2.906E3,7.32E2,6.321E3,6.2E2,5.825E3,5.305E3,1.0808E4,5.738E3,4.341E3,5.962E3,3.017E3,2.98E2,2.776E3,1.3E2,5.21E2,2.11E2,5.056E3,1.265E3,3.39E2,2.81E2,5.23E3,5.95E2,1.031E3,4.274E3,6.061E3,4.747E3,3.316E3,2.422E3,1.773E3,2.568E3,1.304E3,4.658E3,8.95E2,2.122E3,4.6E1,2.52E2,2.739E3,3.7E1,1.1E2,2E1,1.38E2,3.83E2,1.17E2,9.4E1,4.515E3,5.41E2,7.97E2,4.68E2,3.1E1,3.08E2,7E1,2.11E2],"tree_param":{"num_deleted":"0","num_feature":"9","num_nodes":"63","size_leaf_vector":"1"}},{"base_weights":[1.0273354E-2,-1.7355147E-1,1.2470315E0,-6.2557393E-1,1.0010153E-1,2.1927285E0,4.270444E-1,1.5320714E-1,-7.358439E-1,5.5518997E-1,-2.2664402E-1,4.222859E0,1.6718011E0,-9.8890506E-2,9.6310353E-1,6.9028157E-1,-4.6277964E-1,-8.1639034E-1,2.785356E-1,1.418537E0,2.1506107E-1,-3.0635446E-1,1.1729847E0,4.6976852E0,2.2120123E0,1.3601742E0,3.5599358E0,2.2444075E-1,-1.3804287E0,8.588837E-1,3.4908214E0,1.1549814E-2,7.868283E-2,-6.4500995E-2,-1.3392957E-2,-6.782397E-2,-3.5061345E-2,6.3880193E-3,1.3942923E-1,8.504959E-2,-1.4049144E-2,5.569954E-3,6.439516E-2,-1.2172214E-2,-5.893142E-2,5.5264186E-2,4.2071152E-1,2.1060121E-1,3.4640488E-1,8.367656E-2,3.1424674E-1,8.849323E-2,8.275245E-3,1.0464954E-1,3.2697034E-1,6.6486605E-2,-1.0617745E-2,-1.0038836E-1,-2.8653486E-2,1.6711285E-2,6.557902E-2,1.137166E-1,5.2811617E-1],"categories":[],"categories_nodes":[],"categories_segments":[],"categories_sizes":[],"default_left":[0,0,0,0,0,0,0,0,0,0,0,0,0,0,0,0,0,0,0,0,0,0,0,0,0,0,0,0,0,0,0,0,0,0,0,0,0,0,0,0,0,0,0,0,0,0,0,0,0,0,0,0,0,0,0,0,0,0,0,0,0,0,0],"id":13,"left_children":[1,3,5,7,9,11,13,15,17,19,21,23,25,27,29,31,33,35,37,39,41,43,45,47,49,51,53,55,57,59,61,-1,-1,-1,-1,-1,-1,-1,-1,-1,-1,-1,-1,-1,-1,-1,-1,-1,-1,-1,-1,-1,-1,-1,-1,-1,-1,-1,-1,-1,-1,-1,-1],"loss_changes":[1.1759049E4,5.5701523E3,5.189214E3,1.458376E3,4.1711084E3,3.2798086E3,1.01110406E3,6.973798E2,1.215584E3,3.442145E3,1.8219932E3,5.949541E2,1.4514326E3,7.507182E2,4.6486853E2,4.5647858E2,1.5799812E2,8.5620605E2,4.1404993E2,1.5908433E3,9.352686E2,8.474758E2,4.221106E2,5.254297E2,2.5924445E2,1.0402661E3,1.516065E3,6.988743E2,1.8371735E2,4.0499292E2,5.7814624E2,0E0,0E0,0E0,0E0,0E0,0E0,0E0,0E0,0E0,0E0,0E0,0E0,0E0,0E0,0E0,0E0,0E0,0E0,0E0,0E0,0E0,0E0,0E0,0E0,0E0,0E0,0E0,0E0,0E0,0E0,0E0,0E0],"parents":[2147483647,0,0,1,1,2,2,3,3,4,4,5,5,6,6,7,7,8,8,9,9,10,10,11,11,12,12,13,13,14,14,15,15,16,16,17,17,18,18,19,19,20,20,21,21,22,22,23,23,24,24,25,25,26,26,27,27,28,28,29,29,30,30],"right_children":[2,4,6,8,10,12,14,16,18,20,22,24,26,28,30,32,34,36,38,40,42,44,46,48,50,52,54,56,58,60,62,-1,-1,-1,-1,-1,-1,-1,-1,-1,-1,-1,-1,-1,-1,-1,-1,-1,-1,-1,-1,-1,-1,-1,-1,-1,-1,-1,-1,-1,-1,-1,-1],"split_conditions":[8.818705E0,4.3459725E0,1.73E1,1.17E1,1E-1,9.5E0,1.58E1,1.52E1,2.34E1,1.4E1,2.4E1,2E-1,1.600075E1,2.79E1,2.61E1,1.2686343E0,2.170125E0,2.501611E0,2.83E1,2.59E2,2.41E1,1.73E1,3.41E1,1.6904207E1,5.8912687E0,1.1E0,2.29E2,1.05E1,2.02E2,2E2,3.53E2,1.1549814E-2,7.868283E-2,-6.4500995E-2,-1.3392957E-2,-6.782397E-2,-3.5061345E-2,6.3880193E-3,1.3942923E-1,8.504959E-2,-1.4049144E-2,5.569954E-3,6.439516E-2,-1.2172214E-2,-5.893142E-2,5.5264186E-2,4.2071152E-1,2.1060121E-1,3.4640488E-1,8.367656E-2,3.1424674E-1,8.849323E-2,8.275245E-3,1.0464954E-1,3.2697034E-1,6.6486605E-2,-1.0617745E-2,-1.0038836E-1,-2.8653486E-2,1.6711285E-2,6.557902E-2,1.137166E-1,5.2811617E-1],"split_indices":[1,1,7,7,8,6,6,6,6,7,6,8,0,7,6,2,0,1,6,4,6,8,7,0,2,8,4,6,4,4,4,0,0,0,0,0,0,0,0,0,0,0,0,0,0,0,0,0,0,0,0,0,0,0,0,0,0,0,0,0,0,0,0],"split_type":[0,0,0,0,0,0,0,0,0,0,0,0,0,0,0,0,0,0,0,0,0,0,0,0,0,0,0,0,0,0,0,0,0,0,0,0,0,0,0,0,0,0,0,0,0,0,0,0,0,0,0,0,0,0,0,0,0,0,0,0,0,0,0],"sum_hessian":[5.1721E4,4.5029E4,6.692E3,1.698E4,2.8049E4,3.107E3,3.585E3,2.106E3,1.4874E4,1.1722E4,1.6327E4,6.33E2,2.474E3,1.81E3,1.775E3,1.125E3,9.81E2,1.378E4,1.094E3,3.312E3,8.41E3,1.5448E4,8.79E2,5.11E2,1.22E2,2.125E3,3.49E2,1.446E3,3.64E2,1.706E3,6.9E1,7.41E2,3.84E2,1.86E2,7.95E2,2.42E3,1.136E4,1.033E3,6.1E1,2.84E3,4.72E2,7.67E3,7.4E2,1.441E4,1.038E3,8.72E2,7E0,4.22E2,8.9E1,1.09E2,1.3E1,1.582E3,5.43E2,2.35E2,1.14E2,4.09E2,1.037E3,2.04E2,1.6E2,7.91E2,9.15E2,6E1,9E0],"tree_param":{"num_deleted":"0","num_feature":"9","num_nodes":"63","size_leaf_vector":"1"}},{"base_weights":[3.214769E-3,-4.183784E-1,4.783692E-1,4.2195907E-1,-5.290464E-1,1.1884899E0,1.071359E-1,1.1268502E0,-2.8231665E-1,-1.1037089E0,-4.0646508E-1,1.7864813E0,6.764261E-2,-5.811297E-2,1.1651669E0,1.3022392E0,-1.2196414E0,9.0714265E-3,-7.332888E-1,9.2810994E-1,-1.151544E0,-1.679337E-1,-6.7973936E-1,2.0194762E0,-1.1109176E0,-1.0587137E-1,1.6125699E0,-3.4722713E-1,2.376206E-1,8.979697E-1,2.169734E0,5.798943E-2,4.2243168E-1,-9.0145335E-2,-4.078606E-2,-1.4948125E-2,4.1197415E-2,-4.3046586E-2,5.6070413E-2,1.509599E-1,-5.9077006E-2,-5.220089E-2,-9.742574E-2,-1.0103996E-2,1.1113679E-1,-4.8735056E-2,-1.6290287E-2,9.407994E-2,5.1372164E-1,-4.843961E-2,-1.2989442E-1,-3.8337186E-2,1.5940264E-2,4.5224134E-2,1.1743986E-1,-6.5314973E-4,-4.0935017E-2,4.876044E-2,-1.3374689E-2,4.995233E-2,-4.5842074E-2,8.711891E-2,2.724117E-1],"categories":[],"categories_nodes":[],"categories_segments":[],"categories_sizes":[],"default_left":[0,0,0,0,0,0,0,0,0,0,0,0,0,0,0,0,0,0,0,0,0,0,0,0,0,0,0,0,0,0,0,0,0,0,0,0,0,0,0,0,0,0,0,0,0,0,0,0,0,0,0,0,0,0,0,0,0,0,0,0,0,0,0],"id":14,"left_children":[1,3,5,7,9,11,13,15,17,19,21,23,25,27,29,31,33,35,37,39,41,43,45,47,49,51,53,55,57,59,61,-1,-1,-1,-1,-1,-1,-1,-1,-1,-1,-1,-1,-1,-1,-1,-1,-1,-1,-1,-1,-1,-1,-1,-1,-1,-1,-1,-1,-1,-1,-1,-1],"loss_changes":[1.0417139E4,2.5627026E3,6.444865E3,1.592394E3,1.7146948E3,5.6253467E3,2.8072734E3,6.6130054E2,2.1091635E2,4.1705127E2,1.308073E3,3.6969512E3,7.8319293E2,1.1875171E3,5.80249E2,1.5090696E3,2.491571E1,2.4523181E2,1.5011096E2,4.403022E2,3.5634326E2,8.7530286E2,9.7610645E2,5.7466426E3,8.370834E1,7.375305E2,1.5166284E2,1.106459E3,2.5583018E3,3.1550745E2,6.2800146E2,0E0,0E0,0E0,0E0,0E0,0E0,0E0,0E0,0E0,0E0,0E0,0E0,0E0,0E0,0E0,0E0,0E0,0E0,0E0,0E0,0E0,0E0,0E0,0E0,0E0,0E0,0E0,0E0,0E0,0E0,0E0,0E0],"parents":[2147483647,0,0,1,1,2,2,3,3,4,4,5,5,6,6,7,7,8,8,9,9,10,10,11,11,12,12,13,13,14,14,15,15,16,16,17,17,18,18,19,19,20,20,21,21,22,22,23,23,24,24,25,25,26,26,27,27,28,28,29,29,30,30],"right_children":[2,4,6,8,10,12,14,16,18,20,22,24,26,28,30,32,34,36,38,40,42,44,46,48,50,52,54,56,58,60,62,-1,-1,-1,-1,-1,-1,-1,-1,-1,-1,-1,-1,-1,-1,-1,-1,-1,-1,-1,-1,-1,-1,-1,-1,-1,-1,-1,-1,-1,-1,-1,-1],"split_conditions":[5.457472E0,1.17E1,1.56E1,1.48E1,2.8945973E0,1.62E1,2.27E1,2.58E2,6E-1,7.1E0,3E-1,2.58E2,2.39E1,2.04E2,2.54E1,2.54E2,2E0,4.688455E0,2.37E1,2.05E1,7.9E0,2.73E1,1.89E1,2.55E2,1.3330458E1,8.7E1,3E0,2.16E1,2.62E2,3.59E2,3.53E2,5.798943E-2,4.2243168E-1,-9.0145335E-2,-4.078606E-2,-1.4948125E-2,4.1197415E-2,-4.3046586E-2,5.6070413E-2,1.509599E-1,-5.9077006E-2,-5.220089E-2,-9.742574E-2,-1.0103996E-2,1.1113679E-1,-4.8735056E-2,-1.6290287E-2,9.407994E-2,5.1372164E-1,-4.843961E-2,-1.2989442E-1,-3.8337186E-2,1.5940264E-2,4.5224134E-2,1.1743986E-1,-6.5314973E-4,-4.0935017E-2,4.876044E-2,-1.3374689E-2,4.995233E-2,-4.5842074E-2,8.711891E-2,2.724117E-1],"split_indices":[1,7,7,6,1,6,6,4,8,6,8,4,6,4,6,4,5,0,6,7,8,6,6,4,0,4,3,7,4,4,4,0,0,0,0,0,0,0,0,0,0,0,0,0,0,0,0,0,0,0,0,0,0,0,0,0,0,0,0,0,0,0,0],"split_type":[0,0,0,0,0,0,0,0,0,0,0,0,0,0,0,0,0,0,0,0,0,0,0,0,0,0,0,0,0,0,0,0,0,0,0,0,0,0,0,0,0,0,0,0,0,0,0,0,0,0,0,0,0,0,0,0,0,0,0,0,0,0,0],"sum_hessian":[5.2E4,2.7553E4,2.4447E4,3.206E3,2.4347E4,8.392E3,1.6055E4,1.602E3,1.604E3,4.279E3,2.0068E4,5.472E3,2.92E3,1.3887E4,2.168E3,1.491E3,1.11E2,9.75E2,6.29E2,9.8E1,4.181E3,1.0716E4,9.352E3,5.065E3,4.07E2,2.626E3,2.94E2,7.022E3,6.865E3,1.714E3,4.54E2,1.463E3,2.8E1,4.4E1,6.7E1,7.08E2,2.67E2,5.89E2,4E1,4.9E1,4.9E1,3.686E3,4.95E2,1.0566E4,1.5E2,5.1E3,4.252E3,4.983E3,8.2E1,3.73E2,3.4E1,1.027E3,1.599E3,1.51E2,1.43E2,4.11E3,2.912E3,2.79E3,4.075E3,1.624E3,9E1,4.03E2,5.1E1],"tree_param":{"num_deleted":"0","num_feature":"9","num_nodes":"63","size_leaf_vector":"1"}},{"base_weights":[-1.6699398E-2,-3.3055192E-1,5.5295765E-1,1.698755E-2,-5.737386E-1,1.6702504E0,2.8360528E-1,4.2304626E-1,-3.7951517E-1,-7.152933E-1,-1.1318692E-1,3.1759973E0,1.0069529E0,6.0061246E-1,-1.5343584E-1,8.927137E-1,2.516748E-2,-6.8911934E-1,2.8194344E-1,-4.745127E-1,-9.883793E-1,-3.0782667E-1,4.3857428E-1,1.5866033E0,3.8339648E0,1.8119754E0,2.322453E-1,1.2493567E0,3.5714674E-1,-3.817957E-1,8.735146E-1,5.5165417E-2,-6.406621E-2,5.260408E-4,4.5009094E-1,-2.6304064E-2,-7.004007E-2,-1.0102264E-2,4.8228808E-2,-5.2848723E-2,-1.443805E-2,-6.276705E-2,-2.446688E-2,-2.359472E-2,1.7111633E-2,2.0434113E-1,1.0177142E-2,9.909469E-2,-3.84217E-2,1.7238387E-1,2.9236457E-1,3.726177E-2,1.2639831E-1,6.5048183E-3,2.6529437E-1,4.700632E-2,1.9439103E-1,6.4083003E-3,5.6445397E-2,-3.8251672E-2,1.020947E-4,3.3551656E-2,1.4709024E-1],"categories":[],"categories_nodes":[],"categories_segments":[],"categories_sizes":[],"default_left":[0,0,0,0,0,0,0,0,0,0,0,0,0,0,0,0,0,0,0,0,0,0,0,0,0,0,0,0,0,0,0,0,0,0,0,0,0,0,0,0,0,0,0,0,0,0,0,0,0,0,0,0,0,0,0,0,0,0,0,0,0,0,0],"id":15,"left_children":[1,3,5,7,9,11,13,15,17,19,21,23,25,27,29,31,33,35,37,39,41,43,45,47,49,51,53,55,57,59,61,-1,-1,-1,-1,-1,-1,-1,-1,-1,-1,-1,-1,-1,-1,-1,-1,-1,-1,-1,-1,-1,-1,-1,-1,-1,-1,-1,-1,-1,-1,-1,-1],"loss_changes":[9.273752E3,2.8265952E3,5.5447466E3,2.2170164E3,1.2826616E3,3.5713584E3,2.057211E3,1.271259E3,1.4269686E3,9.891255E2,4.970501E2,1.1379893E3,1.5499907E3,1.3588455E3,1.4644061E3,1.4298767E3,4.8427026E2,5.4994727E2,7.343137E2,8.652406E2,9.387554E2,3.6502408E2,1.0341141E3,3.012804E2,5.8101953E2,9.291587E2,6.564724E2,1.9120623E3,1.1059362E3,7.513936E2,4.7377203E2,0E0,0E0,0E0,0E0,0E0,0E0,0E0,0E0,0E0,0E0,0E0,0E0,0E0,0E0,0E0,0E0,0E0,0E0,0E0,0E0,0E0,0E0,0E0,0E0,0E0,0E0,0E0,0E0,0E0,0E0,0E0,0E0],"parents":[2147483647,0,0,1,1,2,2,3,3,4,4,5,5,6,6,7,7,8,8,9,9,10,10,11,11,12,12,13,13,14,14,15,15,16,16,17,17,18,18,19,19,20,20,21,21,22,22,23,23,24,24,25,25,26,26,27,27,28,28,29,29,30,30],"right_children":[2,4,6,8,10,12,14,16,18,20,22,24,26,28,30,32,34,36,38,40,42,44,46,48,50,52,54,56,58,60,62,-1,-1,-1,-1,-1,-1,-1,-1,-1,-1,-1,-1,-1,-1,-1,-1,-1,-1,-1,-1,-1,-1,-1,-1,-1,-1,-1,-1,-1,-1,-1,-1],"split_conditions":[6.1819153E0,1E-1,1.28E1,1.7E1,2.07E1,1.09E1,4E-1,1.4E1,1.99E1,1.79E1,5E0,1.8011466E0,1E-1,1.66E1,2.18E1,2.58E2,1.0942583E1,2.62E1,9E0,1.01E2,1.77E1,2.41E1,2.99E2,2.28E2,1.3211941E1,2.021251E0,2.4547958E1,1.4151792E1,2.12E1,1.9E2,2.57E1,5.5165417E-2,-6.406621E-2,5.260408E-4,4.5009094E-1,-2.6304064E-2,-7.004007E-2,-1.0102264E-2,4.8228808E-2,-5.2848723E-2,-1.443805E-2,-6.276705E-2,-2.446688E-2,-2.359472E-2,1.7111633E-2,2.0434113E-1,1.0177142E-2,9.909469E-2,-3.84217E-2,1.7238387E-1,2.9236457E-1,3.726177E-2,1.2639831E-1,6.5048183E-3,2.6529437E-1,4.700632E-2,1.9439103E-1,6.4083003E-3,5.6445397E-2,-3.8251672E-2,1.020947E-4,3.3551656E-2,1.4709024E-1],"split_indices":[1,8,7,7,6,6,8,6,6,7,3,2,8,7,6,4,0,7,3,4,6,6,4,4,1,2,0,0,6,4,6,0,0,0,0,0,0,0,0,0,0,0,0,0,0,0,0,0,0,0,0,0,0,0,0,0,0,0,0,0,0,0,0],"split_type":[0,0,0,0,0,0,0,0,0,0,0,0,0,0,0,0,0,0,0,0,0,0,0,0,0,0,0,0,0,0,0,0,0,0,0,0,0,0,0,0,0,0,0,0,0,0,0,0,0,0,0,0,0,0,0,0,0,0,0,0,0,0,0],"sum_hessian":[5.1868E4,3.3443E4,1.8425E4,1.3768E4,1.9675E4,3.578E3,1.4847E4,6.802E3,6.966E3,1.5049E4,4.626E3,1.093E3,2.485E3,8.605E3,6.242E3,3.119E3,3.683E3,4.745E3,2.221E3,7.999E3,7.05E3,3.42E3,1.206E3,3.21E2,7.72E2,1.218E3,1.267E3,2.347E3,6.258E3,5.107E3,1.135E3,2.844E3,2.75E2,3.678E3,5E0,3.862E3,8.83E2,1.3E3,9.21E2,1.933E3,6.066E3,4.592E3,2.458E3,2.731E3,6.89E2,7.2E1,1.134E3,2.75E2,4.6E1,6.5E2,1.22E2,4.9E2,7.28E2,1.243E3,2.4E1,2.102E3,2.45E2,4.827E3,1.431E3,2.555E3,2.552E3,1.035E3,1E2],"tree_param":{"num_deleted":"0","num_feature":"9","num_nodes":"63","size_leaf_vector":"1"}},{"base_weights":[-4.2534773E-3,-1.5630853E-1,1.074493E0,6.579989E-2,-6.128949E-1,1.8907994E0,3.2270908E-1,5.5625826E-1,-2.032414E-1,-7.366702E-1,2.0586144E-2,3.4251473E0,1.4870431E0,1.7419302E-1,2.1957252E0,2.1472171E-1,1.2534658E0,-4.1515645E-1,4.395572E-1,-6.6346395E-1,-1.620529E0,-3.780613E-1,3.628773E-1,2.4888742E0,4.579364E0,1.2159224E0,3.5261712E0,3.582767E-1,-7.8081334E-1,2.5043945E0,-8.9249194E-1,-7.7860826E-3,2.8341189E-2,1.3731533E-1,4.6551634E-2,-7.88712E-3,-3.890336E-2,3.6752091E-3,5.61378E-2,9.110929E-2,-3.423915E-2,-9.867151E-2,-6.7982204E-2,-2.5561053E-2,2.6226118E-2,1.0961884E-2,6.524079E-2,1.627069E-1,6.658007E-2,3.0583194E-1,1.6435425E-1,7.735342E-2,3.9810147E-3,8.4646665E-2,3.7721965E-1,6.7816816E-2,1.0530867E-2,-6.0828652E-2,1.472184E-2,1.0412482E-1,6.791296E-1,9.408176E-3,-8.003196E-2],"categories":[],"categories_nodes":[],"categories_segments":[],"categories_sizes":[],"default_left":[0,0,0,0,0,0,0,0,0,0,0,0,0,0,0,0,0,0,0,0,0,0,0,0,0,0,0,0,0,0,0,0,0,0,0,0,0,0,0,0,0,0,0,0,0,0,0,0,0,0,0,0,0,0,0,0,0,0,0,0,0,0,0],"id":16,"left_children":[1,3,5,7,9,11,13,15,17,19,21,23,25,27,29,31,33,35,37,39,41,43,45,47,49,51,53,55,57,59,61,-1,-1,-1,-1,-1,-1,-1,-1,-1,-1,-1,-1,-1,-1,-1,-1,-1,-1,-1,-1,-1,-1,-1,-1,-1,-1,-1,-1,-1,-1,-1,-1],"loss_changes":[8.505392E3,4.6088965E3,3.930663E3,4.0345928E3,1.1661978E3,1.8973994E3,9.276025E2,2.578828E3,2.6898208E3,8.0397217E2,3.319921E2,6.79145E2,1.3407959E3,5.438566E2,2.3577844E2,9.4847314E2,1.7115E3,1.3871392E3,1.2243433E3,6.1022705E2,8.487207E1,1.3535927E2,1.7682126E2,3.1006152E2,5.460718E2,8.085066E2,2.0866394E3,3.8185202E2,2.3463354E2,1.0139872E3,1.7902235E1,0E0,0E0,0E0,0E0,0E0,0E0,0E0,0E0,0E0,0E0,0E0,0E0,0E0,0E0,0E0,0E0,0E0,0E0,0E0,0E0,0E0,0E0,0E0,0E0,0E0,0E0,0E0,0E0,0E0,0E0,0E0,0E0],"parents":[2147483647,0,0,1,1,2,2,3,3,4,4,5,5,6,6,7,7,8,8,9,9,10,10,11,11,12,12,13,13,14,14,15,15,16,16,17,17,18,18,19,19,20,20,21,21,22,22,23,23,24,24,25,25,26,26,27,27,28,28,29,29,30,30],"right_children":[2,4,6,8,10,12,14,16,18,20,22,24,26,28,30,32,34,36,38,40,42,44,46,48,50,52,54,56,58,60,62,-1,-1,-1,-1,-1,-1,-1,-1,-1,-1,-1,-1,-1,-1,-1,-1,-1,-1,-1,-1,-1,-1,-1,-1,-1,-1,-1,-1,-1,-1,-1,-1],"split_conditions":[8.904468E0,1E0,1.73E1,1.56E1,2.18E1,9.5E0,2.35E1,1.84321E0,2.08E1,2.33E1,4.9064364E0,1.1800111E1,1.6904207E1,5.3E0,3.55E2,4.262347E0,1.03E1,2.07E1,9E0,7.9E0,4.1765E0,2.49E1,2.49E1,2E2,1.22E1,1.71E1,2.31E2,9.8E0,1.83E1,3.53E2,4.4352365E0,-7.7860826E-3,2.8341189E-2,1.3731533E-1,4.6551634E-2,-7.88712E-3,-3.890336E-2,3.6752091E-3,5.61378E-2,9.110929E-2,-3.423915E-2,-9.867151E-2,-6.7982204E-2,-2.5561053E-2,2.6226118E-2,1.0961884E-2,6.524079E-2,1.627069E-1,6.658007E-2,3.0583194E-1,1.6435425E-1,7.735342E-2,3.9810147E-3,8.4646665E-2,3.7721965E-1,6.7816816E-2,1.0530867E-2,-6.0828652E-2,1.472184E-2,1.0412482E-1,6.791296E-1,9.408176E-3,-8.003196E-2],"split_indices":[1,8,7,7,6,6,6,2,6,8,1,1,0,8,4,1,6,7,3,7,0,6,6,4,7,6,4,6,6,4,2,0,0,0,0,0,0,0,0,0,0,0,0,0,0,0,0,0,0,0,0,0,0,0,0,0,0,0,0,0,0,0,0],"split_type":[0,0,0,0,0,0,0,0,0,0,0,0,0,0,0,0,0,0,0,0,0,0,0,0,0,0,0,0,0,0,0,0,0,0,0,0,0,0,0,0,0,0,0,0,0,0,0,0,0,0,0,0,0,0,0,0,0,0,0,0,0,0,0],"sum_hessian":[5.1851E4,4.5446E4,6.405E3,3.0574E4,1.4872E4,3.07E3,3.335E3,1.083E4,1.9744E4,1.2441E4,2.431E3,6.38E2,2.432E3,3.091E3,2.44E2,7.27E3,3.56E3,1.4849E4,4.895E3,1.1491E4,9.5E2,1.123E3,1.308E3,3.54E2,2.84E2,2.148E3,2.84E2,2.592E3,4.99E2,2.22E2,2.2E1,3.543E3,3.727E3,6.31E2,2.929E3,8.688E3,6.161E3,3.188E3,1.707E3,9.7E1,1.1394E4,4.01E2,5.49E2,9.79E2,1.44E2,1.136E3,1.72E2,2.12E2,1.42E2,1.28E2,1.56E2,1.663E3,4.85E2,1.96E2,8.8E1,3.33E2,2.259E3,3.55E2,1.44E2,2.15E2,7E0,9E0,1.3E1],"tree_param":{"num_deleted":"0","num_feature":"9","num_nodes":"63","size_leaf_vector":"1"}},{"base_weights":[2.6938787E-3,-1.5023725E-1,1.0788887E0,-5.257121E-1,7.103303E-2,1.9071892E0,3.3033246E-1,-5.646398E-2,-6.6891384E-1,4.531657E-1,-2.0329161E-1,3.3690677E0,1.4633261E0,1.1652978E-1,1.2717661E0,5.0890183E0,-9.603013E-2,-8.4487337E-1,-2.3088412E-1,9.109087E-1,-3.596687E-2,-3.1234828E-1,5.873076E-1,2.9844506E0,5.716555E0,-3.560739E-1,1.718109E0,5.2730227E-1,-4.540292E-1,6.5433824E-1,1.9362502E0,5.4489315E-1,1.8881007E-1,2.3484077E-2,-1.5936166E-2,-2.7699048E-2,-5.6744296E-2,-2.888476E-2,2.2409733E-2,-1.3501604E-2,5.5794545E-2,-1.6257001E-2,3.3862203E-2,2.3185454E-2,-1.8555528E-2,-2.7478162E-2,3.930332E-2,1.2753753E-1,2.5535658E-1,3.9899802E-1,1.8803702E-1,-4.5398075E-2,1.7259536E-2,2.1605997E-1,6.5371916E-2,1.0039192E-1,1.09044295E-2,-5.4157335E-2,1.1998473E-2,1.7736569E-3,6.992047E-2,1.356533E-1,-1.40521815E-2],"categories":[],"categories_nodes":[],"categories_segments":[],"categories_sizes":[],"default_left":[0,0,0,0,0,0,0,0,0,0,0,0,0,0,0,0,0,0,0,0,0,0,0,0,0,0,0,0,0,0,0,0,0,0,0,0,0,0,0,0,0,0,0,0,0,0,0,0,0,0,0,0,0,0,0,0,0,0,0,0,0,0,0],"id":17,"left_children":[1,3,5,7,9,11,13,15,17,19,21,23,25,27,29,31,33,35,37,39,41,43,45,47,49,51,53,55,57,59,61,-1,-1,-1,-1,-1,-1,-1,-1,-1,-1,-1,-1,-1,-1,-1,-1,-1,-1,-1,-1,-1,-1,-1,-1,-1,-1,-1,-1,-1,-1,-1,-1],"loss_changes":[8.51605E3,3.7640408E3,3.99112E3,1.1288071E3,2.9884355E3,1.9780293E3,6.807855E2,8.003818E2,9.9184375E2,2.6673176E3,1.4310061E3,6.2488965E2,1.088105E3,6.4663165E2,2.5556268E2,1.8762598E2,4.9147223E2,7.739873E2,8.6929834E2,1.4900107E3,1.1881709E3,6.652444E2,4.5506995E2,5.513042E2,4.0824292E2,1.1216199E2,2.1943794E3,7.3387646E2,5.0454065E2,1.5006677E2,5.1921375E2,0E0,0E0,0E0,0E0,0E0,0E0,0E0,0E0,0E0,0E0,0E0,0E0,0E0,0E0,0E0,0E0,0E0,0E0,0E0,0E0,0E0,0E0,0E0,0E0,0E0,0E0,0E0,0E0,0E0,0E0,0E0,0E0],"parents":[2147483647,0,0,1,1,2,2,3,3,4,4,5,5,6,6,7,7,8,8,9,9,10,10,11,11,12,12,13,13,14,14,15,15,16,16,17,17,18,18,19,19,20,20,21,21,22,22,23,23,24,24,25,25,26,26,27,27,28,28,29,29,30,30],"right_children":[2,4,6,8,10,12,14,16,18,20,22,24,26,28,30,32,34,36,38,40,42,44,46,48,50,52,54,56,58,60,62,-1,-1,-1,-1,-1,-1,-1,-1,-1,-1,-1,-1,-1,-1,-1,-1,-1,-1,-1,-1,-1,-1,-1,-1,-1,-1,-1,-1,-1,-1,-1,-1],"split_conditions":[8.904468E0,4.325476E0,1.73E1,1.37E1,1E-1,9.9E0,2.14E1,5.1E0,1.97E1,1.75E1,2.26E1,1.618711E1,1.06E2,2.29E1,7.3E1,1.123278E0,1.22E1,1.89E1,7E0,8.6E1,2.1E1,1.09E1,1.5E1,5.354104E0,1.21E1,2.16E1,1.26E2,1.05E1,2.02E2,2.3E1,3.55E2,5.4489315E-1,1.8881007E-1,2.3484077E-2,-1.5936166E-2,-2.7699048E-2,-5.6744296E-2,-2.888476E-2,2.2409733E-2,-1.3501604E-2,5.5794545E-2,-1.6257001E-2,3.3862203E-2,2.3185454E-2,-1.8555528E-2,-2.7478162E-2,3.930332E-2,1.2753753E-1,2.5535658E-1,3.9899802E-1,1.8803702E-1,-4.5398075E-2,1.7259536E-2,2.1605997E-1,6.5371916E-2,1.0039192E-1,1.09044295E-2,-5.4157335E-2,1.1998473E-2,1.7736569E-3,6.992047E-2,1.356533E-1,-1.40521815E-2],"split_indices":[1,1,7,7,8,6,6,6,6,7,6,1,4,7,4,1,6,7,3,4,6,7,4,2,7,6,4,6,4,7,4,0,0,0,0,0,0,0,0,0,0,0,0,0,0,0,0,0,0,0,0,0,0,0,0,0,0,0,0,0,0,0,0],"split_type":[0,0,0,0,0,0,0,0,0,0,0,0,0,0,0,0,0,0,0,0,0,0,0,0,0,0,0,0,0,0,0,0,0,0,0,0,0,0,0,0,0,0,0,0,0,0,0,0,0,0,0,0,0,0,0,0,0,0,0,0,0,0,0],"sum_hessian":[5.1741E4,4.5304E4,6.437E3,1.6798E4,2.8506E4,3.055E3,3.382E3,3.928E3,1.287E4,1.1912E4,1.6594E4,7.1E2,2.345E3,2.757E3,6.25E2,2.9E1,3.899E3,9.181E3,3.689E3,6.153E3,5.759E3,1.4583E4,2.011E3,6.12E2,9.8E1,2.88E2,2.057E3,1.603E3,1.154E3,3.25E2,3E2,4E0,2.5E1,1.101E3,2.798E3,4.585E3,4.596E3,2.442E3,1.247E3,9.1E2,5.243E3,4.098E3,1.661E3,1.026E3,1.3557E4,2.99E2,1.712E3,5.1E2,1.02E2,4.4E1,5.4E1,1.61E2,1.27E2,2.79E2,1.778E3,2.76E2,1.327E3,6.05E2,5.49E2,1.78E2,1.47E2,2.22E2,7.8E1],"tree_param":{"num_deleted":"0","num_feature":"9","num_nodes":"63","size_leaf_vector":"1"}},{"base_weights":[-4.481192E-3,-1.5295914E-1,1.0288897E0,-4.6597165E-1,9.871586E-2,1.7697715E0,3.6097783E-1,1.7925456E-1,-5.533297E-1,3.3780324E-1,-3.6006773E-1,2.4022057E0,6.9787586E-1,-1.640069E-1,9.406819E-1,3.9093003E0,1.1007508E-1,-1.0103441E0,-4.2619625E-1,1.0378059E0,1.0579129E-1,-4.8269194E-1,2.3332891E-1,4.295236E0,2.019084E0,4.5308474E-1,2.117591E0,1.500706E-1,-1.3580676E0,4.3010864E-1,1.4239663E0,1.3050064E-1,3.578283E-1,2.5836516E-2,-1.8776728E-2,-4.593558E-2,-8.674869E-2,-2.7205894E-2,-5.147892E-4,7.254232E-2,6.8896795E-3,-1.2065057E-3,5.681163E-2,-4.0736172E-2,-1.3310243E-2,2.6906247E-3,4.60943E-2,1.7806333E-1,3.1240812E-1,-1.9774368E-2,1.1381467E-1,-3.602311E-2,3.3097673E-2,1.5887111E0,8.759655E-2,5.997431E-2,-1.45968795E-2,-9.6048884E-2,-2.715367E-2,4.8468574E-3,6.0541727E-2,6.1811E-1,5.981472E-2],"categories":[],"categories_nodes":[],"categories_segments":[],"categories_sizes":[],"default_left":[0,0,0,0,0,0,0,0,0,0,0,0,0,0,0,0,0,0,0,0,0,0,0,0,0,0,0,0,0,0,0,0,0,0,0,0,0,0,0,0,0,0,0,0,0,0,0,0,0,0,0,0,0,0,0,0,0,0,0,0,0,0,0],"id":18,"left_children":[1,3,5,7,9,11,13,15,17,19,21,23,25,27,29,31,33,35,37,39,41,43,45,47,49,51,53,55,57,59,61,-1,-1,-1,-1,-1,-1,-1,-1,-1,-1,-1,-1,-1,-1,-1,-1,-1,-1,-1,-1,-1,-1,-1,-1,-1,-1,-1,-1,-1,-1,-1,-1],"loss_changes":[7.9811167E3,3.5830007E3,3.2331646E3,1.142689E3,2.7656099E3,2.0984688E3,1.0464608E3,6.235167E2,1.0369199E3,2.6918193E3,6.28655E2,1.4041348E3,3.9905176E2,6.7712866E2,4.0258044E2,1.6696307E2,4.6919882E2,2.563689E2,6.8513403E2,1.5336055E3,1.6667886E3,5.14376E2,1.828892E2,4.464668E2,1.00824316E3,2.4142719E2,1.7770101E3,6.63656E2,1.7145374E2,2.0693465E2,2.0745962E3,0E0,0E0,0E0,0E0,0E0,0E0,0E0,0E0,0E0,0E0,0E0,0E0,0E0,0E0,0E0,0E0,0E0,0E0,0E0,0E0,0E0,0E0,0E0,0E0,0E0,0E0,0E0,0E0,0E0,0E0,0E0,0E0],"parents":[2147483647,0,0,1,1,2,2,3,3,4,4,5,5,6,6,7,7,8,8,9,9,10,10,11,11,12,12,13,13,14,14,15,15,16,16,17,17,18,18,19,19,20,20,21,21,22,22,23,23,24,24,25,25,26,26,27,27,28,28,29,29,30,30],"right_children":[2,4,6,8,10,12,14,16,18,20,22,24,26,28,30,32,34,36,38,40,42,44,46,48,50,52,54,56,58,60,62,-1,-1,-1,-1,-1,-1,-1,-1,-1,-1,-1,-1,-1,-1,-1,-1,-1,-1,-1,-1,-1,-1,-1,-1,-1,-1,-1,-1,-1,-1,-1,-1],"split_conditions":[8.904468E0,4.654569E0,1.73E1,1.17E1,9E-1,2E-1,1.59E1,6.2E0,2.788583E0,1.4E1,2.18E1,8.2E0,1.600075E1,2.79E1,2.32E2,1.97E2,1.53E1,7.9E0,2.09E1,1.63E1,2.35E1,1.33E2,2.39E1,1.4645792E1,1.14E2,1E0,6.9E0,1.05E1,2.02E2,2.26E1,2.35E2,1.3050064E-1,3.578283E-1,2.5836516E-2,-1.8776728E-2,-4.593558E-2,-8.674869E-2,-2.7205894E-2,-5.147892E-4,7.254232E-2,6.8896795E-3,-1.2065057E-3,5.681163E-2,-4.0736172E-2,-1.3310243E-2,2.6906247E-3,4.60943E-2,1.7806333E-1,3.1240812E-1,-1.9774368E-2,1.1381467E-1,-3.602311E-2,3.3097673E-2,1.5887111E0,8.759655E-2,5.997431E-2,-1.45968795E-2,-9.6048884E-2,-2.715367E-2,4.8468574E-3,6.0541727E-2,6.1811E-1,5.981472E-2],"split_indices":[1,1,7,7,8,8,6,6,1,7,6,6,0,7,4,4,6,8,6,6,6,4,7,0,4,5,7,6,4,6,4,0,0,0,0,0,0,0,0,0,0,0,0,0,0,0,0,0,0,0,0,0,0,0,0,0,0,0,0,0,0,0,0],"split_type":[0,0,0,0,0,0,0,0,0,0,0,0,0,0,0,0,0,0,0,0,0,0,0,0,0,0,0,0,0,0,0,0,0,0,0,0,0,0,0,0,0,0,0,0,0,0,0,0,0,0,0,0,0,0,0,0,0,0,0,0,0,0,0],"sum_hessian":[5.2015E4,4.5481E4,6.534E3,2.027E4,2.5211E4,3.097E3,3.437E3,2.417E3,1.7853E4,1.6574E4,8.637E3,1.947E3,1.15E3,1.804E3,1.633E3,4.3E1,2.374E3,3.884E3,1.3969E4,4.125E3,1.2449E4,7.158E3,1.479E3,3.26E2,1.621E3,9.82E2,1.68E2,1.429E3,3.75E2,7.95E2,8.38E2,3.2E1,1.1E1,1.292E3,1.082E3,3.45E3,4.34E2,1.0883E4,3.086E3,2.827E3,1.298E3,1.1056E4,1.393E3,2.824E3,4.334E3,1.174E3,3.05E2,2.39E2,8.7E1,1.56E2,1.465E3,1.48E2,8.34E2,1E0,1.67E2,4.23E2,1.006E3,2.21E2,1.54E2,5.58E2,2.37E2,1.6E1,8.22E2],"tree_param":{"num_deleted":"0","num_feature":"9","num_nodes":"63","size_leaf_vector":"1"}},{"base_weights":[-1.2224839E-3,-3.310447E-1,3.9283854E-1,4.1638622E-1,-4.1311625E-1,8.8977736E-1,8.4907375E-4,9.634482E-1,-2.009902E-1,-8.7196356E-1,-2.9602334E-1,1.8934429E0,5.155173E-1,-6.85611E-2,1.2776484E0,1.1117384E0,-1.1178534E0,-4.944868E-2,-8.001075E-1,-7.8513837E-1,-1.5369855E0,-7.3400185E-2,-5.513046E-1,2.1612663E0,-6.73934E-1,2.1073174E0,4.046288E-1,1.306261E-1,-4.2686912E-1,3.3815444E-1,1.6872205E0,5.217102E-2,3.441726E-1,-8.6019106E-2,-3.6526587E-2,-4.693716E-2,4.768748E-3,-6.335195E-2,-2.0833619E-2,7.288056E-2,-4.053718E-2,-1.3549486E-2,-8.3388604E-2,5.791577E-3,-1.8297667E-2,-3.8941722E-2,-1.3564524E-2,9.969648E-2,4.3836543E-1,-6.322294E-2,1.9863045E-2,8.81057E-2,2.443728E-1,-8.300881E-3,3.1920347E-2,1.911197E-2,-8.051203E-3,1.5543005E-1,-2.2851916E-2,1.2848035E-1,1.0025593E-2,3.1513456E-1,7.3500656E-2],"categories":[],"categories_nodes":[],"categories_segments":[],"categories_sizes":[],"default_left":[0,0,0,0,0,0,0,0,0,0,0,0,0,0,0,0,0,0,0,0,0,0,0,0,0,0,0,0,0,0,0,0,0,0,0,0,0,0,0,0,0,0,0,0,0,0,0,0,0,0,0,0,0,0,0,0,0,0,0,0,0,0,0],"id":19,"left_children":[1,3,5,7,9,11,13,15,17,19,21,23,25,27,29,31,33,35,37,39,41,43,45,47,49,51,53,55,57,59,61,-1,-1,-1,-1,-1,-1,-1,-1,-1,-1,-1,-1,-1,-1,-1,-1,-1,-1,-1,-1,-1,-1,-1,-1,-1,-1,-1,-1,-1,-1,-1,-1],"loss_changes":[6.738558E3,1.7315115E3,4.601637E3,9.435105E2,1.3661465E3,3.9119814E3,1.1705298E3,4.5833374E2,1.1916922E2,2.973125E2,1.1515363E3,1.9466865E3,1.3386992E3,8.9411237E2,2.614718E2,5.3815173E2,2.1847076E1,1.3519115E2,4.6917114E1,2.6390552E2,9.8230835E1,5.99318E2,6.011621E2,2.8146396E3,1.7003029E2,4.6548608E2,9.467455E2,5.90942E2,4.7884094E2,6.337047E1,4.659264E2,0E0,0E0,0E0,0E0,0E0,0E0,0E0,0E0,0E0,0E0,0E0,0E0,0E0,0E0,0E0,0E0,0E0,0E0,0E0,0E0,0E0,0E0,0E0,0E0,0E0,0E0,0E0,0E0,0E0,0E0,0E0,0E0],"parents":[2147483647,0,0,1,1,2,2,3,3,4,4,5,5,6,6,7,7,8,8,9,9,10,10,11,11,12,12,13,13,14,14,15,15,16,16,17,17,18,18,19,19,20,20,21,21,22,22,23,23,24,24,25,25,26,26,27,27,28,28,29,29,30,30],"right_children":[2,4,6,8,10,12,14,16,18,20,22,24,26,28,30,32,34,36,38,40,42,44,46,48,50,52,54,56,58,60,62,-1,-1,-1,-1,-1,-1,-1,-1,-1,-1,-1,-1,-1,-1,-1,-1,-1,-1,-1,-1,-1,-1,-1,-1,-1,-1,-1,-1,-1,-1,-1,-1],"split_conditions":[5.5254025E0,1.13E1,1E-1,1.49E1,3.0242083E0,1.33E1,2.38E1,2.58E2,3.5E0,7.9E0,3E-1,2.59E2,9E0,2.9E0,3.5E1,2.55E2,2E0,2.170125E0,9.494856E-1,5.7E0,3.3E1,1.92E1,1.89E1,2.55E2,1.84E1,1.8215046E1,1.33E1,1.79E1,7.6E0,1.25E1,3.7E1,5.217102E-2,3.441726E-1,-8.6019106E-2,-3.6526587E-2,-4.693716E-2,4.768748E-3,-6.335195E-2,-2.0833619E-2,7.288056E-2,-4.053718E-2,-1.3549486E-2,-8.3388604E-2,5.791577E-3,-1.8297667E-2,-3.8941722E-2,-1.3564524E-2,9.969648E-2,4.3836543E-1,-6.322294E-2,1.9863045E-2,8.81057E-2,2.443728E-1,-8.300881E-3,3.1920347E-2,1.911197E-2,-8.051203E-3,1.5543005E-1,-2.2851916E-2,1.2848035E-1,1.0025593E-2,3.1513456E-1,7.3500656E-2],"split_indices":[1,7,8,6,1,7,6,4,8,8,8,4,6,8,4,4,5,0,2,6,4,7,6,4,6,0,6,7,7,7,4,0,0,0,0,0,0,0,0,0,0,0,0,0,0,0,0,0,0,0,0,0,0,0,0,0,0,0,0,0,0,0,0],"split_type":[0,0,0,0,0,0,0,0,0,0,0,0,0,0,0,0,0,0,0,0,0,0,0,0,0,0,0,0,0,0,0,0,0,0,0,0,0,0,0,0,0,0,0,0,0,0,0,0,0,0,0,0,0,0,0,0,0,0,0,0,0,0,0],"sum_hessian":[5.1845E4,2.8223E4,2.3622E4,2.792E3,2.5431E4,1.0416E4,1.3206E4,1.48E3,1.312E3,5.169E3,2.0262E4,2.828E3,7.588E3,1.2526E4,6.8E2,1.382E3,9.8E1,1.048E3,2.64E2,4.574E3,5.95E2,1.0824E4,9.438E3,2.561E3,2.67E2,4.93E2,7.095E3,8.051E3,4.475E3,2.07E2,4.73E2,1.367E3,1.5E1,3.7E1,6.1E1,1.46E2,9.02E2,1.18E2,1.46E2,5.1E1,4.523E3,5.6E1,5.39E2,6.573E3,4.251E3,5.206E3,4.232E3,2.499E3,6.2E1,1.72E2,9.5E1,4.4E2,5.3E1,2.062E3,5.033E3,4.322E3,3.729E3,3.7E1,4.438E3,1.1E1,1.96E2,2E1,4.53E2],"tree_param":{"num_deleted":"0","num_feature":"9","num_nodes":"63","size_leaf_vector":"1"}},{"base_weights":[-2.8987E-3,-3.1627434E-1,4.1235188E-1,-4.538919E-2,-5.098239E-1,8.9476216E-1,3.2103304E-2,2.0618258E-1,-4.409018E-1,-9.6223634E-1,-4.0863118E-1,2.1153135E0,6.2945867E-1,-6.608552E-2,8.1561285E-1,-2.6285866E-1,4.3777964E-1,-8.3649105E-1,4.9310096E-2,-1.4666806E0,-8.333838E-1,-4.5874372E-1,5.1360154E-1,2.5591853E0,3.5637313E-1,5.261467E-1,3.024474E0,1.9956872E-1,-3.3758703E-1,5.7443655E-1,2.0487127E0,2.0693968E-1,-1.7093297E-2,3.0601496E-2,-1.5934506E-2,-3.328691E-2,-6.738727E-2,-1.9256985E-2,2.4348551E-2,6.314777E-2,-7.648721E-2,-3.8814552E-2,-9.0516664E-2,-2.1317212E-2,-6.7555174E-2,2.1428194E-2,1.9196661E-1,1.8121395E-1,9.508706E-2,2.8153672E-3,4.4642806E-1,3.9050817E-2,1.3884857E-3,2.4072535E-1,7.423763E-2,2.8115097E-2,-2.2092393E-2,-4.2012718E-2,1.6754864E-3,3.3652067E-2,-6.0978275E-2,6.198125E-2,3.4701765E-1],"categories":[],"categories_nodes":[],"categories_segments":[],"categories_sizes":[],"default_left":[0,0,0,0,0,0,0,0,0,0,0,0,0,0,0,0,0,0,0,0,0,0,0,0,0,0,0,0,0,0,0,0,0,0,0,0,0,0,0,0,0,0,0,0,0,0,0,0,0,0,0,0,0,0,0,0,0,0,0,0,0,0,0],"id":20,"left_children":[1,3,5,7,9,11,13,15,17,19,21,23,25,27,29,31,33,35,37,39,41,43,45,47,49,51,53,55,57,59,61,-1,-1,-1,-1,-1,-1,-1,-1,-1,-1,-1,-1,-1,-1,-1,-1,-1,-1,-1,-1,-1,-1,-1,-1,-1,-1,-1,-1,-1,-1,-1,-1],"loss_changes":[6.7522856E3,1.550428E3,4.0937087E3,1.2264259E3,7.8923486E2,3.1840508E3,9.6024066E2,8.185227E2,9.293182E2,2.036543E2,6.5173413E2,1.3700742E3,1.9981685E3,8.0008374E2,4.1220154E2,8.6769147E2,6.650703E2,2.3061731E2,4.072809E2,1.1210217E2,1.3876147E2,3.8600635E2,2.0395926E2,9.7484375E2,9.1263556E2,9.842654E2,9.1340674E2,1.3047905E3,1.0233769E3,2.0672913E2,8.898093E2,0E0,0E0,0E0,0E0,0E0,0E0,0E0,0E0,0E0,0E0,0E0,0E0,0E0,0E0,0E0,0E0,0E0,0E0,0E0,0E0,0E0,0E0,0E0,0E0,0E0,0E0,0E0,0E0,0E0,0E0,0E0,0E0],"parents":[2147483647,0,0,1,1,2,2,3,3,4,4,5,5,6,6,7,7,8,8,9,9,10,10,11,11,12,12,13,13,14,14,15,15,16,16,17,17,18,18,19,19,20,20,21,21,22,22,23,23,24,24,25,25,26,26,27,27,28,28,29,29,30,30],"right_children":[2,4,6,8,10,12,14,16,18,20,22,24,26,28,30,32,34,36,38,40,42,44,46,48,50,52,54,56,58,60,62,-1,-1,-1,-1,-1,-1,-1,-1,-1,-1,-1,-1,-1,-1,-1,-1,-1,-1,-1,-1,-1,-1,-1,-1,-1,-1,-1,-1,-1,-1,-1,-1],"split_conditions":[5.694627E0,1E-1,1E-1,1.88E1,2.9929843E0,1.17E1,2.26E1,3.4468613E0,1.79E1,1.9101677E0,2.4E1,2.28E2,1.6904207E1,1.79E1,2.54E1,5.7E0,2.83E2,2.62E1,2.47E2,7.1E0,2.23E1,2.46E1,3.17E1,1.03E1,1.6904207E1,2.07E1,1.74E1,1.68E1,1.57E1,3.58E2,3.53E2,2.0693968E-1,-1.7093297E-2,3.0601496E-2,-1.5934506E-2,-3.328691E-2,-6.738727E-2,-1.9256985E-2,2.4348551E-2,6.314777E-2,-7.648721E-2,-3.8814552E-2,-9.0516664E-2,-2.1317212E-2,-6.7555174E-2,2.1428194E-2,1.9196661E-1,1.8121395E-1,9.508706E-2,2.8153672E-3,4.4642806E-1,3.9050817E-2,1.3884857E-3,2.4072535E-1,7.423763E-2,2.8115097E-2,-2.2092393E-2,-4.2012718E-2,1.6754864E-3,3.3652067E-2,-6.0978275E-2,6.198125E-2,3.4701765E-1],"split_indices":[1,8,8,7,1,7,6,1,6,1,6,4,0,7,6,6,4,7,4,6,8,8,7,6,0,7,7,6,6,4,4,0,0,0,0,0,0,0,0,0,0,0,0,0,0,0,0,0,0,0,0,0,0,0,0,0,0,0,0,0,0,0,0],"split_type":[0,0,0,0,0,0,0,0,0,0,0,0,0,0,0,0,0,0,0,0,0,0,0,0,0,0,0,0,0,0,0,0,0,0,0,0,0,0,0,0,0,0,0,0,0,0,0,0,0,0,0,0,0,0,0,0,0,0,0,0,0,0,0],"sum_hessian":[5.1887E4,2.9571E4,2.2316E4,1.2324E4,1.7247E4,9.836E3,1.248E4,7.533E3,4.791E3,3.151E3,1.4096E4,1.755E3,8.081E3,1.1091E4,1.389E3,2.49E3,5.043E3,2.651E3,2.14E3,6.39E2,2.512E3,1.337E4,7.26E2,1.401E3,3.54E2,7.748E3,3.33E2,5.606E3,5.485E3,1.163E3,2.26E2,4.3E1,2.447E3,4.099E3,9.44E2,1.989E3,6.62E2,1.074E3,1.066E3,1.4E1,6.25E2,2.375E3,1.37E2,1.2903E4,4.67E2,7.09E2,1.7E1,5.33E2,8.68E2,3.43E2,1.1E1,5.126E3,2.622E3,1.53E2,1.8E2,3.581E3,2.025E3,2.329E3,3.156E3,1.103E3,6E1,1.95E2,3.1E1],"tree_param":{"num_deleted":"0","num_feature":"9","num_nodes":"63","size_leaf_vector":"1"}},{"base_weights":[1.8542046E-3,-1.2747586E-1,9.0491563E-1,6.79254E-1,-2.1022534E-1,1.5881703E0,2.847489E-1,1.7381903E0,1.6886841E-1,-5.568611E-1,-3.3389647E-2,2.259437E0,7.0651E-1,-1.775018E-1,7.7794266E-1,8.522635E-1,2.5358164E0,6.4313763E-1,-3.193609E-1,-9.3575144E-1,-4.0598798E-1,1.4129896E-1,-3.7732145E-1,1.7460979E0,3.8818798E0,1.0164688E0,-2.2085659E-1,9.5717065E-2,-1.2477492E0,8.9560956E-1,-7.704442E-1,2.1833362E-2,8.276402E-2,1.395442E-1,-2.7375111E-2,4.3789785E-2,-5.9045404E-2,9.13412E-3,-3.0370558E-2,3.5488795E-2,-4.8754193E-2,-2.1394644E-2,1.8072926E-1,4.2955666E-3,5.9120376E-2,-2.6734248E-2,2.3577248E-3,1.08642064E-1,1.2041527E-2,1.5702462E-1,4.379188E-1,1.3196018E-1,3.9227404E-2,-4.6898637E-2,4.542541E-2,5.08341E-2,-1.8763883E-2,-4.5250084E-2,-8.667819E-2,1.9825451E-2,7.383143E-2,-3.1234756E-2,-1.3390942E-1],"categories":[],"categories_nodes":[],"categories_segments":[],"categories_sizes":[],"default_left":[0,0,0,0,0,0,0,0,0,0,0,0,0,0,0,0,0,0,0,0,0,0,0,0,0,0,0,0,0,0,0,0,0,0,0,0,0,0,0,0,0,0,0,0,0,0,0,0,0,0,0,0,0,0,0,0,0,0,0,0,0,0,0],"id":21,"left_children":[1,3,5,7,9,11,13,15,17,19,21,23,25,27,29,31,33,35,37,39,41,43,45,47,49,51,53,55,57,59,61,-1,-1,-1,-1,-1,-1,-1,-1,-1,-1,-1,-1,-1,-1,-1,-1,-1,-1,-1,-1,-1,-1,-1,-1,-1,-1,-1,-1,-1,-1,-1,-1],"loss_changes":[6.0591025E3,3.0295518E3,2.7533804E3,2.2815532E3,2.5229282E3,1.8283394E3,7.7709106E2,9.680532E2,6.60129E2,7.944331E2,1.6376202E3,1.4548975E3,3.8482642E2,5.1476416E2,3.011277E2,2.1686972E2,5.6934814E2,6.1468634E2,2.032932E2,2.5692847E2,8.7749255E2,1.0422427E3,6.132888E2,8.5703076E2,1.4945664E3,3.754043E2,2.7297375E2,6.089604E2,5.8042297E1,4.4396436E2,3.0859024E1,0E0,0E0,0E0,0E0,0E0,0E0,0E0,0E0,0E0,0E0,0E0,0E0,0E0,0E0,0E0,0E0,0E0,0E0,0E0,0E0,0E0,0E0,0E0,0E0,0E0,0E0,0E0,0E0,0E0,0E0,0E0,0E0],"parents":[2147483647,0,0,1,1,2,2,3,3,4,4,5,5,6,6,7,7,8,8,9,9,10,10,11,11,12,12,13,13,14,14,15,15,16,16,17,17,18,18,19,19,20,20,21,21,22,22,23,23,24,24,25,25,26,26,27,27,28,28,29,29,30,30],"right_children":[2,4,6,8,10,12,14,16,18,20,22,24,26,28,30,32,34,36,38,40,42,44,46,48,50,52,54,56,58,60,62,-1,-1,-1,-1,-1,-1,-1,-1,-1,-1,-1,-1,-1,-1,-1,-1,-1,-1,-1,-1,-1,-1,-1,-1,-1,-1,-1,-1,-1,-1,-1,-1],"split_conditions":[8.904468E0,1.11E1,1.73E1,1.2E1,4.1766524E0,1E-1,1.58E1,1.4595903E0,1.63E1,2.788583E0,1E0,1.4151792E1,1.75E1,2.79E1,3.55E2,4.896958E0,2.32E2,2.65E2,1E-1,7.1E0,2.83E1,2.47E1,2.09E1,2.32E2,2.56E2,1.26E2,2.16E1,1.1E1,1.1545694E1,2.32E2,3.63E2,2.1833362E-2,8.276402E-2,1.395442E-1,-2.7375111E-2,4.3789785E-2,-5.9045404E-2,9.13412E-3,-3.0370558E-2,3.5488795E-2,-4.8754193E-2,-2.1394644E-2,1.8072926E-1,4.2955666E-3,5.9120376E-2,-2.6734248E-2,2.3577248E-3,1.08642064E-1,1.2041527E-2,1.5702462E-1,4.379188E-1,1.3196018E-1,3.9227404E-2,-4.6898637E-2,4.542541E-2,5.08341E-2,-1.8763883E-2,-4.5250084E-2,-8.667819E-2,1.9825451E-2,7.383143E-2,-3.1234756E-2,-1.3390942E-1],"split_indices":[1,7,7,6,1,8,6,2,6,1,8,0,6,7,4,0,4,4,8,6,6,6,6,4,4,4,6,6,1,4,4,0,0,0,0,0,0,0,0,0,0,0,0,0,0,0,0,0,0,0,0,0,0,0,0,0,0,0,0,0,0,0,0],"split_type":[0,0,0,0,0,0,0,0,0,0,0,0,0,0,0,0,0,0,0,0,0,0,0,0,0,0,0,0,0,0,0,0,0,0,0,0,0,0,0,0,0,0,0,0,0,0,0,0,0,0,0,0,0,0,0,0,0,0,0,0,0,0,0],"sum_hessian":[5.1877E4,4.5379E4,6.498E3,4.221E3,4.1158E4,3.091E3,3.407E3,1.372E3,2.849E3,1.3903E4,2.7255E4,1.754E3,1.337E3,1.759E3,1.648E3,6.51E2,7.21E2,1.445E3,1.404E3,3.958E3,9.945E3,1.8075E4,9.18E3,1.334E3,4.2E2,1.002E3,3.35E2,1.402E3,3.57E2,1.532E3,1.16E2,4.3E2,2.21E2,6.66E2,5.5E1,1.282E3,1.63E2,5.12E2,8.92E2,9.2E1,3.866E3,9.892E3,5.3E1,1.7163E4,9.12E2,6.697E3,2.483E3,1.039E3,2.95E2,3.66E2,5.4E1,1.24E2,8.78E2,2.05E2,1.3E2,4.74E2,9.28E2,2.11E2,1.46E2,8.25E2,7.07E2,1.09E2,7E0],"tree_param":{"num_deleted":"0","num_feature":"9","num_nodes":"63","size_leaf_vector":"1"}},{"base_weights":[-3.2272341E-3,-1.22614786E-1,8.336119E-1,3.8353783E-1,-2.4521509E-1,1.6859466E0,3.7368414E-1,1.5638881E0,1.3751192E-1,-3.249418E-1,5.49109E-1,1.4072514E0,3.5085676E0,-1.0689706E-1,8.975732E-1,9.039293E-1,2.9353096E0,-4.76423E-1,3.6992323E-1,-6.1200607E-1,-1.4165434E-1,-5.045457E-1,7.323858E-1,1.7906848E0,9.474814E-2,1.5819112E1,2.850642E0,8.195667E-2,-8.088782E-1,1.5068402E0,1.315679E-1,6.0699876E-2,-7.081418E-2,1.6630584E-1,1.0134659E-2,-3.6222804E-2,1.8642133E-2,3.1939995E-2,-2.3241803E-2,-5.9147388E-2,-2.5809178E-2,-3.2216508E-3,-3.1171475E-2,-3.240836E-2,9.103509E-2,4.057672E-2,-5.1031392E-2,9.8501645E-2,-4.7837194E-2,3.2641086E-1,-3.3890735E-3,2.2754903E-1,1.4023417E0,1.2269765E-1,3.6400005E-1,7.084501E-2,-2.9420268E-3,-4.7006954E-2,6.366526E-2,4.9100187E-2,1.9580893E-1,-3.7052933E-2,5.460871E-2],"categories":[],"categories_nodes":[],"categories_segments":[],"categories_sizes":[],"default_left":[0,0,0,0,0,0,0,0,0,0,0,0,0,0,0,0,0,0,0,0,0,0,0,0,0,0,0,0,0,0,0,0,0,0,0,0,0,0,0,0,0,0,0,0,0,0,0,0,0,0,0,0,0,0,0,0,0,0,0,0,0,0,0],"id":22,"left_children":[1,3,5,7,9,11,13,15,17,19,21,23,25,27,29,31,33,35,37,39,41,43,45,47,49,51,53,55,57,59,61,-1,-1,-1,-1,-1,-1,-1,-1,-1,-1,-1,-1,-1,-1,-1,-1,-1,-1,-1,-1,-1,-1,-1,-1,-1,-1,-1,-1,-1,-1,-1,-1],"loss_changes":[5.1765444E3,2.8138918E3,2.5352983E3,2.5674731E3,2.3118708E3,1.1465986E3,1.0582903E3,1.3775967E3,1.0443481E3,1.7453728E3,6.434273E2,9.9024146E2,2.384732E3,2.9079614E2,9.383391E2,7.434457E2,5.279492E2,4.2366858E2,1.1918875E3,7.066133E2,7.532527E2,1.6615416E2,3.9445764E2,7.523369E2,4.6679312E2,1.9391135E3,4.8465942E2,3.250598E2,1.2828586E2,1.4124045E3,7.485289E2,0E0,0E0,0E0,0E0,0E0,0E0,0E0,0E0,0E0,0E0,0E0,0E0,0E0,0E0,0E0,0E0,0E0,0E0,0E0,0E0,0E0,0E0,0E0,0E0,0E0,0E0,0E0,0E0,0E0,0E0,0E0,0E0],"parents":[2147483647,0,0,1,1,2,2,3,3,4,4,5,5,6,6,7,7,8,8,9,9,10,10,11,11,12,12,13,13,14,14,15,15,16,16,17,17,18,18,19,19,20,20,21,21,22,22,23,23,24,24,25,25,26,26,27,27,28,28,29,29,30,30],"right_children":[2,4,6,8,10,12,14,16,18,20,22,24,26,28,30,32,34,36,38,40,42,44,46,48,50,52,54,56,58,60,62,-1,-1,-1,-1,-1,-1,-1,-1,-1,-1,-1,-1,-1,-1,-1,-1,-1,-1,-1,-1,-1,-1,-1,-1,-1,-1,-1,-1,-1,-1,-1,-1],"split_conditions":[8.904468E0,1.32E1,1.5E1,1.07E1,2.34E1,1.6904207E1,2.02E2,2.203643E0,1.04E2,4.408851E0,1.5E1,9E-1,1.09178E1,5.3E0,2.64E2,2.28E2,2.24E2,2.26E1,2.61E2,2.3991947E0,3.18E2,3.1E1,3.59E2,2.62E2,6.9E0,1.0135875E1,8.4E0,8E0,1.9E2,1.3689694E1,1.9E1,6.0699876E-2,-7.081418E-2,1.6630584E-1,1.0134659E-2,-3.6222804E-2,1.8642133E-2,3.1939995E-2,-2.3241803E-2,-5.9147388E-2,-2.5809178E-2,-3.2216508E-3,-3.1171475E-2,-3.240836E-2,9.103509E-2,4.057672E-2,-5.1031392E-2,9.8501645E-2,-4.7837194E-2,3.2641086E-1,-3.3890735E-3,2.2754903E-1,1.4023417E0,1.2269765E-1,3.6400005E-1,7.084501E-2,-2.9420268E-3,-4.7006954E-2,6.366526E-2,4.9100187E-2,1.9580893E-1,-3.7052933E-2,5.460871E-2],"split_indices":[1,7,7,6,6,0,4,2,4,1,4,8,1,8,4,4,4,6,4,1,4,7,4,4,7,1,8,6,4,1,6,0,0,0,0,0,0,0,0,0,0,0,0,0,0,0,0,0,0,0,0,0,0,0,0,0,0,0,0,0,0,0,0],"split_type":[0,0,0,0,0,0,0,0,0,0,0,0,0,0,0,0,0,0,0,0,0,0,0,0,0,0,0,0,0,0,0,0,0,0,0,0,0,0,0,0,0,0,0,0,0,0,0,0,0,0,0,0,0,0,0,0,0,0,0,0,0,0,0],"sum_hessian":[5.1811E4,4.5343E4,6.468E3,8.841E3,3.6502E4,2.266E3,4.202E3,1.524E3,7.317E3,3.3173E4,3.329E3,1.967E3,2.99E2,2.192E3,2.01E3,1.03E3,4.94E2,2.009E3,5.308E3,1.2926E4,2.0247E4,4.93E2,2.836E3,1.522E3,4.45E2,1.4E1,2.85E2,1.728E3,4.64E2,1.119E3,8.91E2,9.09E2,1.21E2,4.32E2,6.2E1,1.555E3,4.54E2,4.015E3,1.293E3,1.856E3,1.107E4,1.7451E4,2.796E3,4.65E2,2.8E1,2.714E3,1.22E2,1.429E3,9.3E1,1E1,4.35E2,8E0,6E0,2.63E2,2.2E1,1.64E2,1.564E3,4.37E2,2.7E1,9.2E2,1.99E2,4.67E2,4.24E2],"tree_param":{"num_deleted":"0","num_feature":"9","num_nodes":"63","size_leaf_vector":"1"}},{"base_weights":[8.962041E-3,-1.092216E-1,8.3983356E-1,3.2572363E-2,-5.3369576E-1,1.4656527E0,2.8917423E-1,6.5596896E-1,-8.516502E-2,-6.725846E-1,-1.407925E-1,1.966108E0,5.1419824E-1,-1.0143673E-1,7.1302974E-1,3.8026518E-1,1.6560138E0,-5.707147E-1,2.7475316E-2,-9.9703777E-1,-4.3939567E-1,-2.2409543E-1,9.3850464E-1,1.4831412E0,3.4277258E0,5.324903E0,4.4831082E-1,8.025029E-1,-4.0853786E-1,5.4590553E-1,1.619635E0,2.5955483E-2,-3.0147461E-2,9.988122E-2,3.948549E-3,-4.0271997E-2,-1.6880007E-2,-2.0960835E-3,3.9721366E-2,-4.0700894E-2,-6.1178524E-2,1.323171E-1,-2.3817575E-2,-1.7689764E-2,9.151764E-3,1.0829009E-1,1.6769221E-2,-3.683954E-2,8.497325E-2,1.1676081E-1,3.640233E-1,5.0887782E-2,1.5329455E0,2.5138238E-1,1.9241547E-2,6.7849256E-2,-3.3387516E-2,-6.725654E-2,-4.0560723E-3,4.3324724E-2,3.936795E-3,1.2916017E-1,1.8869597E-2],"categories":[],"categories_nodes":[],"categories_segments":[],"categories_sizes":[],"default_left":[0,0,0,0,0,0,0,0,0,0,0,0,0,0,0,0,0,0,0,0,0,0,0,0,0,0,0,0,0,0,0,0,0,0,0,0,0,0,0,0,0,0,0,0,0,0,0,0,0,0,0,0,0,0,0,0,0,0,0,0,0,0,0],"id":23,"left_children":[1,3,5,7,9,11,13,15,17,19,21,23,25,27,29,31,33,35,37,39,41,43,45,47,49,51,53,55,57,59,61,-1,-1,-1,-1,-1,-1,-1,-1,-1,-1,-1,-1,-1,-1,-1,-1,-1,-1,-1,-1,-1,-1,-1,-1,-1,-1,-1,-1,-1,-1,-1,-1],"loss_changes":[5.0916226E3,2.7322454E3,2.2247427E3,2.4976853E3,6.202014E2,1.4379458E3,5.6894543E2,1.4898918E3,1.5655331E3,6.349448E2,2.672389E2,1.3926235E3,3.282073E2,4.9695584E2,2.4881372E2,5.789955E2,6.29084E2,2.9465735E2,1.2366967E3,1.4457007E2,5.5866785E2,1.4570035E2,1.5693787E2,7.1678613E2,2.0496934E3,1.4964387E3,2.9748178E2,3.710202E2,4.095832E2,2.0856061E2,3.054535E2,0E0,0E0,0E0,0E0,0E0,0E0,0E0,0E0,0E0,0E0,0E0,0E0,0E0,0E0,0E0,0E0,0E0,0E0,0E0,0E0,0E0,0E0,0E0,0E0,0E0,0E0,0E0,0E0,0E0,0E0,0E0,0E0],"parents":[2147483647,0,0,1,1,2,2,3,3,4,4,5,5,6,6,7,7,8,8,9,9,10,10,11,11,12,12,13,13,14,14,15,15,16,16,17,17,18,18,19,19,20,20,21,21,22,22,23,23,24,24,25,25,26,26,27,27,28,28,29,29,30,30],"right_children":[2,4,6,8,10,12,14,16,18,20,22,24,26,28,30,32,34,36,38,40,42,44,46,48,50,52,54,56,58,60,62,-1,-1,-1,-1,-1,-1,-1,-1,-1,-1,-1,-1,-1,-1,-1,-1,-1,-1,-1,-1,-1,-1,-1,-1,-1,-1,-1,-1,-1,-1,-1,-1],"split_conditions":[8.904468E0,2E0,1.73E1,1.23E1,2.07E1,3E-1,1.58E1,2.355818E0,3.4190693E0,1.54E2,2.49E1,1.4151792E1,6.9E0,1E1,2.35E1,2.59E2,2.32E2,1.65E1,2.39E1,7.6E0,1.55E2,1.61E2,1.61E1,1.14E2,1.5E1,1.1912565E1,6.2E0,2.57E1,1.58E2,2.62E2,3.1729538E0,2.5955483E-2,-3.0147461E-2,9.988122E-2,3.948549E-3,-4.0271997E-2,-1.6880007E-2,-2.0960835E-3,3.9721366E-2,-4.0700894E-2,-6.1178524E-2,1.323171E-1,-2.3817575E-2,-1.7689764E-2,9.151764E-3,1.0829009E-1,1.6769221E-2,-3.683954E-2,8.497325E-2,1.1676081E-1,3.640233E-1,5.0887782E-2,1.5329455E0,2.5138238E-1,1.9241547E-2,6.7849256E-2,-3.3387516E-2,-6.725654E-2,-4.0560723E-3,4.3324724E-2,3.936795E-3,1.2916017E-1,1.8869597E-2],"split_indices":[1,8,7,7,6,8,6,2,1,4,6,0,7,6,6,4,4,6,6,8,4,4,7,4,6,0,6,7,4,4,2,0,0,0,0,0,0,0,0,0,0,0,0,0,0,0,0,0,0,0,0,0,0,0,0,0,0,0,0,0,0,0,0],"split_type":[0,0,0,0,0,0,0,0,0,0,0,0,0,0,0,0,0,0,0,0,0,0,0,0,0,0,0,0,0,0,0,0,0,0,0,0,0,0,0,0,0,0,0,0,0,0,0,0,0,0,0,0,0,0,0,0,0,0,0,0,0,0,0],"sum_hessian":[5.185E4,4.5394E4,6.456E3,3.4028E4,1.1366E4,3.021E3,3.435E3,5.405E3,2.8623E4,8.397E3,2.969E3,1.979E3,1.042E3,1.788E3,1.647E3,4.238E3,1.167E3,5.389E3,2.3234E4,3.51E3,4.887E3,2.757E3,2.12E2,1.489E3,4.9E2,1.3E1,1.029E3,4.53E2,1.335E3,1.392E3,2.55E2,3.714E3,5.24E2,9.59E2,2.08E2,2.684E3,2.705E3,2.1307E4,1.927E3,1.944E3,1.566E3,5.7E1,4.83E3,2.091E3,6.66E2,6.9E1,1.43E2,1.32E2,1.357E3,3.83E2,1.07E2,1.2E1,1E0,1.3E1,1.016E3,3.29E2,1.24E2,3.45E2,9.9E2,8.25E2,5.67E2,1.43E2,1.12E2],"tree_param":{"num_deleted":"0","num_feature":"9","num_nodes":"63","size_leaf_vector":"1"}},{"base_weights":[5.263163E-3,-2.7291253E-1,3.1929106E-1,3.050641E-1,-3.4902588E-1,1.3712746E0,1.987312E-1,7.5569165E-1,-2.3336859E-1,-5.0144476E-1,-8.182226E-2,2.5956686E0,7.7925265E-1,3.720667E-1,-2.3287058E-1,7.0321614E-1,6.7609887E0,-9.2082006E-1,-8.027873E-2,-2.9038623E-1,-9.2424196E-1,-3.7130862E-1,4.5192418E-1,2.2005181E0,5.063351E0,1.4396083E0,-5.207362E-2,7.323503E-1,1.3208139E-1,-3.7192133E-1,5.2756137E-1,4.2815596E-2,-4.640087E-2,5.3601754E-1,1.4651321E-1,-5.4275066E-2,-1.1110929E-2,9.303294E-3,-3.2857317E-2,-6.333317E-3,-3.939791E-2,-6.29546E-2,-3.486311E-2,-1.4431635E-2,-4.83093E-2,1.5182318E-1,8.434499E-3,1.3561633E-1,6.5209614E-3,2.6065442E-1,-1.05740346E-1,9.220372E-3,9.573134E-2,1.2673534E-1,-1.2023233E-2,4.8944127E-2,-1.41222095E-2,-3.6731474E-3,3.893734E-2,-3.1137237E-2,-3.539987E-3,1.6981877E-2,6.669403E-2],"categories":[],"categories_nodes":[],"categories_segments":[],"categories_sizes":[],"default_left":[0,0,0,0,0,0,0,0,0,0,0,0,0,0,0,0,0,0,0,0,0,0,0,0,0,0,0,0,0,0,0,0,0,0,0,0,0,0,0,0,0,0,0,0,0,0,0,0,0,0,0,0,0,0,0,0,0,0,0,0,0,0,0],"id":24,"left_children":[1,3,5,7,9,11,13,15,17,19,21,23,25,27,29,31,33,35,37,39,41,43,45,47,49,51,53,55,57,59,61,-1,-1,-1,-1,-1,-1,-1,-1,-1,-1,-1,-1,-1,-1,-1,-1,-1,-1,-1,-1,-1,-1,-1,-1,-1,-1,-1,-1,-1,-1,-1,-1],"loss_changes":[4.5365156E3,1.211551E3,3.0935457E3,7.7781384E2,9.910071E2,1.8159463E3,1.637495E3,5.451494E2,1.5368439E2,1.382427E3,1.3660566E3,7.8551904E2,9.2893384E2,1.3501057E3,6.633889E2,4.3308575E2,1.9609491E2,3.036116E1,1.838824E2,8.4197736E2,3.9122754E2,2.8163245E2,2.275369E3,7.476487E2,1.3140674E2,5.619048E2,3.6610422E2,1.5621482E3,1.2460343E3,4.0048273E2,1.4652774E2,0E0,0E0,0E0,0E0,0E0,0E0,0E0,0E0,0E0,0E0,0E0,0E0,0E0,0E0,0E0,0E0,0E0,0E0,0E0,0E0,0E0,0E0,0E0,0E0,0E0,0E0,0E0,0E0,0E0,0E0,0E0,0E0],"parents":[2147483647,0,0,1,1,2,2,3,3,4,4,5,5,6,6,7,7,8,8,9,9,10,10,11,11,12,12,13,13,14,14,15,15,16,16,17,17,18,18,19,19,20,20,21,21,22,22,23,23,24,24,25,25,26,26,27,27,28,28,29,29,30,30],"right_children":[2,4,6,8,10,12,14,16,18,20,22,24,26,28,30,32,34,36,38,40,42,44,46,48,50,52,54,56,58,60,62,-1,-1,-1,-1,-1,-1,-1,-1,-1,-1,-1,-1,-1,-1,-1,-1,-1,-1,-1,-1,-1,-1,-1,-1,-1,-1,-1,-1,-1,-1,-1,-1],"split_conditions":[5.457472E0,1.17E1,1.1E1,1.53E1,1.89E1,1.09E1,1.4E0,4.326944E0,2.457333E0,2.07E1,7E0,4.9901423E0,2E-1,1.74E1,2.18E1,2.58E2,8.9E0,7E0,1.8E0,2.72E2,1.35E1,9.7E0,2.85E2,2.19E2,6.6E0,2E0,7.6E0,2.59E2,2.12E1,1.9E2,2.44E1,4.2815596E-2,-4.640087E-2,5.3601754E-1,1.4651321E-1,-5.4275066E-2,-1.1110929E-2,9.303294E-3,-3.2857317E-2,-6.333317E-3,-3.939791E-2,-6.29546E-2,-3.486311E-2,-1.4431635E-2,-4.83093E-2,1.5182318E-1,8.434499E-3,1.3561633E-1,6.5209614E-3,2.6065442E-1,-1.05740346E-1,9.220372E-3,9.573134E-2,1.2673534E-1,-1.2023233E-2,4.8944127E-2,-1.41222095E-2,-3.6731474E-3,3.893734E-2,-3.1137237E-2,-3.539987E-3,1.6981877E-2,6.669403E-2],"split_indices":[1,7,7,6,6,6,8,2,0,7,3,2,8,7,6,4,7,3,8,4,6,8,4,4,8,5,7,4,6,4,6,0,0,0,0,0,0,0,0,0,0,0,0,0,0,0,0,0,0,0,0,0,0,0,0,0,0,0,0,0,0,0,0],"split_type":[0,0,0,0,0,0,0,0,0,0,0,0,0,0,0,0,0,0,0,0,0,0,0,0,0,0,0,0,0,0,0,0,0,0,0,0,0,0,0,0,0,0,0,0,0,0,0,0,0,0,0,0,0,0,0,0,0,0,0,0,0,0,0],"sum_hessian":[5.193E4,2.7537E4,2.4393E4,3.204E3,2.4333E4,2.507E3,2.1886E4,1.744E3,1.46E3,1.5494E4,8.839E3,8.16E2,1.691E3,1.5615E4,6.271E3,1.73E3,1.4E1,2.65E2,1.195E3,1.0336E4,5.158E3,5.731E3,3.108E3,7.05E2,1.11E2,9.42E2,7.49E2,6.242E3,9.373E3,5.302E3,9.69E2,1.582E3,1.48E2,6E0,8E0,2.14E2,5.1E1,8.18E2,3.77E2,7.778E3,2.558E3,2.082E3,3.076E3,5.033E3,6.98E2,3.06E2,2.802E3,5.65E2,1.4E2,1.09E2,2E0,2.59E2,6.83E2,5E1,6.99E2,5.022E3,1.22E3,7.113E3,2.26E3,2.892E3,2.41E3,7.87E2,1.82E2],"tree_param":{"num_deleted":"0","num_feature":"9","num_nodes":"63","size_leaf_vector":"1"}},{"base_weights":[7.417094E-4,-1.8451339E-1,4.7740284E-1,-5.7006097E-1,-7.229047E-2,9.1748077E-1,1.0150169E-1,2.202619E0,-5.9283644E-1,8.2635395E-2,-3.7939525E-1,1.16701E0,-3.185801E-1,7.4728145E-3,9.943889E-1,5.0719233E0,-1.2735119E0,-3.4043634E-1,-7.497934E-1,4.91048E-1,-6.76568E-2,-3.0287376E-1,-8.52779E-1,9.966302E-1,3.3239636E0,-1.0302874E0,1.0396209E0,-1.3203284E-1,5.4732305E-1,7.5941277E-1,2.7257354E0,6.977454E-2,4.155469E-1,-9.425107E-3,-1.00298285E-1,9.221601E-3,-2.588636E-2,-5.0555833E-2,-2.6192373E-2,4.1646913E-2,2.9085346E-3,-1.4602288E-2,1.1450081E-2,-1.7335463E-2,2.9897043E-2,-5.4215014E-2,-2.4672475E-2,1.0955053E-1,3.2824352E-2,1.0064888E-1,3.9025176E-1,-2.7379513E-2,-9.467165E-2,4.364746E-2,3.980679E-1,-3.5268485E-3,-5.933636E-2,4.561794E-2,-2.2085048E-2,4.248749E-2,-5.829952E-2,7.6202676E-2,4.5272285E-1],"categories":[],"categories_nodes":[],"categories_segments":[],"categories_sizes":[],"default_left":[0,0,0,0,0,0,0,0,0,0,0,0,0,0,0,0,0,0,0,0,0,0,0,0,0,0,0,0,0,0,0,0,0,0,0,0,0,0,0,0,0,0,0,0,0,0,0,0,0,0,0,0,0,0,0,0,0,0,0,0,0,0,0],"id":25,"left_children":[1,3,5,7,9,11,13,15,17,19,21,23,25,27,29,31,33,35,37,39,41,43,45,47,49,51,53,55,57,59,61,-1,-1,-1,-1,-1,-1,-1,-1,-1,-1,-1,-1,-1,-1,-1,-1,-1,-1,-1,-1,-1,-1,-1,-1,-1,-1,-1,-1,-1,-1,-1,-1],"loss_changes":[4.5922446E3,1.6203181E3,2.4076797E3,5.3447437E2,1.3801876E3,2.068416E3,6.591404E2,6.9467053E2,3.3152832E2,1.1835862E3,3.5209302E2,2.0469761E3,1.0904762E3,5.350898E2,3.0223517E2,4.4090686E2,2.5052898E1,2.9907916E2,3.043191E2,7.676096E2,9.383934E2,3.3091626E2,1.1202429E2,2.0997397E3,2.3811343E3,3.072752E2,4.406693E2,3.661122E2,5.2714453E2,1.15788055E2,6.630554E2,0E0,0E0,0E0,0E0,0E0,0E0,0E0,0E0,0E0,0E0,0E0,0E0,0E0,0E0,0E0,0E0,0E0,0E0,0E0,0E0,0E0,0E0,0E0,0E0,0E0,0E0,0E0,0E0,0E0,0E0,0E0,0E0],"parents":[2147483647,0,0,1,1,2,2,3,3,4,4,5,5,6,6,7,7,8,8,9,9,10,10,11,11,12,12,13,13,14,14,15,15,16,16,17,17,18,18,19,19,20,20,21,21,22,22,23,23,24,24,25,25,26,26,27,27,28,28,29,29,30,30],"right_children":[2,4,6,8,10,12,14,16,18,20,22,24,26,28,30,32,34,36,38,40,42,44,46,48,50,52,54,56,58,60,62,-1,-1,-1,-1,-1,-1,-1,-1,-1,-1,-1,-1,-1,-1,-1,-1,-1,-1,-1,-1,-1,-1,-1,-1,-1,-1,-1,-1,-1,-1,-1,-1],"split_conditions":[6.8044443E0,3.3659585E0,1E-1,5.1E0,1E0,2.64E2,2.28E1,1.85E1,1.59E1,1.45E1,1.5E1,2.54E2,2.06E1,1.09178E1,2.61E1,8.7262535E-1,2E-1,1.22E1,1.65E1,1.53E1,1.8E1,2.41E1,1.88E2,1E1,5.8912687E0,5E0,1.7749052E1,1.94E1,2.31E1,3.58E2,3.53E2,6.977454E-2,4.155469E-1,-9.425107E-3,-1.00298285E-1,9.221601E-3,-2.588636E-2,-5.0555833E-2,-2.6192373E-2,4.1646913E-2,2.9085346E-3,-1.4602288E-2,1.1450081E-2,-1.7335463E-2,2.9897043E-2,-5.4215014E-2,-2.4672475E-2,1.0955053E-1,3.2824352E-2,1.0064888E-1,3.9025176E-1,-2.7379513E-2,-9.467165E-2,4.364746E-2,3.980679E-1,-3.5268485E-3,-5.933636E-2,4.561794E-2,-2.2085048E-2,4.248749E-2,-5.829952E-2,7.6202676E-2,4.5272285E-1],"split_indices":[1,1,8,6,8,4,6,7,7,7,8,4,6,1,6,2,8,6,6,6,6,6,4,6,2,5,1,8,7,4,4,0,0,0,0,0,0,0,0,0,0,0,0,0,0,0,0,0,0,0,0,0,0,0,0,0,0,0,0,0,0,0,0],"split_type":[0,0,0,0,0,0,0,0,0,0,0,0,0,0,0,0,0,0,0,0,0,0,0,0,0,0,0,0,0,0,0,0,0,0,0,0,0,0,0,0,0,0,0,0,0,0,0,0,0,0,0,0,0,0,0,0,0,0,0,0,0,0,0],"sum_hessian":[5.2003E4,3.7449E4,1.4554E4,8.442E3,2.9007E4,6.704E3,7.85E3,6.8E1,8.374E3,1.9281E4,9.726E3,5.578E3,1.126E3,7.103E3,7.47E2,3.7E1,3.1E1,3.212E3,5.162E3,5.186E3,1.4095E4,8.374E3,1.352E3,5.171E3,4.07E2,7.39E2,3.87E2,5.645E3,1.458E3,6.59E2,8.8E1,1.8E1,1.9E1,1.3E1,1.8E1,8.11E2,2.401E3,2.392E3,2.77E3,2.897E3,2.289E3,8.025E3,6.07E3,7.986E3,3.88E2,8.21E2,5.31E2,1.145E3,4.026E3,3.16E2,9.1E1,4.75E2,2.64E2,3.79E2,8E0,5.335E3,3.1E2,1.065E3,3.93E2,6.3E2,2.9E1,7.5E1,1.3E1],"tree_param":{"num_deleted":"0","num_feature":"9","num_nodes":"63","size_leaf_vector":"1"}},{"base_weights":[6.5816756E-5,-1.03610195E-1,7.2885376E-1,3.9788023E-2,-3.9723778E-1,1.4861659E0,3.2407165E-1,3.4301412E-1,-1.5186992E-1,-5.161658E-1,-2.7429102E-2,1.2315682E0,3.211916E0,-1.508765E-1,6.129517E-1,-4.808104E-1,4.9923357E-1,-3.3780465E-1,3.8625094E-1,1.5132346E0,-5.3615665E-1,-3.0769557E-1,2.2573873E-1,1.7319868E0,2.7567887E-1,1.04516115E1,2.7191985E0,2.710226E-1,-9.3814963E-1,9.057196E-1,-9.025996E-2,-3.834857E-2,2.391554E-5,3.7322357E-2,-1.8258758E-2,-1.0267152E-2,-4.5622848E-2,-4.484121E-2,2.636692E-2,1.3731794E-1,1.3755417E-2,-3.8191028E-2,-1.818498E-2,-2.3816528E-2,1.6154718E-2,-1.4296473E-3,3.1257343E-2,1.0988726E-1,2.4560958E-2,-5.771724E-2,2.8906664E-2,3.4149937E-2,1.0072168E0,1.6537249E-1,2.6489191E-3,2.2323059E-2,-5.2966543E-2,-4.870587E-2,4.7469923E-1,7.4350394E-2,-5.3205173E-3,-3.243862E-2,3.830889E-2],"categories":[],"categories_nodes":[],"categories_segments":[],"categories_sizes":[],"default_left":[0,0,0,0,0,0,0,0,0,0,0,0,0,0,0,0,0,0,0,0,0,0,0,0,0,0,0,0,0,0,0,0,0,0,0,0,0,0,0,0,0,0,0,0,0,0,0,0,0,0,0,0,0,0,0,0,0,0,0,0,0,0,0],"id":26,"left_children":[1,3,5,7,9,11,13,15,17,19,21,23,25,27,29,31,33,35,37,39,41,43,45,47,49,51,53,55,57,59,61,-1,-1,-1,-1,-1,-1,-1,-1,-1,-1,-1,-1,-1,-1,-1,-1,-1,-1,-1,-1,-1,-1,-1,-1,-1,-1,-1,-1,-1,-1,-1,-1],"loss_changes":[3.910722E3,1.9079081E3,1.9755164E3,1.7693844E3,6.5388965E2,9.824341E2,5.766196E2,1.5177109E3,1.8666635E3,4.5721704E2,2.5685364E2,9.361216E2,9.9891187E2,5.283725E2,5.380404E2,2.5892545E2,2.118403E3,1.0552074E3,8.6776733E2,1.6718845E2,4.3714282E2,1.8290312E2,1.932271E2,7.415198E2,2.9218378E2,1.6905618E3,4.248634E2,2.4227048E2,2.1749539E2,1.0856443E3,3.6833374E2,0E0,0E0,0E0,0E0,0E0,0E0,0E0,0E0,0E0,0E0,0E0,0E0,0E0,0E0,0E0,0E0,0E0,0E0,0E0,0E0,0E0,0E0,0E0,0E0,0E0,0E0,0E0,0E0,0E0,0E0,0E0,0E0],"parents":[2147483647,0,0,1,1,2,2,3,3,4,4,5,5,6,6,7,7,8,8,9,9,10,10,11,11,12,12,13,13,14,14,15,15,16,16,17,17,18,18,19,19,20,20,21,21,22,22,23,23,24,24,25,25,26,26,27,27,28,28,29,29,30,30],"right_children":[2,4,6,8,10,12,14,16,18,20,22,24,26,28,30,32,34,36,38,40,42,44,46,48,50,52,54,56,58,60,62,-1,-1,-1,-1,-1,-1,-1,-1,-1,-1,-1,-1,-1,-1,-1,-1,-1,-1,-1,-1,-1,-1,-1,-1,-1,-1,-1,-1,-1,-1,-1,-1],"split_conditions":[8.904468E0,1E0,1.5E1,1.62E1,2.09E1,1.6904207E1,1.65E2,8.6E1,2.07E1,7.9E0,4.7895E0,2E-1,1.09178E1,1.47E2,2.37E1,2.28E1,2.59E2,2.52E1,1.4E1,1.32E1,1.58E2,1.61E2,2.08E1,2.18E2,1E0,1.42E1,1.58E1,1.14E1,1.8E1,2.64E2,1.58E1,-3.834857E-2,2.391554E-5,3.7322357E-2,-1.8258758E-2,-1.0267152E-2,-4.5622848E-2,-4.484121E-2,2.636692E-2,1.3731794E-1,1.3755417E-2,