{"learner":{"attributes":{"best_iteration":"123","best_score":"16.325552558031447","scikit_learn":"{\"_estimator_type\": \"regressor\"}"},"feature_names":["pm25_lag_7","pm25_rolling_mean_3d","pm25_rolling_std_3d","month","day_of_year","day_of_week","future_temp","future_wind","future_precip"],"feature_types":["float","float","float","int","int","int","float","float","float"],"gradient_booster":{"model":{"cats":{"enc":[],"feature_segments":[],"sorted_idx":[]},"gbtree_model_param":{"num_parallel_tree":"1","num_trees":"134"},"iteration_indptr":[0,1,2,3,4,5,6,7,8,9,10,11,12,13,14,15,16,17,18,19,20,21,22,23,24,25,26,27,28,29,30,31,32,33,34,35,36,37,38,39,40,41,42,43,44,45,46,47,48,49,50,51,52,53,54,55,56,57,58,59,60,61,62,63,64,65,66,67,68,69,70,71,72,73,74,75,76,77,78,79,80,81,82,83,84,85,86,87,88,89,90,91,92,93,94,95,96,97,98,99,100,101,102,103,104,105,106,107,108,109,110,111,112,113,114,115,116,117,118,119,120,121,122,123,124,125,126,127,128,129,130,131,132,133,134],"tree_info":[0,0,0,0,0,0,0,0,0,0,0,0,0,0,0,0,0,0,0,0,0,0,0,0,0,0,0,0,0,0,0,0,0,0,0,0,0,0,0,0,0,0,0,0,0,0,0,0,0,0,0,0,0,0,0,0,0,0,0,0,0,0,0,0,0,0,0,0,0,0,0,0,0,0,0,0,0,0,0,0,0,0,0,0,0,0,0,0,0,0,0,0,0,0,0,0,0,0,0,0,0,0,0,0,0,0,0,0,0,0,0,0,0,0,0,0,0,0,0,0,0,0,0,0,0,0,0,0,0,0,0,0,0,0],"trees":[{"base_weights":[-2.216138E-1,-1.9104145E1,6.0639866E1,-3.201617E1,-2.3034878E0,9.156062E1,3.777238E1,-2.2176138E1,-3.9805866E1,3.874001E1,-4.8990526E0,8.184459E1,1.5779913E2,3.1984455E1,9.72253E1,-2.3948353E1,9.96902E-1,-4.442845E1,-3.438093E1,1.0345946E2,1.921845E1,-1.06001425E1,7.354014E0,1.2325932E2,7.126129E1,2.1489496E2,1.3489806E2,3.4670677E1,-9.772011E0,8.482555E1,2.063165E2,-1.6783581E0,-9.688112E-1,4.3685336E0,-1.354789E-1,-1.1936009E0,-2.249298E0,-8.4126246E-1,-1.7545289E0,6.347876E0,2.160794E0,1.7097285E0,1.06090546E-1,-3.2871467E-1,-1.1110164E0,5.2772474E-1,-6.899111E-1,7.894394E0,3.946746E0,2.9596133E0,4.7980776E0,1.0919293E1,4.8509073E-1,6.842407E0,-2.811076E-1,1.2743968E0,2.2128994E0,-2.1181166E-1,-1.0438027E0,4.666601E0,-2.770413E-1,1.1841578E1,-1.7687123E0],"categories":[],"categories_nodes":[],"categories_segments":[],"categories_sizes":[],"default_left":[0,0,0,0,0,0,0,0,0,0,0,0,0,0,0,0,0,0,0,0,0,0,0,0,0,0,0,0,0,0,0,0,0,0,0,0,0,0,0,0,0,0,0,0,0,0,0,0,0,0,0,0,0,0,0,0,0,0,0,0,0,0,0],"id":0,"left_children":[1,3,5,7,9,11,13,15,17,19,21,23,25,27,29,31,33,35,37,39,41,43,45,47,49,51,53,55,57,59,61,-1,-1,-1,-1,-1,-1,-1,-1,-1,-1,-1,-1,-1,-1,-1,-1,-1,-1,-1,-1,-1,-1,-1,-1,-1,-1,-1,-1,-1,-1,-1,-1],"loss_changes":[1.8399002E7,2.6506005E6,2.67708E6,5.28698E5,5.659762E5,1.023886E6,7.4739225E5,1.25485375E5,9.5145E4,3.972538E5,3.4907772E5,6.07911E5,2.3906E5,2.2343912E5,2.4357112E5,1.24160375E5,7.0027836E4,2.274075E4,2.15605E4,9.785281E4,6.2401516E4,1.5937753E5,1.075813E5,4.249805E5,3.29095E5,3.8711E4,4.159925E4,1.6341475E5,7.349376E3,1.3503962E5,1.4850662E5,0E0,0E0,0E0,0E0,0E0,0E0,0E0,0E0,0E0,0E0,0E0,0E0,0E0,0E0,0E0,0E0,0E0,0E0,0E0,0E0,0E0,0E0,0E0,0E0,0E0,0E0,0E0,0E0,0E0,0E0,0E0,0E0],"parents":[2147483647,0,0,1,1,2,2,3,3,4,4,5,5,6,6,7,7,8,8,9,9,10,10,11,11,12,12,13,13,14,14,15,15,16,16,17,17,18,18,19,19,20,20,21,21,22,22,23,23,24,24,25,25,26,26,27,27,28,28,29,29,30,30],"right_children":[2,4,6,8,10,12,14,16,18,20,22,24,26,28,30,32,34,36,38,40,42,44,46,48,50,52,54,56,58,60,62,-1,-1,-1,-1,-1,-1,-1,-1,-1,-1,-1,-1,-1,-1,-1,-1,-1,-1,-1,-1,-1,-1,-1,-1,-1,-1,-1,-1,-1,-1,-1,-1],"split_conditions":[8.918056E1,4.561382E1,1.87E1,1E-1,2E1,2.386481E2,8E0,2.84E2,2.4333334E1,1.21E1,6.9648125E1,2E1,9.2E0,5E0,2.9531696E2,2.5722221E1,1.59E1,2E0,3.7E1,1.6E1,2.04E1,1E-1,6E-1,1.41E1,1.6955556E2,1E-1,1.1E0,1.1749917E2,9E-1,2.5E1,1.96E1,-1.6783581E0,-9.688112E-1,4.3685336E0,-1.354789E-1,-1.1936009E0,-2.249298E0,-8.4126246E-1,-1.7545289E0,6.347876E0,2.160794E0,1.7097285E0,1.06090546E-1,-3.2871467E-1,-1.1110164E0,5.2772474E-1,-6.899111E-1,7.894394E0,3.946746E0,2.9596133E0,4.7980776E0,1.0919293E1,4.8509073E-1,6.842407E0,-2.811076E-1,1.2743968E0,2.2128994E0,-2.1181166E-1,-1.0438027E0,4.666601E0,-2.770413E-1,1.1841578E1,-1.7687123E0],"split_indices":[1,1,6,8,4,1,3,4,1,6,1,4,7,3,0,1,6,3,4,4,6,8,8,6,1,8,8,1,8,6,7,0,0,0,0,0,0,0,0,0,0,0,0,0,0,0,0,0,0,0,0,0,0,0,0,0,0,0,0,0,0,0,0],"split_type":[0,0,0,0,0,0,0,0,0,0,0,0,0,0,0,0,0,0,0,0,0,0,0,0,0,0,0,0,0,0,0,0,0,0,0,0,0,0,0,0,0,0,0,0,0,0,0,0,0,0,0,0,0,0,0,0,0,0,0,0,0,0,0],"sum_hessian":[1.6008E4,1.2218E4,3.79E3,6.908E3,5.31E3,1.61E3,2.18E3,3.054E3,3.854E3,3.15E2,4.995E3,1.406E3,2.04E2,1.988E3,1.92E2,2.837E3,2.17E2,2.077E3,1.777E3,7.2E1,2.43E2,3.409E3,1.586E3,2.84E2,1.122E3,5.6E1,1.48E2,1.868E3,1.2E2,1.74E2,1.8E1,9.12E2,1.925E3,8E0,2.09E2,5.6E1,2.021E3,7E1,1.707E3,5.1E1,2.1E1,1.29E2,1.14E2,2.533E3,8.76E2,1.378E3,2.08E2,1.58E2,1.26E2,7.56E2,3.66E2,5.5E1,1E0,1.46E2,2E0,9.56E2,9.12E2,8.1E1,3.9E1,1.59E2,1.5E1,1.6E1,2E0],"tree_param":{"num_deleted":"0","num_feature":"9","num_nodes":"63","size_leaf_vector":"1"}},{"base_weights":[-5.9164356E-2,-1.9225645E1,5.396873E1,-3.3148758E1,-6.563547E0,8.2431244E1,3.0671324E1,-2.4007328E1,-3.9079403E1,1.735861E1,-9.512082E0,7.3874954E1,1.5139026E2,2.2145569E1,5.4412308E1,-2.5946405E1,-2.2284064E0,-4.4638824E1,-3.576023E1,5.51837E1,6.8624005E0,-4.8694215E0,-2.1748901E1,1.1062356E2,6.47147E1,2.0572462E2,1.25254196E2,2.6446291E1,-3.227805E0,4.4109097E1,1.0199014E2,-1.7995948E0,-1.1299229E0,5.5969524E0,-3.0321142E-1,-1.2114898E0,-2.2605903E0,-1.7935005E0,5.0011225E0,4.747282E0,1.2707049E0,-2.1703403E-1,8.1354827E-1,-5.45917E-1,9.555046E-2,-1.2156339E0,-5.7026917E-1,7.462688E0,3.7010872E0,1.9639981E0,3.9222927E0,1.0429928E1,4.7296354E-1,6.357324E0,-2.717373E-1,1.2437199E0,3.8197906E0,8.102922E-1,-8.3452094E-1,2.5129554E0,9.689035E-1,4.2125525E0,1.4387949E1],"categories":[],"categories_nodes":[],"categories_segments":[],"categories_sizes":[],"default_left":[0,0,0,0,0,0,0,0,0,0,0,0,0,0,0,0,0,0,0,0,0,0,0,0,0,0,0,0,0,0,0,0,0,0,0,0,0,0,0,0,0,0,0,0,0,0,0,0,0,0,0,0,0,0,0,0,0,0,0,0,0,0,0],"id":1,"left_children":[1,3,5,7,9,11,13,15,17,19,21,23,25,27,29,31,33,35,37,39,41,43,45,47,49,51,53,55,57,59,61,-1,-1,-1,-1,-1,-1,-1,-1,-1,-1,-1,-1,-1,-1,-1,-1,-1,-1,-1,-1,-1,-1,-1,-1,-1,-1,-1,-1,-1,-1,-1,-1],"loss_changes":[1.6636742E7,2.090474E6,2.787145E6,3.052665E5,4.3833053E5,1.10575E6,4.6737375E5,9.3906125E4,6.15855E4,2.70389E5,3.1411797E5,5.60393E5,2.696105E5,1.8614144E5,2.9501638E5,6.7896375E4,8.081929E4,1.3826E4,3.5621E4,1.7277422E5,5.6462266E4,1.645291E5,4.005725E4,4.6262025E5,4.691025E5,3.52545E4,3.605475E4,1.1257481E5,6.515415E4,7.5682625E4,3.3165612E5,0E0,0E0,0E0,0E0,0E0,0E0,0E0,0E0,0E0,0E0,0E0,0E0,0E0,0E0,0E0,0E0,0E0,0E0,0E0,0E0,0E0,0E0,0E0,0E0,0E0,0E0,0E0,0E0,0E0,0E0,0E0,0E0],"parents":[2147483647,0,0,1,1,2,2,3,3,4,4,5,5,6,6,7,7,8,8,9,9,10,10,11,11,12,12,13,13,14,14,15,15,16,16,17,17,18,18,19,19,20,20,21,21,22,22,23,23,24,24,25,25,26,26,27,27,28,28,29,29,30,30],"right_children":[2,4,6,8,10,12,14,16,18,20,22,24,26,28,30,32,34,36,38,40,42,44,46,48,50,52,54,56,58,60,62,-1,-1,-1,-1,-1,-1,-1,-1,-1,-1,-1,-1,-1,-1,-1,-1,-1,-1,-1,-1,-1,-1,-1,-1,-1,-1,-1,-1,-1,-1,-1,-1],"split_conditions":[8.4144615E1,3.852651E1,1.95E1,1E-1,3.4E1,2.386481E2,1.3795523E2,2.84E2,1.7958149E1,1.35E1,1E-1,2E1,9.2E0,1E-1,8E0,1.958311E1,1.54E1,5.2E1,8.5362854E1,1.6E1,5.9833332E1,5.8054764E1,6.645587E1,1.39E1,1.2406832E2,1E-1,1.1E0,3.14E2,8.2E1,8.9E1,1.0178249E2,-1.7995948E0,-1.1299229E0,5.5969524E0,-3.0321142E-1,-1.2114898E0,-2.2605903E0,-1.7935005E0,5.0011225E0,4.747282E0,1.2707049E0,-2.1703403E-1,8.1354827E-1,-5.45917E-1,9.555046E-2,-1.2156339E0,-5.7026917E-1,7.462688E0,3.7010872E0,1.9639981E0,3.9222927E0,1.0429928E1,4.7296354E-1,6.357324E0,-2.717373E-1,1.2437199E0,3.8197906E0,8.102922E-1,-8.3452094E-1,2.5129554E0,9.689035E-1,4.2125525E0,1.4387949E1],"split_indices":[1,1,6,8,4,1,1,4,1,6,8,4,7,8,3,1,6,4,0,4,1,1,1,6,1,8,8,4,4,4,2,0,0,0,0,0,0,0,0,0,0,0,0,0,0,0,0,0,0,0,0,0,0,0,0,0,0,0,0,0,0,0,0],"split_type":[0,0,0,0,0,0,0,0,0,0,0,0,0,0,0,0,0,0,0,0,0,0,0,0,0,0,0,0,0,0,0,0,0,0,0,0,0,0,0,0,0,0,0,0,0,0,0,0,0,0,0,0,0,0,0,0,0,0,0,0,0,0,0],"sum_hessian":[1.6064E4,1.1858E4,4.206E3,5.647E3,6.211E3,1.892E3,2.314E3,2.224E3,3.423E3,6.81E2,5.53E3,1.685E3,2.07E2,1.704E3,6.1E2,2.042E3,1.82E2,1.275E3,2.148E3,1.47E2,5.34E2,4.01E3,1.52E3,3.34E2,1.351E3,6.5E1,1.42E2,1.457E3,2.47E2,5.03E2,1.07E2,5.08E2,1.534E3,5E0,1.77E2,3.6E1,1.239E3,2.147E3,1E0,6.2E1,8.5E1,2.44E2,2.9E2,2.119E3,1.891E3,1.217E3,3.03E2,1.61E2,1.73E2,4.75E2,8.76E2,6.4E1,1E0,1.4E2,2E0,1.414E3,4.3E1,1.01E2,1.46E2,4.02E2,1.01E2,9.9E1,8E0],"tree_param":{"num_deleted":"0","num_feature":"9","num_nodes":"63","size_leaf_vector":"1"}},{"base_weights":[-5.440677E-1,-1.6612198E1,5.638252E1,-2.7214806E1,1.1002662E0,7.9857254E1,3.455087E1,-1.8341566E1,-3.515933E1,4.4801506E1,-2.0215034E0,7.251879E1,1.3821825E2,2.9860981E1,8.591232E1,-2.8280365E1,-1.4465602E1,-3.9521305E1,-2.930351E1,1.0528852E2,2.1954819E1,-7.9918056E0,6.4863048E0,1.0745407E2,6.486926E1,2.0304704E2,1.16397675E2,3.367604E1,3.285263E0,7.804722E1,2.376827E2,-1.5316867E0,-4.530426E-1,-7.703888E-1,6.7392755E-1,-1.1850451E0,-2.011031E0,-8.302023E-1,-1.5107715E0,6.456018E0,2.7407997E0,1.8491169E0,2.07103E-1,-2.337244E-1,-8.9656353E-1,4.9434844E-1,-5.6771386E-1,7.5405154E0,4.27708E0,2.5871952E0,4.4972725E0,1.0357465E1,4.611395E-1,5.981812E0,1.1255502E0,1.4700593E0,2.3437164E0,-8.5380167E-1,6.86666E-1,4.0330787E0,-1.7463753E0,1.6411901E1,3.7647972E-1],"categories":[],"categories_nodes":[],"categories_segments":[],"categories_sizes":[],"default_left":[0,0,0,0,0,0,0,0,0,0,0,0,0,0,0,0,0,0,0,0,0,0,0,0,0,0,0,0,0,0,0,0,0,0,0,0,0,0,0,0,0,0,0,0,0,0,0,0,0,0,0,0,0,0,0,0,0,0,0,0,0,0,0],"id":2,"left_children":[1,3,5,7,9,11,13,15,17,19,21,23,25,27,29,31,33,35,37,39,41,43,45,47,49,51,53,55,57,59,61,-1,-1,-1,-1,-1,-1,-1,-1,-1,-1,-1,-1,-1,-1,-1,-1,-1,-1,-1,-1,-1,-1,-1,-1,-1,-1,-1,-1,-1,-1,-1,-1],"loss_changes":[1.4606013E7,2.3386822E6,1.798649E6,5.485005E5,6.363777E5,7.15056E5,4.36558E5,1.414305E5,1.03798E5,4.27468E5,2.2120973E5,3.9549E5,2.42311E5,1.6940988E5,1.6289025E5,4.6400312E4,7.0003875E4,2.506775E4,1.9857625E4,9.5164625E4,6.0610547E4,8.429244E4,1.0907524E5,2.4266075E5,4.028135E5,3.466475E4,4.0787125E4,8.1109E4,4.5121805E4,4.5939188E4,1.4341956E5,0E0,0E0,0E0,0E0,0E0,0E0,0E0,0E0,0E0,0E0,0E0,0E0,0E0,0E0,0E0,0E0,0E0,0E0,0E0,0E0,0E0,0E0,0E0,0E0,0E0,0E0,0E0,0E0,0E0,0E0,0E0,0E0],"parents":[2147483647,0,0,1,1,2,2,3,3,4,4,5,5,6,6,7,7,8,8,9,9,10,10,11,11,12,12,13,13,14,14,15,15,16,16,17,17,18,18,19,19,20,20,21,21,22,22,23,23,24,24,25,25,26,26,27,27,28,28,29,29,30,30],"right_children":[2,4,6,8,10,12,14,16,18,20,22,24,26,28,30,32,34,36,38,40,42,44,46,48,50,52,54,56,58,60,62,-1,-1,-1,-1,-1,-1,-1,-1,-1,-1,-1,-1,-1,-1,-1,-1,-1,-1,-1,-1,-1,-1,-1,-1,-1,-1,-1,-1,-1,-1,-1,-1],"split_conditions":[9.299506E1,5.065163E1,1.95E1,1E-1,2E1,2.386481E2,8E0,2.5722221E1,2.6700983E1,1.29E1,6.9648125E1,2E1,8.6E0,1.04E2,1.2232708E2,2.77E2,2.84E2,5.2E1,5.1E1,1.6E1,2.04E1,1E-1,3E-1,1.26E1,1.6955556E2,1E-1,2E-1,1.4478932E2,2.96E1,2.05E1,2.98E2,-1.5316867E0,-4.530426E-1,-7.703888E-1,6.7392755E-1,-1.1850451E0,-2.011031E0,-8.302023E-1,-1.5107715E0,6.456018E0,2.7407997E0,1.8491169E0,2.07103E-1,-2.337244E-1,-8.9656353E-1,4.9434844E-1,-5.6771386E-1,7.5405154E0,4.27708E0,2.5871952E0,4.4972725E0,1.0357465E1,4.611395E-1,5.981812E0,1.1255502E0,1.4700593E0,2.3437164E0,-8.5380167E-1,6.86666E-1,4.0330787E0,-1.7463753E0,1.6411901E1,3.7647972E-1],"split_indices":[1,1,6,8,4,1,3,1,1,6,1,4,7,4,2,4,4,4,4,4,6,8,8,6,1,8,8,1,6,8,4,0,0,0,0,0,0,0,0,0,0,0,0,0,0,0,0,0,0,0,0,0,0,0,0,0,0,0,0,0,0,0,0],"split_type":[0,0,0,0,0,0,0,0,0,0,0,0,0,0,0,0,0,0,0,0,0,0,0,0,0,0,0,0,0,0,0,0,0,0,0,0,0,0,0,0,0,0,0,0,0,0,0,0,0,0,0,0,0,0,0,0,0,0,0,0,0,0,0],"sum_hessian":[1.5966E4,1.2452E4,3.514E3,7.789E3,4.663E3,1.692E3,1.822E3,3.681E3,4.108E3,3.1E2,4.353E3,1.505E3,1.87E2,1.671E3,1.51E2,1.031E3,2.65E3,2.351E3,1.757E3,8.4E1,2.26E2,2.558E3,1.795E3,2.68E2,1.237E3,4.5E1,1.42E2,1.461E3,2.1E2,1.45E2,6E0,9.18E2,1.13E2,2.564E3,8.6E1,1.01E2,2.25E3,1.19E2,1.638E3,5.6E1,2.8E1,1.22E2,1.04E2,1.919E3,6.39E2,1.508E3,2.87E2,8.8E1,1.8E2,8.14E2,4.23E2,4.4E1,1E0,1.37E2,5E0,1.106E3,3.55E2,7.1E1,1.39E2,1.42E2,3E0,4E0,2E0],"tree_param":{"num_deleted":"0","num_feature":"9","num_nodes":"63","size_leaf_vector":"1"}},{"base_weights":[2.9681128E-1,-1.6253521E1,5.2683216E1,-2.9369644E1,-4.039959E0,8.001007E1,3.261902E1,-2.0758533E1,-3.5199432E1,3.37058E1,-6.179051E0,7.203934E1,1.3733339E2,2.725701E1,8.5867096E1,-2.2824085E1,3.1371713E0,-3.9581955E1,-3.143993E1,8.98358E1,1.6305393E1,-1.1412511E1,3.34126E0,1.2417916E2,6.571493E1,1.6412535E2,1.0267664E2,2.9795153E1,-1.0532348E1,1.467952E1,8.1283295E1,-1.6404883E0,-9.9691534E-1,5.1795692E0,-1.5095632E-1,-1.0749658E0,-2.0031452E0,-1.578007E0,4.896849E0,5.457379E0,1.8615321E0,-7.0180304E-2,1.6483806E0,-3.867996E-1,-1.0313429E0,3.196257E-1,-5.657777E-1,8.527717E0,5.0121727E0,3.7537045E0,2.0302532E0,8.43283E0,2.8737178E0,6.080282E0,4.027684E0,1.0686063E0,1.9228543E0,5.062448E-2,-7.359455E-1,4.547196E0,-5.0685406E-2],"categories":[],"categories_nodes":[],"categories_segments":[],"categories_sizes":[],"default_left":[0,0,0,0,0,0,0,0,0,0,0,0,0,0,0,0,0,0,0,0,0,0,0,0,0,0,0,0,0,0,0,0,0,0,0,0,0,0,0,0,0,0,0,0,0,0,0,0,0,0,0,0,0,0,0,0,0,0,0,0,0],"id":3,"left_children":[1,3,5,7,9,11,13,15,17,19,21,23,25,27,29,31,33,35,37,39,41,43,45,47,49,51,53,55,57,-1,59,-1,-1,-1,-1,-1,-1,-1,-1,-1,-1,-1,-1,-1,-1,-1,-1,-1,-1,-1,-1,-1,-1,-1,-1,-1,-1,-1,-1,-1,-1],"loss_changes":[1.391814E7,1.954095E6,2.110505E6,2.945515E5,5.1033406E5,7.35325E5,6.3264825E5,1.1739519E5,5.65205E4,3.296314E5,2.9798662E5,4.64706E5,1.669955E5,1.942535E5,1.6942488E5,6.239625E4,1.17813695E5,1.318425E4,3.2515625E4,7.720825E4,7.676479E4,1.3057066E5,9.49717E4,1.538465E5,2.979965E5,4.346525E4,2.7474375E4,1.3743688E5,6.201551E3,0E0,1.5910025E5,0E0,0E0,0E0,0E0,0E0,0E0,0E0,0E0,0E0,0E0,0E0,0E0,0E0,0E0,0E0,0E0,0E0,0E0,0E0,0E0,0E0,0E0,0E0,0E0,0E0,0E0,0E0,0E0,0E0,0E0],"parents":[2147483647,0,0,1,1,2,2,3,3,4,4,5,5,6,6,7,7,8,8,9,9,10,10,11,11,12,12,13,13,14,14,15,15,16,16,17,17,18,18,19,19,20,20,21,21,22,22,23,23,24,24,25,25,26,26,27,27,28,28,30,30],"right_children":[2,4,6,8,10,12,14,16,18,20,22,24,26,28,30,32,34,36,38,40,42,44,46,48,50,52,54,56,58,-1,60,-1,-1,-1,-1,-1,-1,-1,-1,-1,-1,-1,-1,-1,-1,-1,-1,-1,-1,-1,-1,-1,-1,-1,-1,-1,-1,-1,-1,-1,-1],"split_conditions":[8.918056E1,3.9945015E1,1.88E1,1E-1,2E1,2.386481E2,8E0,2.84E2,2.0464722E1,1.17E1,6.478203E1,1.17E1,1.2E1,5E0,9E0,1.9237314E1,1.59E1,2E0,8.5362854E1,1.6E1,6.478203E1,1E-1,3E-1,1.6E1,1.38E1,1E-1,1.35E1,1.1749917E2,1.29E2,1.467952E1,1.48E1,-1.6404883E0,-9.9691534E-1,5.1795692E0,-1.5095632E-1,-1.0749658E0,-2.0031452E0,-1.578007E0,4.896849E0,5.457379E0,1.8615321E0,-7.0180304E-2,1.6483806E0,-3.867996E-1,-1.0313429E0,3.196257E-1,-5.657777E-1,8.527717E0,5.0121727E0,3.7537045E0,2.0302532E0,8.43283E0,2.8737178E0,6.080282E0,4.027684E0,1.0686063E0,1.9228543E0,5.062448E-2,-7.359455E-1,4.547196E0,-5.0685406E-2],"split_indices":[1,1,6,8,4,1,3,4,1,6,1,6,7,3,3,1,6,3,0,4,1,8,8,4,7,8,6,1,4,0,7,0,0,0,0,0,0,0,0,0,0,0,0,0,0,0,0,0,0,0,0,0,0,0,0,0,0,0,0,0,0],"split_type":[0,0,0,0,0,0,0,0,0,0,0,0,0,0,0,0,0,0,0,0,0,0,0,0,0,0,0,0,0,0,0,0,0,0,0,0,0,0,0,0,0,0,0,0,0,0,0,0,0,0,0,0,0,0,0,0,0,0,0,0,0],"sum_hessian":[1.6051E4,1.2198E4,3.853E3,5.881E3,6.317E3,1.63E3,2.223E3,2.376E3,3.505E3,3.38E2,5.979E3,1.433E3,1.97E2,2.021E3,2.02E2,2.187E3,1.89E2,1.614E3,1.891E3,7.9E1,2.59E2,3.858E3,2.121E3,1.53E2,1.28E3,1.09E2,8.8E1,1.894E3,1.27E2,3E0,1.99E2,4.88E2,1.699E3,1E1,1.79E2,4.3E1,1.571E3,1.89E3,1E0,5.7E1,2.2E1,1.26E2,1.33E2,2.759E3,1.099E3,1.756E3,3.65E2,5E1,1.03E2,9.31E2,3.49E2,1.04E2,5E0,4.5E1,4.3E1,9.62E2,9.32E2,3.4E1,9.3E1,1.78E2,2.1E1],"tree_param":{"num_deleted":"0","num_feature":"9","num_nodes":"61","size_leaf_vector":"1"}},{"base_weights":[4.352323E-2,-1.4772283E1,5.1305786E1,-2.4383646E1,1.1831926E0,7.363745E1,3.090003E1,-1.691692E1,-3.202359E1,3.5573246E1,-1.5463243E0,6.604434E1,1.2818747E2,2.7121473E1,7.150935E1,-1.825848E1,5.1777453E0,-3.5980644E1,-2.6335564E1,1.0053593E2,2.002249E1,-7.2126517E0,6.511203E0,1.1672862E2,6.08794E1,1.7514572E2,1.0704667E2,2.9626577E1,-1.1230865E1,1.4129038E1,6.563887E1,-1.3773712E0,-7.334924E-1,5.003837E0,1.49182845E-2,-1.936207E0,-1.6430956E0,-1.4642013E0,-1.0474858E0,6.2826514E0,2.9800928E0,1.6030778E0,2.5150907E-1,-4.0343758E-1,1.4766039E0,9.1736776E-1,9.712418E-2,8.39992E0,4.587695E0,3.498053E0,1.8334407E0,8.886347E0,3.7776813E-1,5.9896917E0,3.6863434E0,2.1075368E0,1.3066226E0,-2.3427121E-2,-7.544128E-1,3.6411145E0,-3.3700153E-1],"categories":[],"categories_nodes":[],"categories_segments":[],"categories_sizes":[],"default_left":[0,0,0,0,0,0,0,0,0,0,0,0,0,0,0,0,0,0,0,0,0,0,0,0,0,0,0,0,0,0,0,0,0,0,0,0,0,0,0,0,0,0,0,0,0,0,0,0,0,0,0,0,0,0,0,0,0,0,0,0,0],"id":4,"left_children":[1,3,5,7,9,11,13,15,17,19,21,23,25,27,29,31,33,35,37,39,41,43,45,47,49,51,53,55,57,-1,59,-1,-1,-1,-1,-1,-1,-1,-1,-1,-1,-1,-1,-1,-1,-1,-1,-1,-1,-1,-1,-1,-1,-1,-1,-1,-1,-1,-1,-1,-1],"loss_changes":[1.2143512E7,1.9022305E6,1.631389E6,4.410465E5,4.378564E5,7.00238E5,2.8576925E5,1.161995E5,8.514475E4,3.444921E5,1.9737473E5,3.86613E5,1.8774025E5,1.6529625E5,1.7846712E5,1.227005E5,1.04155984E5,1.800475E4,2.4365625E4,6.03685E4,5.0015883E4,8.007647E4,9.649013E4,1.6128738E5,2.979995E5,2.591E4,5.3178875E4,6.9441125E4,4.393466E3,0E0,8.15995E4,0E0,0E0,0E0,0E0,0E0,0E0,0E0,0E0,0E0,0E0,0E0,0E0,0E0,0E0,0E0,0E0,0E0,0E0,0E0,0E0,0E0,0E0,0E0,0E0,0E0,0E0,0E0,0E0,0E0,0E0],"parents":[2147483647,0,0,1,1,2,2,3,3,4,4,5,5,6,6,7,7,8,8,9,9,10,10,11,11,12,12,13,13,14,14,15,15,16,16,17,17,18,18,19,19,20,20,21,21,22,22,23,23,24,24,25,25,26,26,27,27,28,28,30,30],"right_children":[2,4,6,8,10,12,14,16,18,20,22,24,26,28,30,32,34,36,38,40,42,44,46,48,50,52,54,56,58,-1,60,-1,-1,-1,-1,-1,-1,-1,-1,-1,-1,-1,-1,-1,-1,-1,-1,-1,-1,-1,-1,-1,-1,-1,-1,-1,-1,-1,-1,-1,-1],"split_conditions":[9.299506E1,5.065163E1,1.95E1,2E-1,2.1E1,2.386481E2,8E0,2.84E2,2.7032906E1,1.17E1,6.9648125E1,1.17E1,9.2E0,5E0,9E0,2.6444445E1,1.59E1,1.7958149E1,3.9538887E1,1.5E1,1.99E1,2.87E2,1.22E1,1.6E1,1.38E1,1E-1,1.43E1,1.17E1,1.29E2,1.4129038E1,1.48E1,-1.3773712E0,-7.334924E-1,5.003837E0,1.49182845E-2,-1.936207E0,-1.6430956E0,-1.4642013E0,-1.0474858E0,6.2826514E0,2.9800928E0,1.6030778E0,2.5150907E-1,-4.0343758E-1,1.4766039E0,9.1736776E-1,9.712418E-2,8.39992E0,4.587695E0,3.498053E0,1.8334407E0,8.886347E0,3.7776813E-1,5.9896917E0,3.6863434E0,2.1075368E0,1.3066226E0,-2.3427121E-2,-7.544128E-1,3.6411145E0,-3.3700153E-1],"split_indices":[1,1,6,8,4,1,3,4,1,6,1,6,7,3,3,1,6,1,1,4,6,4,7,4,7,8,7,7,4,0,7,0,0,0,0,0,0,0,0,0,0,0,0,0,0,0,0,0,0,0,0,0,0,0,0,0,0,0,0,0,0],"split_type":[0,0,0,0,0,0,0,0,0,0,0,0,0,0,0,0,0,0,0,0,0,0,0,0,0,0,0,0,0,0,0,0,0,0,0,0,0,0,0,0,0,0,0,0,0,0,0,0,0,0,0,0,0,0,0,0,0,0,0,0,0],"sum_hessian":[1.5987E4,1.2403E4,3.584E3,7.74E3,4.663E3,1.71E3,1.874E3,3.916E3,3.824E3,3.42E2,4.321E3,1.503E3,2.07E2,1.716E3,1.58E2,3.692E3,2.24E2,2.252E3,1.572E3,6.5E1,2.77E2,2.537E3,1.784E3,1.37E2,1.366E3,6.2E1,1.45E2,1.611E3,1.05E2,3E0,1.55E2,1.027E3,2.665E3,1E1,2.14E2,1.192E3,1.06E3,1.013E3,5.59E2,3.9E1,2.6E1,1.53E2,1.24E2,2.48E3,5.7E1,4.96E2,1.288E3,4.3E1,9.4E1,9.92E2,3.74E2,6.1E1,1E0,1.03E2,4.2E1,3.49E2,1.262E3,2.8E1,7.7E1,1.41E2,1.4E1],"tree_param":{"num_deleted":"0","num_feature":"9","num_nodes":"61","size_leaf_vector":"1"}},{"base_weights":[6.675961E-2,-1.7304855E1,4.057174E1,-2.675975E1,-7.1197376E0,6.593685E1,2.2048765E1,-1.9821276E1,-3.1947285E1,-3.328804E0,-1.7712921E1,5.5288483E1,1.000118E2,1.2337573E1,3.6077522E1,-2.1568552E1,6.107719E-1,-3.6157425E1,-2.928369E1,-4.161023E0,4.7852657E1,1.1516525E0,-1.9860527E1,9.0540955E1,4.46695E1,1.5333769E2,8.6765724E1,1.5691405E1,-9.913307E0,3.0113522E1,8.3505455E1,-1.3320795E0,-8.7410766E-1,4.579846E0,-1.601682E-1,-3.131167E-1,-1.8240261E0,-1.4695925E0,4.811033E0,1.9110117E0,-2.536808E-1,3.2393472E0,9.421852E-1,8.704569E-1,-4.6690947E-1,-6.904581E-1,-1.1134981E0,6.2671533E0,2.874868E0,1.3834715E0,3.0065877E0,7.851715E0,1.4990643E0,4.5557957E0,-1.030733E0,1.3182547E0,6.094005E-1,-7.852446E-1,1.9810133E0,1.6325449E0,1.3218568E-1,3.575187E0,1.3951713E1],"categories":[],"categories_nodes":[],"categories_segments":[],"categories_sizes":[],"default_left":[0,0,0,0,0,0,0,0,0,0,0,0,0,0,0,0,0,0,0,0,0,0,0,0,0,0,0,0,0,0,0,0,0,0,0,0,0,0,0,0,0,0,0,0,0,0,0,0,0,0,0,0,0,0,0,0,0,0,0,0,0,0,0],"id":5,"left_children":[1,3,5,7,9,11,13,15,17,19,21,23,25,27,29,31,33,35,37,39,41,43,45,47,49,51,53,55,57,59,61,-1,-1,-1,-1,-1,-1,-1,-1,-1,-1,-1,-1,-1,-1,-1,-1,-1,-1,-1,-1,-1,-1,-1,-1,-1,-1,-1,-1,-1,-1,-1,-1],"loss_changes":[1.1322924E7,1.084331E6,2.2678605E6,2.0956925E5,2.1771816E5,7.33944E5,3.8006188E5,8.93E4,3.63965E4,1.7036288E5,5.7916938E4,5.78063E5,3.285735E5,1.23437234E5,3.2051175E5,4.729725E4,6.9006055E4,1.223175E4,3.0669125E4,1.5227125E5,3.0218906E4,2.523172E4,1.8399094E4,4.0563825E5,3.1297875E5,3.8612E4,1.84057E5,5.3376656E4,6.2874727E4,7.0730125E4,2.7807638E5,0E0,0E0,0E0,0E0,0E0,0E0,0E0,0E0,0E0,0E0,0E0,0E0,0E0,0E0,0E0,0E0,0E0,0E0,0E0,0E0,0E0,0E0,0E0,0E0,0E0,0E0,0E0,0E0,0E0,0E0,0E0,0E0],"parents":[2147483647,0,0,1,1,2,2,3,3,4,4,5,5,6,6,7,7,8,8,9,9,10,10,11,11,12,12,13,13,14,14,15,15,16,16,17,17,18,18,19,19,20,20,21,21,22,22,23,23,24,24,25,25,26,26,27,27,28,28,29,29,30,30],"right_children":[2,4,6,8,10,12,14,16,18,20,22,24,26,28,30,32,34,36,38,40,42,44,46,48,50,52,54,56,58,60,62,-1,-1,-1,-1,-1,-1,-1,-1,-1,-1,-1,-1,-1,-1,-1,-1,-1,-1,-1,-1,-1,-1,-1,-1,-1,-1,-1,-1,-1,-1,-1,-1],"split_conditions":[7.688238E1,3.9538887E1,1.95E1,2E-1,1E-1,1.94E2,1.12981346E2,2.84E2,1.8666666E1,2.89E2,5E1,2E1,9.2E0,5E0,8E0,2.6444445E1,1.57E1,1.5E1,8.5362854E1,1.17E1,1.24E1,2E1,9.5E1,1.35E1,1.2406832E2,1E-1,1.7E0,1.22E1,3.14E2,1.06E2,1.0178249E2,-1.3320795E0,-8.7410766E-1,4.579846E0,-1.601682E-1,-3.131167E-1,-1.8240261E0,-1.4695925E0,4.811033E0,1.9110117E0,-2.536808E-1,3.2393472E0,9.421852E-1,8.704569E-1,-4.6690947E-1,-6.904581E-1,-1.1134981E0,6.2671533E0,2.874868E0,1.3834715E0,3.0065877E0,7.851715E0,1.4990643E0,4.5557957E0,-1.030733E0,1.3182547E0,6.094005E-1,-7.852446E-1,1.9810133E0,1.6325449E0,1.3218568E-1,3.575187E0,1.3951713E1],"split_indices":[1,1,6,8,8,0,1,4,1,4,4,4,7,3,3,1,6,4,0,6,7,6,4,6,1,8,8,7,4,4,2,0,0,0,0,0,0,0,0,0,0,0,0,0,0,0,0,0,0,0,0,0,0,0,0,0,0,0,0,0,0,0,0],"split_type":[0,0,0,0,0,0,0,0,0,0,0,0,0,0,0,0,0,0,0,0,0,0,0,0,0,0,0,0,0,0,0,0,0,0,0,0,0,0,0,0,0,0,0,0,0,0,0,0,0,0,0,0,0,0,0,0,0,0,0,0,0,0,0],"sum_hessian":[1.609E4,1.1261E4,4.829E3,5.839E3,5.422E3,2.037E3,2.792E3,2.5E3,3.339E3,3.994E3,1.428E3,1.554E3,4.83E2,1.651E3,1.141E3,2.303E3,1.97E2,1.289E3,2.05E3,3.931E3,6.3E1,1.46E2,1.282E3,3.58E2,1.196E3,9.4E1,3.89E2,1.435E3,2.16E2,1.015E3,1.26E2,1.025E3,1.278E3,7E0,1.9E2,1.4E1,1.275E3,2.049E3,1E0,8.2E1,3.849E3,3.9E1,2.4E1,5.7E1,8.9E1,3.67E2,9.15E2,1.73E2,1.85E2,5.71E2,6.25E2,9.1E1,3E0,3.74E2,1.5E1,3.53E2,1.082E3,1.94E2,2.2E1,9.29E2,8.6E1,1.2E2,6E0],"tree_param":{"num_deleted":"0","num_feature":"9","num_nodes":"63","size_leaf_vector":"1"}},{"base_weights":[1.4569959E-1,-1.4762558E1,4.21148E1,-2.518397E1,-4.521155E0,6.6963905E1,2.5219255E1,-1.8145683E1,-3.0030527E1,2.9082123E1,-6.021456E0,5.6887505E1,1.00125114E2,2.1867981E1,7.5585106E1,-1.9955593E1,3.330222E0,-3.4435833E1,-2.7342642E1,7.342806E1,1.5584711E1,-2.774123E0,-1.5445064E1,8.842052E1,4.725685E1,1.562453E2,8.459537E1,1.3328359E1,3.237685E1,1.2300158E2,5.9674847E1,-1.4102486E0,-8.794857E-1,4.8696914E0,-7.2225615E-2,-1.74199E0,-5.2022207E-1,-1.3721337E0,4.6907573E0,4.9846916E0,-1.696031E-1,6.1860555E-1,4.048036E0,-4.7202668E-1,5.840503E-2,-4.6211615E-1,-1.0483598E0,6.0215096E0,2.7264218E0,2.6042373E0,1.9318552E-1,7.898417E0,3.3084735E-1,4.429924E0,-3.1851664E-1,8.1822294E-1,-7.073465E-1,1.5316375E0,4.627225E0,8.103011E0,2.615383E0,9.912192E-1,3.3093033E0],"categories":[],"categories_nodes":[],"categories_segments":[],"categories_sizes":[],"default_left":[0,0,0,0,0,0,0,0,0,0,0,0,0,0,0,0,0,0,0,0,0,0,0,0,0,0,0,0,0,0,0,0,0,0,0,0,0,0,0,0,0,0,0,0,0,0,0,0,0,0,0,0,0,0,0,0,0,0,0,0,0,0,0],"id":6,"left_children":[1,3,5,7,9,11,13,15,17,19,21,23,25,27,29,31,33,35,37,39,41,43,45,47,49,51,53,55,57,59,61,-1,-1,-1,-1,-1,-1,-1,-1,-1,-1,-1,-1,-1,-1,-1,-1,-1,-1,-1,-1,-1,-1,-1,-1,-1,-1,-1,-1,-1,-1,-1,-1],"loss_changes":[9.982818E6,1.256417E6,1.7540785E6,1.984955E5,2.9958997E5,5.596785E5,4.188025E5,9.26535E4,3.9957E4,1.5088872E5,1.7395781E5,3.9061E5,3.2929425E5,2.09295E5,1.0959325E5,4.2382875E4,8.3678625E4,1.2306125E4,2.8632375E4,1.1938478E5,4.0163637E4,1.1117746E5,4.9711906E4,3.2215E5,2.0887725E5,2.061125E4,1.1345E5,1.079238E5,1.07035625E5,9.6448875E4,2.9305969E4,0E0,0E0,0E0,0E0,0E0,0E0,0E0,0E0,0E0,0E0,0E0,0E0,0E0,0E0,0E0,0E0,0E0,0E0,0E0,0E0,0E0,0E0,0E0,0E0,0E0,0E0,0E0,0E0,0E0,0E0,0E0,0E0],"parents":[2147483647,0,0,1,1,2,2,3,3,4,4,5,5,6,6,7,7,8,8,9,9,10,10,11,11,12,12,13,13,14,14,15,15,16,16,17,17,18,18,19,19,20,20,21,21,22,22,23,23,24,24,25,25,26,26,27,27,28,28,29,29,30,30],"right_children":[2,4,6,8,10,12,14,16,18,20,22,24,26,28,30,32,34,36,38,40,42,44,46,48,50,52,54,56,58,60,62,-1,-1,-1,-1,-1,-1,-1,-1,-1,-1,-1,-1,-1,-1,-1,-1,-1,-1,-1,-1,-1,-1,-1,-1,-1,-1,-1,-1,-1,-1,-1,-1],"split_conditions":[8.4144615E1,3.9945015E1,1.87E1,1E-1,1.41E1,1.9911111E2,3.14E2,2.84E2,1.8666666E1,1.5E1,1E-1,2E1,9.2E0,1.161E2,1.96E1,1.9237314E1,1.57E1,2.91E2,8.5362854E1,1.17E1,3.718957E1,5.317233E1,1.24E2,1.37E1,4E-1,1E-1,1.7E0,5E0,2.9531696E2,1.2E1,7.6870475E0,-1.4102486E0,-8.794857E-1,4.8696914E0,-7.2225615E-2,-1.74199E0,-5.2022207E-1,-1.3721337E0,4.6907573E0,4.9846916E0,-1.696031E-1,6.1860555E-1,4.048036E0,-4.7202668E-1,5.840503E-2,-4.6211615E-1,-1.0483598E0,6.0215096E0,2.7264218E0,2.6042373E0,1.9318552E-1,7.898417E0,3.3084735E-1,4.429924E0,-3.1851664E-1,8.1822294E-1,-7.073465E-1,1.5316375E0,4.627225E0,8.103011E0,2.615383E0,9.912192E-1,3.3093033E0],"split_indices":[1,1,6,8,6,1,4,4,1,4,8,4,7,1,6,1,6,4,0,6,2,1,4,6,8,8,8,3,0,3,2,0,0,0,0,0,0,0,0,0,0,0,0,0,0,0,0,0,0,0,0,0,0,0,0,0,0,0,0,0,0,0,0],"split_type":[0,0,0,0,0,0,0,0,0,0,0,0,0,0,0,0,0,0,0,0,0,0,0,0,0,0,0,0,0,0,0,0,0,0,0,0,0,0,0,0,0,0,0,0,0,0,0,0,0,0,0,0,0,0,0,0,0,0,0,0,0,0,0],"sum_hessian":[1.5953E4,1.1772E4,4.181E3,5.834E3,5.938E3,1.691E3,2.49E3,2.381E3,3.453E3,2.53E2,5.685E3,1.299E3,3.92E2,2.336E3,1.54E2,2.196E3,1.85E2,1.304E3,2.149E3,5.8E1,1.95E2,4.229E3,1.456E3,3.02E2,9.97E2,8.3E1,3.09E2,1.29E3,1.046E3,3.7E1,1.17E2,4.87E2,1.709E3,8E0,1.77E2,1.282E3,2.2E1,2.148E3,1E0,4.3E1,1.5E1,1.87E2,8E0,1.571E3,2.658E3,6.87E2,7.69E2,1.54E2,1.48E2,8.97E2,1E2,8.2E1,1E0,2.96E2,1.3E1,1.162E3,1.28E2,1.018E3,2.8E1,2.3E1,1.4E1,1.7E1,1E2],"tree_param":{"num_deleted":"0","num_feature":"9","num_nodes":"63","size_leaf_vector":"1"}},{"base_weights":[9.700628E-2,-1.2773174E1,4.48819E1,-2.051188E1,2.2396781E0,6.3792686E1,2.7213043E1,-1.394787E1,-2.7514936E1,3.5729008E1,-2.4818322E-1,5.3180996E1,9.5309616E1,2.2276672E1,4.7058956E1,6.432504E0,-1.5021052E1,-3.2331776E1,-2.4413002E1,8.151626E1,1.4698535E1,2.397467E0,-1.2516087E1,8.3906235E1,4.5750168E1,1.5805696E2,8.239285E1,2.401535E1,-8.971373E0,5.8389713E1,2.0972824E1,6.695704E0,1.045229E-1,-1.18783E0,-6.1398625E-1,-5.948703E-1,-1.6404275E0,-4.790368E-1,-1.2560633E0,2.5495565E0,5.150802E0,-6.983666E-2,1.450089E0,6.250305E-2,2.2526386E0,-2.8688064E-1,-1.0983865E0,5.9161057E0,3.3406036E0,2.5056593E0,-2.7014134E-2,-5.678914E-1,8.028385E0,4.29907E0,-6.474749E-1,9.019707E-1,1.4758493E0,3.5583463E0,-5.988566E-1,2.7158382E0,1.2599417E1,1.2166535E0,-2.8237543E0],"categories":[],"categories_nodes":[],"categories_segments":[],"categories_sizes":[],"default_left":[0,0,0,0,0,0,0,0,0,0,0,0,0,0,0,0,0,0,0,0,0,0,0,0,0,0,0,0,0,0,0,0,0,0,0,0,0,0,0,0,0,0,0,0,0,0,0,0,0,0,0,0,0,0,0,0,0,0,0,0,0,0,0],"id":7,"left_children":[1,3,5,7,9,11,13,15,17,19,21,23,25,27,29,31,33,35,37,39,41,43,45,47,49,51,53,55,57,59,61,-1,-1,-1,-1,-1,-1,-1,-1,-1,-1,-1,-1,-1,-1,-1,-1,-1,-1,-1,-1,-1,-1,-1,-1,-1,-1,-1,-1,-1,-1,-1,-1],"loss_changes":[9.241252E6,1.4469522E6,1.1941225E6,3.7738225E5,3.5302222E5,5.72857E5,1.8038625E5,9.292081E4,5.860325E4,2.8093962E5,1.2807122E5,2.9182825E5,3.387305E5,8.089594E4,1.0754725E5,1.17622125E5,9.626256E4,1.47495E4,2.5202875E4,5.5125188E4,4.6543848E4,1.5881252E5,4.4721367E4,1.3976062E5,2.110815E5,3.2874625E4,1.2496825E5,4.5726062E4,1.9881615E4,1.8817319E5,3.0781781E4,0E0,0E0,0E0,0E0,0E0,0E0,0E0,0E0,0E0,0E0,0E0,0E0,0E0,0E0,0E0,0E0,0E0,0E0,0E0,0E0,0E0,0E0,0E0,0E0,0E0,0E0,0E0,0E0,0E0,0E0,0E0,0E0],"parents":[2147483647,0,0,1,1,2,2,3,3,4,4,5,5,6,6,7,7,8,8,9,9,10,10,11,11,12,12,13,13,14,14,15,15,16,16,17,17,18,18,19,19,20,20,21,21,22,22,23,23,24,24,25,25,26,26,27,27,28,28,29,29,30,30],"right_children":[2,4,6,8,10,12,14,16,18,20,22,24,26,28,30,32,34,36,38,40,42,44,46,48,50,52,54,56,58,60,62,-1,-1,-1,-1,-1,-1,-1,-1,-1,-1,-1,-1,-1,-1,-1,-1,-1,-1,-1,-1,-1,-1,-1,-1,-1,-1,-1,-1,-1,-1,-1,-1],"split_conditions":[9.299506E1,5.317233E1,1.96E1,2E-1,2E1,1.9911111E2,1.5831592E2,1.63E1,2.0464722E1,1.33E1,3E-1,2E1,8.6E0,7E-1,1.78E1,6.616667E0,2.4104826E1,2.3E1,4.9E1,7.264083E1,1.7E1,2.84E2,1.36E2,1.26E1,4E-1,5.95E1,1.7E0,1.12981346E2,1.99E1,7.6E0,3.9E0,6.695704E0,1.045229E-1,-1.18783E0,-6.1398625E-1,-5.948703E-1,-1.6404275E0,-4.790368E-1,-1.2560633E0,2.5495565E0,5.150802E0,-6.983666E-2,1.450089E0,6.250305E-2,2.2526386E0,-2.8688064E-1,-1.0983865E0,5.9161057E0,3.3406036E0,2.5056593E0,-2.7014134E-2,-5.678914E-1,8.028385E0,4.29907E0,-6.474749E-1,9.019707E-1,1.4758493E0,3.5583463E0,-5.988566E-1,2.7158382E0,1.2599417E1,1.2166535E0,-2.8237543E0],"split_indices":[1,1,6,8,4,1,1,6,1,6,8,4,7,8,7,1,1,4,4,1,4,4,4,6,8,0,8,1,6,8,8,0,0,0,0,0,0,0,0,0,0,0,0,0,0,0,0,0,0,0,0,0,0,0,0,0,0,0,0,0,0,0,0],"split_type":[0,0,0,0,0,0,0,0,0,0,0,0,0,0,0,0,0,0,0,0,0,0,0,0,0,0,0,0,0,0,0,0,0,0,0,0,0,0,0,0,0,0,0,0,0,0,0,0,0,0,0,0,0,0,0,0,0,0,0,0,0,0,0],"sum_hessian":[1.6031E4,1.2453E4,3.578E3,8.217E3,4.236E3,1.727E3,1.851E3,4.243E3,3.974E3,2.92E2,3.944E3,1.294E3,4.33E2,1.484E3,3.67E2,2.12E2,4.031E3,1.553E3,2.421E3,9.1E1,2.01E2,3.245E3,6.99E2,2.5E2,1.044E3,7.2E1,3.61E2,1.406E3,7.8E1,2.55E2,1.12E2,6E0,2.06E2,9.61E2,3.07E3,3.6E1,1.517E3,1.11E2,2.31E3,3.9E1,5.2E1,9.5E1,1.06E2,3.161E3,8.4E1,4.08E2,2.91E2,8.1E1,1.69E2,9.54E2,9E1,1E0,7.1E1,3.48E2,1.3E1,6.76E2,7.3E2,2E0,7.6E1,2.51E2,4E0,1.08E2,4E0],"tree_param":{"num_deleted":"0","num_feature":"9","num_nodes":"63","size_leaf_vector":"1"}},{"base_weights":[-5.8652065E-3,-1.4536031E1,3.555571E1,-2.329473E1,-5.8024373E0,2.31256E1,6.1371338E1,-1.7310938E1,-2.7182728E1,1.2192703E1,-7.8390207E0,8.490889E1,2.0451313E1,8.12592E1,4.5809998E1,-1.8940762E1,5.878177E-1,-3.133665E1,-2.4782791E1,3.8874294E1,5.074301E0,-4.651422E0,-1.5877164E1,1.462822E2,4.211794E1,3.6583466E1,1.44804535E1,6.314621E1,1.05293396E2,5.1919666E1,1.7412191E1,-2.8074047E-1,-1.0276262E0,4.0053644E0,-1.23692654E-1,-1.5914088E0,-6.89082E-1,-1.2439016E0,4.585464E0,8.175129E-1,2.9854352E0,1.9601719E-1,4.5772333E0,-2.7163932E-1,1.8403157E0,-4.4849807E-1,-9.6254015E-1,7.781611E0,1.2697763E0,1.0043483E0,3.4305325E0,2.2875707E0,1.4275602E0,3.476791E-1,1.0926011E0,3.774376E0,1.2663845E0,7.6231494E0,4.6752334E0,2.4144056E0,4.720119E0,1.2446729E0,-1.3963407E0],"categories":[],"categories_nodes":[],"categories_segments":[],"categories_sizes":[],"default_left":[0,0,0,0,0,0,0,0,0,0,0,0,0,0,0,0,0,0,0,0,0,0,0,0,0,0,0,0,0,0,0,0,0,0,0,0,0,0,0,0,0,0,0,0,0,0,0,0,0,0,0,0,0,0,0,0,0,0,0,0,0,0,0],"id":8,"left_children":[1,3,5,7,9,11,13,15,17,19,21,23,25,27,29,31,33,35,37,39,41,43,45,47,49,51,53,55,57,59,61,-1,-1,-1,-1,-1,-1,-1,-1,-1,-1,-1,-1,-1,-1,-1,-1,-1,-1,-1,-1,-1,-1,-1,-1,-1,-1,-1,-1,-1,-1,-1,-1],"loss_changes":[8.2850175E6,8.70606E5,1.491045E6,1.3174425E5,2.0902927E5,5.1723938E5,4.639045E5,6.5385125E4,3.3547E4,1.0996233E5,1.311639E5,3.352477E5,2.895945E5,2.8154E5,1.4657188E5,4.4000938E4,4.5969113E4,1.040775E4,2.65465E4,5.6275297E4,4.5441555E4,1.1905208E5,3.3709062E4,5.5953125E4,4.4147312E4,5.85625E4,1.2191472E5,1.754455E5,1.43112E5,1.03282E5,5.2252555E4,0E0,0E0,0E0,0E0,0E0,0E0,0E0,0E0,0E0,0E0,0E0,0E0,0E0,0E0,0E0,0E0,0E0,0E0,0E0,0E0,0E0,0E0,0E0,0E0,0E0,0E0,0E0,0E0,0E0,0E0,0E0,0E0],"parents":[2147483647,0,0,1,1,2,2,3,3,4,4,5,5,6,6,7,7,8,8,9,9,10,10,11,11,12,12,13,13,14,14,15,15,16,16,17,17,18,18,19,19,20,20,21,21,22,22,23,23,24,24,25,25,26,26,27,27,28,28,29,29,30,30],"right_children":[2,4,6,8,10,12,14,16,18,20,22,24,26,28,30,32,34,36,38,40,42,44,46,48,50,52,54,56,58,60,62,-1,-1,-1,-1,-1,-1,-1,-1,-1,-1,-1,-1,-1,-1,-1,-1,-1,-1,-1,-1,-1,-1,-1,-1,-1,-1,-1,-1,-1,-1,-1,-1],"split_conditions":[7.888419E1,3.852651E1,1.4239223E2,1E-1,3.4E1,1.21E1,1.15E1,2.84E2,1.7958149E1,1.35E1,1E-1,1.6E1,1.12E1,7.1E1,1.94E1,2.3E1,1.57E1,2.89E2,8.5362854E1,6.3E1,5.8483616E1,1E1,9.5E1,4.4121113E1,1.0535409E2,1.87E1,1.003225E2,4.9E1,7.9E0,2.7340714E2,3.9E0,-2.8074047E-1,-1.0276262E0,4.0053644E0,-1.23692654E-1,-1.5914088E0,-6.89082E-1,-1.2439016E0,4.585464E0,8.175129E-1,2.9854352E0,1.9601719E-1,4.5772333E0,-2.7163932E-1,1.8403157E0,-4.4849807E-1,-9.6254015E-1,7.781611E0,1.2697763E0,1.0043483E0,3.4305325E0,2.2875707E0,1.4275602E0,3.476791E-1,1.0926011E0,3.774376E0,1.2663845E0,7.6231494E0,4.6752334E0,2.4144056E0,4.720119E0,1.2446729E0,-1.3963407E0],"split_indices":[1,1,1,8,4,6,7,4,1,6,8,4,7,4,7,4,6,4,0,0,2,3,4,2,0,6,1,4,7,1,8,0,0,0,0,0,0,0,0,0,0,0,0,0,0,0,0,0,0,0,0,0,0,0,0,0,0,0,0,0,0,0,0],"split_type":[0,0,0,0,0,0,0,0,0,0,0,0,0,0,0,0,0,0,0,0,0,0,0,0,0,0,0,0,0,0,0,0,0,0,0,0,0,0,0,0,0,0,0,0,0,0,0,0,0,0,0,0,0,0,0,0,0,0,0,0,0,0,0],"sum_hessian":[1.6032E4,1.1382E4,4.65E3,5.682E3,5.7E3,3.14E3,1.51E3,2.24E3,3.442E3,5.79E2,5.121E3,1.29E2,3.011E3,6.61E2,8.49E2,2.053E3,1.87E2,1.256E3,2.186E3,1.21E2,4.58E2,3.668E3,1.453E3,5.2E1,7.7E1,8.12E2,2.199E3,3.79E2,2.82E2,6.98E2,1.51E2,2.22E2,1.831E3,6E0,1.81E2,1.221E3,3.5E1,2.185E3,1E0,5.9E1,6.2E1,4.53E2,5E0,3.601E3,6.7E1,4.78E2,9.75E2,4.8E1,4E0,4.3E1,3.4E1,3.77E2,4.35E2,1.089E3,1.11E3,2.85E2,9.4E1,5.4E1,2.28E2,6.45E2,5.3E1,1.3E2,2.1E1],"tree_param":{"num_deleted":"0","num_feature":"9","num_nodes":"63","size_leaf_vector":"1"}},{"base_weights":[9.62063E-2,-1.2026994E1,3.9045116E1,-1.853813E1,1.268022E0,5.7264503E1,2.2871962E1,-1.2448349E1,-2.4258158E1,3.110403E1,-7.510548E-1,5.156966E1,9.99062E1,2.0092459E1,5.4261105E1,-1.7690405E1,-8.922614E0,-2.7942236E1,-1.9606028E1,7.830451E1,1.1264364E1,2.9265876E0,-7.6467633E0,7.7151245E1,4.5163807E1,1.4532242E2,8.064247E1,2.3083784E1,-1.16969E0,4.6341003E1,1.3524355E2,-9.7584975E-1,-4.2960387E-2,-4.748366E-1,8.4372675E-1,-1.4133853E0,-4.537536E-2,-8.617096E-1,-1.1605567E0,1.9487371E0,4.918898E0,-5.011623E-2,1.0885469E0,-9.704804E-2,4.6060243E-1,-5.1596385E-1,1.150999E0,5.149078E0,2.4293096E0,1.8239012E0,3.6447313E0,7.3863063E0,2.750721E-2,4.13969E0,-9.020837E-1,8.307719E-1,1.469879E0,-7.635439E-1,4.4706914E-1,2.593664E0,-1.8149089E0,8.187941E-1,1.4550223E1],"categories":[],"categories_nodes":[],"categories_segments":[],"categories_sizes":[],"default_left":[0,0,0,0,0,0,0,0,0,0,0,0,0,0,0,0,0,0,0,0,0,0,0,0,0,0,0,0,0,0,0,0,0,0,0,0,0,0,0,0,0,0,0,0,0,0,0,0,0,0,0,0,0,0,0,0,0,0,0,0,0,0,0],"id":9,"left_children":[1,3,5,7,9,11,13,15,17,19,21,23,25,27,29,31,33,35,37,39,41,43,45,47,49,51,53,55,57,59,61,-1,-1,-1,-1,-1,-1,-1,-1,-1,-1,-1,-1,-1,-1,-1,-1,-1,-1,-1,-1,-1,-1,-1,-1,-1,-1,-1,-1,-1,-1,-1,-1],"loss_changes":[7.5450485E6,1.0549128E6,1.116354E6,2.84638E5,2.4140981E5,4.278275E5,1.74362E5,7.310525E4,7.172625E4,2.3697416E5,9.522363E4,2.54614E5,1.7113212E5,1.1762719E5,9.827909E4,4.8957875E4,3.529103E4,2.066075E4,1.55641875E4,5.537703E4,2.3220375E4,7.494451E4,1.0727376E5,2.2667988E5,3.01311E5,2.1146125E4,3.3126688E4,6.571275E4,3.2786934E4,7.046028E4,2.5444364E5,0E0,0E0,0E0,0E0,0E0,0E0,0E0,0E0,0E0,0E0,0E0,0E0,0E0,0E0,0E0,0E0,0E0,0E0,0E0,0E0,0E0,0E0,0E0,0E0,0E0,0E0,0E0,0E0,0E0,0E0,0E0,0E0],"parents":[2147483647,0,0,1,1,2,2,3,3,4,4,5,5,6,6,7,7,8,8,9,9,10,10,11,11,12,12,13,13,14,14,15,15,16,16,17,17,18,18,19,19,20,20,21,21,22,22,23,23,24,24,25,25,26,26,27,27,28,28,29,29,30,30],"right_children":[2,4,6,8,10,12,14,16,18,20,22,24,26,28,30,32,34,36,38,40,42,44,46,48,50,52,54,56,58,60,62,-1,-1,-1,-1,-1,-1,-1,-1,-1,-1,-1,-1,-1,-1,-1,-1,-1,-1,-1,-1,-1,-1,-1,-1,-1,-1,-1,-1,-1,-1,-1,-1],"split_conditions":[8.918056E1,5.317233E1,1.95E1,1E-1,2E1,2.386481E2,8E0,3.2333332E1,2.7032906E1,1.33E1,9.5E1,2E1,9.2E0,1.05E2,4.9E0,2.84E2,2.87E2,2.98E2,1.76E1,6.794336E1,1.7E1,7.0214386E1,2.87E2,1.41E1,1.1E1,1E-1,3.6E2,1.161E2,2.99E1,1.0178249E2,5.1094044E1,-9.7584975E-1,-4.2960387E-2,-4.748366E-1,8.4372675E-1,-1.4133853E0,-4.537536E-2,-8.617096E-1,-1.1605567E0,1.9487371E0,4.918898E0,-5.011623E-2,1.0885469E0,-9.704804E-2,4.6060243E-1,-5.1596385E-1,1.150999E0,5.149078E0,2.4293096E0,1.8239012E0,3.6447313E0,7.3863063E0,2.750721E-2,4.13969E0,-9.020837E-1,8.307719E-1,1.469879E0,-7.635439E-1,4.4706914E-1,2.593664E0,-1.8149089E0,8.187941E-1,1.4550223E1],"split_indices":[1,1,6,8,4,1,3,1,1,6,4,4,7,4,8,4,4,4,7,1,4,1,4,6,3,8,4,1,6,2,2,0,0,0,0,0,0,0,0,0,0,0,0,0,0,0,0,0,0,0,0,0,0,0,0,0,0,0,0,0,0,0,0],"split_type":[0,0,0,0,0,0,0,0,0,0,0,0,0,0,0,0,0,0,0,0,0,0,0,0,0,0,0,0,0,0,0,0,0,0,0,0,0,0,0,0,0,0,0,0,0,0,0,0,0,0,0,0,0,0,0,0,0,0,0,0,0,0,0],"sum_hessian":[1.5977E4,1.2185E4,3.792E3,8.179E3,4.006E3,1.782E3,2.01E3,3.963E3,4.216E3,2.53E2,3.753E3,1.574E3,2.08E2,1.848E3,1.62E2,1.592E3,2.371E3,2.35E3,1.866E3,7.4E1,1.79E2,2.448E3,1.305E3,3.13E2,1.261E3,6E1,1.48E2,1.62E3,2.28E2,1.49E2,1.3E1,1.436E3,1.56E2,2.32E3,5.1E1,2.322E3,2.8E1,1.129E3,7.37E2,2.6E1,4.8E1,8.3E1,9.6E1,1.38E3,1.068E3,1.201E3,1.04E2,1.63E2,1.5E2,9.62E2,2.99E2,5.9E1,1E0,1.45E2,3E0,8.02E2,8.18E2,9.5E1,1.33E2,1.4E2,9E0,8E0,5E0],"tree_param":{"num_deleted":"0","num_feature":"9","num_nodes":"63","size_leaf_vector":"1"}},{"base_weights":[-1.364194E-1,-1.3519807E1,3.0147427E1,-2.1145767E1,-6.2299976E0,1.8355293E1,5.4197243E1,-1.54768095E1,-2.4708988E1,-3.160342E0,-1.4690357E1,3.6009274E1,1.2056787E1,6.811048E1,3.152535E1,-1.7054428E1,1.9750099E0,-1.2222408E1,-2.5388208E1,-3.929115E0,4.1061558E1,4.6169534E0,-1.6306099E1,9.019859E1,3.213235E1,2.9188187E1,8.442792E0,6.1341385E1,1.2551356E2,3.8607273E1,9.212462E0,-2.0934223E-1,-9.365334E-1,4.6245856E0,-1.186473E-1,-6.6691035E-1,4.49237E0,-1.393743E0,-1.1250476E0,4.2284963E-1,-2.8504643E-1,2.920138E0,7.70758E-1,8.507229E-1,-2.7814054E-1,-9.011063E-1,-3.7902313E-1,7.661607E0,1.8082573E0,1.51129E0,3.0805135E0,3.1604114E0,1.1399556E0,5.9335005E-1,-4.4872603E-1,2.6389596E0,4.017996E0,6.388753E0,-2.68552E0,1.3460134E0,2.7615993E0,7.5307673E-1,-1.4633564E0],"categories":[],"categories_nodes":[],"categories_segments":[],"categories_sizes":[],"default_left":[0,0,0,0,0,0,0,0,0,0,0,0,0,0,0,0,0,0,0,0,0,0,0,0,0,0,0,0,0,0,0,0,0,0,0,0,0,0,0,0,0,0,0,0,0,0,0,0,0,0,0,0,0,0,0,0,0,0,0,0,0,0,0],"id":10,"left_children":[1,3,5,7,9,11,13,15,17,19,21,23,25,27,29,31,33,35,37,39,41,43,45,47,49,51,53,55,57,59,61,-1,-1,-1,-1,-1,-1,-1,-1,-1,-1,-1,-1,-1,-1,-1,-1,-1,-1,-1,-1,-1,-1,-1,-1,-1,-1,-1,-1,-1,-1,-1,-1],"loss_changes":[6.4613025E6,6.144911E5,1.384668E6,1.08757E5,1.4679019E5,3.6428112E5,5.047635E5,5.7521156E4,2.7813125E4,1.4124725E5,4.7024656E4,1.7819738E5,1.4952066E5,3.78925E5,9.650956E4,4.1226438E4,6.8699375E4,2.0901244E4,2.1945375E4,8.9587336E4,3.0676195E4,1.4860477E4,2.06615E4,1.8859575E5,4.3435938E4,9.006606E4,1.1932791E5,1.4101225E5,4.90155E4,8.8859375E4,3.3976223E4,0E0,0E0,0E0,0E0,0E0,0E0,0E0,0E0,0E0,0E0,0E0,0E0,0E0,0E0,0E0,0E0,0E0,0E0,0E0,0E0,0E0,0E0,0E0,0E0,0E0,0E0,0E0,0E0,0E0,0E0,0E0,0E0],"parents":[2147483647,0,0,1,1,2,2,3,3,4,4,5,5,6,6,7,7,8,8,9,9,10,10,11,11,12,12,13,13,14,14,15,15,16,16,17,17,18,18,19,19,20,20,21,21,22,22,23,23,24,24,25,25,26,26,27,27,28,28,29,29,30,30],"right_children":[2,4,6,8,10,12,14,16,18,20,22,24,26,28,30,32,34,36,38,40,42,44,46,48,50,52,54,56,58,60,62,-1,-1,-1,-1,-1,-1,-1,-1,-1,-1,-1,-1,-1,-1,-1,-1,-1,-1,-1,-1,-1,-1,-1,-1,-1,-1,-1,-1,-1,-1,-1,-1],"split_conditions":[7.631154E1,3.7472206E1,1.3795523E2,1E-1,1E-1,1.12E1,1.4E1,2.84E2,5.2E1,2.87E2,4.9E1,1.17E1,3.4E1,2.7340714E2,2E1,2.3E1,1.57E1,5.46E1,2.176797E1,3.4E1,1.21E1,1.93E1,6.3680557E1,1.6E1,3.47E2,1.29E1,1E-1,2.84E2,2.05E1,1.88306E2,4.4E0,-2.0934223E-1,-9.365334E-1,4.6245856E0,-1.186473E-1,-6.6691035E-1,4.49237E0,-1.393743E0,-1.1250476E0,4.2284963E-1,-2.8504643E-1,2.920138E0,7.70758E-1,8.507229E-1,-2.7814054E-1,-9.011063E-1,-3.7902313E-1,7.661607E0,1.8082573E0,1.51129E0,3.0805135E0,3.1604114E0,1.1399556E0,5.9335005E-1,-4.4872603E-1,2.6389596E0,4.017996E0,6.388753E0,-2.68552E0,1.3460134E0,2.7615993E0,7.5307673E-1,-1.4633564E0],"split_indices":[1,1,1,8,8,7,7,4,4,4,4,6,4,1,7,4,6,0,1,4,7,6,1,4,4,6,8,4,8,0,8,0,0,0,0,0,0,0,0,0,0,0,0,0,0,0,0,0,0,0,0,0,0,0,0,0,0,0,0,0,0,0,0],"split_type":[0,0,0,0,0,0,0,0,0,0,0,0,0,0,0,0,0,0,0,0,0,0,0,0,0,0,0,0,0,0,0,0,0,0,0,0,0,0,0,0,0,0,0,0,0,0,0,0,0,0,0,0,0,0,0,0,0,0,0,0,0,0,0],"sum_hessian":[1.594E4,1.1055E4,4.885E3,5.402E3,5.653E3,3.279E3,1.606E3,2.087E3,3.315E3,4.149E3,1.504E3,8.61E2,2.418E3,9.94E2,6.12E2,1.914E3,1.73E2,1.72E2,3.143E3,4.079E3,7E1,1.16E2,1.388E3,5.6E1,8.05E2,4.2E2,1.998E3,8.91E2,1.03E2,4.64E2,1.48E2,2.21E2,1.693E3,7E0,1.66E2,1.71E2,1E0,1.684E3,1.459E3,5.1E2,3.569E3,4.1E1,2.9E1,5.2E1,6.4E1,1.159E3,2.29E2,2.5E1,3.1E1,7.58E2,4.7E1,6.5E1,3.55E2,1.67E3,3.28E2,6.17E2,2.74E2,1.02E2,1E0,2.74E2,1.9E2,1.29E2,1.9E1],"tree_param":{"num_deleted":"0","num_feature":"9","num_nodes":"63","size_leaf_vector":"1"}},{"base_weights":[-1.14956394E-1,-9.866758E0,3.834917E1,-1.690246E1,2.873307E0,5.394472E1,2.2524534E1,-1.1347869E1,-2.2130796E1,2.9283491E1,5.134226E-1,4.4851303E1,7.5346725E1,2.2027552E1,1.7635811E2,-1.642302E1,-7.9174533E0,-2.4858503E1,-1.762731E1,7.2224976E1,1.4396809E1,2.751245E0,-1.0289278E1,7.374817E1,3.8001553E1,1.3237946E2,6.5473816E1,3.586711E1,1.7184975E1,1.2331573E1,-2.618382E0,-8.997883E-1,-1.2381575E-1,9.980117E-1,-4.2088223E-1,-1.1970035E0,-1.534058E0,-1.7372696E-1,-9.162825E-1,4.696762E0,1.7017472E0,-1.5061061E-1,1.3425267E0,8.693161E-2,1.8065102E0,-5.0996494E-2,-8.2805866E-1,4.7219486E0,2.5389278E0,1.5230159E0,3.061362E0,6.831061E0,-3.9469212E-1,3.4884422E0,-4.8708364E-2,1.106833E0,2.4947171E0,9.863698E-1,-4.9544062E-2],"categories":[],"categories_nodes":[],"categories_segments":[],"categories_sizes":[],"default_left":[0,0,0,0,0,0,0,0,0,0,0,0,0,0,0,0,0,0,0,0,0,0,0,0,0,0,0,0,0,0,0,0,0,0,0,0,0,0,0,0,0,0,0,0,0,0,0,0,0,0,0,0,0,0,0,0,0,0,0],"id":11,"left_children":[1,3,5,7,9,11,13,15,17,19,21,23,25,27,29,31,33,35,37,39,41,43,45,47,49,51,53,55,57,-1,-1,-1,-1,-1,-1,-1,-1,-1,-1,-1,-1,-1,-1,-1,-1,-1,-1,-1,-1,-1,-1,-1,-1,-1,-1,-1,-1,-1,-1],"loss_changes":[5.960631E6,1.136355E6,7.91981E5,2.3692875E5,2.8113294E5,3.11511E5,1.18209875E5,6.884791E4,5.122925E4,2.35485E5,1.00159195E5,2.2244925E5,2.621735E5,1.06145125E5,9.3282125E4,3.498503E4,3.3159984E4,1.32605E4,1.5651E4,7.5568875E4,5.9919652E4,1.1593865E5,4.1318062E4,9.8335875E4,1.5962362E5,4.2729125E4,1.17650875E5,7.824675E4,5.464053E4,0E0,0E0,0E0,0E0,0E0,0E0,0E0,0E0,0E0,0E0,0E0,0E0,0E0,0E0,0E0,0E0,0E0,0E0,0E0,0E0,0E0,0E0,0E0,0E0,0E0,0E0,0E0,0E0,0E0,0E0],"parents":[2147483647,0,0,1,1,2,2,3,3,4,4,5,5,6,6,7,7,8,8,9,9,10,10,11,11,12,12,13,13,14,14,15,15,16,16,17,17,18,18,19,19,20,20,21,21,22,22,23,23,24,24,25,25,26,26,27,27,28,28],"right_children":[2,4,6,8,10,12,14,16,18,20,22,24,26,28,30,32,34,36,38,40,42,44,46,48,50,52,54,56,58,-1,-1,-1,-1,-1,-1,-1,-1,-1,-1,-1,-1,-1,-1,-1,-1,-1,-1,-1,-1,-1,-1,-1,-1,-1,-1,-1,-1,-1,-1],"split_conditions":[9.806685E1,5.317233E1,1.96E1,1E-1,2.1E1,1.94E2,3.28E1,3.2333332E1,2.819E1,1.29E1,3E-1,2E1,8.6E0,1.18E1,3.0244974E2,2.84E2,1.5E1,2.36E1,3.7E1,1.6E1,1.7E1,2.84E2,8.7E1,1.37E1,2.98E2,1E-1,7E-1,6.3E1,1E-1,1.2331573E1,-2.618382E0,-8.997883E-1,-1.2381575E-1,9.980117E-1,-4.2088223E-1,-1.1970035E0,-1.534058E0,-1.7372696E-1,-9.162825E-1,4.696762E0,1.7017472E0,-1.5061061E-1,1.3425267E0,8.693161E-2,1.8065102E0,-5.0996494E-2,-8.2805866E-1,4.7219486E0,2.5389278E0,1.5230159E0,3.061362E0,6.831061E0,-3.9469212E-1,3.4884422E0,-4.8708364E-2,1.106833E0,2.4947171E0,9.863698E-1,-4.9544062E-2],"split_indices":[1,1,6,8,4,0,8,1,0,6,8,4,7,7,1,4,4,7,4,4,4,4,4,6,4,8,8,4,8,0,0,0,0,0,0,0,0,0,0,0,0,0,0,0,0,0,0,0,0,0,0,0,0,0,0,0,0,0,0],"split_type":[0,0,0,0,0,0,0,0,0,0,0,0,0,0,0,0,0,0,0,0,0,0,0,0,0,0,0,0,0,0,0,0,0,0,0,0,0,0,0,0,0,0,0,0,0,0,0,0,0,0,0,0,0,0,0,0,0,0,0],"sum_hessian":[1.5889E4,1.2676E4,3.213E3,8.166E3,4.51E3,1.617E3,1.596E3,3.961E3,4.205E3,3.69E2,4.141E3,1.137E3,4.8E2,1.592E3,4E0,1.596E3,2.365E3,2.616E3,1.589E3,9.4E1,2.75E2,3.431E3,7.1E2,2.16E2,9.21E2,6.9E1,4.11E2,4.11E2,1.181E3,3E0,1E0,1.434E3,1.62E2,4.1E1,2.324E3,2.264E3,3.52E2,7.5E1,1.514E3,5.9E1,3.5E1,1.15E2,1.6E2,3.331E3,1E2,2.87E2,4.23E2,1.12E2,1.04E2,6.97E2,2.24E2,6.7E1,2E0,3.86E2,2.5E1,2.09E2,2.02E2,1.036E3,1.45E2],"tree_param":{"num_deleted":"0","num_feature":"9","num_nodes":"59","size_leaf_vector":"1"}},{"base_weights":[8.767057E-2,-9.928654E0,3.497644E1,-1.5920799E1,1.6483318E0,5.253225E1,2.200827E1,-1.0823769E1,-2.1370434E1,2.6639229E1,-3.6994702E-1,4.866415E1,1.0251023E2,1.8292831E1,5.991542E1,-2.0668047E1,-9.12057E0,-2.3320948E1,-1.5930297E1,6.798585E1,1.309058E1,-3.130725E0,6.2970533E0,5.0610268E1,-2.4867825E1,7.706341E1,1.3271327E2,2.0068378E1,-1.3057033E1,2.7158957E1,8.043819E1,-1.0979942E0,3.8069582E-1,-4.9518386E-1,5.885056E-1,-4.804615E-1,-1.1884947E0,8.725166E-2,-8.2713586E-1,4.5340014E0,1.5326691E0,1.07257724E-1,1.2790242E0,2.3813115E-1,-2.4036275E-1,4.1721025E-1,-6.4701E-1,3.4979045E0,2.2850394E0,1.2226871E0,-1.4192439E0,-4.275612E-1,3.9316418E0,6.8770485E0,3.1843452E0,9.829283E-1,3.9285057E0,-7.602437E-1,-2.7662525E-1,1.7082881E0,-1.6583102E0,6.246858E0,2.5448132E0],"categories":[],"categories_nodes":[],"categories_segments":[],"categories_sizes":[],"default_left":[0,0,0,0,0,0,0,0,0,0,0,0,0,0,0,0,0,0,0,0,0,0,0,0,0,0,0,0,0,0,0,0,0,0,0,0,0,0,0,0,0,0,0,0,0,0,0,0,0,0,0,0,0,0,0,0,0,0,0,0,0,0,0],"id":12,"left_children":[1,3,5,7,9,11,13,15,17,19,21,23,25,27,29,31,33,35,37,39,41,43,45,47,49,51,53,55,57,59,61,-1,-1,-1,-1,-1,-1,-1,-1,-1,-1,-1,-1,-1,-1,-1,-1,-1,-1,-1,-1,-1,-1,-1,-1,-1,-1,-1,-1,-1,-1,-1,-1],"loss_changes":[5.5930605E6,8.626544E5,8.11614E5,2.2737312E5,2.1397038E5,2.880845E5,2.883337E5,7.083547E4,4.16375E4,1.766905E5,7.228209E4,2.0288875E5,7.27785E4,1.0451906E5,1.2083769E5,2.29655E4,5.9223875E4,1.76975E4,1.13731875E4,6.330428E4,3.2754883E4,3.6772133E4,4.5396793E4,1.2722125E5,7.112381E3,8.86875E3,7.235875E3,4.0962688E4,1.5481914E3,3.1566582E4,1.4087469E5,0E0,0E0,0E0,0E0,0E0,0E0,0E0,0E0,0E0,0E0,0E0,0E0,0E0,0E0,0E0,0E0,0E0,0E0,0E0,0E0,0E0,0E0,0E0,0E0,0E0,0E0,0E0,0E0,0E0,0E0,0E0,0E0],"parents":[2147483647,0,0,1,1,2,2,3,3,4,4,5,5,6,6,7,7,8,8,9,9,10,10,11,11,12,12,13,13,14,14,15,15,16,16,17,17,18,18,19,19,20,20,21,21,22,22,23,23,24,24,25,25,26,26,27,27,28,28,29,29,30,30],"right_children":[2,4,6,8,10,12,14,16,18,20,22,24,26,28,30,32,34,36,38,40,42,44,46,48,50,52,54,56,58,60,62,-1,-1,-1,-1,-1,-1,-1,-1,-1,-1,-1,-1,-1,-1,-1,-1,-1,-1,-1,-1,-1,-1,-1,-1,-1,-1,-1,-1,-1,-1,-1,-1],"split_conditions":[9.299506E1,5.317233E1,1.87E1,2E-1,2.1E1,2.7340714E2,8E0,1.9237314E1,3.4108368E1,1.29E1,7.631154E1,5.3E0,1.45E1,5E0,1.554037E2,3.14E2,2.84E2,3.6E1,3.7E1,1.6E1,7.72E1,4.8E1,9E-1,2E1,1E0,1.195E2,1.18E1,1.16E2,1.6290909E2,6.657914E1,1.2E1,-1.0979942E0,3.8069582E-1,-4.9518386E-1,5.885056E-1,-4.804615E-1,-1.1884947E0,8.725166E-2,-8.2713586E-1,4.5340014E0,1.5326691E0,1.07257724E-1,1.2790242E0,2.3813115E-1,-2.4036275E-1,4.1721025E-1,-6.4701E-1,3.4979045E0,2.2850394E0,1.2226871E0,-1.4192439E0,-4.275612E-1,3.9316418E0,6.8770485E0,3.1843452E0,9.829283E-1,3.9285057E0,-7.602437E-1,-2.7662525E-1,1.7082881E0,-1.6583102E0,6.246858E0,2.5448132E0],"split_indices":[1,1,6,8,4,1,3,1,1,6,1,8,6,3,1,4,4,4,4,4,0,4,8,4,5,0,7,4,0,2,3,0,0,0,0,0,0,0,0,0,0,0,0,0,0,0,0,0,0,0,0,0,0,0,0,0,0,0,0,0,0,0,0],"split_type":[0,0,0,0,0,0,0,0,0,0,0,0,0,0,0,0,0,0,0,0,0,0,0,0,0,0,0,0,0,0,0,0,0,0,0,0,0,0,0,0,0,0,0,0,0,0,0,0,0,0,0,0,0,0,0,0,0,0,0,0,0,0,0],"sum_hessian":[1.6003E4,1.2434E4,3.569E3,8.193E3,4.241E3,1.515E3,2.054E3,4.235E3,3.958E3,3.16E2,3.925E3,1.408E3,1.07E2,1.872E3,1.82E2,6.23E2,3.612E3,2.911E3,1.047E3,7.7E1,2.39E2,2.776E3,1.149E3,1.372E3,3.6E1,6E1,4.7E1,1.772E3,1E2,7.1E1,1.11E2,5.96E2,2.7E1,3.482E3,1.3E2,9.3E1,2.818E3,3.5E1,1.012E3,4.7E1,3E1,1.28E2,1.11E2,4.86E2,2.29E3,1.039E3,1.1E2,2.75E2,1.097E3,2E0,3.4E1,1E0,5.9E1,4.3E1,4E0,1.761E3,1.1E1,7.7E1,2.3E1,6.4E1,7E0,4.3E1,6.8E1],"tree_param":{"num_deleted":"0","num_feature":"9","num_nodes":"63","size_leaf_vector":"1"}},{"base_weights":[-1.4865671E-1,-9.575393E0,3.2391777E1,-1.5592113E1,6.848924E-1,4.947228E1,2.1301962E1,-2.1273258E1,-1.196842E1,1.6602116E1,-1.8274729E0,6.0410534E1,3.7207058E1,1.6627422E1,6.3084755E1,-1.1788756E1,-2.2401108E1,-8.958967E0,-1.7091654E1,2.8498106E1,2.0925438E0,7.100331E-1,-1.0386062E1,5.094603E1,8.1814316E1,5.094046E1,1.8941193E1,1.9118073E1,-1.7640911E0,4.9348244E1,1.12596855E2,-6.241614E-1,3.3687608E0,-1.1720904E0,-4.7991905E-1,-4.818152E-1,5.78959E-1,-9.448512E-1,-6.5037006E-1,1.2191719E0,3.7105603E0,-5.0956666E-2,7.997505E-1,-9.885184E-3,1.5384202E0,-2.7938208E-1,-8.767759E-1,4.64661E0,2.2279603E0,5.876215E0,3.6318123E0,2.30593E0,4.2631645E0,-3.6612344E-1,1.619237E0,7.666004E-1,1.3094214E0,1.3909119E0,-3.3550385E-1,3.4151883E0,1.2571341E0,4.721613E0,1.2314649E1],"categories":[],"categories_nodes":[],"categories_segments":[],"categories_sizes":[],"default_left":[0,0,0,0,0,0,0,0,0,0,0,0,0,0,0,0,0,0,0,0,0,0,0,0,0,0,0,0,0,0,0,0,0,0,0,0,0,0,0,0,0,0,0,0,0,0,0,0,0,0,0,0,0,0,0,0,0,0,0,0,0,0,0],"id":13,"left_children":[1,3,5,7,9,11,13,15,17,19,21,23,25,27,29,31,33,35,37,39,41,43,45,47,49,51,53,55,57,59,61,-1,-1,-1,-1,-1,-1,-1,-1,-1,-1,-1,-1,-1,-1,-1,-1,-1,-1,-1,-1,-1,-1,-1,-1,-1,-1,-1,-1,-1,-1,-1,-1],"loss_changes":[4.9285575E6,7.6908375E5,6.825615E5,1.6141288E5,1.8422373E5,1.882595E5,4.266917E5,3.2437E4,7.3807625E4,1.0833675E5,8.6421195E4,1.4756125E5,1.6760806E5,9.0319E4,1.4407075E5,1.881857E4,3.6162125E4,4.2179188E4,1.2834969E4,6.3083E4,1.2302137E4,8.37713E4,3.112057E4,1.358375E5,6.619025E4,5.9454188E4,1.0262941E5,4.6069125E4,3.471671E4,7.811891E4,9.088319E4,0E0,0E0,0E0,0E0,0E0,0E0,0E0,0E0,0E0,0E0,0E0,0E0,0E0,0E0,0E0,0E0,0E0,0E0,0E0,0E0,0E0,0E0,0E0,0E0,0E0,0E0,0E0,0E0,0E0,0E0,0E0,0E0],"parents":[2147483647,0,0,1,1,2,2,3,3,4,4,5,5,6,6,7,7,8,8,9,9,10,10,11,11,12,12,13,13,14,14,15,15,16,16,17,17,18,18,19,19,20,20,21,21,22,22,23,23,24,24,25,25,26,26,27,27,28,28,29,29,30,30],"right_children":[2,4,6,8,10,12,14,16,18,20,22,24,26,28,30,32,34,36,38,40,42,44,46,48,50,52,54,56,58,60,62,-1,-1,-1,-1,-1,-1,-1,-1,-1,-1,-1,-1,-1,-1,-1,-1,-1,-1,-1,-1,-1,-1,-1,-1,-1,-1,-1,-1,-1,-1,-1,-1],"split_conditions":[9.2003784E1,5.1E1,1.8E1,2.4333334E1,3.4E1,1.16E1,8E0,5.2E1,3E-1,1.9E1,1E-1,1.7777576E2,3.4E1,1E-1,2.5463818E2,1.910154E1,2.84E2,2.84E2,3.9538887E1,3.718957E1,1.7E1,2.7E2,1.38E2,1.17E1,8.5E0,2E-1,3.8E1,1.3383968E2,5E1,2.09E1,1.0178249E2,-6.241614E-1,3.3687608E0,-1.1720904E0,-4.7991905E-1,-4.818152E-1,5.78959E-1,-9.448512E-1,-6.5037006E-1,1.2191719E0,3.7105603E0,-5.0956666E-2,7.997505E-1,-9.885184E-3,1.5384202E0,-2.7938208E-1,-8.767759E-1,4.64661E0,2.2279603E0,5.876215E0,3.6318123E0,2.30593E0,4.2631645E0,-3.6612344E-1,1.619237E0,7.666004E-1,1.3094214E0,1.3909119E0,-3.3550385E-1,3.4151883E0,1.2571341E0,4.721613E0,1.2314649E1],"split_indices":[1,1,6,1,4,7,3,4,8,6,8,1,4,8,0,2,4,4,1,2,7,4,4,6,7,8,4,1,4,6,2,0,0,0,0,0,0,0,0,0,0,0,0,0,0,0,0,0,0,0,0,0,0,0,0,0,0,0,0,0,0,0,0],"split_type":[0,0,0,0,0,0,0,0,0,0,0,0,0,0,0,0,0,0,0,0,0,0,0,0,0,0,0,0,0,0,0,0,0,0,0,0,0,0,0,0,0,0,0,0,0,0,0,0,0,0,0,0,0,0,0,0,0,0,0,0,0,0,0],"sum_hessian":[1.6065E4,1.2457E4,3.608E3,7.852E3,4.605E3,1.419E3,2.189E3,3.056E3,4.796E3,6.27E2,3.978E3,7.48E2,6.71E2,1.97E3,2.19E2,3.26E2,2.73E3,3.023E3,1.773E3,3.44E2,2.83E2,3.069E3,9.09E2,5.21E2,2.27E2,3.82E2,2.89E2,1.735E3,2.35E2,1.73E2,4.6E1,3.24E2,2E0,2.524E3,2.06E2,2.927E3,9.6E1,1.227E3,5.46E2,3.17E2,2.7E1,2.32E2,5.1E1,2.98E3,8.9E1,5.45E2,3.64E2,6.7E1,4.54E2,4.4E1,1.83E2,3.37E2,4.5E1,9.8E1,1.91E2,1.132E3,6.03E2,3.3E1,2.02E2,9.6E1,7.7E1,4.2E1,4E0],"tree_param":{"num_deleted":"0","num_feature":"9","num_nodes":"63","size_leaf_vector":"1"}},{"base_weights":[2.1081436E-1,-8.402266E0,3.3541218E1,-1.4443551E1,2.3584244E0,4.71446E1,1.9842674E1,-1.9682878E1,-1.076337E1,2.7013208E1,5.592228E-1,4.147148E1,8.517022E1,1.659638E1,5.1722733E1,-2.0545444E1,-7.9682655E0,-8.150495E0,-1.5719889E1,6.974587E1,9.837332E0,-4.0231886E0,5.1113806E0,4.907814E1,2.3321705E1,1.1046229E2,6.265644E1,1.9302422E1,-8.052983E0,4.1939686E1,2.0141747E2,-6.857931E-1,-1.1311252E0,5.4066195E0,-4.7239885E-1,5.997641E-2,-4.6760318E-1,-7.985816E-1,7.428479E-1,4.285128E0,1.3892663E0,-2.5545606E-1,1.1711115E0,-2.3108017E-1,1.0201486E0,6.632289E-1,8.760376E-2,1.8594984E0,2.9086885E0,1.4607404E0,-8.480568E-1,4.88749E0,6.5945296E0,3.5712998E0,1.4114511E0,8.284761E-1,1.3953992E0,-1.1832463E0,1.2812017E-1,2.3026576E0,-2.9829946E0,1.3070876E1,-2.8609237E-1],"categories":[],"categories_nodes":[],"categories_segments":[],"categories_sizes":[],"default_left":[0,0,0,0,0,0,0,0,0,0,0,0,0,0,0,0,0,0,0,0,0,0,0,0,0,0,0,0,0,0,0,0,0,0,0,0,0,0,0,0,0,0,0,0,0,0,0,0,0,0,0,0,0,0,0,0,0,0,0,0,0,0,0],"id":14,"left_children":[1,3,5,7,9,11,13,15,17,19,21,23,25,27,29,31,33,35,37,39,41,43,45,47,49,51,53,55,57,59,61,-1,-1,-1,-1,-1,-1,-1,-1,-1,-1,-1,-1,-1,-1,-1,-1,-1,-1,-1,-1,-1,-1,-1,-1,-1,-1,-1,-1,-1,-1,-1,-1],"loss_changes":[4.593808E6,8.266808E5,6.11399E5,1.5681825E5,2.0283825E5,3.51981E5,1.6876506E5,3.3777625E4,6.1854312E4,2.2757886E5,8.894614E4,1.9710825E5,1.14365375E5,9.947506E4,2.1268762E5,4.406175E4,4.0878188E4,3.5243203E4,1.2945906E4,5.7208812E4,4.5398938E4,3.1155375E4,5.8562004E4,1.071565E5,1.0162408E5,1.4076E4,3.2703719E4,3.1098938E4,2.4588205E4,6.2510938E4,1.13351125E5,0E0,0E0,0E0,0E0,0E0,0E0,0E0,0E0,0E0,0E0,0E0,0E0,0E0,0E0,0E0,0E0,0E0,0E0,0E0,0E0,0E0,0E0,0E0,0E0,0E0,0E0,0E0,0E0,0E0,0E0,0E0,0E0],"parents":[2147483647,0,0,1,1,2,2,3,3,4,4,5,5,6,6,7,7,8,8,9,9,10,10,11,11,12,12,13,13,14,14,15,15,16,16,17,17,18,18,19,19,20,20,21,21,22,22,23,23,24,24,25,25,26,26,27,27,28,28,29,29,30,30],"right_children":[2,4,6,8,10,12,14,16,18,20,22,24,26,28,30,32,34,36,38,40,42,44,46,48,50,52,54,56,58,60,62,-1,-1,-1,-1,-1,-1,-1,-1,-1,-1,-1,-1,-1,-1,-1,-1,-1,-1,-1,-1,-1,-1,-1,-1,-1,-1,-1,-1,-1,-1,-1,-1],"split_conditions":[9.806685E1,5.317233E1,1.96E1,2.6444445E1,2E1,2.386481E2,8E0,2.84E2,3E-1,1.29E1,6.9648125E1,1.34E1,1.07E1,1.07E2,1.2232708E2,8.8E1,1.35E1,1.03E1,4.191362E1,5E0,1.7E1,2.87E2,1.22E1,1.36E2,1.5E0,3.0244974E2,1.55E1,1.5011945E2,2.96E1,2.05E1,2.98E2,-6.857931E-1,-1.1311252E0,5.4066195E0,-4.7239885E-1,5.997641E-2,-4.6760318E-1,-7.985816E-1,7.428479E-1,4.285128E0,1.3892663E0,-2.5545606E-1,1.1711115E0,-2.3108017E-1,1.0201486E0,6.632289E-1,8.760376E-2,1.8594984E0,2.9086885E0,1.4607404E0,-8.480568E-1,4.88749E0,6.5945296E0,3.5712998E0,1.4114511E0,8.284761E-1,1.3953992E0,-1.1832463E0,1.2812017E-1,2.3026576E0,-2.9829946E0,1.3070876E1,-2.8609237E-1],"split_indices":[1,1,6,1,4,1,3,4,8,6,1,7,7,4,2,4,6,7,2,5,4,4,7,1,8,1,6,1,6,8,4,0,0,0,0,0,0,0,0,0,0,0,0,0,0,0,0,0,0,0,0,0,0,0,0,0,0,0,0,0,0,0,0],"split_type":[0,0,0,0,0,0,0,0,0,0,0,0,0,0,0,0,0,0,0,0,0,0,0,0,0,0,0,0,0,0,0,0,0,0,0,0,0,0,0,0,0,0,0,0,0,0,0,0,0,0,0,0,0,0,0,0,0,0,0,0,0,0,0],"sum_hessian":[1.6E4,1.2715E4,3.285E3,8.143E3,4.572E3,1.647E3,1.638E3,3.358E3,4.785E3,3.1E2,4.262E3,1.435E3,2.12E2,1.488E3,1.5E2,3.127E3,2.31E2,3.135E3,1.65E3,8.8E1,2.22E2,2.124E3,2.138E3,1.01E3,4.25E2,9.8E1,1.14E2,1.341E3,1.47E2,1.42E2,8E0,7.31E2,2.396E3,2E0,2.29E2,3.57E2,2.778E3,1.637E3,1.3E1,6.3E1,2.5E1,1.06E2,1.16E2,2.074E3,5E1,6.23E2,1.515E3,4.4E2,5.7E2,3.71E2,5.4E1,6.5E1,3.3E1,9E1,2.4E1,1.02E3,3.21E2,5.9E1,8.8E1,1.37E2,5E0,6E0,2E0],"tree_param":{"num_deleted":"0","num_feature":"9","num_nodes":"63","size_leaf_vector":"1"}},{"base_weights":[-6.5269135E-2,-8.6078825E0,2.9471394E1,-1.525631E1,-6.8517804E-1,2.2335012E1,5.4260246E1,-1.07298E1,-1.874632E1,1.3889423E1,-2.842814E0,3.654433E1,1.58753605E1,1.0354833E2,4.8639973E1,5.0908637E0,-1.1596023E1,-2.05812E1,-1.4658287E1,2.4816923E1,3.7972358E-1,-1.0506402E0,-1.3801526E1,6.0124134E1,2.8311481E1,1.39040365E1,4.5247215E1,1.3063013E2,8.319634E1,5.295202E1,1.7867304E1,6.0499234E0,-2.3158887E-2,-8.035906E-1,-4.7217867E-1,-3.3764803E-1,-1.0495746E0,-7.401715E-1,2.3634458E0,1.0778171E0,3.3857782E0,-1.3063602E-1,3.4106684E-1,-8.201147E-2,1.9319972E0,-5.966353E-1,-1.2437519E0,2.270389E0,4.381464E0,1.6308966E0,-4.6953988E-1,7.6713556E-1,-7.096841E-1,1.638632E0,3.7303128E0,2.7927682E0,6.812288E0,9.274422E-1,4.6764646E0,2.5598342E0,6.3327556E0,1.1078783E0,-1.808416E0],"categories":[],"categories_nodes":[],"categories_segments":[],"categories_sizes":[],"default_left":[0,0,0,0,0,0,0,0,0,0,0,0,0,0,0,0,0,0,0,0,0,0,0,0,0,0,0,0,0,0,0,0,0,0,0,0,0,0,0,0,0,0,0,0,0,0,0,0,0,0,0,0,0,0,0,0,0,0,0,0,0,0,0],"id":15,"left_children":[1,3,5,7,9,11,13,15,17,19,21,23,25,27,29,31,33,35,37,39,41,43,45,47,49,51,53,55,57,59,61,-1,-1,-1,-1,-1,-1,-1,-1,-1,-1,-1,-1,-1,-1,-1,-1,-1,-1,-1,-1,-1,-1,-1,-1,-1,-1,-1,-1,-1,-1,-1,-1],"loss_changes":[4.0287995E6,6.5235125E5,6.324535E5,1.06179625E5,1.7777614E5,2.5486375E5,2.1657375E5,4.026722E4,2.8209875E4,1.0761083E5,9.669245E4,1.6699588E5,1.10252125E5,3.3776625E4,9.459275E4,9.855066E4,2.664975E4,1.472875E4,1.1314891E4,5.490975E4,6.3211284E3,9.912036E4,1.40236875E4,8.669075E4,1.05192875E5,7.281834E4,4.1503953E4,6.2469375E3,3.0997094E4,7.5150375E4,2.1665834E4,0E0,0E0,0E0,0E0,0E0,0E0,0E0,0E0,0E0,0E0,0E0,0E0,0E0,0E0,0E0,0E0,0E0,0E0,0E0,0E0,0E0,0E0,0E0,0E0,0E0,0E0,0E0,0E0,0E0,0E0,0E0,0E0],"parents":[2147483647,0,0,1,1,2,2,3,3,4,4,5,5,6,6,7,7,8,8,9,9,10,10,11,11,12,12,13,13,14,14,15,15,16,16,17,17,18,18,19,19,20,20,21,21,22,22,23,23,24,24,25,25,26,26,27,27,28,28,29,29,30,30],"right_children":[2,4,6,8,10,12,14,16,18,20,22,24,26,28,30,32,34,36,38,40,42,44,46,48,50,52,54,56,58,60,62,-1,-1,-1,-1,-1,-1,-1,-1,-1,-1,-1,-1,-1,-1,-1,-1,-1,-1,-1,-1,-1,-1,-1,-1,-1,-1,-1,-1,-1,-1,-1,-1],"split_conditions":[9.299506E1,4.4937817E1,1.7777576E2,1E-1,3.4E1,1.76E1,8.5E0,1.66E1,2.8542856E1,1.99E1,9E-1,2E1,2.84E2,2.657658E1,1.87E1,6.616667E0,2.3222727E1,2.5E1,8.7202934E1,3.718957E1,1.54E1,3.06E2,1.52E1,1.4E2,4E-1,7E-1,1.5011945E2,4.907563E0,2.15E2,8.6E0,1.22E1,6.0499234E0,-2.3158887E-2,-8.035906E-1,-4.7217867E-1,-3.3764803E-1,-1.0495746E0,-7.401715E-1,2.3634458E0,1.0778171E0,3.3857782E0,-1.3063602E-1,3.4106684E-1,-8.201147E-2,1.9319972E0,-5.966353E-1,-1.2437519E0,2.270389E0,4.381464E0,1.6308966E0,-4.6953988E-1,7.6713556E-1,-7.096841E-1,1.638632E0,3.7303128E0,2.7927682E0,6.812288E0,9.274422E-1,4.6764646E0,2.5598342E0,6.3327556E0,1.1078783E0,-1.808416E0],"split_indices":[1,1,1,8,4,6,7,6,0,6,8,4,4,2,7,1,0,4,0,2,7,4,8,0,8,8,1,2,0,8,8,0,0,0,0,0,0,0,0,0,0,0,0,0,0,0,0,0,0,0,0,0,0,0,0,0,0,0,0,0,0,0,0],"split_type":[0,0,0,0,0,0,0,0,0,0,0,0,0,0,0,0,0,0,0,0,0,0,0,0,0,0,0,0,0,0,0,0,0,0,0,0,0,0,0,0,0,0,0,0,0,0,0,0,0,0,0,0,0,0,0,0,0,0,0,0,0,0,0],"sum_hessian":[1.5965E4,1.2384E4,3.581E3,6.733E3,5.651E3,2.782E3,7.99E2,2.933E3,3.8E3,7.28E2,4.923E3,8.68E2,1.914E3,8E1,7.19E2,1.52E2,2.781E3,2.62E3,1.18E3,4.02E2,3.26E2,4.232E3,6.91E2,2.23E2,6.45E2,1.795E3,1.19E2,3.2E1,4.8E1,6.3E2,8.9E1,6E0,1.46E2,9.01E2,1.88E3,7.6E1,2.544E3,1.178E3,2E0,3.75E2,2.7E1,2.23E2,1.03E2,4.171E3,6.1E1,5.93E2,9.8E1,1.47E2,7.6E1,5.79E2,6.6E1,1.708E3,8.7E1,8.5E1,3.4E1,3E0,2.9E1,7E0,4.1E1,6.17E2,1.3E1,8.3E1,6E0],"tree_param":{"num_deleted":"0","num_feature":"9","num_nodes":"63","size_leaf_vector":"1"}},{"base_weights":[1.7844328E-1,-9.645033E0,2.439725E1,-1.5543635E1,-3.4611115E0,3.9979458E1,1.3894344E1,-1.0659274E1,-1.7755453E1,1.4909217E1,-4.3368897E0,3.2974052E1,6.2287033E1,1.0780239E1,3.7817158E1,-1.26979065E1,-3.0051777E0,-1.9059307E1,-3.140292E0,4.460884E1,4.1308084E0,-3.2537708E0,-1.6900026E1,5.3556694E1,2.6204782E1,1.0170797E2,5.131506E1,1.3389349E1,-5.1492643E0,2.3799658E1,7.1688034E1,-2.4563019E-1,-7.2702783E-1,-1.8533246E-1,3.2105274E0,-1.1302441E0,-8.573823E-1,5.0247345E0,-2.0421778E-1,2.9818614E0,1.751794E-1,2.794278E-2,1.1724676E0,-1.8359628E-1,9.6110976E-1,8.9162284E-1,-8.940074E-1,3.74219E0,1.4883479E0,9.8273945E-1,2.5120318E0,2.0211885E0,5.3061743E0,2.743777E0,-4.821294E-1,4.5224077E-1,9.164696E-1,4.5574284E-1,-5.783729E-1,1.857034E0,1.4980339E-1,2.9899032E0,1.0376185E1],"categories":[],"categories_nodes":[],"categories_segments":[],"categories_sizes":[],"default_left":[0,0,0,0,0,0,0,0,0,0,0,0,0,0,0,0,0,0,0,0,0,0,0,0,0,0,0,0,0,0,0,0,0,0,0,0,0,0,0,0,0,0,0,0,0,0,0,0,0,0,0,0,0,0,0,0,0,0,0,0,0,0,0],"id":16,"left_children":[1,3,5,7,9,11,13,15,17,19,21,23,25,27,29,31,33,35,37,39,41,43,45,47,49,51,53,55,57,59,61,-1,-1,-1,-1,-1,-1,-1,-1,-1,-1,-1,-1,-1,-1,-1,-1,-1,-1,-1,-1,-1,-1,-1,-1,-1,-1,-1,-1,-1,-1,-1,-1],"loss_changes":[3.789236E6,4.1326138E5,7.5161875E5,6.2459125E4,8.9081414E4,2.87052E5,2.0423875E5,2.820486E4,7.5973625E4,8.048462E4,7.181916E4,1.9505112E5,1.8552462E5,1.0114731E5,1.4832594E5,2.0428422E4,1.8249273E4,2.444E4,3.2501316E4,4.118003E4,1.2821811E4,4.578456E4,1.4582484E4,1.7400444E5,1.6636556E5,2.1417188E4,7.58415E4,4.4690188E4,3.1507045E4,6.2335477E4,1.361781E5,0E0,0E0,0E0,0E0,0E0,0E0,0E0,0E0,0E0,0E0,0E0,0E0,0E0,0E0,0E0,0E0,0E0,0E0,0E0,0E0,0E0,0E0,0E0,0E0,0E0,0E0,0E0,0E0,0E0,0E0,0E0,0E0],"parents":[2147483647,0,0,1,1,2,2,3,3,4,4,5,5,6,6,7,7,8,8,9,9,10,10,11,11,12,12,13,13,14,14,15,15,16,16,17,17,18,18,19,19,20,20,21,21,22,22,23,23,24,24,25,25,26,26,27,27,28,28,29,29,30,30],"right_children":[2,4,6,8,10,12,14,16,18,20,22,24,26,28,30,32,34,36,38,40,42,44,46,48,50,52,54,56,58,60,62,-1,-1,-1,-1,-1,-1,-1,-1,-1,-1,-1,-1,-1,-1,-1,-1,-1,-1,-1,-1,-1,-1,-1,-1,-1,-1,-1,-1,-1,-1,-1,-1],"split_conditions":[7.888419E1,3.9538887E1,1.9E1,4E0,2E1,1.94E2,1.6955556E2,3.68295E1,2.84E2,1.17E1,4.1E0,2E1,9.2E0,1E-1,7E0,2.2E1,8.5362854E1,1.7569931E1,1.35E1,1.6E1,7.264083E1,2.89E2,3.9945015E1,1.41E1,2.98E2,1.2E1,7E-1,1.0654418E2,1.42E1,2.47E1,1.2232708E2,-2.4563019E-1,-7.2702783E-1,-1.8533246E-1,3.2105274E0,-1.1302441E0,-8.573823E-1,5.0247345E0,-2.0421778E-1,2.9818614E0,1.751794E-1,2.794278E-2,1.1724676E0,-1.8359628E-1,9.6110976E-1,8.9162284E-1,-8.940074E-1,3.74219E0,1.4883479E0,9.8273945E-1,2.5120318E0,2.0211885E0,5.3061743E0,2.743777E0,-4.821294E-1,4.5224077E-1,9.164696E-1,4.5574284E-1,-5.783729E-1,1.857034E0,1.4980339E-1,2.9899032E0,1.0376185E1],"split_indices":[1,1,6,3,4,0,1,0,4,6,8,4,7,8,3,4,0,1,6,4,1,4,1,6,4,4,8,1,7,6,2,0,0,0,0,0,0,0,0,0,0,0,0,0,0,0,0,0,0,0,0,0,0,0,0,0,0,0,0,0,0,0,0],"split_type":[0,0,0,0,0,0,0,0,0,0,0,0,0,0,0,0,0,0,0,0,0,0,0,0,0,0,0,0,0,0,0,0,0,0,0,0,0,0,0,0,0,0,0,0,0,0,0,0,0,0,0,0,0,0,0,0,0,0,0,0,0,0,0],"sum_hessian":[1.5925E4,1.133E4,4.595E3,5.798E3,5.532E3,1.849E3,2.746E3,1.809E3,3.989E3,2.51E2,5.281E3,1.409E3,4.4E2,2.431E3,3.15E2,1.428E3,3.81E2,3.662E3,3.27E2,6.6E1,1.85E2,4.863E3,4.18E2,3.47E2,1.062E3,9.4E1,3.46E2,2.089E3,3.42E2,2.24E2,9.1E1,2.74E2,1.154E3,3.78E2,3E0,1.279E3,2.383E3,2E0,3.25E2,4.8E1,1.8E1,1.57E2,2.8E1,4.775E3,8.8E1,1.1E1,4.07E2,1.82E2,1.65E2,8.36E2,2.26E2,7E0,8.7E1,3.27E2,1.9E1,1.113E3,9.76E2,1.06E2,2.36E2,1.36E2,8.8E1,8.5E1,6E0],"tree_param":{"num_deleted":"0","num_feature":"9","num_nodes":"63","size_leaf_vector":"1"}},{"base_weights":[-1.8604088E-1,-7.34637E0,2.8875729E1,-1.196218E1,3.0463498E0,4.204931E1,1.7834856E1,-7.679193E0,-1.6251177E1,2.1632273E1,1.3441582E0,9.47734E1,3.939972E1,1.4169992E1,5.151961E1,8.229682E0,-8.428862E0,-1.9115917E1,-1.3659025E1,5.400199E1,1.08854885E1,9.445905E0,-7.552972E-1,2.660286E1,1.1040275E2,4.1340767E1,-1.2631923E1,1.5751036E1,-6.656121E0,4.542065E1,1.8530708E2,5.1931453E0,2.622459E-1,-5.9216136E-1,-2.603204E-1,-9.752006E-1,-3.1320593E-1,-5.849674E-1,-8.6458063E-1,3.91321E0,3.4809768E-1,-1.2989537E-1,1.0787246E0,3.2610536E-1,2.0704086E0,4.448441E-2,-8.153929E-1,-5.647369E-1,2.4456027E0,4.625631E0,7.1018662E0,1.5888708E0,2.517473E0,-1.0404793E0,1.3467026E0,8.5017246E-1,-1.5009028E-1,-1.4494812E0,-2.4284287E-1,4.224063E0,1.4361067E0,1.1605109E1,-2.386587E0],"categories":[],"categories_nodes":[],"categories_segments":[],"categories_sizes":[],"default_left":[0,0,0,0,0,0,0,0,0,0,0,0,0,0,0,0,0,0,0,0,0,0,0,0,0,0,0,0,0,0,0,0,0,0,0,0,0,0,0,0,0,0,0,0,0,0,0,0,0,0,0,0,0,0,0,0,0,0,0,0,0,0,0],"id":17,"left_children":[1,3,5,7,9,11,13,15,17,19,21,23,25,27,29,31,33,35,37,39,41,43,45,47,49,51,53,55,57,59,61,-1,-1,-1,-1,-1,-1,-1,-1,-1,-1,-1,-1,-1,-1,-1,-1,-1,-1,-1,-1,-1,-1,-1,-1,-1,-1,-1,-1,-1,-1,-1,-1],"loss_changes":[3.3169878E6,6.1353525E5,4.575565E5,1.6255738E5,1.2443009E5,1.9687075E5,2.1111025E5,5.2939E4,3.2590875E4,1.1420941E5,6.1325492E4,6.9514375E4,1.3878575E5,5.110872E4,1.2866531E5,5.654377E4,4.65235E4,1.0347E4,1.6355781E4,9.30413E4,3.594294E4,6.907072E4,7.328633E4,1.2388954E4,1.7986812E4,1.1212225E5,1.6738346E4,3.3871344E4,4.2794263E3,1.0323866E5,8.741414E4,0E0,0E0,0E0,0E0,0E0,0E0,0E0,0E0,0E0,0E0,0E0,0E0,0E0,0E0,0E0,0E0,0E0,0E0,0E0,0E0,0E0,0E0,0E0,0E0,0E0,0E0,0E0,0E0,0E0,0E0,0E0,0E0],"parents":[2147483647,0,0,1,1,2,2,3,3,4,4,5,5,6,6,7,7,8,8,9,9,10,10,11,11,12,12,13,13,14,14,15,15,16,16,17,17,18,18,19,19,20,20,21,21,22,22,23,23,24,24,25,25,26,26,27,27,28,28,29,29,30,30],"right_children":[2,4,6,8,10,12,14,16,18,20,22,24,26,28,30,32,34,36,38,40,42,44,46,48,50,52,54,56,58,60,62,-1,-1,-1,-1,-1,-1,-1,-1,-1,-1,-1,-1,-1,-1,-1,-1,-1,-1,-1,-1,-1,-1,-1,-1,-1,-1,-1,-1,-1,-1,-1,-1],"split_conditions":[9.9333336E1,5.726889E1,1.87E1,1E-1,2.1E1,8E0,8E0,1.57E1,2.4333334E1,1.26E1,1.13E1,1.1E1,1.97E1,5E-1,1.2232708E2,6.616667E0,3.613389E1,2.89E2,4.8E0,1.6E1,1.7E1,2.87E2,1.59E2,1.59E1,5E0,1.5328E2,8.1082756E1,1.07E2,1.95E1,2.02E1,2.98E2,5.1931453E0,2.622459E-1,-5.9216136E-1,-2.603204E-1,-9.752006E-1,-3.1320593E-1,-5.849674E-1,-8.6458063E-1,3.91321E0,3.4809768E-1,-1.2989537E-1,1.0787246E0,3.2610536E-1,2.0704086E0,4.448441E-2,-8.153929E-1,-5.647369E-1,2.4456027E0,4.625631E0,7.1018662E0,1.5888708E0,2.517473E0,-1.0404793E0,1.3467026E0,8.5017246E-1,-1.5009028E-1,-1.4494812E0,-2.4284287E-1,4.224063E0,1.4361067E0,1.1605109E1,-2.386587E0],"split_indices":[1,1,6,8,4,7,3,6,1,6,7,3,7,8,2,1,0,4,8,4,4,4,4,6,5,0,2,4,6,6,4,0,0,0,0,0,0,0,0,0,0,0,0,0,0,0,0,0,0,0,0,0,0,0,0,0,0,0,0,0,0,0,0],"split_type":[0,0,0,0,0,0,0,0,0,0,0,0,0,0,0,0,0,0,0,0,0,0,0,0,0,0,0,0,0,0,0,0,0,0,0,0,0,0,0,0,0,0,0,0,0,0,0,0,0,0,0,0,0,0,0,0,0,0,0,0,0,0,0],"sum_hessian":[1.5938E4,1.2788E4,3.15E3,8.855E3,3.933E3,1.435E3,1.715E3,4.432E3,4.423E3,3.29E2,3.604E3,6.7E1,1.368E3,1.548E3,1.67E2,1.99E2,4.233E3,2.098E3,2.325E3,8.1E1,2.48E2,7.41E2,2.863E3,1.3E1,5.4E1,1.319E3,4.9E1,1.439E3,1.09E2,1.61E2,6E0,5E0,1.94E2,2.054E3,2.179E3,2.036E3,6.2E1,1.513E3,8.12E2,5.3E1,2.8E1,1.1E2,1.38E2,6.8E2,6.1E1,2.59E3,2.73E2,5E0,8E0,3.7E1,1.7E1,6.42E2,6.77E2,4.1E1,8E0,1.349E3,9E1,7E0,1.02E2,4.7E1,1.14E2,5E0,1E0],"tree_param":{"num_deleted":"0","num_feature":"9","num_nodes":"63","size_leaf_vector":"1"}},{"base_weights":[-1.688403E-1,-9.062253E0,2.045841E1,-1.379975E1,-3.772303E0,1.2692299E1,3.752934E1,-9.128303E0,-1.5972275E1,-1.2344308E0,-8.089154E0,5.9084682E1,1.0912356E1,4.8295025E1,1.9777472E1,-1.0433306E1,-8.5319185E-1,-1.7174133E1,-2.054945E0,-4.123517E0,2.2113478E0,-9.455868E0,1.5536244E1,1.0231003E2,2.142902E1,2.307928E1,6.441507E0,4.4289677E1,8.052999E1,2.2943243E1,-1.5913763E0,-5.6228566E-1,7.937627E-2,1.5934038E0,-1.2197175E-1,-1.0246518E0,-7.7394277E-1,2.0194423E0,-1.9825663E-1,-1.9201117E-2,-2.950301E-1,1.305585E0,7.92142E-2,-6.905645E-1,-3.444753E-1,2.222659E0,1.9222163E-1,5.6979856E0,1.409008E-1,4.155479E0,5.8284587E-1,9.315416E-1,1.631245E0,3.7274954E-1,-8.9861006E-1,1.8501583E0,2.8421702E0,4.125221E0,-3.0215282E0,1.3988918E0,4.4202167E-1,-5.902529E-1,2.65071E0],"categories":[],"categories_nodes":[],"categories_segments":[],"categories_sizes":[],"default_left":[0,0,0,0,0,0,0,0,0,0,0,0,0,0,0,0,0,0,0,0,0,0,0,0,0,0,0,0,0,0,0,0,0,0,0,0,0,0,0,0,0,0,0,0,0,0,0,0,0,0,0,0,0,0,0,0,0,0,0,0,0,0,0],"id":18,"left_children":[1,3,5,7,9,11,13,15,17,19,21,23,25,27,29,31,33,35,37,39,41,43,45,47,49,51,53,55,57,59,61,-1,-1,-1,-1,-1,-1,-1,-1,-1,-1,-1,-1,-1,-1,-1,-1,-1,-1,-1,-1,-1,-1,-1,-1,-1,-1,-1,-1,-1,-1,-1,-1],"loss_changes":[2.9533098E6,2.8186056E5,6.42511E5,6.0077375E4,5.823007E4,2.747455E5,2.8876925E5,2.0358125E4,6.7691E4,3.334892E4,6.3691953E4,1.9801212E5,1.7462728E5,1.1818625E5,3.8867E4,1.5926344E4,1.3468942E4,2.0652625E4,2.634757E4,1.210565E4,2.2858838E4,2.0706344E4,3.6342973E4,6.574475E4,3.9415363E4,3.6037906E4,5.8304547E4,7.482525E4,3.365225E4,3.5253625E4,4.245513E4,0E0,0E0,0E0,0E0,0E0,0E0,0E0,0E0,0E0,0E0,0E0,0E0,0E0,0E0,0E0,0E0,0E0,0E0,0E0,0E0,0E0,0E0,0E0,0E0,0E0,0E0,0E0,0E0,0E0,0E0,0E0,0E0],"parents":[2147483647,0,0,1,1,2,2,3,3,4,4,5,5,6,6,7,7,8,8,9,9,10,10,11,11,12,12,13,13,14,14,15,15,16,16,17,17,18,18,19,19,20,20,21,21,22,22,23,23,24,24,25,25,26,26,27,27,28,28,29,29,30,30],"right_children":[2,4,6,8,10,12,14,16,18,20,22,24,26,28,30,32,34,36,38,40,42,44,46,48,50,52,54,56,58,60,62,-1,-1,-1,-1,-1,-1,-1,-1,-1,-1,-1,-1,-1,-1,-1,-1,-1,-1,-1,-1,-1,-1,-1,-1,-1,-1,-1,-1,-1,-1,-1,-1],"split_conditions":[7.688238E1,4.0333332E1,1.4239223E2,9.2E1,9.7E1,1.17E1,1.38E1,4.1603333E1,2.84E2,5.76477E1,2.87E2,1.6E1,1.12E1,2.7340714E2,3E-1,1.4704254E1,1.6E1,1.7569931E1,1.59E1,1.26E1,1.12E1,2.88E1,1.02E1,4.4121113E1,7.7E0,1.15613464E2,3.5E0,6.9E1,2.05E1,2.47E1,1.2232708E2,-5.6228566E-1,7.937627E-2,1.5934038E0,-1.2197175E-1,-1.0246518E0,-7.7394277E-1,2.0194423E0,-1.9825663E-1,-1.9201117E-2,-2.950301E-1,1.305585E0,7.92142E-2,-6.905645E-1,-3.444753E-1,2.222659E0,1.9222163E-1,5.6979856E0,1.409008E-1,4.155479E0,5.8284587E-1,9.315416E-1,1.631245E0,3.7274954E-1,-8.9861006E-1,1.8501583E0,2.8421702E0,4.125221E0,-3.0215282E0,1.3988918E0,4.4202167E-1,-5.902529E-1,2.65071E0],"split_indices":[1,1,1,4,4,6,7,0,4,1,4,4,7,1,8,2,4,1,6,7,6,6,7,2,7,0,8,4,8,6,2,0,0,0,0,0,0,0,0,0,0,0,0,0,0,0,0,0,0,0,0,0,0,0,0,0,0,0,0,0,0,0,0],"split_type":[0,0,0,0,0,0,0,0,0,0,0,0,0,0,0,0,0,0,0,0,0,0,0,0,0,0,0,0,0,0,0,0,0,0,0,0,0,0,0,0,0,0,0,0,0,0,0,0,0,0,0,0,0,0,0,0,0,0,0,0,0,0,0],"sum_hessian":[1.6097E4,1.1248E4,4.849E3,5.933E3,5.315E3,3.334E3,1.515E3,1.885E3,4.048E3,3.348E3,1.967E3,1.22E2,3.212E3,9.42E2,5.73E2,1.628E3,2.57E2,3.726E3,3.22E2,1.821E3,1.527E3,1.86E3,1.07E2,5.6E1,6.6E1,8.62E2,2.35E3,8.4E2,1.02E2,4.99E2,7.4E1,1.525E3,1.03E2,1.1E1,2.46E2,1.256E3,2.47E3,1.3E1,3.09E2,5.87E2,1.234E3,3.8E1,1.489E3,6.88E2,1.172E3,3E1,7.7E1,5E1,6E0,8E0,5.8E1,5.9E2,2.72E2,2.257E3,9.3E1,5.34E2,3.06E2,1.01E2,1E0,3.67E2,1.32E2,6.3E1,1.1E1],"tree_param":{"num_deleted":"0","num_feature":"9","num_nodes":"63","size_leaf_vector":"1"}},{"base_weights":[1.2787677E-1,-6.487988E0,2.6893723E1,-1.1115451E1,2.1217556E0,4.0239475E1,1.7760447E1,-1.4318067E1,-7.1704044E0,1.4247281E1,9.344992E-2,3.190022E1,5.901177E1,3.6792637E1,1.1376875E1,-1.5158903E1,-7.0516783E-1,1.0103809E1,-7.6816683E0,3.409577E1,7.5466533E0,-5.1616126E-1,3.159988E1,6.262297E1,2.9254776E1,8.991322E1,4.9730255E1,2.8214785E1,5.0723778E1,7.257378E0,2.2318495E1,-4.9967462E-1,-8.603439E-1,2.310822E0,-1.5379453E-1,9.696102E-1,-3.7583575E-1,-4.017871E-1,3.9765218E-1,2.9588017E0,8.7689346E-1,-3.9767468E-1,5.838246E-1,7.523512E-2,-4.9303785E-1,2.6031039E0,-6.2072575E-2,5.561113E0,1.5688714E0,1.2655038E0,2.2208498E0,5.3045845E0,3.568858E0,2.3119407E0,4.5339904E0,1.2119557E0,2.7640963E0,3.3471878E0,1.9052851E0,4.5570308E-1,-7.281146E-1,-2.9457328E-1,1.326697E0],"categories":[],"categories_nodes":[],"categories_segments":[],"categories_sizes":[],"default_left":[0,0,0,0,0,0,0,0,0,0,0,0,0,0,0,0,0,0,0,0,0,0,0,0,0,0,0,0,0,0,0,0,0,0,0,0,0,0,0,0,0,0,0,0,0,0,0,0,0,0,0,0,0,0,0,0,0,0,0,0,0,0,0],"id":19,"left_children":[1,3,5,7,9,11,13,15,17,19,21,23,25,27,29,31,33,35,37,39,41,43,45,47,49,51,53,55,57,59,61,-1,-1,-1,-1,-1,-1,-1,-1,-1,-1,-1,-1,-1,-1,-1,-1,-1,-1,-1,-1,-1,-1,-1,-1,-1,-1,-1,-1,-1,-1,-1,-1],"loss_changes":[2.8341502E6,5.113065E5,3.8592175E5,1.05357125E5,1.1035317E5,1.9975E5,2.2859644E5,5.2710688E4,3.3125766E4,8.5259984E4,7.386596E4,7.0828125E4,1.08819375E5,5.5091938E4,6.3527547E4,4.5718188E4,3.006521E4,1.7821736E4,2.0186656E4,6.6237E4,3.0947178E4,7.126474E4,4.9121055E4,1.0280594E5,4.8219438E4,1.9417125E4,3.9556812E4,3.0404969E4,3.4084094E4,4.1779277E4,4.605847E4,0E0,0E0,0E0,0E0,0E0,0E0,0E0,0E0,0E0,0E0,0E0,0E0,0E0,0E0,0E0,0E0,0E0,0E0,0E0,0E0,0E0,0E0,0E0,0E0,0E0,0E0,0E0,0E0,0E0,0E0,0E0,0E0],"parents":[2147483647,0,0,1,1,2,2,3,3,4,4,5,5,6,6,7,7,8,8,9,9,10,10,11,11,12,12,13,13,14,14,15,15,16,16,17,17,18,18,19,19,20,20,21,21,22,22,23,23,24,24,25,25,26,26,27,27,28,28,29,29,30,30],"right_children":[2,4,6,8,10,12,14,16,18,20,22,24,26,28,30,32,34,36,38,40,42,44,46,48,50,52,54,56,58,60,62,-1,-1,-1,-1,-1,-1,-1,-1,-1,-1,-1,-1,-1,-1,-1,-1,-1,-1,-1,-1,-1,-1,-1,-1,-1,-1,-1,-1,-1,-1,-1,-1],"split_conditions":[9.9333336E1,5.3887295E1,1.18E1,3.2653214E1,3.4E1,1.7777576E2,3.4E1,2.84E2,1.5E1,1.35E1,3.23E2,1.21E1,8.6E0,1.70454E2,1.5831592E2,8.8E1,1.59E1,3.4E1,2.87E2,1.6E1,1.7E1,5E0,1.21E1,1.6E1,1.1E1,3.29E2,8.8843025E1,2E-1,1.4E1,8E-1,3.8E1,-4.9967462E-1,-8.603439E-1,2.310822E0,-1.5379453E-1,9.696102E-1,-3.7583575E-1,-4.017871E-1,3.9765218E-1,2.9588017E0,8.7689346E-1,-3.9767468E-1,5.838246E-1,7.523512E-2,-4.9303785E-1,2.6031039E0,-6.2072575E-2,5.561113E0,1.5688714E0,1.2655038E0,2.2208498E0,5.3045845E0,3.568858E0,2.3119407E0,4.5339904E0,1.2119557E0,2.7640963E0,3.3471878E0,1.9052851E0,4.5570308E-1,-7.281146E-1,-2.9457328E-1,1.326697E0],"split_indices":[1,1,7,1,4,1,4,4,6,6,4,6,7,0,1,4,6,4,4,4,4,3,7,4,3,4,2,8,7,8,4,0,0,0,0,0,0,0,0,0,0,0,0,0,0,0,0,0,0,0,0,0,0,0,0,0,0,0,0,0,0,0,0],"split_type":[0,0,0,0,0,0,0,0,0,0,0,0,0,0,0,0,0,0,0,0,0,0,0,0,0,0,0,0,0,0,0,0,0,0,0,0,0,0,0,0,0,0,0,0,0,0,0,0,0,0,0,0,0,0,0,0,0,0,0,0,0,0,0],"sum_hessian":[1.6003E4,1.2832E4,3.171E3,8.346E3,4.486E3,1.287E3,1.884E3,4.605E3,3.741E3,6.42E2,3.844E3,8.93E2,3.94E2,4.72E2,1.412E3,4.337E3,2.68E2,1.07E2,3.634E3,1.61E2,4.81E2,3.772E3,7.2E1,6.9E1,8.24E2,8.9E1,3.05E2,2.94E2,1.78E2,1.027E3,3.85E2,1.233E3,3.104E3,1.2E1,2.56E2,7E1,3.7E1,3.554E3,8E1,6.3E1,9.8E1,1.01E2,3.8E2,3.102E3,6.7E2,4.4E1,2.8E1,2.6E1,4.3E1,6.56E2,1.68E2,4.5E1,4.4E1,2.83E2,2.2E1,2.58E2,3.6E1,7.6E1,1.02E2,9.47E2,8E1,5E1,3.35E2],"tree_param":{"num_deleted":"0","num_feature":"9","num_nodes":"63","size_leaf_vector":"1"}},{"base_weights":[-1.8955399E-1,-8.389716E0,1.8575949E1,-1.259121E1,-3.6456027E0,1.1537081E1,3.4473095E1,-9.580508E0,-1.5044963E1,-7.3425967E-1,-8.8553915E0,2.4601818E1,6.857399E0,4.4153477E1,1.7900965E1,-1.0641319E1,3.7231076E0,-1.7942541E1,-1.3292097E1,1.5233726E1,-1.297434E0,-1.0184479E1,1.0764425E1,6.842424E1,2.1731455E1,2.084157E1,4.072137E0,3.943088E1,8.333451E1,2.5218557E1,6.2938156E0,-6.653778E-1,-3.4082827E-1,3.9129524E0,4.787257E-2,-1.0760871E-1,-9.108883E-1,-6.225178E-1,-9.2422307E-1,1.9403108E0,-9.4069906E-2,-1.22205E-1,3.3101282E-1,-6.9531155E-1,-3.1846556E-1,1.7262996E0,2.2637427E-2,5.909902E0,7.1363723E-1,1.1819369E0,6.2210657E-2,1.900648E0,7.374588E-1,2.8875896E-1,-6.6892046E-1,7.134997E0,1.919526E0,8.963588E0,3.925961E0,1.0521398E0,3.2879288E0,5.6507796E-1,-1.302092E0],"categories":[],"categories_nodes":[],"categories_segments":[],"categories_sizes":[],"default_left":[0,0,0,0,0,0,0,0,0,0,0,0,0,0,0,0,0,0,0,0,0,0,0,0,0,0,0,0,0,0,0,0,0,0,0,0,0,0,0,0,0,0,0,0,0,0,0,0,0,0,0,0,0,0,0,0,0,0,0,0,0,0,0],"id":20,"left_children":[1,3,5,7,9,11,13,15,17,19,21,23,25,27,29,31,33,35,37,39,41,43,45,47,49,51,53,55,57,59,61,-1,-1,-1,-1,-1,-1,-1,-1,-1,-1,-1,-1,-1,-1,-1,-1,-1,-1,-1,-1,-1,-1,-1,-1,-1,-1,-1,-1,-1,-1,-1,-1],"loss_changes":[2.4526978E6,2.2104381E5,5.419714E5,4.3309312E4,7.903124E4,2.053189E5,2.37761E5,3.7353438E4,1.62125625E4,3.009155E4,4.8820453E4,1.0995975E5,9.635429E4,1.7027812E5,4.6556297E4,2.4883438E4,4.0328668E4,5.254125E3,8.607281E3,4.6065867E4,2.9350254E4,2.4759844E4,2.9141941E4,1.4386053E5,3.2520031E4,4.2436047E4,6.147674E4,8.4661625E4,3.2120375E4,5.566547E4,3.4947047E4,0E0,0E0,0E0,0E0,0E0,0E0,0E0,0E0,0E0,0E0,0E0,0E0,0E0,0E0,0E0,0E0,0E0,0E0,0E0,0E0,0E0,0E0,0E0,0E0,0E0,0E0,0E0,0E0,0E0,0E0,0E0,0E0],"parents":[2147483647,0,0,1,1,2,2,3,3,4,4,5,5,6,6,7,7,8,8,9,9,10,10,11,11,12,12,13,13,14,14,15,15,16,16,17,17,18,18,19,19,20,20,21,21,22,22,23,23,24,24,25,25,26,26,27,27,28,28,29,29,30,30],"right_children":[2,4,6,8,10,12,14,16,18,20,22,24,26,28,30,32,34,36,38,40,42,44,46,48,50,52,54,56,58,60,62,-1,-1,-1,-1,-1,-1,-1,-1,-1,-1,-1,-1,-1,-1,-1,-1,-1,-1,-1,-1,-1,-1,-1,-1,-1,-1,-1,-1,-1,-1,-1,-1],"split_conditions":[7.631154E1,3.831818E1,1.4239223E2,2E-1,9.8E1,1.11E1,1.4E1,2.84E2,1.625E1,1.6E1,2.87E2,1.17E1,3.4E1,2.7340714E2,1.87E1,8.165093E0,1.57E1,2E0,1.69E1,1.21E1,2.85E1,2.95E1,1.06E1,1.6E1,1E-1,1.37E1,8E-1,5.9E0,4.4918036E0,2.9531696E2,1.11E2,-6.653778E-1,-3.4082827E-1,3.9129524E0,4.787257E-2,-1.0760871E-1,-9.108883E-1,-6.225178E-1,-9.2422307E-1,1.9403108E0,-9.4069906E-2,-1.22205E-1,3.3101282E-1,-6.9531155E-1,-3.1846556E-1,1.7262996E0,2.2637427E-2,5.909902E0,7.1363723E-1,1.1819369E0,6.2210657E-2,1.900648E0,7.374588E-1,2.8875896E-1,-6.6892046E-1,7.134997E0,1.919526E0,8.963588E0,3.925961E0,1.0521398E0,3.2879288E0,5.6507796E-1,-1.302092E0],"split_indices":[1,0,1,8,4,7,7,4,0,4,4,6,4,1,7,2,6,3,8,6,6,6,7,4,8,6,8,7,2,0,4,0,0,0,0,0,0,0,0,0,0,0,0,0,0,0,0,0,0,0,0,0,0,0,0,0,0,0,0,0,0,0,0],"split_type":[0,0,0,0,0,0,0,0,0,0,0,0,0,0,0,0,0,0,0,0,0,0,0,0,0,0,0,0,0,0,0,0,0,0,0,0,0,0,0,0,0,0,0,0,0,0,0,0,0,0,0,0,0,0,0,0,0,0,0,0,0,0,0],"sum_hessian":[1.5937E4,1.1091E4,4.846E3,5.881E3,5.21E3,3.36E3,1.486E3,2.643E3,3.238E3,3.343E3,1.867E3,8.85E2,2.475E3,9.37E2,5.49E2,2.448E3,1.95E2,1.217E3,2.021E3,1.13E2,3.23E3,1.749E3,1.18E2,5.3E1,8.32E2,4.1E2,2.065E3,8.38E2,9.9E1,3.36E2,2.13E2,1.441E3,1.007E3,6E0,1.89E2,2.1E1,1.196E3,1.742E3,2.79E2,4.7E1,6.6E1,2.822E3,4.08E2,8.84E2,8.65E2,3.5E1,8.3E1,2.7E1,2.6E1,7.61E2,7.1E1,1.06E2,3.04E2,1.882E3,1.83E2,7E0,8.31E2,3E0,9.6E1,3.06E2,3E1,1.85E2,2.8E1],"tree_param":{"num_deleted":"0","num_feature":"9","num_nodes":"63","size_leaf_vector":"1"}},{"base_weights":[3.6953732E-2,-7.2581487E0,1.8868147E1,-2.3781512E0,-1.1583958E1,1.3362076E1,3.8098087E1,-4.464831E0,4.942889E0,-1.2655807E1,2.41135E0,3.5909466E1,1.0142988E1,2.9462801E1,6.010837E1,-7.430954E0,-1.6706396E0,3.6932842E1,3.777357E0,-1.6236202E1,-9.856929E0,9.220519E0,-1.00288315E1,6.3343678E1,1.6249123E1,2.0058403E1,5.277791E0,3.356388E1,5.1250954E0,1.0151554E2,4.9206043E1,4.2826586E0,-3.75935E-1,-1.4107578E-1,3.423482E-1,3.3342235E0,2.0028804E-1,1.5449278E-1,1.8769919E0,-8.267996E-1,-2.1388689E-1,-6.447366E-1,-3.7509385E-1,2.4069205E-1,1.426714E0,7.0393905E-2,-6.1814564E-1,2.0821779E0,4.1376987E0,2.927446E-1,1.5075065E0,6.5787166E-1,1.6037546E0,3.5491633E-1,-6.814155E-1,1.7685444E0,-5.0674564E-1,-2.845012E-1,1.3779436E0,5.4038515E0,-2.6308444E0,7.628663E0,2.3060606E0],"categories":[],"categories_nodes":[],"categories_segments":[],"categories_sizes":[],"default_left":[0,0,0,0,0,0,0,0,0,0,0,0,0,0,0,0,0,0,0,0,0,0,0,0,0,0,0,0,0,0,0,0,0,0,0,0,0,0,0,0,0,0,0,0,0,0,0,0,0,0,0,0,0,0,0,0,0,0,0,0,0,0,0],"id":21,"left_children":[1,3,5,7,9,11,13,15,17,19,21,23,25,27,29,31,33,35,37,39,41,43,45,47,49,51,53,55,57,59,61,-1,-1,-1,-1,-1,-1,-1,-1,-1,-1,-1,-1,-1,-1,-1,-1,-1,-1,-1,-1,-1,-1,-1,-1,-1,-1,-1,-1,-1,-1,-1,-1],"loss_changes":[2.1893528E6,2.4246231E5,4.7066312E5,8.250079E4,9.137075E4,2.5084219E5,1.863935E5,3.4813406E4,4.452831E4,5.651925E4,3.685544E4,2.3197681E5,1.4606272E5,7.0993125E4,1.2050369E5,1.7289773E4,2.1242172E4,4.0877527E4,2.6740014E4,8.820125E3,2.2632094E4,2.3778418E4,4.1283135E3,7.2370875E4,3.6379508E4,8.225597E4,7.010544E4,4.8526562E4,2.5389703E4,6.3332938E4,6.3752438E4,0E0,0E0,0E0,0E0,0E0,0E0,0E0,0E0,0E0,0E0,0E0,0E0,0E0,0E0,0E0,0E0,0E0,0E0,0E0,0E0,0E0,0E0,0E0,0E0,0E0,0E0,0E0,0E0,0E0,0E0,0E0,0E0],"parents":[2147483647,0,0,1,1,2,2,3,3,4,4,5,5,6,6,7,7,8,8,9,9,10,10,11,11,12,12,13,13,14,14,15,15,16,16,17,17,18,18,19,19,20,20,21,21,22,22,23,23,24,24,25,25,26,26,27,27,28,28,29,29,30,30],"right_children":[2,4,6,8,10,12,14,16,18,20,22,24,26,28,30,32,34,36,38,40,42,44,46,48,50,52,54,56,58,60,62,-1,-1,-1,-1,-1,-1,-1,-1,-1,-1,-1,-1,-1,-1,-1,-1,-1,-1,-1,-1,-1,-1,-1,-1,-1,-1,-1,-1,-1,-1,-1,-1],"split_conditions":[8.129908E1,9.5E1,1.6553784E2,6.3680557E1,2.84E2,2E1,7E0,4.0898304E1,1.5E1,2.7032906E1,3E-1,1.43E1,1.17E1,2.47E1,3.29E2,2.82E0,2.85E1,1.26E1,4.9768307E1,3.23E1,2.88E1,5.9E1,2.254316E0,1.13773636E2,1.7E1,6.3E1,8E-1,2.5E0,2.99E1,2.07E1,5.9E0,4.2826586E0,-3.75935E-1,-1.4107578E-1,3.423482E-1,3.3342235E0,2.0028804E-1,1.5449278E-1,1.8769919E0,-8.267996E-1,-2.1388689E-1,-6.447366E-1,-3.7509385E-1,2.4069205E-1,1.426714E0,7.0393905E-2,-6.1814564E-1,2.0821779E0,4.1376987E0,2.927446E-1,1.5075065E0,6.5787166E-1,1.6037546E0,3.5491633E-1,-6.814155E-1,1.7685444E0,-5.0674564E-1,-2.845012E-1,1.3779436E0,5.4038515E0,-2.6308444E0,7.628663E0,2.3060606E0],"split_indices":[1,4,1,1,4,4,3,0,4,1,8,6,7,6,4,0,6,6,2,6,6,0,2,0,4,4,8,8,6,7,7,0,0,0,0,0,0,0,0,0,0,0,0,0,0,0,0,0,0,0,0,0,0,0,0,0,0,0,0,0,0,0,0],"split_type":[0,0,0,0,0,0,0,0,0,0,0,0,0,0,0,0,0,0,0,0,0,0,0,0,0,0,0,0,0,0,0,0,0,0,0,0,0,0,0,0,0,0,0,0,0,0,0,0,0,0,0,0,0,0,0,0,0,0,0,0,0,0,0],"sum_hessian":[1.5935E4,1.1486E4,4.449E3,5.398E3,6.088E3,3.46E3,9.89E2,4.201E3,1.197E3,5.655E3,4.33E2,4.31E2,3.029E3,7.12E2,2.77E2,2.037E3,2.164E3,4.1E1,1.156E3,2.479E3,3.176E3,2.8E2,1.53E2,1.79E2,2.52E2,9.96E2,2.033E3,6.09E2,1.03E2,5.6E1,2.21E2,1E0,2.036E3,1.907E3,2.57E2,2.1E1,2E1,1.134E3,2.2E1,2.418E3,6.1E1,1.385E3,1.791E3,2.29E2,5.1E1,2.6E1,1.27E2,8.6E1,9.3E1,1.45E2,1.07E2,6.34E2,3.62E2,1.855E3,1.78E2,5.85E2,2.4E1,7E1,3.3E1,5.4E1,2E0,5E0,2.16E2],"tree_param":{"num_deleted":"0","num_feature":"9","num_nodes":"63","size_leaf_vector":"1"}},{"base_weights":[3.7272327E-2,-5.366591E0,2.5275188E1,-1.0664395E1,7.884144E-1,3.8165516E1,1.6340065E1,-1.4596601E1,-8.6453285E0,7.9798565E0,-2.0823708E0,2.9705387E1,5.1366512E1,3.346284E1,1.0545718E1,-1.4925067E1,4.6559826E1,1.4899538E0,-9.177173E0,1.4852846E1,7.4724746E-1,2.0183973E-1,-9.033207E0,4.202434E1,1.1955376E1,3.4974743E1,6.486059E1,2.444675E1,4.66556E1,-1.2663304E1,1.2769229E1,-7.534148E-1,8.6194175E-1,4.880746E0,-1.46368E0,5.9935766E-1,-1.3214074E-1,-4.8012835E-1,1.8590988E-1,1.5126854E0,5.950703E-1,-1.0801029E-1,3.418159E-1,-4.1430023E-2,1.242217E0,-2.8832638E-1,-6.480089E-1,1.9028658E0,3.6466615E0,1.2326214E0,-5.005237E-2,1.9127508E0,-1.0348762E0,4.66978E0,2.6652524E0,2.800493E0,9.789519E-1,2.816672E0,1.5906663E0,1.3926494E0,-9.712489E-1,2.275233E0,5.6079406E-1],"categories":[],"categories_nodes":[],"categories_segments":[],"categories_sizes":[],"default_left":[0,0,0,0,0,0,0,0,0,0,0,0,0,0,0,0,0,0,0,0,0,0,0,0,0,0,0,0,0,0,0,0,0,0,0,0,0,0,0,0,0,0,0,0,0,0,0,0,0,0,0,0,0,0,0,0,0,0,0,0,0,0,0],"id":22,"left_children":[1,3,5,7,9,11,13,15,17,19,21,23,25,27,29,31,33,35,37,39,41,43,45,47,49,51,53,55,57,59,61,-1,-1,-1,-1,-1,-1,-1,-1,-1,-1,-1,-1,-1,-1,-1,-1,-1,-1,-1,-1,-1,-1,-1,-1,-1,-1,-1,-1,-1,-1,-1,-1],"loss_changes":[2.1699775E6,4.273364E5,3.22562E5,5.5790875E4,1.2518777E5,1.26685375E5,1.6424528E5,4.8664688E4,2.5111312E4,8.598659E4,6.8813484E4,1.52998E5,9.660425E4,4.869828E4,6.420414E4,1.12054375E4,5.3189414E4,1.0139802E4,2.4304094E4,3.9958297E4,1.495668E4,8.287671E4,1.3677039E4,4.79875E4,4.75676E4,3.8046312E4,7.547756E4,3.7467047E4,2.2483188E4,3.0402463E4,5.710211E4,0E0,0E0,0E0,0E0,0E0,0E0,0E0,0E0,0E0,0E0,0E0,0E0,0E0,0E0,0E0,0E0,0E0,0E0,0E0,0E0,0E0,0E0,0E0,0E0,0E0,0E0,0E0,0E0,0E0,0E0,0E0,0E0],"parents":[2147483647,0,0,1,1,2,2,3,3,4,4,5,5,6,6,7,7,8,8,9,9,10,10,11,11,12,12,13,13,14,14,15,15,16,16,17,17,18,18,19,19,20,20,21,21,22,22,23,23,24,24,25,25,26,26,27,27,28,28,29,29,30,30],"right_children":[2,4,6,8,10,12,14,16,18,20,22,24,26,28,30,32,34,36,38,40,42,44,46,48,50,52,54,56,58,60,62,-1,-1,-1,-1,-1,-1,-1,-1,-1,-1,-1,-1,-1,-1,-1,-1,-1,-1,-1,-1,-1,-1,-1,-1,-1,-1,-1,-1,-1,-1,-1,-1],"split_conditions":[1.0654418E2,4.6605E1,1.18E1,2.1116667E1,5E1,6.2E1,3.4E1,3.51E2,2.1E1,2.01E1,1E-1,1.74E1,1.6132669E2,1.7462808E2,3.8E1,3.39E1,9.6125E0,1.63E1,2.87E2,1.17E1,7.638461E1,2.7E2,1.33E2,4.3E1,4.9E1,2.69E1,3.29E2,1E0,1.6E1,4E0,1.48E1,-7.534148E-1,8.6194175E-1,4.880746E0,-1.46368E0,5.9935766E-1,-1.3214074E-1,-4.8012835E-1,1.8590988E-1,1.5126854E0,5.950703E-1,-1.0801029E-1,3.418159E-1,-4.1430023E-2,1.242217E0,-2.8832638E-1,-6.480089E-1,1.9028658E0,3.6466615E0,1.2326214E0,-5.005237E-2,1.9127508E0,-1.0348762E0,4.66978E0,2.6652524E0,2.800493E0,9.789519E-1,2.816672E0,1.5906663E0,1.3926494E0,-9.712489E-1,2.275233E0,5.6079406E-1],"split_indices":[1,1,7,1,4,4,4,4,4,6,8,6,1,0,4,6,0,6,4,6,0,4,4,4,4,6,4,5,7,5,6,0,0,0,0,0,0,0,0,0,0,0,0,0,0,0,0,0,0,0,0,0,0,0,0,0,0,0,0,0,0,0,0],"split_type":[0,0,0,0,0,0,0,0,0,0,0,0,0,0,0,0,0,0,0,0,0,0,0,0,0,0,0,0,0,0,0,0,0,0,0,0,0,0,0,0,0,0,0,0,0,0,0,0,0,0,0,0,0,0,0,0,0,0,0,0,0,0,0],"sum_hessian":[1.5909E4,1.3104E4,2.805E3,7.042E3,6.062E3,1.147E3,1.658E3,2.387E3,4.655E3,1.729E3,4.333E3,7.01E2,4.46E2,4.18E2,1.24E3,2.375E3,1.2E1,2.32E2,4.423E3,8.86E2,8.43E2,3.262E3,1.071E3,4.13E2,2.88E2,2.03E2,2.43E2,2.5E2,1.68E2,1.08E2,1.132E3,2.365E3,1E1,7E0,5E0,6.5E1,1.67E2,4.282E3,1.41E2,1.41E2,7.45E2,5.71E2,2.72E2,3.132E3,1.3E2,5.86E2,4.85E2,3.68E2,4.5E1,1.45E2,1.43E2,1.92E2,1.1E1,6.8E1,1.75E2,3.2E1,2.18E2,1E2,6.8E1,1.5E1,9.3E1,5E1,1.082E3],"tree_param":{"num_deleted":"0","num_feature":"9","num_nodes":"63","size_leaf_vector":"1"}},{"base_weights":[1.113983E-1,-5.7003107E0,2.028983E1,-1.0898927E1,-1.3912814E0,2.8216702E1,1.0039434E1,-3.7176554E0,-1.2065857E1,-4.287517E0,3.4049852E0,1.7284826E1,3.694677E1,2.3158855E1,6.7960663E0,-5.54044E0,1.809718E1,-1.2779119E1,-1.4925895E0,-4.7037816E0,1.8246437E1,1.9393312E1,1.8840889E0,6.1624306E1,1.4760613E1,7.5617516E1,3.4375263E1,6.3668278E1,2.0434328E1,9.661071E0,-7.0033364E0,-1.0963916E-1,-4.5550585E-1,1.888846E0,-1.0831704E-1,-8.55419E-1,-5.7887083E-1,2.3159175E0,-1.882112E-1,-1.2280923E-1,-4.245874E-1,3.2064674E0,2.580138E-1,2.624234E0,3.4066364E-1,1.8973802E-1,-1.9736104E-1,5.4404964E0,1.4842969E0,6.3809055E-1,1.5545152E0,5.6023383E0,3.1711671E0,2.711731E0,1.538927E0,3.5096467E0,-1.344388E0,9.007064E-1,3.1882527E0,3.469391E-1,9.544386E-1,-5.811586E-1,2.5735528E0],"categories":[],"categories_nodes":[],"categories_segments":[],"categories_sizes":[],"default_left":[0,0,0,0,0,0,0,0,0,0,0,0,0,0,0,0,0,0,0,0,0,0,0,0,0,0,0,0,0,0,0,0,0,0,0,0,0,0,0,0,0,0,0,0,0,0,0,0,0,0,0,0,0,0,0,0,0,0,0,0,0,0,0],"id":23,"left_children":[1,3,5,7,9,11,13,15,17,19,21,23,25,27,29,31,33,35,37,39,41,43,45,47,49,51,53,55,57,59,61,-1,-1,-1,-1,-1,-1,-1,-1,-1,-1,-1,-1,-1,-1,-1,-1,-1,-1,-1,-1,-1,-1,-1,-1,-1,-1,-1,-1,-1,-1,-1,-1],"loss_changes":[1.875399E6,2.7811553E5,2.902795E5,4.7109625E4,9.43353E4,1.9176038E5,6.626491E4,3.1434102E4,3.6481875E4,3.9801094E4,6.2140984E4,9.9484625E4,1.08776E5,3.280303E4,4.9605457E4,8.679664E3,2.4407469E4,2.3389938E4,3.351731E4,3.53796E4,4.5902273E4,9.2058945E4,2.6042023E4,6.910739E4,2.7347094E4,2.3545156E4,7.3473625E4,1.3113422E4,2.936821E4,2.6507742E4,5.8948945E4,0E0,0E0,0E0,0E0,0E0,0E0,0E0,0E0,0E0,0E0,0E0,0E0,0E0,0E0,0E0,0E0,0E0,0E0,0E0,0E0,0E0,0E0,0E0,0E0,0E0,0E0,0E0,0E0,0E0,0E0,0E0,0E0],"parents":[2147483647,0,0,1,1,2,2,3,3,4,4,5,5,6,6,7,7,8,8,9,9,10,10,11,11,12,12,13,13,14,14,15,15,16,16,17,17,18,18,19,19,20,20,21,21,22,22,23,23,24,24,25,25,26,26,27,27,28,28,29,29,30,30],"right_children":[2,4,6,8,10,12,14,16,18,20,22,24,26,28,30,32,34,36,38,40,42,44,46,48,50,52,54,56,58,60,62,-1,-1,-1,-1,-1,-1,-1,-1,-1,-1,-1,-1,-1,-1,-1,-1,-1,-1,-1,-1,-1,-1,-1,-1,-1,-1,-1,-1,-1,-1,-1,-1],"split_conditions":[9.299506E1,3.852651E1,1.41E1,5.2E1,6.478203E1,1.3383968E2,3.4E1,1.4284632E1,2.84E2,2.87E2,2E1,1.21E1,8E0,1.12E1,1E-1,2.32E1,2.14E1,1.4222222E1,1.65E1,9.8E1,2.11E1,1.29E1,1.05E2,1.6E1,3.14E2,5.9E0,2.2E1,4.729404E1,2E0,1.5831592E2,1.2232708E2,-1.0963916E-1,-4.5550585E-1,1.888846E0,-1.0831704E-1,-8.55419E-1,-5.7887083E-1,2.3159175E0,-1.882112E-1,-1.2280923E-1,-4.245874E-1,3.2064674E0,2.580138E-1,2.624234E0,3.4066364E-1,1.8973802E-1,-1.9736104E-1,5.4404964E0,1.4842969E0,6.3809055E-1,1.5545152E0,5.6023383E0,3.1711671E0,2.711731E0,1.538927E0,3.5096467E0,-1.344388E0,9.007064E-1,3.1882527E0,3.469391E-1,9.544386E-1,-5.811586E-1,2.5735528E0],"split_indices":[1,1,7,4,1,1,4,2,4,4,4,6,7,6,8,6,6,1,6,4,6,6,4,4,4,7,4,2,3,1,2,0,0,0,0,0,0,0,0,0,0,0,0,0,0,0,0,0,0,0,0,0,0,0,0,0,0,0,0,0,0,0,0],"split_type":[0,0,0,0,0,0,0,0,0,0,0,0,0,0,0,0,0,0,0,0,0,0,0,0,0,0,0,0,0,0,0,0,0,0,0,0,0,0,0,0,0,0,0,0,0,0,0,0,0,0,0,0,0,0,0,0,0,0,0,0,0,0,0],"sum_hessian":[1.599E4,1.2415E4,3.575E3,5.626E3,6.789E3,2.015E3,1.56E3,7.87E2,4.839E3,4.233E3,2.556E3,8.96E2,1.119E3,3.08E2,1.252E3,7.27E2,6E1,4.533E3,3.06E2,4.157E3,7.6E1,2.21E2,2.335E3,4.7E1,8.49E2,6.8E1,1.051E3,1.8E1,2.9E2,1.037E3,2.15E2,3.76E2,3.51E2,3E1,3E1,9.82E2,3.551E3,1.3E1,2.93E2,2.61E3,1.547E3,1.6E1,6E1,6E1,1.61E2,1.759E3,5.76E2,1.8E1,2.9E1,7.58E2,9.1E1,1.5E1,5.3E1,1.59E2,8.92E2,1.7E1,1E0,2.76E2,1.4E1,8.06E2,2.31E2,2E2,1.5E1],"tree_param":{"num_deleted":"0","num_feature":"9","num_nodes":"63","size_leaf_vector":"1"}},{"base_weights":[2.2955613E-1,-5.3175774E0,1.947392E1,-1.0112056E1,-1.0396626E0,3.0660551E1,1.0918598E1,-3.0636466E0,-1.1228982E1,6.511823E0,-2.7174206E0,5.8883904E1,2.7255688E1,8.847707E0,3.4571568E1,-4.841143E0,1.4753287E1,-1.1957869E1,-2.2994806E-1,5.283763E0,4.8218822E1,-1.04662E0,-8.66725E0,2.5149431E1,7.6294136E1,4.6041897E1,2.2790388E1,1.0901498E1,-2.4503355E0,6.66295E1,1.6228811E1,-8.930855E-2,-4.238947E-1,2.1897755E0,2.5774178E-1,-8.099974E-1,-5.432887E-1,4.161453E0,-5.1457E-2,7.9676E-2,6.8577915E-1,5.0000343E0,1.2788662E0,-1.3773346E-1,2.2411525E-1,-4.739612E-1,1.4473975E-1,5.057361E0,8.823434E-1,5.9191804E0,3.4933374E0,3.075639E0,1.2663794E0,1.3013251E0,-5.4398215E-1,2.90912E-1,8.406194E-1,-3.0970836E-1,2.4013362E0,4.535933E0,3.3599153E-1,1.6628679E0,3.0372253E-1],"categories":[],"categories_nodes":[],"categories_segments":[],"categories_sizes":[],"default_left":[0,0,0,0,0,0,0,0,0,0,0,0,0,0,0,0,0,0,0,0,0,0,0,0,0,0,0,0,0,0,0,0,0,0,0,0,0,0,0,0,0,0,0,0,0,0,0,0,0,0,0,0,0,0,0,0,0,0,0,0,0,0,0],"id":24,"left_children":[1,3,5,7,9,11,13,15,17,19,21,23,25,27,29,31,33,35,37,39,41,43,45,47,49,51,53,55,57,59,61,-1,-1,-1,-1,-1,-1,-1,-1,-1,-1,-1,-1,-1,-1,-1,-1,-1,-1,-1,-1,-1,-1,-1,-1,-1,-1,-1,-1,-1,-1,-1,-1],"loss_changes":[1.7070531E6,2.5458469E5,3.4209862E5,4.6043625E4,8.314271E4,1.4734488E5,9.908006E4,2.5470395E4,4.0499375E4,6.084913E4,5.3364035E4,9.557719E4,1.1513281E5,4.334822E4,9.476772E4,8.0952812E3,2.0123748E4,2.1773938E4,2.1096078E4,3.6072082E4,3.7304492E4,3.960968E4,1.1077219E4,3.1285406E4,2.121625E4,8.336625E4,1.2242731E5,4.737578E4,5.472304E4,8.4537625E4,1.7953955E4,0E0,0E0,0E0,0E0,0E0,0E0,0E0,0E0,0E0,0E0,0E0,0E0,0E0,0E0,0E0,0E0,0E0,0E0,0E0,0E0,0E0,0E0,0E0,0E0,0E0,0E0,0E0,0E0,0E0,0E0,0E0,0E0],"parents":[2147483647,0,0,1,1,2,2,3,3,4,4,5,5,6,6,7,7,8,8,9,9,10,10,11,11,12,12,13,13,14,14,15,15,16,16,17,17,18,18,19,19,20,20,21,21,22,22,23,23,24,24,25,25,26,26,27,27,28,28,29,29,30,30],"right_children":[2,4,6,8,10,12,14,16,18,20,22,24,26,28,30,32,34,36,38,40,42,44,46,48,50,52,54,56,58,60,62,-1,-1,-1,-1,-1,-1,-1,-1,-1,-1,-1,-1,-1,-1,-1,-1,-1,-1,-1,-1,-1,-1,-1,-1,-1,-1,-1,-1,-1,-1,-1,-1],"split_conditions":[9.183667E1,3.9945015E1,1.87E1,5.2E1,1.11E1,8.9E0,1.1E1,1.3858141E1,2.84E2,3.23E2,5E0,1.4478932E2,2E1,1.04E2,1.2E1,2.33E1,1.03E1,1.4222222E1,1.35E1,7.422222E1,7.0214386E1,2.85E1,2.89E2,8.9E0,5.9E0,1.41E1,4E-1,6.2E1,8.8843025E1,2.16E1,3.4E2,-8.930855E-2,-4.238947E-1,2.1897755E0,2.5774178E-1,-8.099974E-1,-5.432887E-1,4.161453E0,-5.1457E-2,7.9676E-2,6.8577915E-1,5.0000343E0,1.2788662E0,-1.3773346E-1,2.2411525E-1,-4.739612E-1,1.4473975E-1,5.057361E0,8.823434E-1,5.9191804E0,3.4933374E0,3.075639E0,1.2663794E0,1.3013251E0,-5.4398215E-1,2.90912E-1,8.406194E-1,-3.0970836E-1,2.4013362E0,4.535933E0,3.3599153E-1,1.6628679E0,3.0372253E-1],"split_indices":[0,1,6,4,7,7,3,2,4,4,3,1,4,4,3,6,7,1,6,1,1,6,4,6,7,6,8,4,2,6,4,0,0,0,0,0,0,0,0,0,0,0,0,0,0,0,0,0,0,0,0,0,0,0,0,0,0,0,0,0,0,0,0],"split_type":[0,0,0,0,0,0,0,0,0,0,0,0,0,0,0,0,0,0,0,0,0,0,0,0,0,0,0,0,0,0,0,0,0,0,0,0,0,0,0,0,0,0,0,0,0,0,0,0,0,0,0,0,0,0,0,0,0,0,0,0,0,0,0],"sum_hessian":[1.5989E4,1.2412E4,3.577E3,5.852E3,6.56E3,1.549E3,2.028E3,8.01E2,5.051E3,1.192E3,5.368E3,1.65E2,1.384E3,1.866E3,1.62E2,7.29E2,7.2E1,4.737E3,3.14E2,1.159E3,3.3E1,4.192E3,1.176E3,5.7E1,1.08E2,2.64E2,1.12E3,1.579E3,2.87E2,5.8E1,1.04E2,3.97E2,3.32E2,1.7E1,5.5E1,9.67E2,3.77E3,2E0,3.12E2,8.07E2,3.52E2,9E0,2.4E1,3.203E3,9.89E2,1.099E3,7.7E1,4E0,5.3E1,1.2E1,9.6E1,1.5E2,1.14E2,1.022E3,9.8E1,8.5E2,7.29E2,2.68E2,1.9E1,4.1E1,1.7E1,3.8E1,6.6E1],"tree_param":{"num_deleted":"0","num_feature":"9","num_nodes":"63","size_leaf_vector":"1"}},{"base_weights":[2.0246191E-1,-5.34609E0,1.7692472E1,-9.08758E0,-6.419257E-1,2.7640776E1,9.521023E0,-5.382575E0,-1.0995438E1,7.2844625E0,-2.207969E0,2.023057E1,3.881268E1,1.7911318E1,6.67749E0,-6.7846813E0,1.1416595E0,-1.1831074E1,-1.0398749E0,6.3161254E0,4.334355E1,-1.3898212E0,-1.1576447E1,4.4714943E1,1.2666882E1,5.331445E1,2.6560366E1,9.985599E0,2.6479147E1,2.0560703E0,1.2403824E1,3.00161E-2,-4.3217784E-1,-2.6796925E-1,5.65768E-1,-6.2077063E-1,-2.1309118E-1,4.0227375E0,-8.737805E-2,1.0998707E0,1.9274297E-1,2.5405255E-1,3.3788972E0,3.0275863E-1,-1.1266812E-1,-6.593675E-1,4.283237E0,3.1902902E0,1.5711889E0,4.1479364E-1,1.5173696E0,1.9173758E0,3.5874603E0,1.5312958E0,-8.3123875E-1,-4.3597108E-1,6.012154E-1,1.1943716E0,4.392331E0,1.9966435E-1,-5.3268826E-1,5.752407E-1,4.4646E0],"categories":[],"categories_nodes":[],"categories_segments":[],"categories_sizes":[],"default_left":[0,0,0,0,0,0,0,0,0,0,0,0,0,0,0,0,0,0,0,0,0,0,0,0,0,0,0,0,0,0,0,0,0,0,0,0,0,0,0,0,0,0,0,0,0,0,0,0,0,0,0,0,0,0,0,0,0,0,0,0,0,0,0],"id":25,"left_children":[1,3,5,7,9,11,13,15,17,19,21,23,25,27,29,31,33,35,37,39,41,43,45,47,49,51,53,55,57,59,61,-1,-1,-1,-1,-1,-1,-1,-1,-1,-1,-1,-1,-1,-1,-1,-1,-1,-1,-1,-1,-1,-1,-1,-1,-1,-1,-1,-1,-1,-1,-1,-1],"loss_changes":[1.5489205E6,2.1326038E5,3.122235E5,4.7646938E4,6.6661836E4,1.42683E5,5.026864E4,2.1010805E4,3.70415E4,3.066302E4,3.435287E4,1.9277422E5,1.2118325E5,3.5997516E4,4.176083E4,2.5950727E4,2.6979494E4,1.812125E4,2.0095322E4,3.3261992E4,2.0983809E4,2.6533518E4,5.7522305E4,6.041497E4,6.1496273E4,8.416094E4,6.6524E4,1.0744264E4,3.861761E4,2.1586537E4,4.7704617E4,0E0,0E0,0E0,0E0,0E0,0E0,0E0,0E0,0E0,0E0,0E0,0E0,0E0,0E0,0E0,0E0,0E0,0E0,0E0,0E0,0E0,0E0,0E0,0E0,0E0,0E0,0E0,0E0,0E0,0E0,0E0,0E0],"parents":[2147483647,0,0,1,1,2,2,3,3,4,4,5,5,6,6,7,7,8,8,9,9,10,10,11,11,12,12,13,13,14,14,15,15,16,16,17,17,18,18,19,19,20,20,21,21,22,22,23,23,24,24,25,25,26,26,27,27,28,28,29,29,30,30],"right_children":[2,4,6,8,10,12,14,16,18,20,22,24,26,28,30,32,34,36,38,40,42,44,46,48,50,52,54,56,58,60,62,-1,-1,-1,-1,-1,-1,-1,-1,-1,-1,-1,-1,-1,-1,-1,-1,-1,-1,-1,-1,-1,-1,-1,-1,-1,-1,-1,-1,-1,-1,-1,-1],"split_conditions":[8.7202934E1,4.5314816E1,1.96E1,4E0,1.09E1,1.6553784E2,1.17E1,2.75E1,2.84E2,3.23E2,3.1E0,2E1,1.12E1,6.3E1,1.12981346E2,2.3E1,3.55E1,3.2E1,1.35E1,1.9E1,1.7E1,3.6E1,1.2232708E2,1.26E1,1.1E1,3E0,1.1E0,2.4E1,7.4888016E1,1.28E2,7.6E0,3.00161E-2,-4.3217784E-1,-2.6796925E-1,5.65768E-1,-6.2077063E-1,-2.1309118E-1,4.0227375E0,-8.737805E-2,1.0998707E0,1.9274297E-1,2.5405255E-1,3.3788972E0,3.0275863E-1,-1.1266812E-1,-6.593675E-1,4.283237E0,3.1902902E0,1.5711889E0,4.1479364E-1,1.5173696E0,1.9173758E0,3.5874603E0,1.5312958E0,-8.3123875E-1,-4.3597108E-1,6.012154E-1,1.1943716E0,4.392331E0,1.9966435E-1,-5.3268826E-1,5.752407E-1,4.4646E0],"split_indices":[0,1,6,3,7,1,7,6,4,4,8,4,7,4,1,4,0,6,6,4,6,4,2,6,3,3,8,4,2,4,8,0,0,0,0,0,0,0,0,0,0,0,0,0,0,0,0,0,0,0,0,0,0,0,0,0,0,0,0,0,0,0,0],"split_type":[0,0,0,0,0,0,0,0,0,0,0,0,0,0,0,0,0,0,0,0,0,0,0,0,0,0,0,0,0,0,0,0,0,0,0,0,0,0,0,0,0,0,0,0,0,0,0,0,0,0,0,0,0,0,0,0,0,0,0,0,0,0,0],"sum_hessian":[1.5959E4,1.2116E4,3.843E3,6.748E3,5.368E3,1.732E3,2.111E3,2.295E3,4.453E3,8.85E2,4.483E3,1.043E3,6.89E2,5.33E2,1.578E3,1.889E3,4.06E2,4.108E3,3.45E2,8.63E2,2.2E1,4.124E3,3.59E2,2.45E2,7.98E2,3.14E2,3.75E2,2.78E2,2.55E2,8.74E2,7.04E2,3.8E2,1.509E3,2.48E2,1.58E2,3.813E3,2.95E2,2E0,3.43E2,1.16E2,7.47E2,9E0,1.3E1,4.28E2,3.696E3,3.54E2,5E0,9.9E1,1.46E2,6.41E2,1.57E2,1.75E2,1.39E2,3.43E2,3.2E1,2.7E1,2.51E2,2.46E2,9E0,7.59E2,1.15E2,6.97E2,7E0],"tree_param":{"num_deleted":"0","num_feature":"9","num_nodes":"63","size_leaf_vector":"1"}},{"base_weights":[9.568568E-2,-4.2752E0,1.9336426E1,-7.02729E0,3.7350218E0,3.246288E1,1.311037E1,-4.0458083E0,-1.038507E1,1.4989047E1,1.937782E0,8.427067E1,3.0093008E1,7.7383504E0,2.2778202E1,-4.4069886E0,2.103496E1,-6.2628365E-1,-1.0988021E1,3.9801193E1,8.299082E0,3.0186958E0,-7.436663E0,1.0247067E2,4.1851334E1,2.743953E1,6.306975E1,2.0114014E1,5.2468243E0,2.6984283E1,6.313947E0,-7.173124E-1,-1.8663363E-1,-1.4953636E0,1.736266E0,-6.341109E-2,4.2371826E0,-4.7635245E-1,-6.5205806E-1,3.054929E0,6.3794607E-1,-3.4195057E-1,6.7037946E-1,3.641417E-1,6.38909E-2,-9.98482E-2,-7.4016315E-1,5.2650824E0,6.5085983E-1,3.2508786E0,4.698437E-1,2.45942E0,1.2022318E0,-2.5798914E0,3.36959E0,2.404916E0,4.768438E-1,3.365531E-1,-6.915052E-1,1.2038195E0,3.6787038E0,2.7861724E0,1.7227238E-1],"categories":[],"categories_nodes":[],"categories_segments":[],"categories_sizes":[],"default_left":[0,0,0,0,0,0,0,0,0,0,0,0,0,0,0,0,0,0,0,0,0,0,0,0,0,0,0,0,0,0,0,0,0,0,0,0,0,0,0,0,0,0,0,0,0,0,0,0,0,0,0,0,0,0,0,0,0,0,0,0,0,0,0],"id":26,"left_children":[1,3,5,7,9,11,13,15,17,19,21,23,25,27,29,31,33,35,37,39,41,43,45,47,49,51,53,55,57,59,61,-1,-1,-1,-1,-1,-1,-1,-1,-1,-1,-1,-1,-1,-1,-1,-1,-1,-1,-1,-1,-1,-1,-1,-1,-1,-1,-1,-1,-1,-1,-1,-1],"loss_changes":[1.3424721E6,2.867857E5,2.4107488E5,9.688603E4,6.726347E4,1.1410294E5,1.0400691E5,4.6563734E4,2.678325E4,7.56942E4,2.9104066E4,2.7364781E4,7.789719E4,3.970153E4,4.9412625E4,3.3846188E4,5.1950004E4,1.4684863E4,1.2738E4,5.5085625E4,2.8086268E4,1.909838E4,1.1871848E4,5.72E3,9.914904E3,6.1134062E4,3.6682344E4,6.3475984E4,3.0559709E4,7.545116E4,2.0642484E4,0E0,0E0,0E0,0E0,0E0,0E0,0E0,0E0,0E0,0E0,0E0,0E0,0E0,0E0,0E0,0E0,0E0,0E0,0E0,0E0,0E0,0E0,0E0,0E0,0E0,0E0,0E0,0E0,0E0,0E0,0E0,0E0],"parents":[2147483647,0,0,1,1,2,2,3,3,4,4,5,5,6,6,7,7,8,8,9,9,10,10,11,11,12,12,13,13,14,14,15,15,16,16,17,17,18,18,19,19,20,20,21,21,22,22,23,23,24,24,25,25,26,26,27,27,28,28,29,29,30,30],"right_children":[2,4,6,8,10,12,14,16,18,20,22,24,26,28,30,32,34,36,38,40,42,44,46,48,50,52,54,56,58,60,62,-1,-1,-1,-1,-1,-1,-1,-1,-1,-1,-1,-1,-1,-1,-1,-1,-1,-1,-1,-1,-1,-1,-1,-1,-1,-1,-1,-1,-1,-1,-1,-1],"split_conditions":[1.0411508E2,6.3680557E1,1.09E1,1E-1,2.5E1,1.12E1,1.5831592E2,3.14E2,5.1E1,1.29E1,8E-1,9.6E0,2.7340714E2,2.6E1,1.87E1,1.5366111E1,8.7E0,4.191362E1,1.76E1,1.6E1,1.7E1,1.22E1,1.37E2,2.7340714E2,1.5328E2,2.2E1,7.605635E0,2E0,7E-1,3.26E2,5.778E1,-7.173124E-1,-1.8663363E-1,-1.4953636E0,1.736266E0,-6.341109E-2,4.2371826E0,-4.7635245E-1,-6.5205806E-1,3.054929E0,6.3794607E-1,-3.4195057E-1,6.7037946E-1,3.641417E-1,6.38909E-2,-9.98482E-2,-7.4016315E-1,5.2650824E0,6.5085983E-1,3.2508786E0,4.698437E-1,2.45942E0,1.2022318E0,-2.5798914E0,3.36959E0,2.404916E0,4.768438E-1,3.365531E-1,-6.915052E-1,1.2038195E0,3.6787038E0,2.7861724E0,1.7227238E-1],"split_indices":[1,1,7,8,4,6,1,4,4,6,8,7,1,4,7,1,7,2,7,4,4,7,4,1,0,4,2,5,8,0,0,0,0,0,0,0,0,0,0,0,0,0,0,0,0,0,0,0,0,0,0,0,0,0,0,0,0,0,0,0,0,0,0],"split_type":[0,0,0,0,0,0,0,0,0,0,0,0,0,0,0,0,0,0,0,0,0,0,0,0,0,0,0,0,0,0,0,0,0,0,0,0,0,0,0,0,0,0,0,0,0,0,0,0,0,0,0,0,0,0,0,0,0,0,0,0,0,0,0],"sum_hessian":[1.5961E4,1.3007E4,2.954E3,9.681E3,3.326E3,9.49E2,2.005E3,5.129E3,4.552E3,4.57E2,2.869E3,4E1,9.09E2,1.29E3,7.15E2,5.057E3,7.2E1,2.65E2,4.287E3,9.6E1,3.61E2,2.573E3,2.96E2,2.7E1,1.3E1,8.43E2,6.6E1,2.15E2,1.075E3,5.69E2,1.46E2,3.2E2,4.737E3,1.5E1,5.7E1,2.64E2,1E0,2.508E3,1.779E3,5.3E1,4.3E1,9.1E1,2.7E2,7.45E2,1.828E3,1.71E2,1.25E2,2.6E1,1E0,7E0,6E0,1.12E2,7.31E2,2E0,6.4E1,5.8E1,1.57E2,9.98E2,7.7E1,5.37E2,3.2E1,7E0,1.39E2],"tree_param":{"num_deleted":"0","num_feature":"9","num_nodes":"63","size_leaf_vector":"1"}},{"base_weights":[-1.0346709E-1,-6.1175103E0,1.3908141E1,-9.356229E0,-2.9194818E0,2.5833738E1,8.248794E0,-7.4541764E0,-1.1951981E1,1.8223108E0,-4.14885E0,1.3198581E1,3.1856241E1,6.017822E0,2.7810108E1,-7.5377297E0,6.175348E1,-7.561603E0,-1.3030515E1,7.1252265E0,-1.7434338E0,-3.3825772E0,-1.1150103E1,7.8440404E0,2.8343962E1,6.0976223E1,2.916494E1,7.6601624E0,-8.201422E0,1.8187359E1,4.6060696E1,-5.017336E-1,-2.8552717E-1,1.3627299E0,4.1312532E0,-9.8694496E-2,-4.480362E-1,-6.6390866E-1,6.054107E-1,2.7427348E-1,2.1831744E0,3.0374914E-1,-1.291613E-1,-1.868456E-1,5.956848E-1,-1.0055956E0,-4.1533032E-1,7.697162E-1,-6.8989724E-1,3.65616E0,5.628249E-1,4.9255166E0,2.1373923E0,1.7528715E0,7.4308014E-1,7.810596E-1,2.6638895E-1,-4.4662866E-1,3.4189308E0,6.32099E0,8.560379E-1,6.3632016E0,2.0211613E0],"categories":[],"categories_nodes":[],"categories_segments":[],"categories_sizes":[],"default_left":[0,0,0,0,0,0,0,0,0,0,0,0,0,0,0,0,0,0,0,0,0,0,0,0,0,0,0,0,0,0,0,0,0,0,0,0,0,0,0,0,0,0,0,0,0,0,0,0,0,0,0,0,0,0,0,0,0,0,0,0,0,0,0],"id":27,"left_children":[1,3,5,7,9,11,13,15,17,19,21,23,25,27,29,31,33,35,37,39,41,43,45,47,49,51,53,55,57,59,61,-1,-1,-1,-1,-1,-1,-1,-1,-1,-1,-1,-1,-1,-1,-1,-1,-1,-1,-1,-1,-1,-1,-1,-1,-1,-1,-1,-1,-1,-1,-1,-1],"loss_changes":[1.354415E6,1.1645331E5,3.255663E5,2.7495375E4,3.3002016E4,1.177555E5,1.4275611E5,1.9125734E4,1.1081219E4,2.206013E4,2.4077367E4,4.0569234E4,8.058925E4,6.874352E4,5.799522E4,1.46518125E4,6.2827246E2,3.641084E3,1.1952406E4,2.7860086E4,4.5986533E3,2.2011793E4,1.1121855E4,6.1161773E4,9.9413305E4,5.599725E4,8.0727125E4,4.8881047E4,1.768822E4,2.3348023E4,4.7500438E4,0E0,0E0,0E0,0E0,0E0,0E0,0E0,0E0,0E0,0E0,0E0,0E0,0E0,0E0,0E0,0E0,0E0,0E0,0E0,0E0,0E0,0E0,0E0,0E0,0E0,0E0,0E0,0E0,0E0,0E0,0E0,0E0],"parents":[2147483647,0,0,1,1,2,2,3,3,4,4,5,5,6,6,7,7,8,8,9,9,10,10,11,11,12,12,13,13,14,14,15,15,16,16,