{"learner":{"attributes":{},"feature_names":["month","day_of_week","is_weekend","day_of_year","lag_1","lag_2","lag_3","lag_7","lag_14","lag_21","lag_30","roll_3_mean","roll_7_mean","roll_3_std","roll_14_mean","roll_30_mean","roll_14_std","om_temperature","om_wind_speed","om_precipitation","om_aerosol_optical_depth","rolling_3day_precip","aod_volatility_index","latitude","longitude"],"feature_types":["int","int","i","int","float","float","float","float","float","float","float","float","float","float","float","float","float","float","float","float","float","float","float","float","float"],"gradient_booster":{"model":{"gbtree_model_param":{"num_parallel_tree":"1","num_trees":"1000"},"iteration_indptr":[0,1,2,3,4,5,6,7,8,9,10,11,12,13,14,15,16,17,18,19,20,21,22,23,24,25,26,27,28,29,30,31,32,33,34,35,36,37,38,39,40,41,42,43,44,45,46,47,48,49,50,51,52,53,54,55,56,57,58,59,60,61,62,63,64,65,66,67,68,69,70,71,72,73,74,75,76,77,78,79,80,81,82,83,84,85,86,87,88,89,90,91,92,93,94,95,96,97,98,99,100,101,102,103,104,105,106,107,108,109,110,111,112,113,114,115,116,117,118,119,120,121,122,123,124,125,126,127,128,129,130,131,132,133,134,135,136,137,138,139,140,141,142,143,144,145,146,147,148,149,150,151,152,153,154,155,156,157,158,159,160,161,162,163,164,165,166,167,168,169,170,171,172,173,174,175,176,177,178,179,180,181,182,183,184,185,186,187,188,189,190,191,192,193,194,195,196,197,198,199,200,201,202,203,204,205,206,207,208,209,210,211,212,213,214,215,216,217,218,219,220,221,222,223,224,225,226,227,228,229,230,231,232,233,234,235,236,237,238,239,240,241,242,243,244,245,246,247,248,249,250,251,252,253,254,255,256,257,258,259,260,261,262,263,264,265,266,267,268,269,270,271,272,273,274,275,276,277,278,279,280,281,282,283,284,285,286,287,288,289,290,291,292,293,294,295,296,297,298,299,300,301,302,303,304,305,306,307,308,309,310,311,312,313,314,315,316,317,318,319,320,321,322,323,324,325,326,327,328,329,330,331,332,333,334,335,336,337,338,339,340,341,342,343,344,345,346,347,348,349,350,351,352,353,354,355,356,357,358,359,360,361,362,363,364,365,366,367,368,369,370,371,372,373,374,375,376,377,378,379,380,381,382,383,384,385,386,387,388,389,390,391,392,393,394,395,396,397,398,399,400,401,402,403,404,405,406,407,408,409,410,411,412,413,414,415,416,417,418,419,420,421,422,423,424,425,426,427,428,429,430,431,432,433,434,435,436,437,438,439,440,441,442,443,444,445,446,447,448,449,450,451,452,453,454,455,456,457,458,459,460,461,462,463,464,465,466,467,468,469,470,471,472,473,474,475,476,477,478,479,480,481,482,483,484,485,486,487,488,489,490,491,492,493,494,495,496,497,498,499,500,501,502,503,504,505,506,507,508,509,510,511,512,513,514,515,516,517,518,519,520,521,522,523,524,525,526,527,528,529,530,531,532,533,534,535,536,537,538,539,540,541,542,543,544,545,546,547,548,549,550,551,552,553,554,555,556,557,558,559,560,561,562,563,564,565,566,567,568,569,570,571,572,573,574,575,576,577,578,579,580,581,582,583,584,585,586,587,588,589,590,591,592,593,594,595,596,597,598,599,600,601,602,603,604,605,606,607,608,609,610,611,612,613,614,615,616,617,618,619,620,621,622,623,624,625,626,627,628,629,630,631,632,633,634,635,636,637,638,639,640,641,642,643,644,645,646,647,648,649,650,651,652,653,654,655,656,657,658,659,660,661,662,663,664,665,666,667,668,669,670,671,672,673,674,675,676,677,678,679,680,681,682,683,684,685,686,687,688,689,690,691,692,693,694,695,696,697,698,699,700,701,702,703,704,705,706,707,708,709,710,711,712,713,714,715,716,717,718,719,720,721,722,723,724,725,726,727,728,729,730,731,732,733,734,735,736,737,738,739,740,741,742,743,744,745,746,747,748,749,750,751,752,753,754,755,756,757,758,759,760,761,762,763,764,765,766,767,768,769,770,771,772,773,774,775,776,777,778,779,780,781,782,783,784,785,786,787,788,789,790,791,792,793,794,795,796,797,798,799,800,801,802,803,804,805,806,807,808,809,810,811,812,813,814,815,816,817,818,819,820,821,822,823,824,825,826,827,828,829,830,831,832,833,834,835,836,837,838,839,840,841,842,843,844,845,846,847,848,849,850,851,852,853,854,855,856,857,858,859,860,861,862,863,864,865,866,867,868,869,870,871,872,873,874,875,876,877,878,879,880,881,882,883,884,885,886,887,888,889,890,891,892,893,894,895,896,897,898,899,900,901,902,903,904,905,906,907,908,909,910,911,912,913,914,915,916,917,918,919,920,921,922,923,924,925,926,927,928,929,930,931,932,933,934,935,936,937,938,939,940,941,942,943,944,945,946,947,948,949,950,951,952,953,954,955,956,957,958,959,960,961,962,963,964,965,966,967,968,969,970,971,972,973,974,975,976,977,978,979,980,981,982,983,984,985,986,987,988,989,990,991,992,993,994,995,996,997,998,999,1000],"tree_info":[0,0,0,0,0,0,0,0,0,0,0,0,0,0,0,0,0,0,0,0,0,0,0,0,0,0,0,0,0,0,0,0,0,0,0,0,0,0,0,0,0,0,0,0,0,0,0,0,0,0,0,0,0,0,0,0,0,0,0,0,0,0,0,0,0,0,0,0,0,0,0,0,0,0,0,0,0,0,0,0,0,0,0,0,0,0,0,0,0,0,0,0,0,0,0,0,0,0,0,0,0,0,0,0,0,0,0,0,0,0,0,0,0,0,0,0,0,0,0,0,0,0,0,0,0,0,0,0,0,0,0,0,0,0,0,0,0,0,0,0,0,0,0,0,0,0,0,0,0,0,0,0,0,0,0,0,0,0,0,0,0,0,0,0,0,0,0,0,0,0,0,0,0,0,0,0,0,0,0,0,0,0,0,0,0,0,0,0,0,0,0,0,0,0,0,0,0,0,0,0,0,0,0,0,0,0,0,0,0,0,0,0,0,0,0,0,0,0,0,0,0,0,0,0,0,0,0,0,0,0,0,0,0,0,0,0,0,0,0,0,0,0,0,0,0,0,0,0,0,0,0,0,0,0,0,0,0,0,0,0,0,0,0,0,0,0,0,0,0,0,0,0,0,0,0,0,0,0,0,0,0,0,0,0,0,0,0,0,0,0,0,0,0,0,0,0,0,0,0,0,0,0,0,0,0,0,0,0,0,0,0,0,0,0,0,0,0,0,0,0,0,0,0,0,0,0,0,0,0,0,0,0,0,0,0,0,0,0,0,0,0,0,0,0,0,0,0,0,0,0,0,0,0,0,0,0,0,0,0,0,0,0,0,0,0,0,0,0,0,0,0,0,0,0,0,0,0,0,0,0,0,0,0,0,0,0,0,0,0,0,0,0,0,0,0,0,0,0,0,0,0,0,0,0,0,0,0,0,0,0,0,0,0,0,0,0,0,0,0,0,0,0,0,0,0,0,0,0,0,0,0,0,0,0,0,0,0,0,0,0,0,0,0,0,0,0,0,0,0,0,0,0,0,0,0,0,0,0,0,0,0,0,0,0,0,0,0,0,0,0,0,0,0,0,0,0,0,0,0,0,0,0,0,0,0,0,0,0,0,0,0,0,0,0,0,0,0,0,0,0,0,0,0,0,0,0,0,0,0,0,0,0,0,0,0,0,0,0,0,0,0,0,0,0,0,0,0,0,0,0,0,0,0,0,0,0,0,0,0,0,0,0,0,0,0,0,0,0,0,0,0,0,0,0,0,0,0,0,0,0,0,0,0,0,0,0,0,0,0,0,0,0,0,0,0,0,0,0,0,0,0,0,0,0,0,0,0,0,0,0,0,0,0,0,0,0,0,0,0,0,0,0,0,0,0,0,0,0,0,0,0,0,0,0,0,0,0,0,0,0,0,0,0,0,0,0,0,0,0,0,0,0,0,0,0,0,0,0,0,0,0,0,0,0,0,0,0,0,0,0,0,0,0,0,0,0,0,0,0,0,0,0,0,0,0,0,0,0,0,0,0,0,0,0,0,0,0,0,0,0,0,0,0,0,0,0,0,0,0,0,0,0,0,0,0,0,0,0,0,0,0,0,0,0,0,0,0,0,0,0,0,0,0,0,0,0,0,0,0,0,0,0,0,0,0,0,0,0,0,0,0,0,0,0,0,0,0,0,0,0,0,0,0,0,0,0,0,0,0,0,0,0,0,0,0,0,0,0,0,0,0,0,0,0,0,0,0,0,0,0,0,0,0,0,0,0,0,0,0,0,0,0,0,0,0,0,0,0,0,0,0,0,0,0,0,0,0,0,0,0,0,0,0,0,0,0,0,0,0,0,0,0,0,0,0,0,0,0,0,0,0,0,0,0,0,0,0,0,0,0,0,0,0,0,0,0,0,0,0,0,0,0,0,0,0,0,0,0,0,0,0,0,0,0,0,0,0,0,0,0,0,0,0,0,0,0,0,0,0,0,0,0,0,0,0,0,0,0,0,0,0,0,0,0,0,0,0,0,0,0,0,0,0,0,0,0,0,0,0,0,0,0,0,0,0,0,0,0,0,0,0,0,0,0,0,0,0,0,0,0,0,0,0,0,0,0,0,0,0,0,0,0,0,0,0,0,0,0,0,0,0,0,0,0,0,0,0,0,0,0,0,0,0,0,0,0,0,0,0,0,0,0,0,0,0,0,0,0,0,0,0,0,0,0,0,0,0,0,0,0,0,0,0,0,0,0,0,0,0,0,0,0,0,0,0,0,0,0,0,0],"trees":[{"base_weights":[3.7802479E-3,-1.3067743E0,1.8394387E0,-3.0880754E0,-6.1816275E-1,1.165902E0,4.384639E0,-3.9835268E-1,-2.3810554E-1,-1.2063239E-1,-1.954293E-2,7.6386675E-2,1.9240436E-1,3.604699E-1,7.1942693E-1],"categories":[],"categories_nodes":[],"categories_segments":[],"categories_sizes":[],"default_left":[1,0,0,0,0,0,0,0,0,0,0,0,0,0,0],"id":0,"left_children":[1,3,5,7,9,11,13,-1,-1,-1,-1,-1,-1,-1,-1],"loss_changes":[2.2615838E6,6.7279056E5,6.7129375E5,9.8687E4,1.0409853E5,9.6000125E4,1.626075E5,0E0,0E0,0E0,0E0,0E0,0E0,0E0,0E0],"parents":[2147483647,0,0,1,1,2,2,3,3,4,4,5,5,6,6],"right_children":[2,4,6,8,10,12,14,-1,-1,-1,-1,-1,-1,-1,-1],"split_conditions":[7.69E0,4.92E0,1.1696667E1,3.5133333E0,6.258333E0,9.663333E0,1.8396667E1,-3.9835268E-1,-2.3810554E-1,-1.2063239E-1,-1.954293E-2,7.6386675E-2,1.9240436E-1,3.604699E-1,7.1942693E-1],"split_indices":[15,15,15,15,15,15,15,0,0,0,0,0,0,0,0],"split_type":[0,0,0,0,0,0,0,0,0,0,0,0,0,0,0],"sum_hessian":[9.4008E5,5.4849E5,3.9159E5,1.52918E5,3.95572E5,3.09649E5,8.1941E4,5.6784E4,9.6134E4,1.5665E5,2.38922E5,2.13628E5,9.6021E4,6.7767E4,1.4174E4],"tree_param":{"num_deleted":"0","num_feature":"25","num_nodes":"15","size_leaf_vector":"1"}},{"base_weights":[5.7573954E-4,-1.0841607E0,1.8145982E0,-2.6696913E0,-4.3363002E-1,1.2634863E0,4.3065696E0,-3.512013E-1,-2.0057008E-1,-8.921131E-2,-1.3716448E-3,7.112754E-2,1.8229687E-1,3.473558E-1,6.5025485E-1],"categories":[],"categories_nodes":[],"categories_segments":[],"categories_sizes":[],"default_left":[1,0,0,0,0,0,0,0,0,0,0,0,0,0,0],"id":1,"left_children":[1,3,5,7,9,11,13,-1,-1,-1,-1,-1,-1,-1,-1],"loss_changes":[1.8521554E6,6.07551E5,4.8372725E5,9.8269875E4,8.619024E4,9.518741E4,1.0931975E5,0E0,0E0,0E0,0E0,0E0,0E0,0E0,0E0],"parents":[2147483647,0,0,1,1,2,2,3,3,4,4,5,5,6,6],"right_children":[2,4,6,8,10,12,14,-1,-1,-1,-1,-1,-1,-1,-1],"split_conditions":[7.9733334E0,5.105E0,1.2424444E1,3.6533334E0,6.63E0,8.9E0,1.8396667E1,-3.512013E-1,-2.0057008E-1,-8.921131E-2,-1.3716448E-3,7.112754E-2,1.8229687E-1,3.473558E-1,6.5025485E-1],"split_indices":[15,15,15,15,15,4,15,0,0,0,0,0,0,0,0],"split_type":[0,0,0,0,0,0,0,0,0,0,0,0,0,0,0],"sum_hessian":[9.4126E5,5.89034E5,3.52226E5,1.71365E5,4.17669E5,2.88438E5,6.3788E4,6.4527E4,1.06838E5,1.9219E5,2.25479E5,1.57047E5,1.31391E5,4.9535E4,1.4253E4],"tree_param":{"num_deleted":"0","num_feature":"25","num_nodes":"15","size_leaf_vector":"1"}},{"base_weights":[5.3715236E-3,-1.1954391E0,1.4265136E0,-2.6743512E0,-6.679555E-1,8.6131173E-1,3.7063363E0,-3.613071E-1,-2.204039E-1,-1.2899245E-1,-3.258116E-2,4.685398E-2,1.541224E-1,2.96872E-1,6.219871E-1],"categories":[],"categories_nodes":[],"categories_segments":[],"categories_sizes":[],"default_left":[0,0,1,0,0,1,0,0,0,0,0,0,0,0,0],"id":2,"left_children":[1,3,5,7,9,11,13,-1,-1,-1,-1,-1,-1,-1,-1],"loss_changes":[1.6063991E6,3.9801862E5,5.555117E5,5.5834875E4,8.318355E4,9.563022E4,1.4727375E5,0E0,0E0,0E0,0E0,0E0,0E0,0E0,0E0],"parents":[2147483647,0,0,1,1,2,2,3,3,4,4,5,5,6,6],"right_children":[2,4,6,8,10,12,14,-1,-1,-1,-1,-1,-1,-1,-1],"split_conditions":[7.3E0,4.7166667E0,1.1353333E1,3.0233333E0,5.2E0,9.016666E0,1.9547619E1,-3.613071E-1,-2.204039E-1,-1.2899245E-1,-3.258116E-2,4.685398E-2,1.541224E-1,2.96872E-1,6.219871E-1],"split_indices":[12,15,15,15,12,15,12,0,0,0,0,0,0,0,0],"split_type":[0,0,0,0,0,0,0,0,0,0,0,0,0,0,0],"sum_hessian":[9.41327E5,5.10215E5,4.31112E5,1.34135E5,3.7608E5,3.45467E5,8.5645E4,3.5541E4,9.8594E4,1.24017E5,2.52063E5,2.29028E5,1.16439E5,6.9755E4,1.589E4],"tree_param":{"num_deleted":"0","num_feature":"25","num_nodes":"15","size_leaf_vector":"1"}},{"base_weights":[-2.0155713E-3,-8.395836E-1,1.8727759E0,-2.20117E0,-2.9793012E-1,1.385589E0,4.64368E0,-3.0946276E-1,-1.7149825E-1,-8.1605606E-2,1.7098174E-3,1.0115417E-1,2.171775E-1,3.694735E-1,6.821954E-1],"categories":[],"categories_nodes":[],"categories_segments":[],"categories_sizes":[],"default_left":[1,0,0,0,0,0,0,0,0,0,0,0,0,0,0],"id":3,"left_children":[1,3,5,7,9,11,13,-1,-1,-1,-1,-1,-1,-1,-1],"loss_changes":[1.4776511E6,4.79701E5,3.9226675E5,7.882156E4,8.061631E4,7.206322E4,8.5666125E4,0E0,0E0,0E0,0E0,0E0,0E0,0E0,0E0],"parents":[2147483647,0,0,1,1,2,2,3,3,4,4,5,5,6,6],"right_children":[2,4,6,8,10,12,14,-1,-1,-1,-1,-1,-1,-1,-1],"split_conditions":[8.521428E0,4.964286E0,1.4307143E1,3.2392857E0,6.3428574E0,1.1135715E1,2.1385714E1,-3.0946276E-1,-1.7149825E-1,-8.1605606E-2,1.7098174E-3,1.0115417E-1,2.171775E-1,3.694735E-1,6.821954E-1],"split_indices":[14,14,14,14,14,14,14,0,0,0,0,0,0,0,0],"split_type":[0,0,0,0,0,0,0,0,0,0,0,0,0,0,0],"sum_hessian":[9.41018E5,6.50435E5,2.90583E5,1.8511E5,4.65325E5,2.47133E5,4.345E4,5.4525E4,1.30585E5,1.69914E5,2.95411E5,1.7816E5,6.8973E4,3.2606E4,1.0844E4],"tree_param":{"num_deleted":"0","num_feature":"25","num_nodes":"15","size_leaf_vector":"1"}},{"base_weights":[-1.378723E-3,-7.872328E-1,1.4625009E0,-1.9759846E0,-3.1312624E-1,9.845775E-1,3.2513838E0,-2.6309162E-1,-1.5390676E-1,-6.929422E-2,3.9889473E-3,3.540923E-2,1.2410932E-1,2.670906E-1,5.5905676E-1],"categories":[],"categories_nodes":[],"categories_segments":[],"categories_sizes":[],"default_left":[1,0,0,0,0,0,0,0,0,0,0,0,0,0,0],"id":4,"left_children":[1,3,5,7,9,11,13,-1,-1,-1,-1,-1,-1,-1,-1],"loss_changes":[1.082939E6,3.452211E5,2.8112712E5,4.9898938E4,6.3008875E4,4.8557984E4,8.48265E4,0E0,0E0,0E0,0E0,0E0,0E0,0E0,0E0],"parents":[2147483647,0,0,1,1,2,2,3,3,4,4,5,5,6,6],"right_children":[2,4,6,8,10,12,14,-1,-1,-1,-1,-1,-1,-1,-1],"split_conditions":[8.142858E0,4.571429E0,1.3257143E1,3.0642858E0,6.2714286E0,5E0,2.2914286E1,-2.6309162E-1,-1.5390676E-1,-6.929422E-2,3.9889473E-3,3.540923E-2,1.2410932E-1,2.670906E-1,5.5905676E-1],"split_indices":[12,12,12,12,12,0,12,0,0,0,0,0,0,0,0],"split_type":[0,0,0,0,0,0,0,0,0,0,0,0,0,0,0],"sum_hessian":[9.4136E5,6.12534E5,3.28826E5,1.74642E5,4.37892E5,2.59499E5,6.9327E4,5.8426E4,1.16216E5,2.04156E5,2.33736E5,8.5488E4,1.74011E5,5.8344E4,1.0983E4],"tree_param":{"num_deleted":"0","num_feature":"25","num_nodes":"15","size_leaf_vector":"1"}},{"base_weights":[-1.6704313E-3,-9.762539E-1,9.7397846E-1,-2.016913E0,-5.901105E-1,5.6629425E-1,2.6606874E0,-2.3796292E-1,-1.4901713E-1,-1.0342208E-1,-2.8988758E-2,4.4424306E-3,8.1818275E-2,1.6885881E-1,3.5929957E-1],"categories":[],"categories_nodes":[],"categories_segments":[],"categories_sizes":[],"default_left":[0,0,1,1,0,0,1,0,0,0,0,0,0,0,0],"id":5,"left_children":[1,3,5,7,9,11,13,-1,-1,-1,-1,-1,-1,-1,-1],"loss_changes":[8.9464456E5,1.89147E5,3.2332E5,2.7111656E4,4.7975867E4,5.567911E4,8.876006E4,0E0,0E0,0E0,0E0,0E0,0E0,0E0,0E0],"parents":[2147483647,0,0,1,1,2,2,3,3,4,4,5,5,6,6],"right_children":[2,4,6,8,10,12,14,-1,-1,-1,-1,-1,-1,-1,-1],"split_conditions":[6.9857144E0,4.071429E0,1.2242857E1,1.5482887E0,1.2E2,5E0,1.01E1,-2.3796292E-1,-1.4901713E-1,-1.0342208E-1,-2.8988758E-2,4.4424306E-3,8.1818275E-2,1.6885881E-1,3.5929957E-1],"split_indices":[12,12,12,16,3,0,8,0,0,0,0,0,0,0,0],"split_type":[0,0,0,0,0,0,0,0,0,0,0,0,0,0,0],"sum_hessian":[9.40886E5,4.707E5,4.70186E5,1.27387E5,3.43313E5,3.78663E5,9.1523E4,6.4966E4,6.2421E4,1.28606E5,2.14707E5,1.33316E5,2.45347E5,4.9442E4,4.2081E4],"tree_param":{"num_deleted":"0","num_feature":"25","num_nodes":"15","size_leaf_vector":"1"}},{"base_weights":[1.1874365E-3,-7.324914E-1,1.2705526E0,-1.8761013E0,-3.7661037E-1,8.489153E-1,3.204234E0,-2.5978446E-1,-1.537725E-1,-8.827796E-2,-1.7542485E-2,4.8221815E-2,1.2318471E-1,2.5872156E-1,5.424816E-1],"categories":[],"categories_nodes":[],"categories_segments":[],"categories_sizes":[],"default_left":[1,0,0,0,0,0,0,0,0,0,0,0,0,0,0],"id":6,"left_children":[1,3,5,7,9,11,13,-1,-1,-1,-1,-1,-1,-1,-1],"loss_changes":[8.7644494E5,2.4272222E5,2.810395E5,3.2534781E4,4.773818E4,4.2342953E4,7.774131E4,0E0,0E0,0E0,0E0,0E0,0E0,0E0,0E0],"parents":[2147483647,0,0,1,1,2,2,3,3,4,4,5,5,6,6],"right_children":[2,4,6,8,10,12,14,-1,-1,-1,-1,-1,-1,-1,-1],"split_conditions":[8.035714E0,4.510714E0,1.3028571E1,2.8357143E0,5.826667E0,9.689285E0,2.1385714E1,-2.5978446E-1,-1.537725E-1,-8.827796E-2,-1.7542485E-2,4.8221815E-2,1.2318471E-1,2.5872156E-1,5.424816E-1],"split_indices":[14,14,14,14,15,14,14,0,0,0,0,0,0,0,0],"split_type":[0,0,0,0,0,0,0,0,0,0,0,0,0,0,0],"sum_hessian":[9.4109E5,5.96386E5,3.44704E5,1.41542E5,4.54844E5,2.82998E5,6.1706E4,3.6096E4,1.05446E5,1.20587E5,3.34257E5,1.56182E5,1.26816E5,5.0816E4,1.089E4],"tree_param":{"num_deleted":"0","num_feature":"25","num_nodes":"15","size_leaf_vector":"1"}},{"base_weights":[-3.5654844E-4,-5.3665113E-1,1.4211744E0,-1.3734874E0,-9.543699E-2,1.0631621E0,3.3773098E0,-2.0802207E-1,-1.0347848E-1,-4.490297E-2,1.2711169E-2,3.8281973E-2,1.3120829E-1,2.739277E-1,5.6046516E-1],"categories":[],"categories_nodes":[],"categories_segments":[],"categories_sizes":[],"default_left":[1,0,0,0,0,0,0,0,0,0,0,0,0,0,0],"id":7,"left_children":[1,3,5,7,9,11,13,-1,-1,-1,-1,-1,-1,-1,-1],"loss_changes":[7.176165E5,2.5235081E5,1.80572E5,5.552128E4,3.7690582E4,4.3293E4,5.2016375E4,0E0,0E0,0E0,0E0,0E0,0E0,0E0,0E0],"parents":[2147483647,0,0,1,1,2,2,3,3,4,4,5,5,6,6],"right_children":[2,4,6,8,10,12,14,-1,-1,-1,-1,-1,-1,-1,-1],"split_conditions":[8.85E0,5.4214287E0,1.4657143E1,3.442857E0,5E0,5E0,2.4307142E1,-2.0802207E-1,-1.0347848E-1,-4.490297E-2,1.2711169E-2,3.8281973E-2,1.3120829E-1,2.739277E-1,5.6046516E-1],"split_indices":[14,14,14,14,0,0,14,0,0,0,0,0,0,0,0],"split_type":[0,0,0,0,0,0,0,0,0,0,0,0,0,0,0],"sum_hessian":[9.41308E5,6.83462E5,2.57846E5,2.35947E5,4.47515E5,2.17957E5,3.9889E4,6.5204E4,1.70743E5,1.70176E5,2.77339E5,6.7424E4,1.50533E5,3.2713E4,7.176E3],"tree_param":{"num_deleted":"0","num_feature":"25","num_nodes":"15","size_leaf_vector":"1"}},{"base_weights":[-1.516643E-3,-7.726957E-1,7.5606906E-1,-1.6579701E0,-4.9898803E-1,3.4635684E-1,1.7827672E0,-2.4857537E-1,-1.428138E-1,-5.0165374E-2,4.3509707E-1,9.177772E-4,6.766275E-2,2.8129524E-1,1.2371618E-1],"categories":[],"categories_nodes":[],"categories_segments":[],"categories_sizes":[],"default_left":[0,0,1,0,1,0,0,0,0,0,0,0,0,0,0],"id":8,"left_children":[1,3,5,7,9,11,13,-1,-1,-1,-1,-1,-1,-1,-1],"loss_changes":[5.4923094E5,1.12881E5,1.9948166E5,1.7846906E4,3.842154E4,4.0613797E4,7.668284E4,0E0,0E0,0E0,0E0,0E0,0E0,0E0,0E0],"parents":[2147483647,0,0,1,1,2,2,3,3,4,4,5,5,6,6],"right_children":[2,4,6,8,10,12,14,-1,-1,-1,-1,-1,-1,-1,-1],"split_conditions":[7.32E0,4.3966665E0,1.0348333E1,2.4733334E0,5.7708335E-1,8.066667E0,-1.1201309E2,-2.4857537E-1,-1.428138E-1,-5.0165374E-2,4.3509707E-1,9.177772E-4,6.766275E-2,2.8129524E-1,1.2371618E-1],"split_indices":[15,15,15,15,20,11,24,0,0,0,0,0,0,0,0],"split_type":[0,0,0,0,0,0,0,0,0,0,0,0,0,0,0],"sum_hessian":[9.40085E5,4.65863E5,4.74222E5,1.10018E5,3.55845E5,3.38959E5,1.35263E5,1.7654E4,9.2364E4,3.54324E5,1.521E3,1.74102E5,1.64857E5,4.1285E4,9.3978E4],"tree_param":{"num_deleted":"0","num_feature":"25","num_nodes":"15","size_leaf_vector":"1"}},{"base_weights":[-8.069784E-3,-4.5968422E-1,1.0279666E0,-1.1087338E0,-1.0085229E-1,8.545302E-1,3.1209497E0,-1.5527631E-1,-7.433895E-2,-4.369991E-2,1.030721E-2,7.7462755E-2,3.9556018E-1,4.3052822E-1,1.7705737E-1],"categories":[],"categories_nodes":[],"categories_segments":[],"categories_sizes":[],"default_left":[1,0,0,0,0,1,1,0,0,0,0,0,0,0,0],"id":9,"left_children":[1,3,5,7,9,11,13,-1,-1,-1,-1,-1,-1,-1,-1],"loss_changes":[4.4046606E5,1.5269055E5,1.0373644E5,3.956522E4,3.093316E4,4.353833E4,3.7788234E4,0E0,0E0,0E0,0E0,0E0,0E0,0E0,0E0],"parents":[2147483647,0,0,1,1,2,2,3,3,4,4,5,5,6,6],"right_children":[2,4,6,8,10,12,14,-1,-1,-1,-1,-1,-1,-1,-1],"split_conditions":[8.585714E0,5.107143E0,1.8507143E1,1.19E2,1.2E2,5.7708335E-1,7.9166666E-2,-1.5527631E-1,-7.433895E-2,-4.369991E-2,1.030721E-2,7.7462755E-2,3.9556018E-1,4.3052822E-1,1.7705737E-1],"split_indices":[12,12,12,3,3,20,20,0,0,0,0,0,0,0,0],"split_type":[0,0,0,0,0,0,0,0,0,0,0,0,0,0,0],"sum_hessian":[9.41388E5,6.55606E5,2.85782E5,2.33412E5,4.22194E5,2.63914E5,2.1868E4,9.3768E4,1.39644E5,1.56557E5,2.65637E5,2.59856E5,4.058E3,1.0673E4,1.1195E4],"tree_param":{"num_deleted":"0","num_feature":"25","num_nodes":"15","size_leaf_vector":"1"}},{"base_weights":[-3.7705775E-3,-7.012938E-1,5.936582E-1,-1.516112E0,-4.9054077E-1,4.410103E-1,2.6142552E0,-2.335235E-1,-1.3299467E-1,-8.852365E-2,-2.6575573E-2,2.1368265E-2,9.907003E-2,4.3800223E-1,1.5977092E-1],"categories":[],"categories_nodes":[],"categories_segments":[],"categories_sizes":[],"default_left":[0,0,1,0,0,1,0,0,0,0,0,0,0,0,0],"id":10,"left_children":[1,3,5,7,9,11,13,-1,-1,-1,-1,-1,-1,-1,-1],"loss_changes":[3.9228816E5,7.458011E4,1.5639858E5,1.1016531E4,3.1720094E4,6.0681867E4,6.575536E4,0E0,0E0,0E0,0E0,0E0,0E0,0E0,0E0],"parents":[2147483647,0,0,1,1,2,2,3,3,4,4,5,5,6,6],"right_children":[2,4,6,8,10,12,14,-1,-1,-1,-1,-1,-1,-1,-1],"split_conditions":[7.1066666E0,4.0833335E0,1.433E1,2.5794222E1,9.5E0,9.868333E0,3.681945E1,-2.335235E-1,-1.3299467E-1,-8.852365E-2,-2.6575573E-2,2.1368265E-2,9.907003E-2,4.3800223E-1,1.5977092E-1],"split_indices":[15,15,15,23,17,15,23,0,0,0,0,0,0,0,0],"split_type":[0,0,0,0,0,0,0,0,0,0,0,0,0,0,0],"sum_hessian":[9.41368E5,4.34302E5,5.07066E5,8.9247E4,3.45055E5,4.71451E5,3.5615E4,1.1646E4,7.7601E4,1.15301E5,2.29754E5,3.43222E5,1.28229E5,1.1798E4,2.3817E4],"tree_param":{"num_deleted":"0","num_feature":"25","num_nodes":"15","size_leaf_vector":"1"}},{"base_weights":[-4.2722076E-3,-5.394098E-1,6.385046E-1,-1.0323569E0,-2.0830375E-1,4.8425803E-1,2.3418086E0,-1.402126E-1,-7.37004E-2,-5.0251782E-2,-6.9173295E-3,2.5034796E-2,9.145962E-2,1.2189699E-1,3.3529508E-1],"categories":[],"categories_nodes":[],"categories_segments":[],"categories_sizes":[],"default_left":[1,0,0,0,0,0,0,0,0,0,0,0,0,0,0],"id":11,"left_children":[1,3,5,7,9,11,13,-1,-1,-1,-1,-1,-1,-1,-1],"loss_changes":[3.238915E5,8.386609E4,1.1239034E5,2.3344422E4,1.3139961E4,4.092504E4,4.3503453E4,0E0,0E0,0E0,0E0,0E0,0E0,0E0,0E0],"parents":[2147483647,0,0,1,1,2,2,3,3,4,4,5,5,6,6],"right_children":[2,4,6,8,10,12,14,-1,-1,-1,-1,-1,-1,-1,-1],"split_conditions":[7.443333E0,5.4366665E0,1.433E1,9.4E0,7.8E0,1.0157143E1,1.5928572E1,-1.402126E-1,-7.37004E-2,-5.0251782E-2,-6.9173295E-3,2.5034796E-2,9.145962E-2,1.2189699E-1,3.3529508E-1],"split_indices":[15,15,15,17,17,12,12,0,0,0,0,0,0,0,0],"split_type":[0,0,0,0,0,0,0,0,0,0,0,0,0,0,0],"sum_hessian":[9.41614E5,5.1383E5,4.27784E5,2.06457E5,3.07373E5,3.92263E5,3.5521E4,8.0061E4,1.26396E5,9.3329E4,2.14044E5,2.64498E5,1.27765E5,1.8245E4,1.7276E4],"tree_param":{"num_deleted":"0","num_feature":"25","num_nodes":"15","size_leaf_vector":"1"}},{"base_weights":[5.2099423E-3,-3.1360546E-1,1.1128947E0,-9.4094515E-1,-5.3778145E-2,9.439196E-1,3.3751185E0,-1.3148865E-1,-6.372517E-2,-3.3904996E-2,1.2166229E-2,1.2962136E-1,4.294151E-2,2.4929096E-1,5.892347E-1],"categories":[],"categories_nodes":[],"categories_segments":[],"categories_sizes":[],"default_left":[1,0,0,0,0,0,0,0,0,0,0,0,0,0,0],"id":12,"left_children":[1,3,5,7,9,11,13,-1,-1,-1,-1,-1,-1,-1,-1],"loss_changes":[3.3256944E5,1.1919516E5,8.0451734E4,2.5363828E4,2.7741807E4,3.914172E4,3.157236E4,0E0,0E0,0E0,0E0,0E0,0E0,0E0,0E0],"parents":[2147483647,0,0,1,1,2,2,3,3,4,4,5,5,6,6],"right_children":[2,4,6,8,10,12,14,-1,-1,-1,-1,-1,-1,-1,-1],"split_conditions":[9.396428E0,5.232143E0,1.962857E1,1.19E2,5E0,2.08E2,2.6423334E1,-1.3148865E-1,-6.372517E-2,-3.3904996E-2,1.2166229E-2,1.2962136E-1,4.294151E-2,2.4929096E-1,5.892347E-1],"split_indices":[14,14,14,3,0,3,15,0,0,0,0,0,0,0,0],"split_type":[0,0,0,0,0,0,0,0,0,0,0,0,0,0,0],"sum_hessian":[9.41729E5,7.31258E5,2.10471E5,2.14165E5,5.17093E5,1.95844E5,1.4627E4,8.52E4,1.28965E5,1.94722E5,3.22371E5,1.08515E5,8.7329E4,1.1359E4,3.268E3],"tree_param":{"num_deleted":"0","num_feature":"25","num_nodes":"15","size_leaf_vector":"1"}},{"base_weights":[9.542097E-4,-5.3239703E-1,4.7731873E-1,-9.251889E-1,-2.6234844E-1,3.410731E-1,1.8007536E0,-1.2378892E-1,-5.4539148E-2,4.212605E-3,-7.063694E-2,1.3919352E-2,8.0594026E-2,3.9454406E-1,9.567038E-2],"categories":[],"categories_nodes":[],"categories_segments":[],"categories_sizes":[],"default_left":[0,0,1,0,0,0,0,0,0,0,0,0,0,0,0],"id":13,"left_children":[1,3,5,7,9,11,13,-1,-1,-1,-1,-1,-1,-1,-1],"loss_changes":[2.3918519E5,4.711118E4,8.9663945E4,2.3355438E4,3.7907555E4,4.390212E4,8.600128E4,0E0,0E0,0E0,0E0,0E0,0E0,0E0,0E0],"parents":[2147483647,0,0,1,1,2,2,3,3,4,4,5,5,6,6],"right_children":[2,4,6,8,10,12,14,-1,-1,-1,-1,-1,-1,-1,-1],"split_conditions":[6.15E0,-1.0264587E2,7.387917E0,3.7E0,2.05E2,1.13E1,-1.15357086E2,-1.2378892E-1,-5.4539148E-2,4.212605E-3,-7.063694E-2,1.3919352E-2,8.0594026E-2,3.9454406E-1,9.567038E-2],"split_indices":[4,24,16,4,3,4,24,0,0,0,0,0,0,0,0],"split_type":[0,0,0,0,0,0,0,0,0,0,0,0,0,0,0],"sum_hessian":[9.41414E5,4.44141E5,4.97273E5,1.80947E5,2.63194E5,4.50859E5,4.6414E4,9.0475E4,9.0472E4,1.59476E5,1.03718E5,3.22708E5,1.28151E5,1.2093E4,3.4321E4],"tree_param":{"num_deleted":"0","num_feature":"25","num_nodes":"15","size_leaf_vector":"1"}},{"base_weights":[5.6557776E-4,-4.806979E-1,5.4157895E-1,-1.038236E0,-3.0519024E-1,3.0673558E-1,1.5514578E0,-1.703293E-1,-8.74457E-2,-5.644049E-2,-1.1726591E-2,5.5002153E-2,-5.5432124E-3,2.6407292E-1,1.0110631E-1],"categories":[],"categories_nodes":[],"categories_segments":[],"categories_sizes":[],"default_left":[1,0,0,0,0,0,0,0,0,0,0,0,0,0,0],"id":14,"left_children":[1,3,5,7,9,11,13,-1,-1,-1,-1,-1,-1,-1,-1],"loss_changes":[2.451131E5,4.8750914E4,1.05107945E5,1.1381992E4,1.9501703E4,3.4574246E4,4.9925703E4,0E0,0E0,0E0,0E0,0E0,0E0,0E0,0E0],"parents":[2147483647,0,0,1,1,2,2,3,3,4,4,5,5,6,6],"right_children":[2,4,6,8,10,12,14,-1,-1,-1,-1,-1,-1,-1,-1],"split_conditions":[7.2714286E0,4.25E0,1.2035714E1,2.2857144E0,1.22E2,2.07E2,-1.15357086E2,-1.703293E-1,-8.74457E-2,-5.644049E-2,-1.1726591E-2,5.5002153E-2,-5.5432124E-3,2.6407292E-1,1.0110631E-1],"split_indices":[14,14,14,14,3,3,24,0,0,0,0,0,0,0,0],"split_type":[0,0,0,0,0,0,0,0,0,0,0,0,0,0,0],"sum_hessian":[9.41401E5,4.98212E5,4.43189E5,1.19282E5,3.7893E5,3.59573E5,8.3616E4,1.8152E4,1.0113E5,1.49881E5,2.29049E5,2.08484E5,1.51089E5,2.484E4,5.8776E4],"tree_param":{"num_deleted":"0","num_feature":"25","num_nodes":"15","size_leaf_vector":"1"}},{"base_weights":[5.457805E-3,-4.2670697E-1,4.908736E-1,-1.0737507E0,-3.0299902E-1,2.9782066E-1,1.5351728E0,-1.7966819E-1,-9.0526454E-2,-3.52941E-2,2.8918501E-2,2.2540903E-2,1.4610322E-1,1.3177268E-1,4.3934047E-1],"categories":[],"categories_nodes":[],"categories_segments":[],"categories_sizes":[],"default_left":[1,0,0,1,1,1,0,0,0,0,0,0,0,0,0],"id":15,"left_children":[1,3,5,7,9,11,13,-1,-1,-1,-1,-1,-1,-1,-1],"loss_changes":[1.9750686E5,3.9867266E4,8.939705E4,8.493828E3,1.5940766E4,2.9146414E4,3.5110734E4,0E0,0E0,0E0,0E0,0E0,0E0,0E0,0E0],"parents":[2147483647,0,0,1,1,2,2,3,3,4,4,5,5,6,6],"right_children":[2,4,6,8,10,12,14,-1,-1,-1,-1,-1,-1,-1,-1],"split_conditions":[7.2714286E0,3.6892858E0,1.2653571E1,2.1333334E0,2.3416667E-1,3.6791667E-1,3.0507143E1,-1.7966819E-1,-9.0526454E-2,-3.52941E-2,2.8918501E-2,2.2540903E-2,1.4610322E-1,1.3177268E-1,4.3934047E-1],"split_indices":[14,14,14,15,20,20,14,0,0,0,0,0,0,0,0],"split_type":[0,0,0,0,0,0,0,0,0,0,0,0,0,0,0],"sum_hessian":[9.41495E5,4.98067E5,4.43428E5,7.994E4,4.18127E5,3.74245E5,6.9183E4,1.1617E4,6.8323E4,3.78455E5,3.9672E4,3.55584E5,1.8661E4,6.5545E4,3.638E3],"tree_param":{"num_deleted":"0","num_feature":"25","num_nodes":"15","size_leaf_vector":"1"}},{"base_weights":[-2.0152985E-3,-2.1271831E-1,8.1808347E-1,-5.452758E-1,4.899355E-2,1.7875315E0,5.28153E-1,-8.5412785E-2,-3.109904E-2,-2.1470185E-2,2.0460341E-2,2.521808E-2,2.4536021E-1,1.0840132E-1,-4.130791E-2],"categories":[],"categories_nodes":[],"categories_segments":[],"categories_sizes":[],"default_left":[1,0,0,0,0,0,0,0,0,0,0,0,0,0,0],"id":16,"left_children":[1,3,5,7,9,11,13,-1,-1,-1,-1,-1,-1,-1,-1],"loss_changes":[1.625981E5,6.515682E4,5.4061094E4,2.502268E4,1.8593426E4,5.123808E4,8.452086E4,0E0,0E0,0E0,0E0,0E0,0E0,0E0,0E0],"parents":[2147483647,0,0,1,1,2,2,3,3,4,4,5,5,6,6],"right_children":[2,4,6,8,10,12,14,-1,-1,-1,-1,-1,-1,-1,-1],"split_conditions":[9.639286E0,6.1571426E0,-1.15357086E2,5E0,5E0,6E0,8E0,-8.5412785E-2,-3.109904E-2,-2.1470185E-2,2.0460341E-2,2.521808E-2,2.4536021E-1,1.0840132E-1,-4.130791E-2],"split_indices":[14,14,24,0,0,0,0,0,0,0,0,0,0,0,0],"split_type":[0,0,0,0,0,0,0,0,0,0,0,0,0,0,0],"sum_hessian":[9.40974E5,7.48633E5,1.92341E5,3.29692E5,4.18941E5,4.4279E4,1.48062E5,1.30215E5,1.99477E5,1.57249E5,2.61692E5,1.4701E4,2.9578E4,9.1194E4,5.6868E4],"tree_param":{"num_deleted":"0","num_feature":"25","num_nodes":"15","size_leaf_vector":"1"}},{"base_weights":[9.800012E-3,-3.219852E-1,4.550268E-1,-7.990411E-1,-1.74635E-1,3.2144952E-1,1.9255818E0,-1.5996385E-1,-6.786957E-2,-4.882674E-2,7.2353534E-5,2.7673123E-2,2.9686558E-1,3.1034917E-1,1.0187457E-1],"categories":[],"categories_nodes":[],"categories_segments":[],"categories_sizes":[],"default_left":[0,1,1,0,0,1,0,0,0,0,0,0,0,0,0],"id":17,"left_children":[1,3,5,7,9,11,13,-1,-1,-1,-1,-1,-1,-1,-1],"loss_changes":[1.3889755E5,3.787288E4,7.8867125E4,1.0375672E4,2.396861E4,3.4838754E4,3.758932E4,0E0,0E0,0E0,0E0,0E0,0E0,0E0,0E0],"parents":[2147483647,0,0,1,1,2,2,3,3,4,4,5,5,6,6],"right_children":[2,4,6,8,10,12,14,-1,-1,-1,-1,-1,-1,-1,-1],"split_conditions":[7.15E0,4.3428574E0,1.4657143E1,2.5794222E1,1.14E2,5.7708335E-1,-1.1206619E2,-1.5996385E-1,-6.786957E-2,-4.882674E-2,7.2353534E-5,2.7673123E-2,2.9686558E-1,3.1034917E-1,1.0187457E-1],"split_indices":[4,14,14,23,3,20,24,0,0,0,0,0,0,0,0],"split_type":[0,0,0,0,0,0,0,0,0,0,0,0,0,0,0],"sum_hessian":[9.40276E5,5.38777E5,4.01499E5,1.27142E5,4.11635E5,3.68067E5,3.3432E4,1.2614E4,1.14528E5,1.42288E5,2.69347E5,3.63547E5,4.52E3,1.3422E4,2.001E4],"tree_param":{"num_deleted":"0","num_feature":"25","num_nodes":"15","size_leaf_vector":"1"}},{"base_weights":[-4.9410984E-3,-4.4904396E-1,2.4553174E-1,-7.657029E-1,-2.4580595E-1,4.827401E-1,-9.568414E-2,-5.533143E-2,-1.1992658E-1,1.9446265E-2,-6.660463E-2,-1.2942867E-2,1.3238105E-1,-4.5605697E-2,3.6850717E-2],"categories":[],"categories_nodes":[],"categories_segments":[],"categories_sizes":[],"default_left":[0,0,0,0,0,0,0,0,0,0,0,0,0,0,0],"id":18,"left_children":[1,3,5,7,9,11,13,-1,-1,-1,-1,-1,-1,-1,-1],"loss_changes":[1.04743875E5,2.1853375E4,4.8731312E4,1.2172109E4,4.122147E4,1.952334E5,4.4561312E4,0E0,0E0,0E0,0E0,0E0,0E0,0E0,0E0],"parents":[2147483647,0,0,1,1,2,2,3,3,4,4,5,5,6,6],"right_children":[2,4,6,8,10,12,14,-1,-1,-1,-1,-1,-1,-1,-1],"split_conditions":[5.964286E0,1.19E2,2.07E2,4.243414E1,2.44E2,1.24E2,2.88E2,-5.533143E-2,-1.1992658E-1,1.9446265E-2,-6.660463E-2,-1.2942867E-2,1.3238105E-1,-4.5605697E-2,3.6850717E-2],"split_indices":[12,3,3,23,3,3,3,0,0,0,0,0,0,0,0],"split_type":[0,0,0,0,0,0,0,0,0,0,0,0,0,0,0],"sum_hessian":[9.41637E5,3.39566E5,6.02071E5,1.32742E5,2.06824E5,3.55165E5,2.46906E5,9.4802E4,3.794E4,1.03147E5,1.03677E5,2.09831E5,1.45334E5,1.37958E5,1.08948E5],"tree_param":{"num_deleted":"0","num_feature":"25","num_nodes":"15","size_leaf_vector":"1"}},{"base_weights":[4.2834193E-3,-1.4853619E-1,7.962833E-1,-4.785584E-1,2.4806816E-2,-1.12637565E-1,1.0574439E0,-7.116465E-2,-2.4125917E-2,1.8579615E-2,-2.8262984E-2,-2.0316059E-2,7.3203844E-1,2.7271426E-1,6.335368E-2],"categories":[],"categories_nodes":[],"categories_segments":[],"categories_sizes":[],"default_left":[1,0,0,0,0,0,0,0,0,0,0,0,0,0,0],"id":19,"left_children":[1,3,5,7,9,11,13,-1,-1,-1,-1,-1,-1,-1,-1],"loss_changes":[1.13834664E5,4.510204E4,3.6110688E4,1.6101234E4,2.7617162E4,2.5694951E4,8.378703E4,0E0,0E0,0E0,0E0,0E0,0E0,0E0,0E0],"parents":[2147483647,0,0,1,1,2,2,3,3,4,4,5,5,6,6],"right_children":[2,4,6,8,10,12,14,-1,-1,-1,-1,-1,-1,-1,-1],"split_conditions":[1.0271428E1,5.714286E0,8.6E1,1.37E2,2.27E2,3.0507143E1,1.68E2,-7.116465E-2,-2.4125917E-2,1.8579615E-2,-2.8262984E-2,-2.0316059E-2,7.3203844E-1,2.7271426E-1,6.335368E-2],"split_indices":[14,14,3,3,3,14,3,0,0,0,0,0,0,0,0],"split_type":[0,0,0,0,0,0,0,0,0,0,0,0,0,0,0],"sum_hessian":[9.40523E5,7.88399E5,1.52124E5,2.71499E5,5.169E5,3.3954E4,1.1817E5,1.26951E5,1.44548E5,3.38259E5,1.78641E5,3.3528E4,4.26E2,2.1762E4,9.6408E4],"tree_param":{"num_deleted":"0","num_feature":"25","num_nodes":"15","size_leaf_vector":"1"}},{"base_weights":[3.0367768E-3,-3.6228994E-1,2.7819055E-1,-6.9867176E-1,-2.1433458E-1,9.177965E-2,9.1387457E-1,-1.879333E-2,-8.527931E-2,1.8491747E-2,-5.3625375E-2,6.1039724E-3,3.2769546E-1,7.998302E-2,3.993795E-1],"categories":[],"categories_nodes":[],"categories_segments":[],"categories_sizes":[],"default_left":[0,0,0,0,0,1,1,0,0,0,0,0,0,0,0],"id":20,"left_children":[1,3,5,7,9,11,13,-1,-1,-1,-1,-1,-1,-1,-1],"loss_changes":[9.464889E4,2.0132062E4,6.3642336E4,1.1588391E4,3.903946E4,3.908098E4,3.3024203E4,0E0,0E0,0E0,0E0,0E0,0E0,0E0,0E0],"parents":[2147483647,0,0,1,1,2,2,3,3,4,4,5,5,6,6],"right_children":[2,4,6,8,10,12,14,-1,-1,-1,-1,-1,-1,-1,-1],"split_conditions":[5.8E0,9.4E1,1.0633333E1,3.5987907E1,2.05E2,5.7708335E-1,2.6423334E1,-1.879333E-2,-8.527931E-2,1.8491747E-2,-5.3625375E-2,6.1039724E-3,3.2769546E-1,7.998302E-2,3.993795E-1],"split_indices":[4,3,15,23,3,20,15,0,0,0,0,0,0,0,0],"split_type":[0,0,0,0,0,0,0,0,0,0,0,0,0,0,0],"sum_hessian":[9.41581E5,4.04508E5,5.37073E5,1.23568E5,2.8094E5,4.15292E5,1.21781E5,3.3352E4,9.0216E4,1.28434E5,1.52506E5,4.11753E5,3.539E3,1.18697E5,3.084E3],"tree_param":{"num_deleted":"0","num_feature":"25","num_nodes":"15","size_leaf_vector":"1"}},{"base_weights":[6.968829E-3,-1.8556012E-1,4.58678E-1,-4.6947694E-1,-2.8215049E-2,3.6468887E-1,1.6088326E0,-7.200144E-2,-2.2269228E-2,1.2138014E-2,-2.7462827E-2,6.469259E-2,1.9399463E-3,2.647568E-1,-8.275143E-4],"categories":[],"categories_nodes":[],"categories_segments":[],"categories_sizes":[],"default_left":[1,0,0,0,0,0,0,0,0,0,0,0,0,0,0],"id":21,"left_children":[1,3,5,7,9,11,13,-1,-1,-1,-1,-1,-1,-1,-1],"loss_changes":[8.180447E4,2.9463111E4,3.0387645E4,1.556532E4,1.6795904E4,2.7450703E4,3.909845E4,0E0,0E0,0E0,0E0,0E0,0E0,0E0,0E0],"parents":[2147483647,0,0,1,1,2,2,3,3,4,4,5,5,6,6],"right_children":[2,4,6,8,10,12,14,-1,-1,-1,-1,-1,-1,-1,-1],"split_conditions":[8.54E0,5.681667E0,1.6316668E1,1.37E2,2.07E2,2.07E2,4.034139E1,-7.200144E-2,-2.2269228E-2,1.2138014E-2,-2.7462827E-2,6.469259E-2,1.9399463E-3,2.647568E-1,-8.275143E-4],"split_indices":[15,15,15,3,3,3,23,0,0,0,0,0,0,0,0],"split_type":[0,0,0,0,0,0,0,0,0,0,0,0,0,0,0],"sum_hessian":[9.40635E5,6.59529E5,2.81106E5,2.35174E5,4.24355E5,2.59871E5,2.1235E4,1.08651E5,1.26523E5,2.65148E5,1.59207E5,1.37516E5,1.22355E5,1.2463E4,8.772E3],"tree_param":{"num_deleted":"0","num_feature":"25","num_nodes":"15","size_leaf_vector":"1"}},{"base_weights":[-1.778731E-3,-1.4552289E-1,5.334546E-1,-4.217281E-1,-1.6944226E-2,-2.6603645E-1,7.5437903E-1,-9.243644E-2,-3.028131E-2,1.2161718E-2,-2.7950227E-2,-3.241178E-2,7.188108E-1,1.4668947E-1,1.979973E-2],"categories":[],"categories_nodes":[],"categories_segments":[],"categories_sizes":[],"default_left":[1,0,0,1,0,0,0,0,0,0,0,0,0,0,0],"id":22,"left_children":[1,3,5,7,9,11,13,-1,-1,-1,-1,-1,-1,-1,-1],"loss_changes":[7.241772E4,2.6351176E4,3.5197035E4,1.3619055E4,1.9789443E4,2.342196E4,6.579427E4,0E0,0E0,0E0,0E0,0E0,0E0,0E0,0E0],"parents":[2147483647,0,0,1,1,2,2,3,3,4,4,5,5,6,6],"right_children":[2,4,6,8,10,12,14,-1,-1,-1,-1,-1,-1,-1,-1],"split_conditions":[9.542857E0,4.4E0,7.8E1,2.9214287E0,2.27E2,3.0507143E1,2.07E2,-9.243644E-2,-3.028131E-2,1.2161718E-2,-2.7950227E-2,-3.241178E-2,7.188108E-1,1.4668947E-1,1.979973E-2],"split_indices":[14,4,3,14,3,14,3,0,0,0,0,0,0,0,0],"split_type":[0,0,0,0,0,0,0,0,0,0,0,0,0,0,0],"sum_hessian":[9.41262E5,7.41991E5,1.99271E5,2.35691E5,5.063E5,4.3143E4,1.56128E5,3.9294E4,1.96397E5,3.32181E5,1.74119E5,4.2755E4,3.88E2,6.5093E4,9.1035E4],"tree_param":{"num_deleted":"0","num_feature":"25","num_nodes":"15","size_leaf_vector":"1"}},{"base_weights":[-2.21592E-3,-2.0272791E-1,3.110874E-1,-4.4469818E-1,-5.2010763E-2,-1.0801685E-1,5.157248E-1,1.7398495E-2,-6.02936E-2,4.19236E-2,-3.6229502E-2,7.421326E-2,-2.7118543E-2,1.02173574E-1,1.1368036E-2],"categories":[],"categories_nodes":[],"categories_segments":[],"categories_sizes":[],"default_left":[0,0,0,0,0,0,0,0,0,0,0,0,0,0,0],"id":23,"left_children":[1,3,5,7,9,11,13,-1,-1,-1,-1,-1,-1,-1,-1],"loss_changes":[5.9160492E4,2.0941537E4,3.1518637E4,2.4929707E4,5.5817598E4,1.8354592E4,5.3475914E4,0E0,0E0,0E0,0E0,0E0,0E0,0E0,0E0],"parents":[2147483647,0,0,1,1,2,2,3,3,4,4,5,5,6,6],"right_children":[2,4,6,8,10,12,14,-1,-1,-1,-1,-1,-1,-1,-1],"split_conditions":[7.55E0,5E0,5E0,3.511688E1,8E0,3.271018E1,8E0,1.7398495E-2,-6.02936E-2,4.19236E-2,-3.6229502E-2,7.421326E-2,-2.7118543E-2,1.02173574E-1,1.1368036E-2],"split_indices":[4,0,0,23,0,23,0,0,0,0,0,0,0,0,0],"split_type":[0,0,0,0,0,0,0,0,0,0,0,0,0,0,0],"sum_hessian":[9.41728E5,5.74227E5,3.67501E5,2.20393E5,3.53834E5,1.2057E5,2.46931E5,4.9461E4,1.70932E5,1.41333E5,2.12501E5,1.988E4,1.0069E5,1.04245E5,1.42686E5],"tree_param":{"num_deleted":"0","num_feature":"25","num_nodes":"15","size_leaf_vector":"1"}},{"base_weights":[-3.1747068E-3,-1.6978858E-1,3.4013456E-1,-1.2738767E0,-1.3949423E-1,1.5630396E-1,8.115226E-1,-1.1801294E-1,-1.9030912E-1,-1.762183E-2,3.4697138E-2,1.0961583E-2,3.187755E-1,1.3203843E-1,3.9646033E-2],"categories":[],"categories_nodes":[],"categories_segments":[],"categories_sizes":[],"default_left":[0,0,0,0,1,1,0,0,0,0,0,0,0,0,0],"id":24,"left_children":[1,3,5,7,9,11,13,-1,-1,-1,-1,-1,-1,-1,-1],"loss_changes":[5.384502E4,2.119783E4,2.6653215E4,5.830254E2,1.33578955E4,2.968215E4,1.928586E4,0E0,0E0,0E0,0E0,0E0,0E0,0E0,0E0],"parents":[2147483647,0,0,1,1,2,2,3,3,4,4,5,5,6,6],"right_children":[2,4,6,8,10,12,14,-1,-1,-1,-1,-1,-1,-1,-1],"split_conditions":[8.366667E0,2.5794222E1,1.1246667E1,7.49E0,2.525E-1,5.7708335E-1,3.6999573E1,-1.1801294E-1,-1.9030912E-1,-1.762183E-2,3.4697138E-2,1.0961583E-2,3.187755E-1,1.3203843E-1,3.9646033E-2],"split_indices":[11,23,15,15,20,20,23,0,0,0,0,0,0,0,0],"split_type":[0,0,0,0,0,0,0,0,0,0,0,0,0,0,0],"sum_hessian":[9.41343E5,6.33766E5,3.07577E5,1.6924E4,6.16842E5,2.21283E5,8.6294E4,1.5813E4,1.111E3,5.67583E5,4.9259E4,2.18335E5,2.948E3,3.6018E4,5.0276E4],"tree_param":{"num_deleted":"0","num_feature":"25","num_nodes":"15","size_leaf_vector":"1"}},{"base_weights":[3.292674E-3,-6.258509E-2,7.9439116E-1,-3.136394E-1,8.435912E-2,5.277246E-1,2.3717632E0,6.0180615E-4,-4.859464E-2,5.7184357E-2,-2.2733571E-2,1.1590675E-1,-4.8764396E-2,3.5930884E-1,7.883602E-3],"categories":[],"categories_nodes":[],"categories_segments":[],"categories_sizes":[],"default_left":[1,0,0,0,0,0,0,0,0,0,0,0,0,0,0],"id":25,"left_children":[1,3,5,7,9,11,13,-1,-1,-1,-1,-1,-1,-1,-1],"loss_changes":[4.9062754E4,3.2060094E4,3.0439496E4,1.9561256E4,8.935672E4,4.3191223E4,3.2506824E4,0E0,0E0,0E0,0E0,0E0,0E0,0E0,0E0],"parents":[2147483647,0,0,1,1,2,2,3,3,4,4,5,5,6,6],"right_children":[2,4,6,8,10,12,14,-1,-1,-1,-1,-1,-1,-1,-1],"split_conditions":[1.2485714E1,1.2E2,3E2,4.5E1,2.07E2,2.07E2,3.46E2,6.0180615E-4,-4.859464E-2,5.7184357E-2,-2.2733571E-2,1.1590675E-1,-4.8764396E-2,3.5930884E-1,7.883602E-3],"split_indices":[14,3,3,3,3,3,3,0,0,0,0,0,0,0,0],"split_type":[0,0,0,0,0,0,0,0,0,0,0,0,0,0,0],"sum_hessian":[9.41416E5,8.69048E5,7.2368E4,3.20859E5,5.48189E5,6.1904E4,1.0464E4,1.19794E5,2.01065E5,2.11706E5,3.36483E5,3.7451E4,2.4453E4,6.571E3,3.893E3],"tree_param":{"num_deleted":"0","num_feature":"25","num_nodes":"15","size_leaf_vector":"1"}},{"base_weights":[3.3684047E-3,-1.6349144E-1,2.8138524E-1,-3.914291E-1,-2.2323279E-2,2.3861803E-1,3.0052593E0,-1.0894061E-2,-4.7239047E-2,3.7009485E-2,-3.0699126E-2,-5.2451165E-3,3.6964517E-2,3.471853E-1,-2.5851482E-1],"categories":[],"categories_nodes":[],"categories_segments":[],"categories_sizes":[],"default_left":[1,0,1,0,0,0,1,0,0,0,0,0,0,0,0],"id":26,"left_children":[1,3,5,7,9,11,13,-1,-1,-1,-1,-1,-1,-1,-1],"loss_changes":[4.365498E4,1.8923215E4,4.1116258E4,6.181957E3,4.3712438E4,1.4758748E4,1.8541262E4,0E0,0E0,0E0,0E0,0E0,0E0,0E0,0E0],"parents":[2147483647,0,0,1,1,2,2,3,3,4,4,5,5,6,6],"right_children":[2,4,6,8,10,12,14,-1,-1,-1,-1,-1,-1,-1,-1],"split_conditions":[7.7E0,5E0,2.622857E1,2E0,8E0,5E0,4.9875E-1,-1.0894061E-2,-4.7239047E-2,3.7009485E-2,-3.0699126E-2,-5.2451165E-3,3.6964517E-2,3.471853E-1,-2.5851482E-1],"split_indices":[8,0,12,0,0,0,20,0,0,0,0,0,0,0,0],"split_type":[0,0,0,0,0,0,0,0,0,0,0,0,0,0,0],"sum_hessian":[9.41044E5,5.88087E5,3.52957E5,2.24919E5,3.63168E5,3.47502E5,5.455E3,5.8884E4,1.66035E5,1.53121E5,2.10047E5,1.14993E5,2.32509E5,4.937E3,5.18E2],"tree_param":{"num_deleted":"0","num_feature":"25","num_nodes":"15","size_leaf_vector":"1"}},{"base_weights":[-1.2887581E-3,-2.1803963E-1,1.8740566E-1,-1.1309707E0,-1.8475647E-1,1.2456935E-1,8.7763727E-1,-7.604421E-2,-1.16388656E-1,-4.2730603E-2,-8.283782E-3,9.627075E-3,1.9079547E-1,3.1241268E-1,2.4174038E-2],"categories":[],"categories_nodes":[],"categories_segments":[],"categories_sizes":[],"default_left":[0,0,1,0,0,1,0,0,0,0,0,0,0,0,0],"id":27,"left_children":[1,3,5,7,9,11,13,-1,-1,-1,-1,-1,-1,-1,-1],"loss_changes":[3.851298E4,1.3315875E4,2.183329E4,4.0328125E2,1.0804312E4,2.1122934E4,6.223921E4,0E0,0E0,0E0,0E0,0E0,0E0,0E0,0E0],"parents":[2147483647,0,0,1,1,2,2,3,3,4,4,5,5,6,6],"right_children":[2,4,6,8,10,12,14,-1,-1,-1,-1,-1,-1,-1,-1],"split_conditions":[6.15E0,2.5794222E1,3.0375E-1,1.92039E1,6.7E0,2.775E1,1.95E1,-7.604421E-2,-1.16388656E-1,-4.2730603E-2,-8.283782E-3,9.627075E-3,1.9079547E-1,3.1241268E-1,2.4174038E-2],"split_indices":[8,23,20,23,17,5,17,0,0,0,0,0,0,0,0],"split_type":[0,0,0,0,0,0,0,0,0,0,0,0,0,0,0],"sum_hessian":[9.41643E5,4.38241E5,5.03402E5,1.5414E4,4.22827E5,4.61399E5,4.2003E4,2.826E3,1.2588E4,1.16881E5,3.05946E5,4.55343E5,6.056E3,8.802E3,3.3201E4],"tree_param":{"num_deleted":"0","num_feature":"25","num_nodes":"15","size_leaf_vector":"1"}},{"base_weights":[-2.4526857E-3,-2.9719216E-1,1.3151045E-1,-5.28799E-1,-9.323082E-2,2.8680667E-1,-2.3446766E-1,-6.892521E-2,-2.6533993E-2,1.083151E-2,-4.032679E-2,-3.495368E-3,4.349232E-2,7.043944E-3,-6.7152694E-2],"categories":[],"categories_nodes":[],"categories_segments":[],"categories_sizes":[],"default_left":[0,0,0,0,0,0,0,0,0,0,0,0,0,0,0],"id":28,"left_children":[1,3,5,7,9,11,13,-1,-1,-1,-1,-1,-1,-1,-1],"loss_changes":[3.7183164E4,1.3901115E4,3.6797785E4,6.5097812E3,1.0463463E4,2.4154547E4,2.7426285E4,0E0,0E0,0E0,0E0,0E0,0E0,0E0,0E0],"parents":[2147483647,0,0,1,1,2,2,3,3,4,4,5,5,6,6],"right_children":[2,4,6,8,10,12,14,-1,-1,-1,-1,-1,-1,-1,-1],"split_conditions":[4.8E0,-1.01766945E2,-8.2793465E1,1.71E2,2.05E2,1.22E2,2.05E2,-6.892521E-2,-2.6533993E-2,1.083151E-2,-4.032679E-2,-3.495368E-3,4.349232E-2,7.043944E-3,-6.7152694E-2],"split_indices":[4,24,24,3,3,3,3,0,0,0,0,0,0,0,0],"split_type":[0,0,0,0,0,0,0,0,0,0,0,0,0,0,0],"sum_hessian":[9.4172E5,2.94273E5,6.47447E5,1.37797E5,1.56476E5,4.54562E5,1.92885E5,7.9408E4,5.8389E4,9.5864E4,6.0612E4,1.53347E5,3.01215E5,1.1583E5,7.7055E4],"tree_param":{"num_deleted":"0","num_feature":"25","num_nodes":"15","size_leaf_vector":"1"}},{"base_weights":[-4.0360033E-3,-1.7101051E-1,1.9461773E-1,-9.7017413E-1,-1.4423138E-1,-1.5235062E-1,3.5682365E-1,-9.9158905E-2,4.04212E-2,-4.3117222E-3,-3.5751387E-2,4.3486528E-2,-3.4861837E-2,9.645949E-2,-1.960613E-3],"categories":[],"categories_nodes":[],"categories_segments":[],"categories_sizes":[],"default_left":[0,0,0,0,0,0,0,0,0,0,0,0,0,0,0],"id":29,"left_children":[1,3,5,7,9,11,13,-1,-1,-1,-1,-1,-1,-1,-1],"loss_changes":[3.1227504E4,1.0946466E4,2.4196822E4,1.3534463E3,1.116431E4,1.730904E4,7.1167266E4,0E0,0E0,0E0,0E0,0E0,0E0,0E0,0E0],"parents":[2147483647,0,0,1,1,2,2,3,3,4,4,5,5,6,6],"right_children":[2,4,6,8,10,12,14,-1,-1,-1,-1,-1,-1,-1,-1],"split_conditions":[7.464286E0,2.5794222E1,1.14E2,3.51E2,2.46E2,3.4075687E1,2.05E2,-9.9158905E-2,4.04212E-2,-4.3117222E-3,-3.5751387E-2,4.3486528E-2,-3.4861837E-2,9.645949E-2,-1.960613E-3],"split_indices":[14,23,3,3,3,23,3,0,0,0,0,0,0,0,0],"split_type":[0,0,0,0,0,0,0,0,0,0,0,0,0,0,0],"sum_hessian":[9.41433E5,5.11501E5,4.29932E5,1.6583E4,4.94918E5,1.36962E5,2.9297E5,1.5911E4,6.72E2,3.43977E5,1.50941E5,3.5275E4,1.01687E5,1.08202E5,1.84768E5],"tree_param":{"num_deleted":"0","num_feature":"25","num_nodes":"15","size_leaf_vector":"1"}},{"base_weights":[2.8966176E-3,-1.1795625E-1,2.7076837E-1,-4.04497E-1,-4.2431846E-2,2.4765556E-1,2.8041375E0,-3.4672067E-2,-1.9747497E-1,-2.0329004E-2,7.412692E-3,1.5397433E-2,8.180923E-2,1.041544E0,1.16706066E-1],"categories":[],"categories_nodes":[],"categories_segments":[],"categories_sizes":[],"default_left":[0,0,1,0,0,0,0,0,0,0,0,0,0,0,0],"id":30,"left_children":[1,3,5,7,9,11,13,-1,-1,-1,-1,-1,-1,-1,-1],"loss_changes":[3.0464936E4,1.4033773E4,1.7130307E4,9.9508125E3,1.032109E4,1.5319613E4,3.3711496E4,0E0,0E0,0E0,0E0,0E0,0E0,0E0,0E0],"parents":[2147483647,0,0,1,1,2,2,3,3,4,4,5,5,6,6],"right_children":[2,4,6,8,10,12,14,-1,-1,-1,-1,-1,-1,-1,-1],"split_conditions":[8.6E0,3.25E0,2.6423334E1,9.688923E0,1.37E2,3.14E2,3.2669003E1,-3.4672067E-2,-1.9747497E-1,-2.0329004E-2,7.412692E-3,1.5397433E-2,8.180923E-2,1.041544E0,1.16706066E-1],"split_indices":[4,4,15,16,3,3,23,0,0,0,0,0,0,0,0],"split_type":[0,0,0,0,0,0,0,0,0,0,0,0,0,0,0],"sum_hessian":[9.41056E5,6.48486E5,2.9257E5,1.35269E5,5.13217E5,2.89926E5,2.644E3,1.31688E5,3.581E3,2.12786E5,3.00431E5,2.52949E5,3.6977E4,4.38E2,2.206E3],"tree_param":{"num_deleted":"0","num_feature":"25","num_nodes":"15","size_leaf_vector":"1"}},{"base_weights":[-1.0723985E-2,-1.0213718E-1,2.9978588E-1,-2.8081828E-1,2.8050879E-2,2.2195558E-1,1.7113761E0,1.6849503E-2,-4.345751E-2,5.930602E-2,-2.5398899E-2,3.53269E-2,-1.8076798E-2,9.623967E-2,6.779617E-1],"categories":[],"categories_nodes":[],"categories_segments":[],"categories_sizes":[],"default_left":[1,0,1,0,0,0,0,0,0,0,0,0,0,0,0],"id":31,"left_children":[1,3,5,7,9,11,13,-1,-1,-1,-1,-1,-1,-1,-1],"loss_changes":[2.6720535E4,1.6917777E4,2.3522162E4,2.3759363E4,7.205245E4,1.2016352E4,4.2443656E4,0E0,0E0,0E0,0E0,0E0,0E0,0E0,0E0],"parents":[2147483647,0,0,1,1,2,2,3,3,4,4,5,5,6,6],"right_children":[2,4,6,8,10,12,14,-1,-1,-1,-1,-1,-1,-1,-1],"split_conditions":[9.85E0,1.37E2,1.962857E1,3.5642944E1,2.05E2,-8.2793465E1,-8.3599724E1,1.6849503E-2,-4.345751E-2,5.930602E-2,-2.5398899E-2,3.53269E-2,-1.8076798E-2,9.623967E-2,6.779617E-1],"split_indices":[8,3,14,23,3,24,24,0,0,0,0,0,0,0,0],"split_type":[0,0,0,0,0,0,0,0,0,0,0,0,0,0,0],"sum_hessian":[9.41369E5,7.27265E5,2.14104E5,3.06541E5,4.20724E5,2.02917E5,1.1187E4,8.3329E4,2.23212E5,1.39582E5,2.81142E5,1.49965E5,5.2952E4,9.867E3,1.32E3],"tree_param":{"num_deleted":"0","num_feature":"25","num_nodes":"15","size_leaf_vector":"1"}},{"base_weights":[3.9590764E-4,-1.8793358E-1,1.3243994E-1,-8.813237E-1,-1.5825249E-1,9.176542E-2,7.2181886E-1,-4.6482194E-2,-9.323531E-2,-3.8189232E-2,-6.041124E-3,1.0681985E-2,-1.0247483E-1,1.8804428E-1,4.813342E-3],"categories":[],"categories_nodes":[],"categories_segments":[],"categories_sizes":[],"default_left":[0,0,1,0,0,1,0,0,0,0,0,0,0,0,0],"id":32,"left_children":[1,3,5,7,9,11,13,-1,-1,-1,-1,-1,-1,-1,-1],"loss_changes":[2.3404912E4,7.983293E3,1.3263146E4,5.465635E2,8.461166E3,1.1401465E4,2.950114E4,0E0,0E0,0E0,0E0,0E0,0E0,0E0,0E0],"parents":[2147483647,0,0,1,1,2,2,3,3,4,4,5,5,6,6],"right_children":[2,4,6,8,10,12,14,-1,-1,-1,-1,-1,-1,-1,-1],"split_conditions":[6.8E0,2.5794222E1,1.433E1,1.92039E1,6.9E0,1.16691675E1,3.6999573E1,-4.6482194E-2,-9.323531E-2,-3.8189232E-2,-6.041124E-3,1.0681985E-2,-1.0247483E-1,1.8804428E-1,4.813342E-3],"split_indices":[15,23,15,23,17,16,23,0,0,0,0,0,0,0,0],"split_type":[0,0,0,0,0,0,0,0,0,0,0,0,0,0,0],"sum_hessian":[9.41172E5,3.8791E5,5.53262E5,1.5922E4,3.71988E5,5.17546E5,3.5716E4,2.827E3,1.3095E4,1.06574E5,2.65414E5,5.0914E5,8.406E3,1.2621E4,2.3095E4],"tree_param":{"num_deleted":"0","num_feature":"25","num_nodes":"15","size_leaf_vector":"1"}},{"base_weights":[-3.8699466E-3,3.4224316E-2,-6.0603493E-1,-3.7579056E-2,3.5274333E-1,-3.2347062E-1,-1.044103E0,-2.1525433E-2,6.8966965E-3,1.0407497E-1,1.0911415E-2,-6.945114E-2,5.316677E-2,-8.361684E-2,-3.1957728E-1],"categories":[],"categories_nodes":[],"categories_segments":[],"categories_sizes":[],"default_left":[0,1,0,0,0,0,1,0,0,0,0,0,0,0,0],"id":33,"left_children":[1,3,5,7,9,11,13,-1,-1,-1,-1,-1,-1,-1,-1],"loss_changes":[2.158494E4,2.024025E4,6.929746E3,1.4642398E4,2.8355123E4,1.1830019E4,8.798744E3,0E0,0E0,0E0,0E0,0E0,0E0,0E0,0E0],"parents":[2147483647,0,0,1,1,2,2,3,3,4,4,5,5,6,6],"right_children":[2,4,6,8,10,12,14,-1,-1,-1,-1,-1,-1,-1,-1],"split_conditions":[-7.329726E1,1.0021428E1,2.07E2,-1.01766945E2,-1.15357086E2,1.39E2,1.0475E1,-2.1525433E-2,6.8966965E-3,1.0407497E-1,1.0911415E-2,-6.945114E-2,5.316677E-2,-8.361684E-2,-3.1957728E-1],"split_indices":[24,14,3,24,24,3,14,0,0,0,0,0,0,0,0],"split_type":[0,0,0,0,0,0,0,0,0,0,0,0,0,0,0],"sum_hessian":[9.40968E5,8.84983E5,5.5985E4,7.22183E5,1.628E5,3.4034E4,2.1951E4,2.67263E5,4.5492E5,4.0338E4,1.22462E5,2.341E4,1.0624E4,2.037E4,1.581E3],"tree_param":{"num_deleted":"0","num_feature":"25","num_nodes":"15","size_leaf_vector":"1"}},{"base_weights":[1.2606358E-3,-1.7839715E-1,1.1161876E-1,-3.8857263E-1,-1.7524214E-2,5.6594265E-1,1.6403306E-2,-1.09726265E-1,-3.336047E-2,1.3675935E-2,-2.3307255E-2,3.832384E-2,3.3449724E-1,1.8031636E-2,-2.0126127E-2],"categories":[],"categories_nodes":[],"categories_segments":[],"categories_sizes":[],"default_left":[0,0,0,1,0,0,0,0,0,0,0,0,0,0,0],"id":34,"left_children":[1,3,5,7,9,11,13,-1,-1,-1,-1,-1,-1,-1,-1],"loss_changes":[1.8644133E4,1.2098711E4,2.5199322E4,4.935158E3,7.248558E3,4.9339203E4,1.8515764E4,0E0,0E0,0E0,0E0,0E0,0E0,0E0,0E0],"parents":[2147483647,0,0,1,1,2,2,3,3,4,4,5,5,6,6],"right_children":[2,4,6,8,10,12,14,-1,-1,-1,-1,-1,-1,-1,-1],"split_conditions":[5.35E0,-1.0264587E2,-1.15357086E2,1.7428571E0,-8.062861E1,1.4054548E1,4E0,-1.09726265E-1,-3.336047E-2,1.3675935E-2,-2.3307255E-2,3.832384E-2,3.3449724E-1,1.8031636E-2,-2.0126127E-2],"split_indices":[4,24,24,14,24,16,1,0,0,0,0,0,0,0,0],"split_type":[0,0,0,0,0,0,0,0,0,0,0,0,0,0,0],"sum_hessian":[9.40353E5,3.57827E5,5.82526E5,1.5514E5,2.02687E5,1.0093E5,4.81596E5,8.304E3,1.46836E5,1.1848E5,8.4207E4,9.5404E4,5.526E3,2.73968E5,2.07628E5],"tree_param":{"num_deleted":"0","num_feature":"25","num_nodes":"15","size_leaf_vector":"1"}},{"base_weights":[2.0700141E-3,3.7642285E-2,-5.591762E-1,-3.7944005E-3,5.840049E-1,-4.2288673E-1,-1.4887217E0,-1.271639E-3,3.3598474E-1,1.7683056E-1,1.0938917E-2,-3.946464E-2,-3.498787E-1,-1.15470305E-1,-2.4602552E-1],"categories":[],"categories_nodes":[],"categories_segments":[],"categories_sizes":[],"default_left":[0,1,0,1,0,1,0,0,0,0,0,0,0,0,0],"id":35,"left_children":[1,3,5,7,9,11,13,-1,-1,-1,-1,-1,-1,-1,-1],"loss_changes":[1.8756873E4,2.0001965E4,7.0934766E3,2.694193E4,3.6653297E4,2.0970264E3,2.2108477E3,0E0,0E0,0E0,0E0,0E0,0E0,0E0,0E0],"parents":[2147483647,0,0,1,1,2,2,3,3,4,4,5,5,6,6],"right_children":[2,4,6,8,10,12,14,-1,-1,-1,-1,-1,-1,-1,-1],"split_conditions":[-7.329726E1,3.0375E-1,9.047619E0,3.6725E1,1.95E1,8.1166667E-1,1.365E1,-1.271639E-3,3.3598474E-1,1.7683056E-1,1.0938917E-2,-3.946464E-2,-3.498787E-1,-1.15470305E-1,-2.4602552E-1],"split_indices":[24,20,14,11,17,20,11,0,0,0,0,0,0,0,0],"split_type":[0,0,0,0,0,0,0,0,0,0,0,0,0,0,0],"sum_hessian":[9.39495E5,8.83499E5,5.5996E4,8.21218E5,6.2281E4,4.8837E4,7.159E3,8.19013E5,2.205E3,1.7023E4,4.5258E4,4.8635E4,2.02E2,5.625E3,1.534E3],"tree_param":{"num_deleted":"0","num_feature":"25","num_nodes":"15","size_leaf_vector":"1"}},{"base_weights":[-3.8712493E-3,-8.038694E-2,2.2995616E-1,-8.676368E-2,3.375996E0,8.60186E-1,4.3694973E-2,-1.2036745E-2,2.9896796E-2,1.7079599E0,1.9424027E-1,1.3447757E-1,-3.0647535E-3,3.4105714E-2,-3.4729872E-2],"categories":[],"categories_nodes":[],"categories_segments":[],"categories_sizes":[],"default_left":[0,1,0,1,0,1,0,0,0,0,0,0,0,0,0],"id":36,"left_children":[1,3,5,7,9,11,13,-1,-1,-1,-1,-1,-1,-1,-1],"loss_changes":[1.6840344E4,1.5631016E4,2.7241693E4,1.0715329E4,2.5455105E4,2.5271766E4,2.2451053E4,0E0,0E0,0E0,0E0,0E0,0E0,0E0,0E0],"parents":[2147483647,0,0,1,1,2,2,3,3,4,4,5,5,6,6],"right_children":[2,4,6,8,10,12,14,-1,-1,-1,-1,-1,-1,-1,-1],"split_conditions":[9.6E0,6.508333E-1,-1.1201309E2,2.4458334E-1,2.7E0,8.0416664E-2,4E0,-1.2036745E-2,2.9896796E-2,1.7079599E0,1.9424027E-1,1.3447757E-1,-3.0647535E-3,3.4105714E-2,-3.4729872E-2],"split_indices":[4,20,24,20,9,20,1,0,0,0,0,0,0,0,0],"split_type":[0,0,0,0,0,0,0,0,0,0,0,0,0,0,0],"sum_hessian":[9.41248E5,7.09182E5,2.32066E5,7.07877E5,1.305E3,5.2939E4,1.79127E5,6.45842E5,6.2035E4,1.12E2,1.193E3,3.3087E4,1.9852E4,1.01334E5,7.7793E4],"tree_param":{"num_deleted":"0","num_feature":"25","num_nodes":"15","size_leaf_vector":"1"}},{"base_weights":[-1.1257624E-3,-1.7308904E-1,1.1782793E-1,1.9377045E-1,-2.777264E-1,6.457015E-1,-1.4661618E-1,1.49284E-2,3.5314655E-1,-2.735834E-2,7.244938E-1,2.1163104E-2,9.463711E-2,8.211788E-3,-5.171454E-2],"categories":[],"categories_nodes":[],"categories_segments":[],"categories_sizes":[],"default_left":[0,0,0,1,1,1,1,0,0,0,0,0,0,0,0],"id":37,"left_children":[1,3,5,7,9,11,13,-1,-1,-1,-1,-1,-1,-1,-1],"loss_changes":[1.9253404E4,1.4773758E4,7.766492E4,1.1521727E4,1.4351693E4,2.6607047E4,3.351136E4,0E0,0E0,0E0,0E0,0E0,0E0,0E0,0E0],"parents":[2147483647,0,0,1,1,2,2,3,3,4,4,5,5,6,6],"right_children":[2,4,6,8,10,12,14,-1,-1,-1,-1,-1,-1,-1,-1],"split_conditions":[1.37E2,3E1,2.07E2,2.775E1,3.6725E1,2.6056151E0,1.0125E-1,1.49284E-2,3.5314655E-1,-2.735834E-2,7.244938E-1,2.1163104E-2,9.463711E-2,8.211788E-3,-5.171454E-2],"split_indices":[3,3,3,10,11,16,20,0,0,0,0,0,0,0,0],"split_type":[0,0,0,0,0,0,0,0,0,0,0,0,0,0,0],"sum_hessian":[9.41224E5,3.84859E5,5.56365E5,8.541E4,2.99449E5,1.85692E5,3.70673E5,8.4465E4,9.45E2,2.99214E5,2.35E2,8.1905E4,1.03787E5,2.32478E5,1.38195E5],"tree_param":{"num_deleted":"0","num_feature":"25","num_nodes":"15","size_leaf_vector":"1"}},{"base_weights":[1.0953128E-3,-1.9173925E-1,8.70238E-2,-1.6393599E-1,-1.749274E0,5.412013E-2,5.622576E-1,-1.6563838E-2,2.781069E-1,1.5020408E-1,-2.632223E-1,8.6160837E-4,8.337319E-2,8.596046E-2,-1.7225431E-1],"categories":[],"categories_nodes":[],"categories_segments":[],"categories_sizes":[],"default_left":[0,0,1,1,1,0,0,0,0,0,0,0,0,0,0],"id":38,"left_children":[1,3,5,7,9,11,13,-1,-1,-1,-1,-1,-1,-1,-1],"loss_changes":[1.5604797E4,1.2570763E4,1.0186761E4,6.899964E3,1.654046E4,2.2323578E4,3.2677836E4,0E0,0E0,0E0,0E0,0E0,0E0,0E0,0E0],"parents":[2147483647,0,0,1,1,2,2,3,3,4,4,5,5,6,6],"right_children":[2,4,6,8,10,12,14,-1,-1,-1,-1,-1,-1,-1,-1],"split_conditions":[4.8E0,9.688923E0,3.2625E-1,6.508333E-1,2.6666667E-2,1.71E1,2.09E1,-1.6563838E-2,2.781069E-1,1.5020408E-1,-2.632223E-1,8.6160837E-4,8.337319E-2,8.596046E-2,-1.7225431E-1],"split_indices":[8,16,20,20,20,4,4,0,0,0,0,0,0,0,0],"split_type":[0,0,0,0,0,0,0,0,0,0,0,0,0,0,0],"sum_hessian":[9.41749E5,2.90293E5,6.51456E5,2.85203E5,5.09E3,6.09273E5,4.2183E4,2.84464E5,7.39E2,1.165E3,3.925E3,5.77122E5,3.2151E4,3.6993E4,5.19E3],"tree_param":{"num_deleted":"0","num_feature":"25","num_nodes":"15","size_leaf_vector":"1"}},{"base_weights":[7.5277913E-4,-1.6560155E-1,9.5070735E-2,2.9416874E-1,-3.1902277E-1,3.6272472E-1,-8.930796E-2,2.5560426E-2,6.4929444E-1,2.972178E-2,-5.3009942E-2,-1.9364184E-2,8.25637E-2,6.951897E-2,-3.529136E-2],"categories":[],"categories_nodes":[],"categories_segments":[],"categories_sizes":[],"default_left":[0,0,0,1,0,0,0,0,0,0,0,0,0,0,0],"id":39,"left_children":[1,3,5,7,9,11,13,-1,-1,-1,-1,-1,-1,-1,-1],"loss_changes":[1.4763522E4,2.4015354E4,2.9633684E4,1.5887139E4,3.700053E4,6.819471E4,7.9804914E4,0E0,0E0,0E0,0E0,0E0,0E0,0E0,0E0],"parents":[2147483647,0,0,1,1,2,2,3,3,4,4,5,5,6,6],"right_children":[2,4,6,8,10,12,14,-1,-1,-1,-1,-1,-1,-1,-1],"split_conditions":[5E0,3.511688E1,8E0,2.6423334E1,2E0,3.876835E1,-1.11855446E2,2.5560426E-2,6.4929444E-1,2.972178E-2,-5.3009942E-2,-1.9364184E-2,8.25637E-2,6.951897E-2,-3.529136E-2],"split_indices":[0,23,0,15,0,23,24,0,0,0,0,0,0,0,0],"split_type":[0,0,0,0,0,0,0,0,0,0,0,0,0,0,0],"sum_hessian":[9.40937E5,3.40455E5,6.00482E5,8.5182E4,2.55273E5,2.44929E5,3.55553E5,8.4802E4,3.8E2,6.8697E4,1.86576E5,1.14396E5,1.30533E5,9.0522E4,2.65031E5],"tree_param":{"num_deleted":"0","num_feature":"25","num_nodes":"15","size_leaf_vector":"1"}},{"base_weights":[-3.620027E-3,-7.016575E-2,2.2205709E-1,-5.5079E-2,-8.975276E-1,1.0864341E-1,8.3462113E-1,-6.335986E-3,1.3753764E-1,1.385243E-1,-1.6142145E-1,3.581233E-2,-4.037628E-2,1.2273764E-1,-1.3128965E-2],"categories":[],"categories_nodes":[],"categories_segments":[],"categories_sizes":[],"default_left":[1,1,0,1,1,0,0,0,0,0,0,0,0,0,0],"id":40,"left_children":[1,3,5,7,9,11,13,-1,-1,-1,-1,-1,-1,-1,-1],"loss_changes":[1.4139319E4,9.075762E3,1.4895018E4,1.1286912E4,2.363731E4,2.5097637E4,1.4272836E4,0E0,0E0,0E0,0E0,0E0,0E0,0E0,0E0],"parents":[2147483647,0,0,1,1,2,2,3,3,4,4,5,5,6,6],"right_children":[2,4,6,8,10,12,14,-1,-1,-1,-1,-1,-1,-1,-1],"split_conditions":[9.85E0,1.0197347E1,2.98E2,5.308333E-1,2.0833334E-2,2.08E2,3.47E2,-6.335986E-3,1.3753764E-1,1.385243E-1,-1.6142145E-1,3.581233E-2,-4.037628E-2,1.2273764E-1,-1.3128965E-2],"split_indices":[8,16,3,20,20,3,3,0,0,0,0,0,0,0,0],"split_type":[0,0,0,0,0,0,0,0,0,0,0,0,0,0,0],"sum_hessian":[9.41499E5,7.27099E5,2.144E5,7.14079E5,1.302E4,1.80907E5,3.3493E4,7.08979E5,5.1E3,3.252E3,9.768E3,1.20734E5,6.0173E4,2.3065E4,1.0428E4],"tree_param":{"num_deleted":"0","num_feature":"25","num_nodes":"15","size_leaf_vector":"1"}},{"base_weights":[-7.0237706E-4,-1.504086E-1,1.0282534E-1,4.0875062E-1,-2.576886E-1,5.5471486E-1,-1.2282903E-1,3.1270985E-2,7.096052E-1,2.2090934E-2,-3.8265076E-2,-1.8545344E-2,1.1353207E-1,-3.582216E-2,1.6527E-2],"categories":[],"categories_nodes":[],"categories_segments":[],"categories_sizes":[],"default_left":[0,0,0,1,0,0,0,0,0,0,0,0,0,0,0],"id":41,"left_children":[1,3,5,7,9,11,13,-1,-1,-1,-1,-1,-1,-1,-1],"loss_changes":[1.4574956E4,2.3062256E4,5.668984E4,3.6269664E4,2.1887266E4,8.622717E4,2.715844E4,0E0,0E0,0E0,0E0,0E0,0E0,0E0,0E0],"parents":[2147483647,0,0,1,1,2,2,3,3,4,4,5,5,6,6],"right_children":[2,4,6,8,10,12,14,-1,-1,-1,-1,-1,-1,-1,-1],"split_conditions":[1.37E2,3.3362595E1,2.07E2,2.09E1,3E1,3.863114E1,2.9E2,3.1270985E-2,7.096052E-1,2.2090934E-2,-3.8265076E-2,-1.8545344E-2,1.1353207E-1,-3.582216E-2,1.6527E-2],"split_indices":[3,23,3,12,3,23,3,0,0,0,0,0,0,0,0],"split_type":[0,0,0,0,0,0,0,0,0,0,0,0,0,0,0],"sum_hessian":[9.40394E5,3.84454E5,5.5594E5,6.1887E4,3.22567E5,1.85154E5,3.70786E5,6.1147E4,7.4E2,7.1777E4,2.5079E5,8.4212E4,1.00942E5,2.00905E5,1.69881E5],"tree_param":{"num_deleted":"0","num_feature":"25","num_nodes":"15","size_leaf_vector":"1"}},{"base_weights":[8.81337E-3,1.6215063E-3,1.853281E0,-1.4505453E-1,8.530021E-2,3.6343782E0,-3.6882138E0,1.951002E-2,-2.83689E-2,2.948709E-2,-6.4912904E-3,2.754697E-1,2.926151E0,-3.9271683E-1,2.4038427E0],"categories":[],"categories_nodes":[],"categories_segments":[],"categories_sizes":[],"default_left":[1,0,0,0,0,0,0,0,0,0,0,0,0,0,0],"id":42,"left_children":[1,3,5,7,9,11,13,-1,-1,-1,-1,-1,-1,-1,-1],"loss_changes":[1.2489848E4,1.151144E4,3.610778E4,1.7676459E4,2.0116633E4,5.732861E4,9.954494E3,0E0,0E0,0E0,0E0,0E0,0E0,0E0,0E0],"parents":[2147483647,0,0,1,1,2,2,3,3,4,4,5,5,6,6],"right_children":[2,4,6,8,10,12,14,-1,-1,-1,-1,-1,-1,-1,-1],"split_conditions":[3.0507143E1,5E0,4.374561E1,3.5987907E1,8E0,4.3629604E1,3.04E1,1.951002E-2,-2.83689E-2,2.948709E-2,-6.4912904E-3,2.754697E-1,2.926151E0,-3.9271683E-1,2.4038427E0],"split_indices":[14,0,23,23,0,23,17,0,0,0,0,0,0,0,0],"split_type":[0,0,0,0,0,0,0,0,0,0,0,0,0,0,0],"sum_hessian":[9.41552E5,9.37896E5,3.656E3,3.407E5,5.97196E5,2.767E3,8.89E2,1.02392E5,2.38308E5,2.44202E5,3.52994E5,2.69E3,7.7E1,8.78E2,1.1E1],"tree_param":{"num_deleted":"0","num_feature":"25","num_nodes":"15","size_leaf_vector":"1"}},{"base_weights":[-2.6223963E-4,-8.191039E-1,1.5471723E-2,-8.747983E-1,6.1052865E-1,-1.0706157E-1,9.9905014E-2,-7.993232E-2,-2.3780374E-1,3.5080988E-2,5.795026E-1,4.74209E-2,-1.9860057E-2,9.718964E-2,5.139164E-4],"categories":[],"categories_nodes":[],"categories_segments":[],"categories_sizes":[],"default_left":[0,0,0,0,0,0,0,0,0,0,0,0,0,0,0],"id":43,"left_children":[1,3,5,7,9,11,13,-1,-1,-1,-1,-1,-1,-1,-1],"loss_changes":[1.2127355E4,1.4135156E3,9.554998E3,1.2333174E3,8.8481396E2,2.2348973E4,4.698176E4,0E0,0E0,0E0,0E0,0E0,0E0,0E0,0E0],"parents":[2147483647,0,0,1,1,2,2,3,3,4,4,5,5,6,6],"right_children":[2,4,6,8,10,12,14,-1,-1,-1,-1,-1,-1,-1,-1],"split_conditions":[2.5794222E1,3.51E2,1.37E2,9.961905E0,7.3E0,3.3217045E1,1.56E2,-7.993232E-2,-2.3780374E-1,3.5080988E-2,5.795026E-1,4.74209E-2,-1.9860057E-2,9.718964E-2,5.139164E-4],"split_indices":[23,3,3,12,8,23,3,0,0,0,0,0,0,0,0],"split_type":[0,0,0,0,0,0,0,0,0,0,0,0,0,0,0],"sum_hessian":[9.41298E5,1.7745E4,9.23553E5,1.708E4,6.65E2,3.76769E5,5.46784E5,1.6608E4,4.72E2,6.37E2,2.8E1,5.3434E4,3.23335E5,5.1549E4,4.95235E5],"tree_param":{"num_deleted":"0","num_feature":"25","num_nodes":"15","size_leaf_vector":"1"}},{"base_weights":[-4.25048E-3,-1.8281883E-1,6.492484E-2,-1.5842189E-1,-1.2314975E0,5.5702545E-2,2.1141217E0,-6.120641E-2,-1.2334394E-2,-1.7665687E-1,2.5729677E-1,-8.680338E-5,3.1243488E-2,8.629352E-1,-3.9607383E-2],"categories":[],"categories_nodes":[],"categories_segments":[],"categories_sizes":[],"default_left":[0,0,1,0,0,0,0,0,0,0,0,0,0,0,0],"id":44,"left_children":[1,3,5,7,9,11,13,-1,-1,-1,-1,-1,-1,-1,-1],"loss_changes":[1.1632383E4,6.727084E3,1.2827256E4,3.7282305E3,1.4033266E4,1.0268931E4,5.2525258E4,0E0,0E0,0E0,0E0,0E0,0E0,0E0,0E0],"parents":[2147483647,0,0,1,1,2,2,3,3,4,4,5,5,6,6],"right_children":[2,4,6,8,10,12,14,-1,-1,-1,-1,-1,-1,-1,-1],"split_conditions":[4.6E0,9.688923E0,4.11E1,2.2857144E0,2.47E1,2.9E2,1.72E2,-6.120641E-2,-1.2334394E-2,-1.7665687E-1,2.5729677E-1,-8.680338E-5,3.1243488E-2,8.629352E-1,-3.9607383E-2],"split_indices":[10,16,7,14,17,3,3,0,0,0,0,0,0,0,0],"split_type":[0,0,0,0,0,0,0,0,0,0,0,0,0,0,0],"sum_hessian":[9.41699E5,2.62942E5,6.78757E5,2.56965E5,5.977E3,6.75717E5,3.04E3,1.5423E4,2.41542E5,5.179E3,7.98E2,5.58064E5,1.17653E5,8.19E2,2.221E3],"tree_param":{"num_deleted":"0","num_feature":"25","num_nodes":"15","size_leaf_vector":"1"}},{"base_weights":[-2.2015357E-3,2.7631307E-2,-4.4470337E-1,-2.0853464E-1,8.255192E-2,-3.440519E-1,-1.5835098E0,-1.6059233E-2,-1.5096371E-1,7.143062E-3,1.7811948E-1,-2.9335702E-2,-1.390121E-1,-7.226834E-2,-2.4355334E-1],"categories":[],"categories_nodes":[],"categories_segments":[],"categories_sizes":[],"default_left":[0,0,1,0,1,0,0,0,0,0,0,0,0,0,0],"id":45,"left_children":[1,3,5,7,9,11,13,-1,-1,-1,-1,-1,-1,-1,-1],"loss_changes":[1.2442513E4,1.145294E4,6.823049E3,9.479E3,1.0668863E4,2.382296E3,3.8007861E3,0E0,0E0,0E0,0E0,0E0,0E0,0E0,0E0],"parents":[2147483647,0,0,1,1,2,2,3,3,4,4,5,5,6,6],"right_children":[2,4,6,8,10,12,14,-1,-1,-1,-1,-1,-1,-1,-1],"split_conditions":[-7.3817696E1,3.75E0,9.253333E0,9.253782E0,2.6423334E1,6.1991935E0,8E0,-1.6059233E-2,-1.5096371E-1,7.143062E-3,1.7811948E-1,-2.9335702E-2,-1.390121E-1,-7.226834E-2,-2.4355334E-1],"split_indices":[24,4,15,16,15,13,0,0,0,0,0,0,0,0,0],"split_type":[0,0,0,0,0,0,0,0,0,0,0,0,0,0,0],"sum_hessian":[9.42535E5,8.83005E5,5.953E4,1.666E5,7.16405E5,5.4697E4,4.833E3,1.61614E5,4.986E3,7.13E5,3.405E3,5.2792E4,1.905E3,2.567E3,2.266E3],"tree_param":{"num_deleted":"0","num_feature":"25","num_nodes":"15","size_leaf_vector":"1"}},{"base_weights":[9.4100344E-4,-7.312686E-2,1.392272E-1,-9.428724E-2,3.0663419E0,2.2436662E-2,7.1056837E-1,7.972427E-4,-2.6056914E-2,1.6030409E0,-2.1365918E-2,4.523419E-3,-1.9337377E-1,4.8643604E-2,2.4441424E-1],"categories":[],"categories_nodes":[],"categories_segments":[],"categories_sizes":[],"default_left":[1,1,0,0,0,1,0,0,0,0,0,0,0,0,0],"id":46,"left_children":[1,3,5,7,9,11,13,-1,-1,-1,-1,-1,-1,-1,-1],"loss_changes":[9.646199E3,4.074259E4,2.191895E4,1.1001256E4,1.8316777E5,1.3556733E4,2.0947418E4,0E0,0E0,0E0,0E0,0E0,0E0,0E0,0E0],"parents":[2147483647,0,0,1,1,2,2,3,3,4,4,5,5,6,6],"right_children":[2,4,6,8,10,12,14,-1,-1,-1,-1,-1,-1,-1,-1],"split_conditions":[8E0,5.7708335E-1,2.93E2,2.08E2,1.47E2,5.7708335E-1,1.3721429E1,7.972427E-4,-2.6056914E-2,1.6030409E0,-2.1365918E-2,4.523419E-3,-1.9337377E-1,4.8643604E-2,2.4441424E-1],"split_indices":[9,20,3,3,3,20,14,0,0,0,0,0,0,0,0],"split_type":[0,0,0,0,0,0,0,0,0,0,0,0,0,0,0],"sum_hessian":[9.41774E5,6.13289E5,3.28485E5,6.09184E5,4.105E3,2.72735E5,5.575E4,3.84963E5,2.24221E5,8E2,3.305E3,2.69482E5,3.253E3,5.0102E4,5.648E3],"tree_param":{"num_deleted":"0","num_feature":"25","num_nodes":"15","size_leaf_vector":"1"}},{"base_weights":[-1.1308448E-3,-5.7624258E-2,1.909568E-1,-5.374386E-2,-2.5135167E0,1.6467917E-1,2.0173144E0,3.3519676E-4,-1.8650288E-2,-3.8053355E-1,1.2255573E0,2.9730277E-2,-4.5522564E-4,5.6004775E-1,7.575576E-2],"categories":[],"categories_nodes":[],"categories_segments":[],"categories_sizes":[],"default_left":[1,1,1,0,0,0,0,0,0,0,0,0,0,0,0],"id":47,"left_children":[1,3,5,7,9,11,13,-1,-1,-1,-1,-1,-1,-1,-1],"loss_changes":[1.0210721E4,6.928951E3,1.026235E4,5.806231E3,2.5117186E4,5.1355244E3,1.416313E4,0E0,0E0,0E0,0E0,0E0,0E0,0E0,0E0],"parents":[2147483647,0,0,1,1,2,2,3,3,4,4,5,5,6,6],"right_children":[2,4,6,8,10,12,14,-1,-1,-1,-1,-1,-1,-1,-1],"split_conditions":[9.85E0,2.9593489E1,3.0507143E1,5E0,2.53E1,1E-1,1.18E1,3.3519676E-4,-1.8650288E-2,-3.8053355E-1,1.2255573E0,2.9730277E-2,-4.5522564E-4,5.6004775E-1,7.575576E-2],"split_indices":[8,16,14,1,17,19,5,0,0,0,0,0,0,0,0],"split_type":[0,0,0,0,0,0,0,0,0,0,0,0,0,0,0],"sum_hessian":[9.40932E5,7.27093E5,2.13839E5,7.25947E5,1.146E3,2.10807E5,3.032E3,5.1508E5,2.10867E5,1.048E3,9.8E1,1.14017E5,9.679E4,7.42E2,2.29E3],"tree_param":{"num_deleted":"0","num_feature":"25","num_nodes":"15","size_leaf_vector":"1"}},{"base_weights":[2.1726055E-4,2.763686E-2,-4.0691072E-1,-7.5624496E-1,4.2217333E-2,-2.1780175E-1,-8.800494E-1,-6.762783E-2,-2.040037E-1,-4.824448E-3,1.2618999E-2,-6.0638133E-3,-4.5709483E-2,-6.804054E-2,-1.6214694E-1],"categories":[],"categories_nodes":[],"categories_segments":[],"categories_sizes":[],"default_left":[0,0,0,0,0,0,0,0,0,0,0,0,0,0,0],"id":48,"left_children":[1,3,5,7,9,11,13,-1,-1,-1,-1,-1,-1,-1,-1],"loss_changes":[1.0506539E4,1.0078242E4,5.3134473E3,1.1931025E3,7.087061E3,1.685513E3,2.3671768E3,0E0,0E0,0E0,0E0,0E0,0E0,0E0,0E0],"parents":[2147483647,0,0,1,1,2,2,3,3,4,4,5,5,6,6],"right_children":[2,4,6,8,10,12,14,-1,-1,-1,-1,-1,-1,-1,-1],"split_conditions":[-7.3817696E1,2.5794222E1,7.1E0,9.056666E0,6.55E0,8E0,1.26E1,-6.762783E-2,-2.040037E-1,-4.824448E-3,1.2618999E-2,-6.0638133E-3,-4.5709483E-2,-6.804054E-2,-1.6214694E-1],"split_indices":[24,23,11,15,8,0,11,0,0,0,0,0,0,0,0],"split_type":[0,0,0,0,0,0,0,0,0,0,0,0,0,0,0],"sum_hessian":[9.41167E5,8.81781E5,5.9386E4,1.6101E4,8.6568E5,4.2429E4,1.6957E4,1.5482E4,6.19E2,4.24333E5,4.41347E5,2.6455E4,1.5974E4,1.3936E4,3.021E3],"tree_param":{"num_deleted":"0","num_feature":"25","num_nodes":"15","size_leaf_vector":"1"}},{"base_weights":[-7.5230625E-4,-1.2943499E-1,6.4027265E-2,-1.0233899E-1,-7.1385974E-1,4.8944283E-2,1.098821E0,-1.06805E-2,1.795852E-1,1.0074684E-3,-1.0806456E-1,6.009366E-4,3.0376252E-2,3.4353486E-1,-3.7489574E-2],"categories":[],"categories_nodes":[],"categories_segments":[],"categories_sizes":[],"default_left":[0,0,1,1,1,0,0,0,0,0,0,0,0,0,0],"id":49,"left_children":[1,3,5,7,9,11,13,-1,-1,-1,-1,-1,-1,-1,-1],"loss_changes":[7.8441177E3,4.989478E3,9.76896E3,5.0217515E3,4.120026E3,7.0149336E3,3.2989215E4,0E0,0E0,0E0,0E0,0E0,0E0,0E0,0E0],"parents":[2147483647,0,0,1,1,2,2,3,3,4,4,5,5,6,6],"right_children":[2,4,6,8,10,12,14,-1,-1,-1,-1,-1,-1,-1,-1],"split_conditions":[5.05E0,1.48E1,2.77E1,6.508333E-1,4.2083334E-2,1.1E1,7E0,-1.06805E-2,1.795852E-1,1.0074684E-3,-1.0806456E-1,6.009366E-4,3.0376252E-2,3.4353486E-1,-3.7489574E-2],"split_indices":[10,7,7,20,20,0,0,0,0,0,0,0,0,0,0],"split_type":[0,0,0,0,0,0,0,0,0,0,0,0,0,0,0],"sum_hessian":[9.4099E5,3.15084E5,6.25906E5,3.01124E5,1.396E4,6.16915E5,8.991E3,2.99831E5,1.293E3,5.026E3,8.934E3,5.31635E5,8.528E4,3.383E3,5.608E3],"tree_param":{"num_deleted":"0","num_feature":"25","num_nodes":"15","size_leaf_vector":"1"}},{"base_weights":[-3.4092017E-4,6.429985E-2,-1.5882489E-1,-1.4936553E-1,1.6165072E-1,-1.490903E-1,-5.2223277E0,-2.562049E-2,1.16260415E-2,-4.8977967E-2,1.7545259E-2,-1.5446192E-2,5.4514277E-1,1.0630162E0,-5.907084E-1],"categories":[],"categories_nodes":[],"categories_segments":[],"categories_sizes":[],"default_left":[0,0,1,0,0,1,0,0,0,0,0,0,0,0,0],"id":50,"left_children":[1,3,5,7,9,11,13,-1,-1,-1,-1,-1,-1,-1,-1],"loss_changes":[9.638891E3,1.3901046E4,1.3434982E4,6.5785674E3,6.2743076E3,1.7661418E4,7.776573E3,0E0,0E0,0E0,0E0,0E0,0E0,0E0,0E0],"parents":[2147483647,0,0,1,1,2,2,3,3,4,4,5,5,6,6],"right_children":[2,4,6,8,10,12,14,-1,-1,-1,-1,-1,-1,-1,-1],"split_conditions":[-8.2793465E1,6.0733333E0,3.6725E1,-1.0365656E2,3.35E0,2.622857E1,1E0,-2.562049E-2,1.16260415E-2,-4.8977967E-2,1.7545259E-2,-1.5446192E-2,5.4514277E-1,1.0630162E0,-5.907084E-1],"split_indices":[24,15,11,24,11,12,1,0,0,0,0,0,0,0,0],"split_type":[0,0,0,0,0,0,0,0,0,0,0,0,0,0,0],"sum_hessian":[9.4088E5,6.68301E5,2.72579E5,2.09184E5,4.59117E5,2.72057E5,5.22E2,1.4614E5,6.3044E4,1.3569E4,4.45548E5,2.71535E5,5.22E2,2.7E1,4.95E2],"tree_param":{"num_deleted":"0","num_feature":"25","num_nodes":"15","size_leaf_vector":"1"}},{"base_weights":[3.7148383E-3,7.923589E-2,-1.12331234E-1,-3.3618113E-1,2.5346196E-1,7.827073E-1,-3.2876268E-1,7.80641E-2,-4.325996E-2,3.5270948E-3,7.045854E-2,2.1692547E-1,3.472567E-2,-6.630135E-2,6.9676855E-5],"categories":[],"categories_nodes":[],"categories_segments":[],"categories_sizes":[],"default_left":[0,0,0,0,0,0,0,0,0,0,0,0,0,0,0],"id":51,"left_children":[1,3,5,7,9,11,13,-1,-1,-1,-1,-1,-1,-1,-1],"loss_changes":[8.2426E3,4.1235715E4,7.1825125E4,2.1744393E4,4.1576312E4,4.4772316E4,3.5335992E4,0E0,0E0,0E0,0E0,0E0,0E0,0E0,0E0],"parents":[2147483647,0,0,1,1,2,2,3,3,4,4,5,5,6,6],"right_children":[2,4,6,8,10,12,14,-1,-1,-1,-1,-1,-1,-1,-1],"split_conditions":[2.07E2,-1.0660468E2,-1.15357086E2,1.8E1,1.4E2,2.41E2,2.79E2,7.80641E-2,-4.325996E-2,3.5270948E-3,7.045854E-2,2.1692547E-1,3.472567E-2,-6.630135E-2,6.9676855E-5],"split_indices":[3,24,24,3,3,3,3,0,0,0,0,0,0,0,0],"split_type":[0,0,0,0,0,0,0,0,0,0,0,0,0,0,0],"sum_hessian":[9.40513E5,5.69737E5,3.70776E5,1.68344E5,4.01393E5,7.2199E4,2.98577E5,1.5069E4,1.53275E5,2.76053E5,1.2534E5,1.613E4,5.6069E4,1.42849E5,1.55728E5],"tree_param":{"num_deleted":"0","num_feature":"25","num_nodes":"15","size_leaf_vector":"1"}},{"base_weights":[6.727649E-3,-4.644839E-2,1.5424699E-1,-6.2020328E-2,2.217586E0,2.8991727E-2,7.7073073E-1,3.0500295E-3,-2.0937873E-2,1.2018787E0,-1.6253904E-2,-1.2089331E-3,1.3238661E-1,4.635516E-2,2.6337957E-1],"categories":[],"categories_nodes":[],"categories_segments":[],"categories_sizes":[],"default_left":[1,1,0,0,0,0,1,0,0,0,0,0,0,0,0],"id":52,"left_children":[1,3,5,7,9,11,13,-1,-1,-1,-1,-1,-1,-1,-1],"loss_changes":[7.38974E3,2.4412035E4,1.927347E4,9.999465E3,1.15729805E5,1.1586546E4,2.3961002E4,0E0,0E0,0E0,0E0,0E0,0E0,0E0,0E0],"parents":[2147483647,0,0,1,1,2,2,3,3,4,4,5,5,6,6],"right_children":[2,4,6,8,10,12,14,-1,-1,-1,-1,-1,-1,-1,-1],"split_conditions":[9.2E0,5.7708335E-1,2.93E2,2.07E2,1.47E2,2.52E1,1.3446667E1,3.0500295E-3,-2.0937873E-2,1.2018787E0,-1.6253904E-2,-1.2089331E-3,1.3238661E-1,4.635516E-2,2.6337957E-1],"split_indices":[9,20,3,3,3,7,15,0,0,0,0,0,0,0,0],"split_type":[0,0,0,0,0,0,0,0,0,0,0,0,0,0,0],"sum_hessian":[9.42027E5,6.92429E5,2.49598E5,6.877E5,4.729E3,2.0745E5,4.2148E4,4.28902E5,2.58798E5,8.92E2,3.837E3,2.01235E5,6.215E3,3.6726E4,5.422E3],"tree_param":{"num_deleted":"0","num_feature":"25","num_nodes":"15","size_leaf_vector":"1"}},{"base_weights":[-6.644041E-3,-6.5964174E-1,6.4053736E-3,-6.300128E-1,-9.5856085E0,7.04541E-2,-1.465007E-1,-6.293121E-2,4.01638E0,-6.588843E-1,-1.2330244E0,-1.2683071E-2,1.3449371E-2,6.676158E-3,-3.643887E-2],"categories":[],"categories_nodes":[],"categories_segments":[],"categories_sizes":[],"default_left":[0,1,0,1,0,0,0,0,0,0,0,0,0,0,0],"id":53,"left_children":[1,3,5,7,9,11,13,-1,-1,-1,-1,-1,-1,-1,-1],"loss_changes":[8.028322E3,4.8757637E3,9.04617E3,1.7906016E4,4.5053564E2,9.089163E3,1.3626888E4,0E0,0E0,0E0,0E0,0E0,0E0,0E0,0E0],"parents":[2147483647,0,0,1,1,2,2,3,3,4,4,5,5,6,6],"right_children":[2,4,6,8,10,12,14,-1,-1,-1,-1,-1,-1,-1,-1],"split_conditions":[-1.4769327E2,2.0103333E1,-8.2793465E1,2.0126377E1,1.7839563E0,8.5E1,1.74E2,-6.293121E-2,4.01638E0,-6.588843E-1,-1.2330244E0,-1.2683071E-2,1.3449371E-2,6.676158E-3,-3.643887E-2],"split_indices":[24,15,24,16,13,3,3,0,0,0,0,0,0,0,0],"split_type":[0,0,0,0,0,0,0,0,0,0,0,0,0,0,0],"sum_hessian":[9.42153E5,1.8458E4,9.23695E5,1.8398E4,6E1,6.51005E5,2.7269E5,1.8389E4,9E0,3.4E1,2.6E1,1.65896E5,4.85109E5,1.41167E5,1.31523E5],"tree_param":{"num_deleted":"0","num_feature":"25","num_nodes":"15","size_leaf_vector":"1"}},{"base_weights":[-4.7891377E-4,2.1302218E-2,-3.2264912E-1,-5.6514955E-1,3.3805452E-2,-2.2364475E-1,-1.1570902E0,-5.658829E-2,9.215262E-1,8.585569E-3,-9.4714435E-3,-2.0013465E-2,-3.5780877E-1,-7.005582E-2,-1.8786041E-1],"categories":[],"categories_nodes":[],"categories_segments":[],"categories_sizes":[],"default_left":[0,0,0,0,0,1,0,0,0,0,0,0,0,0,0],"id":54,"left_children":[1,3,5,7,9,11,13,-1,-1,-1,-1,-1,-1,-1,-1],"loss_changes":[6.60732E3,6.467014E3,4.925724E3,4.110855E3,6.305168E3,2.971617E3,2.15367E3,0E0,0E0,0E0,0E0,0E0,0E0,0E0,0E0],"parents":[2147483647,0,0,1,1,2,2,3,3,4,4,5,5,6,6],"right_children":[2,4,6,8,10,12,14,-1,-1,-1,-1,-1,-1,-1,-1],"split_conditions":[-7.3817696E1,-1.4769327E2,9.589286E0,3.18E1,9E0,8.1166667E-1,8E0,-5.658829E-2,9.215262E-1,8.585569E-3,-9.4714435E-3,-2.0013465E-2,-3.5780877E-1,-7.005582E-2,-1.8786041E-1],"split_indices":[24,24,14,4,0,20,0,0,0,0,0,0,0,0,0],"split_type":[0,0,0,0,0,0,0,0,0,0,0,0,0,0,0],"sum_hessian":[9.41583E5,8.81957E5,5.9626E4,1.841E4,8.63547E5,5.3303E4,6.323E3,1.8371E4,3.9E1,6.08765E5,2.54782E5,5.3061E4,2.42E2,4.099E3,2.224E3],"tree_param":{"num_deleted":"0","num_feature":"25","num_nodes":"15","size_leaf_vector":"1"}},{"base_weights":[5.3183553E-3,-1.03608586E-1,8.4236026E-2,-8.4256E-3,-4.9028465E-1,1.088035E0,1.9755089E-3,2.770522E-2,-7.784144E-3,2.2789521E-2,-5.9131116E-2,6.962133E-3,1.7337592E-1,-5.712256E-2,3.9332104E-3],"categories":[],"categories_nodes":[],"categories_segments":[],"categories_sizes":[],"default_left":[0,0,0,0,0,0,0,0,0,0,0,0,0,0,0],"id":55,"left_children":[1,3,5,7,9,11,13,-1,-1,-1,-1,-1,-1,-1,-1],"loss_changes":[8.0959585E3,1.456266E4,4.509552E4,6.7968574E3,7.0019316E3,2.9872254E4,1.1657701E4,0E0,0E0,0E0,0E0,0E0,0E0,0E0,0E0],"parents":[2147483647,0,0,1,1,2,2,3,3,4,4,5,5,6,6],"right_children":[2,4,6,8,10,12,14,-1,-1,-1,-1,-1,-1,-1,-1],"split_conditions":[1.41E2,4.243414E1,1.56E2,3.3217045E1,2E1,3.796207E1,2.9670025E1,2.770522E-2,-7.784144E-3,2.2789521E-2,-5.9131116E-2,6.962133E-3,1.7337592E-1,-5.712256E-2,3.9332104E-3],"split_indices":[3,23,3,23,3,23,23,0,0,0,0,0,0,0,0],"split_type":[0,0,0,0,0,0,0,0,0,0,0,0,0,0,0],"sum_hessian":[9.41798E5,3.9567E5,5.46128E5,3.17513E5,7.8157E4,4.1364E4,5.04764E5,6.2377E4,2.55136E5,1.1334E4,6.6823E4,1.7031E4,2.4333E4,3.0942E4,4.73822E5],"tree_param":{"num_deleted":"0","num_feature":"25","num_nodes":"15","size_leaf_vector":"1"}},{"base_weights":[7.413027E-3,-1.5941512E-2,3.0057853E-1,-2.3972875E-2,3.132313E0,5.281804E-1,-2.042259E0,-4.3484806E-3,5.152219E-2,4.627092E0,2.7821195E-1,1.20483376E-1,-2.7790627E-2,1.7965104E-1,-2.5777572E-1],"categories":[],"categories_nodes":[],"categories_segments":[],"categories_sizes":[],"default_left":[1,0,0,0,0,0,0,0,0,0,0,0,0,0,0],"id":56,"left_children":[1,3,5,7,9,11,13,-1,-1,-1,-1,-1,-1,-1,-1],"loss_changes":[6.4405596E3,2.2029867E4,3.7011797E4,1.0265657E4,2.4292707E4,3.729504E4,1.5189232E4,0E0,0E0,0E0,0E0,0E0,0E0,0E0,0E0],"parents":[2147483647,0,0,1,1,2,2,3,3,4,4,5,5,6,6],"right_children":[2,4,6,8,10,12,14,-1,-1,-1,-1,-1,-1,-1,-1],"split_conditions":[3E-1,4.11E1,2.2E1,1.7533333E1,2.9E0,7E0,6E0,-4.3484806E-3,5.152219E-2,4.627092E0,2.7821195E-1,1.20483376E-1,-2.7790627E-2,1.7965104E-1,-2.5777572E-1],"split_indices":[20,4,4,4,5,0,0,0,0,0,0,0,0,0,0],"split_type":[0,0,0,0,0,0,0,0,0,0,0,0,0,0,0],"sum_hessian":[9.40673E5,8.71266E5,6.9407E4,8.6905E5,2.216E3,6.3262E4,6.145E3,8.37349E5,3.1701E4,1.1E1,2.205E3,3.3575E4,2.9687E4,8.56E2,5.289E3],"tree_param":{"num_deleted":"0","num_feature":"25","num_nodes":"15","size_leaf_vector":"1"}},{"base_weights":[-4.0152745E-4,7.741551E-2,-9.355403E-2,1.8651538E-2,4.9251202E-1,-8.109164E-2,-1.8514175E0,1.5522835E-3,2.8345218E-1,9.227095E-2,1.8747443E-2,-6.3305944E-3,-9.0558685E-2,-9.3213774E-2,-4.1447046E-1],"categories":[],"categories_nodes":[],"categories_segments":[],"categories_sizes":[],"default_left":[0,0,1,1,0,1,0,0,0,0,0,0,0,0,0],"id":57,"left_children":[1,3,5,7,9,11,13,-1,-1,-1,-1,-1,-1,-1,-1],"loss_changes":[6.8256997E3,1.2514505E4,9.388869E3,3.3424092E3,8.813813E3,5.628343E3,6.5295E3,0E0,0E0,0E0,0E0,0E0,0E0,0E0,0E0],"parents":[2147483647,0,0,1,1,2,2,3,3,4,4,5,5,6,6],"right_children":[2,4,6,8,10,12,14,-1,-1,-1,-1,-1,-1,-1,-1],"split_conditions":[1E-1,1.2033334E1,1.5085092E1,3.0507143E1,-1.1201309E2,2.34E1,8E0,1.5522835E-3,2.8345218E-1,9.227095E-2,1.8747443E-2,-6.3305944E-3,-9.0558685E-2,-9.3213774E-2,-4.1447046E-1],"split_indices":[19,11,13,14,24,10,0,0,0,0,0,0,0,0,0],"split_type":[0,0,0,0,0,0,0,0,0,0,0,0,0,0,0],"sum_hessian":[9.41623E5,5.13042E5,4.28581E5,4.4942E5,6.3622E4,4.25565E5,3.016E3,4.4903E5,3.9E2,2.485E4,3.8772E4,4.18065E5,7.5E3,2.217E3,7.99E2],"tree_param":{"num_deleted":"0","num_feature":"25","num_nodes":"15","size_leaf_vector":"1"}},{"base_weights":[6.118993E-3,-1.4054748E-1,5.7115804E-2,4.3111674E-2,-4.0729812E-1,2.0972131E-1,-7.7465355E-2,1.0051612E-2,-6.0666617E-2,2.6099682E-2,-6.866477E-2,7.538723E-3,7.208946E-2,8.755894E-3,-3.917632E-2],"categories":[],"categories_nodes":[],"categories_segments":[],"categories_sizes":[],"default_left":[0,0,0,1,0,0,1,0,0,0,0,0,0,0,0],"id":58,"left_children":[1,3,5,7,9,11,13,-1,-1,-1,-1,-1,-1,-1,-1],"loss_changes":[7.0386807E3,1.18946875E4,1.4340924E4,5.917529E3,2.0487848E4,2.3162074E4,2.0549408E4,0E0,0E0,0E0,0E0,0E0,0E0,0E0,0E0],"parents":[2147483647,0,0,1,1,2,2,3,3,4,4,5,5,6,6],"right_children":[2,4,6,8,10,12,14,-1,-1,-1,-1,-1,-1,-1,-1],"split_conditions":[8.6E1,5E1,2.07E2,1.2035714E1,3.605266E1,1.82E2,1.10416666E-1,1.0051612E-2,-6.0666617E-2,2.6099682E-2,-6.866477E-2,7.538723E-3,7.208946E-2,8.755894E-3,-3.917632E-2],"split_indices":[3,3,3,14,23,3,20,0,0,0,0,0,0,0,0],"split_type":[0,0,0,0,0,0,0,0,0,0,0,0,0,0,0],"sum_hessian":[9.41058E5,2.42791E5,6.98267E5,1.43791E5,9.9E4,3.27221E5,3.71046E5,1.31802E5,1.1989E4,3.0726E4,6.8274E4,2.62979E5,6.4242E4,2.45474E5,1.25572E5],"tree_param":{"num_deleted":"0","num_feature":"25","num_nodes":"15","size_leaf_vector":"1"}},{"base_weights":[-3.1492438E-3,-1.2948781E-1,4.5962494E-2,-1.4545682E-1,1.5074631E0,1.0840006E-1,-1.0123053E-1,-1.1334841E-2,-1.3290001E-1,1.7368542E-1,-1.1687092E0,-1.870966E-2,1.43511025E-2,-8.691866E-3,-4.6489313E-1],"categories":[],"categories_nodes":[],"categories_segments":[],"categories_sizes":[],"default_left":[0,0,0,0,0,0,1,0,0,0,0,0,0,0,0],"id":59,"left_children":[1,3,5,7,9,11,13,-1,-1,-1,-1,-1,-1,-1,-1],"loss_changes":[5.841265E3,6.888818E3,6.2301934E3,8.963797E3,1.0252324E4,5.833473E3,1.0529077E4,0E0,0E0,0E0,0E0,0E0,0E0,0E0,0E0],"parents":[2147483647,0,0,1,1,2,2,3,3,4,4,5,5,6,6],"right_children":[2,4,6,8,10,12,14,-1,-1,-1,-1,-1,-1,-1,-1],"split_conditions":[4.6E0,6.120586E1,-8.2793465E1,9.688923E0,3.3059525E1,-1.2051228E2,3.6725E1,-1.1334841E-2,-1.3290001E-1,1.7368542E-1,-1.1687092E0,-1.870966E-2,1.43511025E-2,-8.691866E-3,-4.6489313E-1],"split_indices":[10,23,24,16,12,24,11,0,0,0,0,0,0,0,0],"split_type":[0,0,0,0,0,0,0,0,0,0,0,0,0,0,0],"sum_hessian":[9.41423E5,2.63521E5,6.77902E5,2.60976E5,2.545E3,4.75992E5,2.0191E5,2.55216E5,5.76E3,2.492E3,5.3E1,5.6208E4,4.19784E5,2.0144E5,4.7E2],"tree_param":{"num_deleted":"0","num_feature":"25","num_nodes":"15","size_leaf_vector":"1"}},{"base_weights":[-2.69756E-3,-1.04133844E-1,5.5905614E-2,-8.0790386E-2,-8.366379E-1,1.4198847E-1,-4.6062365E-2,-5.7224587E-2,-6.271477E-3,-1.4041534E-1,-3.6736395E-2,6.348471E-3,4.5315415E-2,6.697253E-3,-1.962267E-2],"categories":[],"categories_nodes":[],"categories_segments":[],"categories_sizes":[],"default_left":[1,1,0,0,0,1,0,0,0,0,0,0,0,0,0],"id":60,"left_children":[1,3,5,7,9,11,13,-1,-1,-1,-1,-1,-1,-1,-1],"loss_changes":[5.594982E3,5.893163E3,5.236384E3,2.692842E3,3.006729E3,8.0810024E3,4.97146E3,0E0,0E0,0E0,0E0,0E0,0E0,0E0,0E0],"parents":[2147483647,0,0,1,1,2,2,3,3,4,4,5,5,6,6],"right_children":[2,4,6,8,10,12,14,-1,-1,-1,-1,-1,-1,-1,-1],"split_conditions":[5.15E0,1.3471429E1,1E-1,1.7571429E0,6.6E0,1.1233334E1,2.01E1,-5.7224587E-2,-6.271477E-3,-1.4041534E-1,-3.6736395E-2,6.348471E-3,4.5315415E-2,6.697253E-3,-1.962267E-2],"split_indices":[8,12,19,12,9,11,17,0,0,0,0,0,0,0,0],"split_type":[0,0,0,0,0,0,0,0,0,0,0,0,0,0,0],"sum_hessian":[9.41203E5,3.44649E5,5.96554E5,3.34006E5,1.0643E4,3.23473E5,2.73081E5,9.928E3,3.24078E5,4.505E3,6.138E3,2.62579E5,6.0894E4,1.57535E5,1.15546E5],"tree_param":{"num_deleted":"0","num_feature":"25","num_nodes":"15","size_leaf_vector":"1"}},{"base_weights":[-5.4819505E-3,-1.3791738E-1,3.994142E-2,2.9211935E-2,-3.9885208E-1,1.8482366E-1,-8.482484E-2,9.601972E-3,-5.4851122E-2,1.4898078E-2,-6.251506E-2,-8.587185E-3,4.0923346E-2,8.1553785E-3,-3.5438765E-2],"categories":[],"categories_nodes":[],"categories_segments":[],"categories_sizes":[],"default_left":[0,0,0,1,0,0,1,0,0,0,0,0,0,0,0],"id":61,"left_children":[1,3,5,7,9,11,13,-1,-1,-1,-1,-1,-1,-1,-1],"loss_changes":[5.657654E3,1.0474702E4,1.2658856E4,6.169323E3,1.2965406E4,2.1284717E4,1.8036549E4,0E0,0E0,0E0,0E0,0E0,0E0,0E0,0E0],"parents":[2147483647,0,0,1,1,2,2,3,3,4,4,5,5,6,6],"right_children":[2,4,6,8,10,12,14,-1,-1,-1,-1,-1,-1,-1,-1],"split_conditions":[8.5E1,5.1E1,2.05E2,1.1971429E1,3.605266E1,3.876835E1,1.0125E-1,9.601972E-3,-5.4851122E-2,1.4898078E-2,-6.251506E-2,-8.587185E-3,4.0923346E-2,8.1553785E-3,-3.5438765E-2],"split_indices":[3,3,3,12,23,23,20,0,0,0,0,0,0,0,0],"split_type":[0,0,0,0,0,0,0,0,0,0,0,0,0,0,0],"sum_hessian":[9.40485E5,2.4019E5,7.00295E5,1.46413E5,9.3777E4,3.24026E5,3.76269E5,1.30997E5,1.5416E4,2.9165E4,6.4612E4,1.51252E5,1.72774E5,2.35319E5,1.4095E5],"tree_param":{"num_deleted":"0","num_feature":"25","num_nodes":"15","size_leaf_vector":"1"}},{"base_weights":[1.0873231E-3,-4.0646758E-2,1.4389847E-1,-5.329345E-2,1.7816955E0,2.7889453E-2,7.2075415E-1,-3.720813E-3,-7.976039E-2,1.0718526E0,-3.990782E-2,5.0608492E-3,-1.7617775E-1,4.3682292E-2,1.7568381E-1],"categories":[],"categories_nodes":[],"categories_segments":[],"categories_sizes":[],"default_left":[1,1,0,1,0,1,0,0,0,0,0,0,0,0,0],"id":62,"left_children":[1,3,5,7,9,11,13,-1,-1,-1,-1,-1,-1,-1,-1],"loss_changes":[5.6064976E3,1.6776734E4,1.4235901E4,8.220656E3,1.02896266E5,8.09374E3,1.050043E4,0E0,0E0,0E0,0E0,0E0,0E0,0E0,0E0],"parents":[2147483647,0,0,1,1,2,2,3,3,4,4,5,5,6,6],"right_children":[2,4,6,8,10,12,14,-1,-1,-1,-1,-1,-1,-1,-1],"split_conditions":[9.85E0,5.7708335E-1,2.93E2,1.55E1,1.47E2,5.7708335E-1,1.2035714E1,-3.720813E-3,-7.976039E-2,1.0718526E0,-3.990782E-2,5.0608492E-3,-1.7617775E-1,4.3682292E-2,1.7568381E-1],"split_indices":[9,20,3,14,3,20,14,0,0,0,0,0,0,0,0],"split_type":[0,0,0,0,0,0,0,0,0,0,0,0,0,0,0],"sum_hessian":[9.40671E5,7.27943E5,2.12728E5,7.22927E5,5.016E3,1.77111E5,3.5617E4,7.09472E5,1.3455E4,9.54E2,4.062E3,1.74793E5,2.318E3,2.8662E4,6.955E3],"tree_param":{"num_deleted":"0","num_feature":"25","num_nodes":"15","size_leaf_vector":"1"}},{"base_weights":[1.3532857E-3,1.4472186E-2,-4.433325E-1,-1.6378827E-2,3.4497297E-1,6.243409E-1,-8.488805E-1,4.2660846E-3,-2.5311194E-2,2.1785881E-2,1.5669774E-1,1.6252428E-2,2.57208E-1,-5.6149784E-2,-2.8707373E-1],"categories":[],"categories_nodes":[],"categories_segments":[],"categories_sizes":[],"default_left":[0,0,1,0,0,0,1,0,0,0,0,0,0,0,0],"id":63,"left_children":[1,3,5,7,9,11,13,-1,-1,-1,-1,-1,-1,-1,-1],"loss_changes":[5.4935854E3,9.326536E3,1.1684842E4,1.2493774E4,1.189565E4,6.9209883E3,1.1088957E4,0E0,0E0,0E0,0E0,0E0,0E0,0E0,0E0],"parents":[2147483647,0,0,1,1,2,2,3,3,4,4,5,5,6,6],"right_children":[2,4,6,8,10,12,14,-1,-1,-1,-1,-1,-1,-1,-1],"split_conditions":[3.54E2,3.19E2,2.7916666E-2,2.47E2,1.48E1,3.64E2,6.5176735E0,4.2660846E-3,-2.5311194E-2,2.1785881E-2,1.5669774E-1,1.6252428E-2,2.57208E-1,-5.6149784E-2,-2.8707373E-1],"split_indices":[3,3,20,3,4,3,16,0,0,0,0,0,0,0,0],"split_type":[0,0,0,0,0,0,0,0,0,0,0,0,0,0,0],"sum_hessian":[9.41682E5,9.14698E5,2.6984E4,8.36605E5,7.8093E4,7.428E3,1.9556E4,6.71289E5,1.65316E5,7.146E4,6.633E3,6.075E3,1.353E3,1.7384E4,2.172E3],"tree_param":{"num_deleted":"0","num_feature":"25","num_nodes":"15","size_leaf_vector":"1"}},{"base_weights":[1.3124092E-3,-9.542612E-2,7.138247E-2,-2.4563435E-1,1.3342305E-2,1.4454473E0,2.8313363E-2,2.9751183E-2,-3.3615444E-2,5.746524E-4,4.32424E-1,3.7581107E-1,5.857985E-2,5.7802587E-3,-6.582915E-2],"categories":[],"categories_nodes":[],"categories_segments":[],"categories_sizes":[],"default_left":[0,0,0,0,1,1,1,0,0,0,0,0,0,0,0],"id":64,"left_children":[1,3,5,7,9,11,13,-1,-1,-1,-1,-1,-1,-1,-1],"loss_changes":[6.3857095E3,6.465291E3,3.233187E4,9.504733E3,7.577249E3,3.412752E4,1.1931822E4,0E0,0E0,0E0,0E0,0E0,0E0,0E0,0E0],"parents":[2147483647,0,0,1,1,2,2,3,3,4,4,5,5,6,6],"right_children":[2,4,6,8,10,12,14,-1,-1,-1,-1,-1,-1,-1,-1],"split_conditions":[1.41E2,1.67E1,1.47E2,1.9E1,2.252E1,3.6E0,1.86E1,2.9751183E-2,-3.3615444E-2,5.746524E-4,4.32424E-1,3.7581107E-1,5.857985E-2,5.7802587E-3,-6.582915E-2],"split_indices":[3,18,3,3,15,9,10,0,0,0,0,0,0,0,0],"split_type":[0,0,0,0,0,0,0,0,0,0,0,0,0,0,0],"sum_hessian":[9.42055E5,3.95722E5,5.46333E5,1.662E5,2.29522E5,1.6603E4,5.2973E5,2.6077E4,1.40123E5,2.29145E5,3.77E2,4.224E3,1.2379E4,5.07157E5,2.2573E4],"tree_param":{"num_deleted":"0","num_feature":"25","num_nodes":"15","size_leaf_vector":"1"}},{"base_weights":[-6.374073E-3,-2.8658313E-1,1.4831166E-2,-2.508554E-1,-2.2249763E0,6.434254E-2,-1.0871815E-1,-6.576069E-2,-1.9842226E-2,-2.6267385E-1,9.2214775E-1,-1.5641585E-2,1.16172945E-2,-8.0753E-3,-8.301684E-2],"categories":[],"categories_nodes":[],"categories_segments":[],"categories_sizes":[],"default_left":[0,0,0,0,0,0,1,0,0,0,0,0,0,0,0],"id":65,"left_children":[1,3,5,7,9,11,13,-1,-1,-1,-1,-1,-1,-1,-1],"loss_changes":[5.5913564E3,4.584222E3,5.3512617E3,1.2612073E3,7.098217E3,7.954818E3,4.695718E3,0E0,0E0,0E0,0E0,0E0,0E0,0E0,0E0],"parents":[2147483647,0,0,1,1,2,2,3,3,4,4,5,5,6,6],"right_children":[2,4,6,8,10,12,14,-1,-1,-1,-1,-1,-1,-1,-1],"split_conditions":[2.4E0,9.253782E0,5E0,1.7428571E0,6.120586E1,1E0,1.0197347E1,-6.576069E-2,-1.9842226E-2,-2.6267385E-1,9.2214775E-1,-1.5641585E-2,1.16172945E-2,-8.0753E-3,-8.301684E-2],"split_indices":[8,16,1,14,23,1,16,0,0,0,0,0,0,0,0],"split_type":[0,0,0,0,0,0,0,0,0,0,0,0,0,0,0],"sum_hessian":[9.41003E5,6.6201E4,8.74802E5,6.5004E4,1.197E3,6.24528E5,2.50274E5,6.134E3,5.887E4,1.149E3,4.8E1,1.24092E5,5.00436E5,2.42252E5,8.022E3],"tree_param":{"num_deleted":"0","num_feature":"25","num_nodes":"15","size_leaf_vector":"1"}},{"base_weights":[-6.680168E-3,9.860763E-3,-3.7130433E-1,2.9593136E-3,9.194368E-1,-3.4552315E-1,-4.308713E0,-3.2564244E-4,1.9067365E-1,9.0679514E-1,-8.030362E-2,-2.5941724E-2,-1.2530991E-1,-4.621052E-1,9.740033E-1],"categories":[],"categories_nodes":[],"categories_segments":[],"categories_sizes":[],"default_left":[0,1,1,0,0,1,0,0,0,0,0,0,0,0,0],"id":66,"left_children":[1,3,5,7,9,11,13,-1,-1,-1,-1,-1,-1,-1,-1],"loss_changes":[5.68492E3,5.6601846E3,4.150721E3,1.1205032E4,1.0103976E5,2.9618467E3,1.9125679E3,0E0,0E0,0E0,0E0,0E0,0E0,0E0,0E0],"parents":[2147483647,0,0,1,1,2,2,3,3,4,4,5,5,6,6],"right_children":[2,4,6,8,10,12,14,-1,-1,-1,-1,-1,-1,-1,-1],"split_conditions":[-7.2555115E1,5.7708335E-1,8.1166667E-1,4.11E1,1.47E2,9.173333E0,1.2646782E1,-3.2564244E-4,1.9067365E-1,9.0679514E-1,-8.030362E-2,-2.5941724E-2,-1.2530991E-1,-4.621052E-1,9.740033E-1],"split_indices":[24,20,20,4,3,15,16,0,0,0,0,0,0,0,0],"split_type":[0,0,0,0,0,0,0,0,0,0,0,0,0,0,0],"sum_hessian":[9.4258E5,9.01677E5,4.0903E4,8.94888E5,6.789E3,4.0638E4,2.65E2,8.92027E5,2.861E3,1.161E3,5.628E3,3.763E4,3.008E3,2.57E2,8E0],"tree_param":{"num_deleted":"0","num_feature":"25","num_nodes":"15","size_leaf_vector":"1"}},{"base_weights":[3.5138284E-5,-9.639148E-2,5.360822E-2,-8.130126E-2,-9.248174E-1,4.175455E-3,2.8287923E-1,-6.04289E-3,-6.320241E-2,1.7854038E-1,-1.8052047E-1,9.358203E-3,-5.517099E-2,8.951046E-2,5.3478344E-3],"categories":[],"categories_nodes":[],"categories_segments":[],"categories_sizes":[],"default_left":[0,0,0,0,1,0,0,0,0,0,0,0,0,0,0],"id":67,"left_children":[1,3,5,7,9,11,13,-1,-1,-1,-1,-1,-1,-1,-1],"loss_changes":[4.864882E3,4.204615E3,6.8611865E3,3.5296196E3,1.585074E4,2.6686121E4,1.5770182E4,0E0,0E0,0E0,0E0,0E0,0E0,0E0,0E0],"parents":[2147483647,0,0,1,1,2,2,3,3,4,4,5,5,6,6],"right_children":[2,4,6,8,10,12,14,-1,-1,-1,-1,-1,-1,-1,-1],"split_conditions":[5.25E0,1.0853632E1,2.88E2,3.54E2,2.7916666E-2,2.47E2,-1.0956147E2,-6.04289E-3,-6.320241E-2,1.7854038E-1,-1.8052047E-1,9.358203E-3,-5.517099E-2,8.951046E-2,5.3478344E-3],"split_indices":[10,16,3,3,20,3,24,0,0,0,0,0,0,0,0],"split_type":[0,0,0,0,0,0,0,0,0,0,0,0,0,0,0],"sum_hessian":[9.41733E5,3.36344E5,6.05389E5,3.30328E5,6.016E3,4.98014E5,1.07375E5,3.1997E5,1.0358E4,1.531E3,4.485E3,4.28897E5,6.9117E4,2.7958E4,7.9417E4],"tree_param":{"num_deleted":"0","num_feature":"25","num_nodes":"15","size_leaf_vector":"1"}},{"base_weights":[4.6812077E-3,-8.428533E-2,6.828272E-2,-3.6001208E-1,2.7990691E-2,8.29151E-1,6.1803455E-3,7.979766E-2,-5.1349852E-2,1.9434303E-3,6.137389E-1,5.6026075E-2,8.615047E-1,5.155522E-2,-1.1607663E-2],"categories":[],"categories_nodes":[],"categories_segments":[],"categories_sizes":[],"default_left":[0,0,0,0,1,1,0,0,0,0,0,0,0,0,0],"id":68,"left_children":[1,3,5,7,9,11,13,-1,-1,-1,-1,-1,-1,-1,-1],"loss_changes":[5.330185E3,1.2156773E4,2.5955463E4,2.332792E4,1.3845423E4,8.330217E4,3.400259E4,0E0,0E0,0E0,0E0,0E0,0E0,0E0,0E0],"parents":[2147483647,0,0,1,1,2,2,3,3,4,4,5,5,6,6],"right_children":[2,4,6,8,10,12,14,-1,-1,-1,-1,-1,-1,-1,-1],"split_conditions":[1.4E2,-1.0695593E2,1.55E2,1.8E1,2.0103333E1,5.308333E-1,-1.15357086E2,7.979766E-2,-5.1349852E-2,1.9434303E-3,6.137389E-1,5.6026075E-2,8.615047E-1,5.155522E-2,-1.1607663E-2],"split_indices":[3,24,3,3,15,20,24,0,0,0,0,0,0,0,0],"split_type":[0,0,0,0,0,0,0,0,0,0,0,0,0,0,0],"sum_hessian":[9.41992E5,3.92691E5,5.49301E5,1.13632E5,2.79059E5,4.145E4,5.07851E5,1.4429E4,9.9203E4,2.78716E5,3.43E2,4.0222E4,1.228E3,9.8118E4,4.09733E5],"tree_param":{"num_deleted":"0","num_feature":"25","num_nodes":"15","size_leaf_vector":"1"}},{"base_weights":[-4.723127E-3,5.8310643E-2,-8.021437E-2,3.2936502E-2,7.161801E-1,-7.2364874E-2,-2.383447E0,-8.397403E-3,1.585303E-2,3.767818E-1,-1.2914421E-2,-5.846897E-3,-8.441198E-2,1.725789E-1,-3.0492523E-1],"categories":[],"categories_nodes":[],"categories_segments":[],"categories_sizes":[],"default_left":[0,1,1,0,0,1,0,0,0,0,0,0,0,0,0],"id":69,"left_children":[1,3,5,7,9,11,13,-1,-1,-1,-1,-1,-1,-1,-1],"loss_changes":[4.483004E3,8.570331E3,7.7502236E3,7.8086797E3,5.176619E4,4.0152607E3,4.7491875E3,0E0,0E0,0E0,0E0,0E0,0E0,0E0,0E0],"parents":[2147483647,0,0,1,1,2,2,3,3,4,4,5,5,6,6],"right_children":[2,4,6,8,10,12,14,-1,-1,-1,-1,-1,-1,-1,-1],"split_conditions":[1E-1,3E-1,4.11E1,7E0,6E0,2.52E1,6E0,-8.397403E-3,1.585303E-2,3.767818E-1,-1.2914421E-2,-5.846897E-3,-8.441198E-2,1.725789E-1,-3.0492523E-1],"split_indices":[19,20,5,0,0,10,0,0,0,0,0,0,0,0,0],"split_type":[0,0,0,0,0,0,0,0,0,0,0,0,0,0,0],"sum_hessian":[9.42103E5,5.13413E5,4.2869E5,4.94347E5,1.9066E4,4.27235E5,1.455E3,2.58458E5,2.35889E5,4.008E3,1.5058E4,4.21106E5,6.129E3,2.29E2,1.226E3],"tree_param":{"num_deleted":"0","num_feature":"25","num_nodes":"15","size_leaf_vector":"1"}},{"base_weights":[-7.141044E-3,-2.4843492E-1,1.2126668E-2,-5.4841E-1,1.8789741E-1,2.568001E-1,-2.4594082E-2,6.4170174E-2,-6.493512E-2,1.0132193E-2,7.1264535E-1,-2.615141E-2,7.772466E-2,1.1253586E-2,-2.282307E-2],"categories":[],"categories_nodes":[],"categories_segments":[],"categories_sizes":[],"default_left":[0,0,0,0,0,0,0,0,0,0,0,0,0,0,0],"id":70,"left_children":[1,3,5,7,9,11,13,-1,-1,-1,-1,-1,-1,-1,-1],"loss_changes":[4.3766396E3,9.111537E3,7.8324756E3,6.2800234E3,1.691516E4,3.3026977E4,2.2740334E4,0E0,0E0,0E0,0E0,0E0,0E0,0E0,0E0],"parents":[2147483647,0,0,1,1,2,2,3,3,4,4,5,5,6,6],"right_children":[2,4,6,8,10,12,14,-1,-1,-1,-1,-1,-1,-1,-1],"split_conditions":[-1.2173269E2,2.02E2,-1.15357086E2,1.8E1,3.3059525E1,1.71E2,2.05E2,6.4170174E-2,-6.493512E-2,1.0132193E-2,7.1264535E-1,-2.615141E-2,7.772466E-2,1.1253586E-2,-2.282307E-2],"split_indices":[24,3,24,3,12,3,3,0,0,0,0,0,0,0,0],"split_type":[0,0,0,0,0,0,0,0,0,0,0,0,0,0,0],"sum_hessian":[9.41377E5,6.9611E4,8.71766E5,4.1251E4,2.836E4,1.13761E5,7.58005E5,3.86E3,3.7391E4,2.8039E4,3.21E2,5.8017E4,5.5744E4,4.54955E5,3.0305E5],"tree_param":{"num_deleted":"0","num_feature":"25","num_nodes":"15","size_leaf_vector":"1"}},{"base_weights":[-4.46857E-3,-7.054647E-2,6.553871E-2,-3.274046E-2,-5.2543145E-1,6.150834E-3,4.2164043E-1,-1.7529804E-2,6.7290147E-3,-8.5994646E-2,7.299651E-3,-1.1207318E-3,1.3381486E-1,2.4013499E-2,2.2114511E-1],"categories":[],"categories_nodes":[],"categories_segments":[],"categories_sizes":[],"default_left":[1,1,0,0,0,0,1,0,0,0,0,0,0,0,0],"id":71,"left_children":[1,3,5,7,9,11,13,-1,-1,-1,-1,-1,-1,-1,-1],"loss_changes":[4.354808E3,8.3284375E3,9.666889E3,6.839779E3,8.195807E3,9.628683E3,2.1105611E4,0E0,0E0,0E0,0E0,0E0,0E0,0E0,0E0],"parents":[2147483647,0,0,1,1,2,2,3,3,4,4,5,5,6,6],"right_children":[2,4,6,8,10,12,14,-1,-1,-1,-1,-1,-1,-1,-1],"split_conditions":[6.45E0,5.917013E0,1.1E1,-1.01766945E2,1.01E1,3.721E2,1.3446667E1,-1.7529804E-2,6.7290147E-3,-8.5994646E-2,7.299651E-3,-1.1207318E-3,1.3381486E-1,2.4013499E-2,2.2114511E-1],"split_indices":[9,16,0,24,8,10,15,0,0,0,0,0,0,0,0],"split_type":[0,0,0,0,0,0,0,0,0,0,0,0,0,0,0],"sum_hessian":[9.41388E5,4.84285E5,4.57103E5,4.47125E5,3.716E4,3.91768E5,6.5335E4,1.82183E5,2.64942E5,2.3077E4,1.4083E4,3.86794E5,4.974E3,5.9827E4,5.508E3],"tree_param":{"num_deleted":"0","num_feature":"25","num_nodes":"15","size_leaf_vector":"1"}},{"base_weights":[-3.148995E-3,9.139401E-3,-4.1587663E-1,-2.8391795E-2,2.1100155E-1,-1.2294093E-1,-1.2356297E0,3.0223515E-3,-4.1172672E-2,1.2923526E-2,1.6814168E-1,-1.6360126E-2,8.2146233E-1,-2.0454232E-1,-6.726876E-2],"categories":[],"categories_nodes":[],"categories_segments":[],"categories_sizes":[],"default_left":[0,0,0,0,1,1,0,0,0,0,0,0,0,0,0],"id":72,"left_children":[1,3,5,7,9,11,13,-1,-1,-1,-1,-1,-1,-1,-1],"loss_changes":[4.774118E3,6.925329E3,6.5353604E3,1.836826E4,1.6902566E4,8.1180674E3,3.4143682E3,0E0,0E0,0E0,0E0,0E0,0E0,0E0,0E0],"parents":[2147483647,0,0,1,1,2,2,3,3,4,4,5,5,6,6],"right_children":[2,4,6,8,10,12,14,-1,-1,-1,-1,-1,-1,-1,-1],"split_conditions":[3.54E2,2.9E2,1E1,2.47E2,1.26E1,2.775E1,3E0,3.0223515E-3,-4.1172672E-2,1.2923526E-2,1.6814168E-1,-1.6360126E-2,8.2146233E-1,-2.0454232E-1,-6.726876E-2],"split_indices":[3,3,6,3,15,10,1,0,0,0,0,0,0,0,0],"split_type":[0,0,0,0,0,0,0,0,0,0,0,0,0,0,0],"sum_hessian":[9.41312E5,9.14097E5,2.7215E4,7.70789E5,1.43308E5,2.0051E4,7.164E3,6.70356E5,1.00433E5,1.36466E5,6.842E3,1.9944E4,1.07E2,2.703E3,4.461E3],"tree_param":{"num_deleted":"0","num_feature":"25","num_nodes":"15","size_leaf_vector":"1"}},{"base_weights":[3.708978E-3,-8.843933E-2,7.0542306E-2,-5.902746E-2,-4.806132E-1,1.1450784E0,3.70169E-2,1.065322E-3,-2.1987105E-2,-7.1674705E-2,1.0246516E-2,5.6741558E-2,1.3573836E0,6.0794465E-3,-5.9624508E-2],"categories":[],"categories_nodes":[],"categories_segments":[],"categories_sizes":[],"default_left":[0,0,0,0,1,1,1,0,0,0,0,0,0,0,0],"id":73,"left_children":[1,3,5,7,9,11,13,-1,-1,-1,-1,-1,-1,-1,-1],"loss_changes":[5.79343E3,4.5614194E3,1.9642188E4,4.3599062E3,4.2603125E3,1.1874382E5,9.036462E3,0E0,0E0,0E0,0E0,0E0,0E0,0E0,0E0],"parents":[2147483647,0,0,1,1,2,2,3,3,4,4,5,5,6,6],"right_children":[2,4,6,8,10,12,14,-1,-1,-1,-1,-1,-1,-1,-1],"split_conditions":[1.41E2,1.31E2,1.47E2,4.0072265E0,1.9541667E-1,5.308333E-1,1.925E1,1.065322E-3,-2.1987105E-2,-7.1674705E-2,1.0246516E-2,5.6741558E-2,1.3573836E0,6.0794465E-3,-5.9624508E-2],"split_indices":[3,3,3,16,20,20,10,0,0,0,0,0,0,0,0],"split_type":[0,0,0,0,0,0,0,0,0,0,0,0,0,0,0],"sum_hessian":[9.40707E5,3.95458E5,5.45249E5,3.6787E5,2.7588E4,1.6496E4,5.28753E5,2.60089E5,1.07781E5,1.9049E4,8.539E3,1.5817E4,6.79E2,5.08539E5,2.0214E4],"tree_param":{"num_deleted":"0","num_feature":"25","num_nodes":"15","size_leaf_vector":"1"}},{"base_weights":[-2.7637612E-3,-4.0912226E-2,1.2764485E-1,-4.8479147E-2,1.602481E0,1.5158473E-1,-1.9617484E0,-3.7410986E-3,-6.9836944E-2,8.172582E-1,-9.414748E-2,6.0595465E-3,5.6564715E-2,1.4862889E-1,-2.824096E-1],"categories":[],"categories_nodes":[],"categories_segments":[],"categories_sizes":[],"default_left":[1,1,1,1,0,0,0,0,0,0,0,0,0,0,0],"id":74,"left_children":[1,3,5,7,9,11,13,-1,-1,-1,-1,-1,-1,-1,-1],"loss_changes":[4.680191E3,9.051155E3,1.0650368E4,4.7327485E3,5.918758E4,8.1294707E3,8.1904062E3,0E0,0E0,0E0,0E0,0E0,0E0,0E0,0E0],"parents":[2147483647,0,0,1,1,2,2,3,3,4,4,5,5,6,6],"right_children":[2,4,6,8,10,12,14,-1,-1,-1,-1,-1,-1,-1,-1],"split_conditions":[9.85E0,6.508333E-1,5.7708335E-1,1.6642857E1,1.84E1,2.93E2,1.68E2,-3.7410986E-3,-6.9836944E-2,8.172582E-1,-9.414748E-2,6.0595465E-3,5.6564715E-2,1.4862889E-1,-2.824096E-1],"split_indices":[9,20,20,14,17,3,3,0,0,0,0,0,0,0,0],"split_type":[0,0,0,0,0,0,0,0,0,0,0,0,0,0,0],"sum_hessian":[9.40761E5,7.27845E5,2.12916E5,7.2451E5,3.335E3,2.10505E5,2.411E3,7.14305E5,1.0205E4,9.09E2,2.426E3,1.74872E5,3.5633E4,5.22E2,1.889E3],"tree_param":{"num_deleted":"0","num_feature":"25","num_nodes":"15","size_leaf_vector":"1"}},{"base_weights":[9.512237E-4,1.8851474E-2,-2.8218412E-1,-3.9873373E-2,1.0202168E-1,-3.764442E-1,2.882199E-1,-8.610645E-3,2.4599334E-2,-1.832404E-2,2.940203E-2,-3.1157147E-2,-1.7258671E-1,-3.386928E-2,7.0037946E-2],"categories":[],"categories_nodes":[],"categories_segments":[],"categories_sizes":[],"default_left":[0,0,0,1,0,0,0,0,0,0,0,0,0,0,0],"id":75,"left_children":[1,3,5,7,9,11,13,-1,-1,-1,-1,-1,-1,-1,-1],"loss_changes":[4.7717295E3,4.3250283E3,3.010163E3,7.57804E3,2.1741365E4,3.6113013E3,2.2273413E3,0E0,0E0,0E0,0E0,0E0,0E0,0E0,0E0],"parents":[2147483647,0,0,1,1,2,2,3,3,4,4,5,5,6,6],"right_children":[2,4,6,8,10,12,14,-1,-1,-1,-1,-1,-1,-1,-1],"split_conditions":[-7.329726E1,3.97861E1,2.3E1,1.2E1,1.37E2,1.3257143E1,1.41E2,-8.610645E-3,2.4599334E-2,-1.832404E-2,2.940203E-2,-3.1157147E-2,-1.7258671E-1,-3.386928E-2,7.0037946E-2],"split_indices":[24,23,21,9,3,12,3,0,0,0,0,0,0,0,0],"split_type":[0,0,0,0,0,0,0,0,0,0,0,0,0,0,0],"sum_hessian":[9.41503E5,8.8552E5,5.5983E4,5.19038E5,3.66482E5,4.8044E4,7.939E3,4.44522E5,7.4516E4,1.50273E5,2.16209E5,4.6305E4,1.739E3,3.229E3,4.71E3],"tree_param":{"num_deleted":"0","num_feature":"25","num_nodes":"15","size_leaf_vector":"1"}},{"base_weights":[2.429187E-3,3.3687506E-2,-1.8434732E-1,-1.4602159E-1,6.940893E-2,-7.864639E-2,-3.3781797E-1,-1.60959E-2,1.6760202E-1,7.2198072E-3,-1.2567776E-1,-8.689091E-3,1.2584541E0,6.8594486E-4,-5.6404125E-2],"categories":[],"categories_nodes":[],"categories_segments":[],"categories_sizes":[],"default_left":[0,0,1,1,1,1,1,0,0,0,0,0,0,0,0],"id":76,"left_children":[1,3,5,7,9,11,13,-1,-1,-1,-1,-1,-1,-1,-1],"loss_changes":[5.4971816E3,5.1778345E3,2.1897314E3,5.292622E3,5.0871387E3,1.2090376E4,4.6987983E3,0E0,0E0,0E0,0E0,0E0,0E0,0E0,0E0],"parents":[2147483647,0,0,1,1,2,2,3,3,4,4,5,5,6,6],"right_children":[2,4,6,8,10,12,14,-1,-1,-1,-1,-1,-1,-1,-1],"split_conditions":[6E0,1E0,7.516667E0,2.5266666E1,2.1567858E1,2.09E1,6.0416665E-2,-1.60959E-2,1.6760202E-1,7.2198072E-3,-1.2567776E-1,-8.689091E-3,1.2584541E0,6.8594486E-4,-5.6404125E-2],"split_indices":[1,1,11,11,13,5,20,0,0,0,0,0,0,0,0],"split_type":[0,0,0,0,0,0,0,0,0,0,0,0,0,0,0],"sum_hessian":[9.41567E5,8.06581E5,1.34986E5,1.33742E5,6.72839E5,7.9934E4,5.5052E4,1.3227E5,1.472E3,6.70154E5,2.685E3,7.9865E4,6.9E1,2.2996E4,3.2056E4],"tree_param":{"num_deleted":"0","num_feature":"25","num_nodes":"15","size_leaf_vector":"1"}},{"base_weights":[-2.0170608E-3,5.699051E-2,-8.510685E-2,3.344783E-2,7.8067374E-1,-7.626733E-2,-3.2306552E0,7.7093684E-4,9.6112974E-2,2.821079E-1,-5.8102306E-2,2.0065065E-3,-2.2795713E-2,-1.1776079E-2,-4.4040024E-1],"categories":[],"categories_nodes":[],"categories_segments":[],"categories_sizes":[],"default_left":[0,1,0,0,0,0,1,0,0,0,0,0,0,0,0],"id":77,"left_children":[1,3,5,7,9,11,13,-1,-1,-1,-1,-1,-1,-1,-1],"loss_changes":[4.6178555E3,9.383175E3,1.0874813E4,1.3083008E4,5.153396E4,6.0685796E3,4.5612393E3,0E0,0E0,0E0,0E0,0E0,0E0,0E0,0E0],"parents":[2147483647,0,0,1,1,2,2,3,3,4,4,5,5,6,6],"right_children":[2,4,6,8,10,12,14,-1,-1,-1,-1,-1,-1,-1,-1],"split_conditions":[2E-1,3.2625E-1,4.11E1,2.09E1,1.68E2,2.02E2,1.675E-1,7.7093684E-4,9.6112974E-2,2.821079E-1,-5.8102306E-2,2.0065065E-3,-2.2795713E-2,-1.1776079E-2,-4.4040024E-1],"split_indices":[19,20,4,4,3,3,20,0,0,0,0,0,0,0,0],"split_type":[0,0,0,0,0,0,0,0,0,0,0,0,0,0,0],"sum_hessian":[9.41855E5,5.50739E5,3.91116E5,5.33388E5,1.7351E4,3.90021E5,1.095E3,5.19668E5,1.372E4,6.8E3,1.0551E4,2.42884E5,1.47137E5,3.3E2,7.65E2],"tree_param":{"num_deleted":"0","num_feature":"25","num_nodes":"15","size_leaf_vector":"1"}},{"base_weights":[2.1953464E-3,-1.8387089E-2,2.1994686E-1,2.669775E-2,-1.3381955E-1,1.7404233E-1,3.8195167E0,-1.383286E-2,7.311645E-3,7.873326E-3,-5.0380923E-2,1.8317455E-2,-1.3440785E-1,-4.562229E-2,1.0031484E0],"categories":[],"categories_nodes":[],"categories_segments":[],"categories_sizes":[],"default_left":[0,0,0,0,0,1,0,0,0,0,0,0,0,0,0],"id":78,"left_children":[1,3,5,7,9,11,13,-1,-1,-1,-1,-1,-1,-1,-1],"loss_changes":[4.2205186E3,4.4775664E3,1.3437032E4,5.178636E3,2.0255883E4,2.0184998E3,2.8970957E4,0E0,0E0,0E0,0E0,0E0,0E0,0E0,0E0],"parents":[2147483647,0,0,1,1,2,2,3,3,4,4,5,5,6,6],"right_children":[2,4,6,8,10,12,14,-1,-1,-1,-1,-1,-1,-1,-1],"split_conditions":[2.57E1,-8.2793465E1,2.09E1,5.9E0,1.94E1,1.2646782E1,-8.677389E1,-1.383286E-2,7.311645E-3,7.873326E-3,-5.0380923E-2,1.8317455E-2,-1.3440785E-1,-4.562229E-2,1.0031484E0],"split_indices":[21,